svm_type c_svc
kernel_type rbf
gamma 0.18
nr_class 2
total_sv 19565
rho -0.225083
label 1 -1
nr_sv 12882 6683
SV
0.475394351563238 8:1 109:1 36:1 124:1 56:1 166:1 170:1 16618:1 48799:1 
0.2490679576338998 25:1 92:1 36:1 138:1 64:1 165:1 171:1 24070:1 35533:1 
0.1507093826768744 25:1 109:1 53:1 124:1 56:1 164:1 171:1 3572:1 28301:1 
0.1582742385149477 25:1 96:1 53:1 136:1 81:1 151:1 169:1 3572:1 44249:1 
0.007661955015916201 21:1 96:1 40:1 137:1 69:1 164:1 171:1 19937:1 47895:1 
0.1898614138749162 25:1 96:1 53:1 136:1 80:1 152:1 169:1 19811:1 29697:1 
0.475394351563238 25:1 109:1 53:1 137:1 68:1 152:1 171:1 21446:1 41387:1 
0.475394351563238 25:1 109:1 53:1 124:1 81:1 164:1 170:1 11285:1 44540:1 
0.475394351563238 9:1 109:1 49:1 124:1 60:1 166:1 170:1 24136:1 29810:1 
0.475394351563238 25:1 96:1 37:1 138:1 77:1 165:1 169:1 5081:1 34680:1 
0.3973664934145779 13:1 101:1 46:1 138:1 77:1 157:1 170:1 13457:1 34362:1 
0.475394351563238 13:1 97:1 46:1 115:1 77:1 153:1 173:1 13457:1 44171:1 
0.475394351563238 13:1 97:1 46:1 116:1 77:1 165:1 175:1 13457:1 26747:1 
0.475394351563238 12:1 96:1 30:1 124:1 81:1 166:1 169:1 2468:1 48678:1 
0.475394351563238 25:1 106:1 53:1 138:1 81:1 158:1 170:1 4624:1 37656:1 
0.1762542054035587 12:1 96:1 49:1 115:1 74:1 152:1 170:1 10285:1 48011:1 
0.1361529711601361 17:1 101:1 53:1 116:1 56:1 165:1 170:1 23636:1 38193:1 
0.1240555622314933 25:1 96:1 53:1 116:1 81:1 141:1 171:1 6941:1 40056:1 
0.475394351563238 25:1 102:1 53:1 138:1 56:1 163:1 169:1 4624:1 44509:1 
0.475394351563238 1:1 109:1 53:1 123:1 74:1 162:1 173:1 20207:1 41479:1 
0.475394351563238 25:1 96:1 53:1 112:1 56:1 140:1 171:1 3646:1 33078:1 
0.415902296971545 25:1 96:1 53:1 138:1 56:1 163:1 171:1 5334:1 41194:1 
0.08094401825925279 12:1 96:1 53:1 138:1 81:1 141:1 171:1 16465:1 48776:1 
0.2997371325809845 1:1 85:1 40:1 138:1 68:1 141:1 170:1 19557:1 33742:1 
0.475394351563238 1:1 85:1 40:1 136:1 68:1 152:1 172:1 19557:1 44925:1 
0.2198319820550101 1:1 85:1 36:1 136:1 68:1 152:1 170:1 19029:1 42794:1 
0.475394351563238 8:1 85:1 40:1 138:1 68:1 141:1 176:1 22007:1 42072:1 
0.475394351563238 1:1 85:1 36:1 113:1 68:1 166:1 170:1 17343:1 44316:1 
0.475394351563238 1:1 85:1 29:1 138:1 64:1 140:1 169:1 19587:1 37768:1 
0.3708089508136807 12:1 96:1 49:1 115:1 80:1 152:1 170:1 17078:1 27553:1 
0.2838299939662858 1:1 85:1 40:1 138:1 68:1 140:1 173:1 9484:1 38473:1 
0.2774781392895646 25:1 85:1 40:1 115:1 77:1 152:1 170:1 6662:1 43758:1 
0.475394351563238 1:1 96:1 53:1 138:1 68:1 140:1 171:1 19029:1 36229:1 
0.4666904927619204 25:1 109:1 53:1 112:1 56:1 140:1 170:1 24062:1 48755:1 
0.1193337928066357 12:1 96:1 53:1 116:1 56:1 141:1 172:1 15135:1 40056:1 
0.1045087322202213 21:1 109:1 53:1 113:1 81:1 141:1 171:1 18895:1 34298:1 
0.475394351563238 1:1 85:1 53:1 113:1 77:1 164:1 169:1 6506:1 37864:1 
0.475394351563238 1:1 85:1 53:1 136:1 77:1 152:1 170:1 6506:1 43784:1 
0.475394351563238 25:1 109:1 49:1 124:1 81:1 152:1 177:1 9569:1 43355:1 
0.3330038195226528 25:1 96:1 53:1 115:1 77:1 165:1 171:1 18626:1 29078:1 
0.475394351563238 9:1 92:1 49:1 138:1 56:1 166:1 172:1 21286:1 31430:1 
0.475394351563238 9:1 109:1 49:1 136:1 56:1 152:1 176:1 21286:1 49125:1 
0.475394351563238 12:1 96:1 53:1 138:1 56:1 140:1 169:1 5776:1 43830:1 
0.179946463641094 14:1 98:1 28:1 136:1 56:1 141:1 170:1 12696:1 43414:1 
0.2298229583969619 25:1 101:1 45:1 124:1 77:1 165:1 169:1 24054:1 38193:1 
0.475394351563238 17:1 101:1 50:1 124:1 67:1 144:1 170:1 2031:1 40650:1 
0.475394351563238 17:1 96:1 50:1 116:1 67:1 165:1 171:1 2031:1 36688:1 
0.04127212212817399 25:1 109:1 53:1 128:1 56:1 152:1 174:1 4719:1 29448:1 
0.402622478430724 25:1 96:1 53:1 138:1 81:1 158:1 171:1 4719:1 42376:1 
0.475394351563238 14:1 96:1 53:1 137:1 56:1 152:1 174:1 12571:1 46742:1 
0.3417261740539334 25:1 96:1 53:1 112:1 56:1 140:1 170:1 3706:1 33568:1 
0.01968533551553506 12:1 96:1 53:1 138:1 56:1 165:1 170:1 16080:1 38994:1 
0.475394351563238 12:1 96:1 49:1 138:1 60:1 161:1 169:1 5776:1 47868:1 
0.475394351563238 9:1 96:1 49:1 124:1 68:1 166:1 170:1 20846:1 41430:1 
0.3441019204938544 12:1 96:1 49:1 138:1 68:1 165:1 175:1 5703:1 43183:1 
0.1016412121667744 1:1 85:1 53:1 136:1 68:1 152:1 170:1 8995:1 40883:1 
0.475394351563238 9:1 101:1 40:1 115:1 81:1 157:1 170:1 9631:1 34362:1 
0.475394351563238 9:1 97:1 40:1 137:1 81:1 151:1 173:1 9631:1 26747:1 
0.475394351563238 13:1 97:1 40:1 124:1 68:1 165:1 170:1 5155:1 38186:1 
0.0625735302451851 25:1 109:1 53:1 123:1 56:1 162:1 182:1 22028:1 46757:1 
0.2164256843293046 25:1 96:1 53:1 138:1 56:1 161:1 172:1 13061:1 43848:1 
0.2517870416267458 12:1 96:1 53:1 136:1 77:1 152:1 170:1 5318:1 49352:1 
0.1308898530646335 25:1 109:1 40:1 124:1 68:1 143:1 174:1 15074:1 46568:1 
0.02160006090943204 25:1 109:1 53:1 124:1 68:1 166:1 171:1 21839:1 49395:1 
0.1027675514444266 25:1 96:1 53:1 138:1 81:1 166:1 169:1 24666:1 44228:1 
0.2513778011533522 22:1 95:1 51:1 113:1 56:1 166:1 169:1 12990:1 30212:1 
0.2664172638959441 1:1 92:1 28:1 138:1 56:1 151:1 170:1 6705:1 38476:1 
0.475394351563238 8:1 85:1 29:1 138:1 56:1 152:1 172:1 13747:1 39682:1 
0.475394351563238 1:1 109:1 36:1 123:1 57:1 162:1 171:1 14953:1 28508:1 
0.04135337447796817 25:1 109:1 29:1 123:1 64:1 162:1 177:1 3779:1 27716:1 
0.05308683911709807 25:1 96:1 53:1 138:1 57:1 140:1 172:1 2987:1 34752:1 
0.1868112067745646 12:1 96:1 46:1 116:1 56:1 165:1 171:1 5002:1 33185:1 
0.05980085928107596 21:1 97:1 40:1 133:1 81:1 158:1 171:1 10283:1 33004:1 
0.06990804450800324 12:1 96:1 53:1 138:1 77:1 152:1 170:1 20514:1 49649:1 
0.09827725884511307 12:1 96:1 53:1 138:1 77:1 152:1 172:1 20514:1 26483:1 
0.07225350406530963 12:1 96:1 53:1 138:1 77:1 152:1 174:1 20514:1 42153:1 
0.2139858927731166 12:1 96:1 53:1 115:1 77:1 152:1 176:1 20514:1 37364:1 
0.1985642982312059 12:1 96:1 53:1 138:1 77:1 152:1 178:1 20514:1 48662:1 
0.475394351563238 12:1 96:1 40:1 138:1 81:1 152:1 170:1 23933:1 37564:1 
0.475394351563238 12:1 96:1 40:1 138:1 81:1 152:1 172:1 23933:1 42144:1 
0.475394351563238 12:1 96:1 40:1 137:1 81:1 152:1 174:1 23933:1 26421:1 
0.009855048653194119 21:1 109:1 53:1 115:1 56:1 165:1 169:1 21527:1 49306:1 
0.4149525154616366 25:1 109:1 49:1 124:1 81:1 165:1 170:1 24577:1 46457:1 
0.475394351563238 25:1 109:1 49:1 124:1 81:1 166:1 172:1 24577:1 34877:1 
0.04943922154886416 21:1 97:1 53:1 116:1 56:1 165:1 169:1 22563:1 46065:1 
0.1031540657450782 25:1 96:1 53:1 137:1 81:1 165:1 169:1 10391:1 34101:1 
0.2794140524686259 25:1 109:1 40:1 137:1 68:1 141:1 175:1 18951:1 28450:1 
0.1015319229954809 25:1 108:1 53:1 123:1 56:1 162:1 169:1 15090:1 36741:1 
0.475394351563238 12:1 92:1 53:1 138:1 81:1 140:1 170:1 19559:1 45260:1 
0.475394351563238 8:1 109:1 53:1 124:1 56:1 165:1 172:1 5768:1 26777:1 
0.475394351563238 12:1 96:1 40:1 138:1 77:1 152:1 170:1 16560:1 29549:1 
0.475394351563238 12:1 96:1 40:1 137:1 77:1 152:1 172:1 16560:1 39703:1 
0.1353265966118716 12:1 96:1 53:1 115:1 81:1 152:1 170:1 17463:1 47938:1 
0.06270224409803679 25:1 96:1 53:1 138:1 56:1 165:1 170:1 20529:1 31866:1 
0.1188727404991727 25:1 109:1 53:1 137:1 56:1 152:1 172:1 20529:1 34293:1 
0.475394351563238 12:1 96:1 53:1 124:1 81:1 152:1 169:1 15297:1 45365:1 
0.3574899369425412 25:1 96:1 53:1 138:1 81:1 165:1 173:1 9564:1 31719:1 
0.04320538000445395 25:1 109:1 53:1 124:1 81:1 166:1 170:1 21728:1 30432:1 
0.0785543514732872 21:1 109:1 40:1 124:1 77:1 166:1 169:1 18208:1 34715:1 
0.3514514153380519 12:1 96:1 53:1 115:1 77:1 152:1 170:1 2916:1 27913:1 
0.3821140708383219 12:1 96:1 53:1 136:1 77:1 142:1 172:1 2916:1 37857:1 
0.475394351563238 12:1 109:1 40:1 124:1 56:1 154:1 169:1 24463:1 34172:1 
0.1198937579841563 17:1 101:1 49:1 138:1 81:1 157:1 170:1 11553:1 45358:1 
0.0388371827477593 17:1 101:1 49:1 138:1 81:1 157:1 172:1 11553:1 46277:1 
0.02862690476052583 17:1 101:1 49:1 115:1 81:1 157:1 176:1 11553:1 26111:1 
0.1058502061830441 25:1 101:1 45:1 138:1 73:1 140:1 169:1 8719:1 26760:1 
0.02959754984384255 25:1 109:1 41:1 137:1 77:1 165:1 169:1 21835:1 40628:1 
0.475394351563238 25:1 109:1 53:1 137:1 69:1 166:1 169:1 15899:1 39345:1 
0.2521658052853032 25:1 109:1 53:1 130:1 81:1 153:1 174:1 19145:1 48779:1 
0.05546327139135995 25:1 109:1 53:1 138:1 81:1 140:1 174:1 24050:1 30563:1 
0.1838722809068397 12:1 106:1 53:1 138:1 56:1 152:1 171:1 2446:1 34275:1 
0.2352471664373931 25:1 96:1 40:1 116:1 68:1 165:1 171:1 21988:1 32939:1 
0.475394351563238 12:1 96:1 45:1 136:1 56:1 152:1 170:1 3055:1 38484:1 
0.4302012622348731 12:1 108:1 45:1 124:1 56:1 165:1 171:1 3055:1 29459:1 
0.2277736437161418 25:1 106:1 40:1 137:1 59:1 164:1 171:1 17925:1 38364:1 
0.1863826272500194 25:1 108:1 53:1 138:1 56:1 148:1 169:1 5652:1 36741:1 
0.3661359014889044 25:1 109:1 53:1 138:1 56:1 158:1 179:1 5652:1 42930:1 
0.1569355786602254 25:1 109:1 53:1 124:1 81:1 166:1 176:1 18201:1 30155:1 
0.03143468168434944 25:1 96:1 53:1 138:1 81:1 140:1 169:1 5426:1 44938:1 
0.475394351563238 12:1 109:1 28:1 129:1 56:1 151:1 172:1 7788:1 41479:1 
0.2015703285184611 25:1 106:1 40:1 116:1 77:1 165:1 170:1 7731:1 30884:1 
0.475394351563238 12:1 96:1 40:1 138:1 81:1 141:1 171:1 2391:1 38040:1 
0.09857231206410126 25:1 96:1 53:1 138:1 68:1 144:1 171:1 22461:1 41376:1 
0.475394351563238 12:1 107:1 53:1 136:1 81:1 152:1 170:1 8765:1 48090:1 
0.475394351563238 25:1 96:1 53:1 138:1 56:1 140:1 178:1 4624:1 41754:1 
0.3719757737303915 12:1 96:1 53:1 138:1 81:1 140:1 172:1 11787:1 28288:1 
0.03580800939684444 25:1 96:1 53:1 138:1 56:1 165:1 173:1 17513:1 45161:1 
0.1426733211838435 25:1 96:1 53:1 138:1 56:1 149:1 171:1 5334:1 45454:1 
0.08747351694832978 12:1 96:1 53:1 138:1 81:1 140:1 172:1 20725:1 43762:1 
0.475394351563238 25:1 109:1 49:1 123:1 56:1 162:1 169:1 24026:1 34853:1 
0.2031594618399097 25:1 96:1 53:1 124:1 77:1 166:1 172:1 10124:1 44969:1 
0.1953827170725417 25:1 96:1 53:1 124:1 81:1 166:1 171:1 16261:1 31098:1 
0.475394351563238 12:1 96:1 53:1 138:1 81:1 165:1 169:1 6369:1 44300:1 
0.01222196679968202 25:1 109:1 53:1 138:1 56:1 163:1 171:1 15256:1 29772:1 
0.475394351563238 23:1 96:1 53:1 116:1 81:1 161:1 179:1 22580:1 40026:1 
0.0508138547656329 25:1 109:1 53:1 138:1 56:1 165:1 170:1 13988:1 37549:1 
0.1774961531565384 25:1 109:1 53:1 138:1 56:1 165:1 172:1 13988:1 29503:1 
0.06829518574360947 25:1 109:1 53:1 124:1 56:1 141:1 174:1 13988:1 37110:1 
0.475394351563238 1:1 109:1 53:1 123:1 56:1 166:1 175:1 20898:1 29353:1 
0.02271486174790816 25:1 109:1 53:1 124:1 56:1 161:1 169:1 5440:1 45142:1 
0.475394351563238 1:1 109:1 29:1 138:1 56:1 152:1 171:1 16176:1 41479:1 
0.299976035044179 12:1 96:1 53:1 138:1 57:1 163:1 172:1 20025:1 36158:1 
0.475394351563238 12:1 107:1 40:1 137:1 81:1 165:1 170:1 11429:1 48090:1 
0.2774006772307625 25:1 109:1 53:1 113:1 56:1 166:1 169:1 17910:1 34311:1 
0.3971061774621443 1:1 85:1 53:1 138:1 81:1 141:1 170:1 14207:1 32756:1 
0.1385131307183218 1:1 85:1 53:1 136:1 81:1 152:1 172:1 14207:1 43830:1 
0.001898718032312579 25:1 96:1 53:1 138:1 81:1 165:1 175:1 9582:1 34018:1 
0.1166156446808266 12:1 96:1 53:1 138:1 81:1 165:1 172:1 1454:1 34854:1 
0.475394351563238 25:1 109:1 32:1 113:1 68:1 152:1 169:1 19603:1 29353:1 
0.475394351563238 25:1 96:1 53:1 137:1 60:1 152:1 170:1 4624:1 39213:1 
0.05389429091295011 25:1 109:1 53:1 123:1 56:1 162:1 172:1 23458:1 43624:1 
0.03291956371287007 1:1 109:1 28:1 114:1 56:1 152:1 173:1 19020:1 41479:1 
0.475394351563238 25:1 109:1 53:1 116:1 57:1 141:1 170:1 5782:1 41004:1 
0.06994346011877374 25:1 96:1 53:1 115:1 56:1 165:1 169:1 12054:1 38106:1 
0.03383645811538145 25:1 109:1 53:1 124:1 56:1 166:1 171:1 12054:1 27272:1 
0.04672383996735656 25:1 96:1 53:1 138:1 81:1 140:1 169:1 2543:1 36785:1 
0.475394351563238 13:1 106:1 53:1 124:1 68:1 144:1 169:1 15899:1 31625:1 
0.01778179966433787 25:1 96:1 40:1 116:1 56:1 165:1 171:1 23393:1 41429:1 
0.2211439963544421 25:1 109:1 53:1 136:1 56:1 152:1 170:1 14649:1 27964:1 
0.1350007627735895 25:1 85:1 40:1 136:1 77:1 166:1 170:1 17970:1 31240:1 
0.475394351563238 16:1 100:1 51:1 138:1 81:1 152:1 169:1 5913:1 43911:1 
0.475394351563238 16:1 97:1 51:1 136:1 81:1 152:1 172:1 5913:1 36695:1 
0.04651356287340102 25:1 85:1 41:1 115:1 56:1 142:1 170:1 10756:1 39995:1 
0.3970371735676215 25:1 109:1 53:1 124:1 56:1 165:1 173:1 1484:1 49250:1 
0.1869861452489043 25:1 109:1 53:1 138:1 81:1 161:1 170:1 24521:1 32468:1 
0.135324228059408 21:1 96:1 53:1 115:1 81:1 152:1 169:1 6941:1 31771:1 
0.475394351563238 22:1 85:1 28:1 138:1 56:1 140:1 171:1 17556:1 27297:1 
0.475394351563238 25:1 96:1 53:1 133:1 56:1 152:1 169:1 3646:1 37662:1 
0.3191672792365889 1:1 109:1 28:1 133:1 56:1 158:1 173:1 17605:1 45874:1 
0.05051701173917556 25:1 96:1 53:1 138:1 57:1 144:1 169:1 24649:1 31771:1 
0.475394351563238 1:1 85:1 40:1 138:1 81:1 166:1 173:1 11519:1 42390:1 
0.002499266529143672 12:1 106:1 53:1 138:1 56:1 165:1 170:1 16852:1 47025:1 
0.06831059232794577 12:1 96:1 50:1 124:1 81:1 164:1 171:1 7713:1 35836:1 
0.475394351563238 22:1 96:1 53:1 136:1 78:1 151:1 173:1 8400:1 39213:1 
0.475394351563238 1:1 108:1 53:1 138:1 81:1 143:1 169:1 17253:1 29435:1 
0.1072378426992888 12:1 96:1 53:1 136:1 81:1 152:1 171:1 10285:1 30831:1 
0.4736928046457568 12:1 108:1 53:1 124:1 81:1 164:1 172:1 10285:1 29459:1 
0.365264090014422 12:1 96:1 53:1 138:1 81:1 143:1 171:1 14484:1 33811:1 
0.04722071849650762 25:1 96:1 53:1 115:1 57:1 152:1 170:1 8884:1 35014:1 
0.1160246601212786 12:1 96:1 53:1 138:1 81:1 140:1 171:1 10285:1 35014:1 
0.329821289873006 25:1 85:1 53:1 135:1 56:1 166:1 170:1 10463:1 33566:1 
0.3044075073954515 25:1 109:1 53:1 113:1 56:1 164:1 176:1 10463:1 43222:1 
0.475394351563238 25:1 109:1 53:1 138:1 56:1 152:1 176:1 12037:1 34873:1 
0.475394351563238 1:1 109:1 53:1 124:1 56:1 152:1 173:1 7756:1 41479:1 
0.07571781488217866 25:1 96:1 29:1 138:1 81:1 143:1 170:1 16750:1 33568:1 
0.475394351563238 3:1 96:1 53:1 138:1 57:1 152:1 169:1 5577:1 40206:1 
0.3785787212179467 12:1 96:1 31:1 136:1 81:1 166:1 171:1 15477:1 30162:1 
0.2943362818564658 12:1 108:1 31:1 138:1 81:1 140:1 172:1 15477:1 29459:1 
0.475394351563238 1:1 97:1 28:1 138:1 56:1 157:1 171:1 10167:1 36044:1 
0.475394351563238 25:1 96:1 53:1 138:1 81:1 140:1 169:1 3646:1 28185:1 
0.2085201805560795 25:1 108:1 53:1 113:1 56:1 164:1 169:1 20975:1 36741:1 
0.2210686710234558 25:1 96:1 53:1 138:1 56:1 140:1 175:1 20975:1 26281:1 
0.475394351563238 12:1 98:1 53:1 136:1 56:1 152:1 169:1 21191:1 36966:1 
0.3557654350264246 25:1 109:1 53:1 138:1 56:1 152:1 176:1 5688:1 43600:1 
0.1734002242599254 25:1 109:1 53:1 137:1 56:1 166:1 183:1 5688:1 37994:1 
0.475394351563238 25:1 109:1 49:1 124:1 56:1 166:1 169:1 18878:1 47513:1 
0.1591294279618438 25:1 96:1 53:1 138:1 77:1 144:1 169:1 22784:1 29369:1 
0.475394351563238 3:1 109:1 53:1 116:1 68:1 165:1 171:1 8022:1 27763:1 
0.2322392377534657 25:1 109:1 40:1 137:1 81:1 152:1 170:1 9954:1 39932:1 
0.102245504258214 25:1 109:1 53:1 124:1 68:1 141:1 169:1 15203:1 33442:1 
0.4396220038505134 25:1 96:1 53:1 113:1 81:1 165:1 169:1 8713:1 41502:1 
0.131009237289997 25:1 109:1 53:1 124:1 81:1 166:1 170:1 3663:1 49378:1 
0.001275921791056072 12:1 96:1 49:1 137:1 79:1 165:1 171:1 15239:1 46742:1 
0.0175938245278926 21:1 109:1 40:1 137:1 74:1 149:1 171:1 21663:1 42445:1 
0.3383473619813678 12:1 96:1 52:1 124:1 81:1 152:1 169:1 10145:1 36919:1 
0.1154892179151822 14:1 98:1 28:1 136:1 56:1 165:1 170:1 11683:1 38678:1 
0.475394351563238 11:1 109:1 53:1 123:1 56:1 162:1 176:1 984:1 46757:1 
0.1160458025676412 22:1 95:1 53:1 138:1 67:1 152:1 169:1 11001:1 49374:1 
0.475394351563238 22:1 109:1 53:1 137:1 56:1 152:1 173:1 14111:1 33534:1 
0.475394351563238 9:1 93:1 49:1 123:1 68:1 152:1 170:1 12890:1 46497:1 
0.06405346102452435 25:1 109:1 53:1 129:1 81:1 166:1 173:1 11343:1 36072:1 
0.475394351563238 23:1 96:1 53:1 138:1 56:1 143:1 172:1 17645:1 34775:1 
0.475394351563238 12:1 96:1 51:1 138:1 81:1 166:1 173:1 10046:1 27247:1 
0.05457286836727551 12:1 96:1 52:1 115:1 81:1 157:1 171:1 2762:1 45009:1 
0.475394351563238 17:1 101:1 31:1 124:1 68:1 164:1 170:1 6384:1 31121:1 
0.05535534416027745 12:1 96:1 52:1 136:1 81:1 144:1 176:1 2762:1 36883:1 
0.475394351563238 25:1 96:1 53:1 138:1 56:1 140:1 171:1 15899:1 31497:1 
0.07470191574917998 25:1 109:1 53:1 123:1 56:1 162:1 169:1 13312:1 34053:1 
0.475394351563238 12:1 108:1 53:1 124:1 56:1 152:1 169:1 23107:1 29459:1 
0.1634695921623668 9:1 93:1 53:1 123:1 81:1 152:1 169:1 5536:1 30448:1 
0.03878931392572731 25:1 109:1 53:1 124:1 56:1 166:1 179:1 14695:1 34052:1 
0.2711932285194966 8:1 109:1 28:1 136:1 56:1 151:1 174:1 20814:1 38422:1 
0.475394351563238 25:1 109:1 53:1 137:1 64:1 152:1 170:1 23393:1 49227:1 
0.475394351563238 25:1 96:1 53:1 138:1 81:1 165:1 169:1 19603:1 42629:1 
0.2485040325441827 25:1 108:1 40:1 124:1 81:1 166:1 169:1 9852:1 32460:1 
0.05287245919497784 25:1 109:1 53:1 123:1 68:1 162:1 169:1 24517:1 39186:1 
0.1438103385354212 25:1 96:1 53:1 138:1 68:1 152:1 173:1 24517:1 31567:1 
0.200691985105406 25:1 109:1 53:1 137:1 68:1 141:1 177:1 24517:1 26726:1 
0.04959489892752156 25:1 109:1 53:1 113:1 81:1 164:1 169:1 1997:1 28375:1 
0.475394351563238 25:1 96:1 53:1 138:1 81:1 140:1 171:1 3646:1 47659:1 
0.1269147519980198 25:1 109:1 53:1 123:1 56:1 166:1 175:1 14718:1 44685:1 
0.2459380899809945 12:1 96:1 53:1 138:1 81:1 152:1 171:1 21710:1 46439:1 
0.1661539383564857 12:1 96:1 53:1 136:1 81:1 151:1 174:1 21710:1 32198:1 
0.005741627055131515 21:1 97:1 53:1 138:1 77:1 152:1 175:1 22563:1 48334:1 
0.3670092157521321 17:1 101:1 49:1 137:1 78:1 144:1 170:1 8121:1 43101:1 
0.475394351563238 17:1 96:1 49:1 124:1 77:1 152:1 171:1 12394:1 39959:1 
0.1361659701808997 21:1 109:1 29:1 138:1 81:1 151:1 176:1 10276:1 34583:1 
0.1229875780648738 25:1 109:1 53:1 124:1 56:1 166:1 172:1 18250:1 34877:1 
0.04470906095168695 25:1 109:1 53:1 135:1 81:1 152:1 171:1 10148:1 47311:1 
0.1286493999296898 25:1 96:1 53:1 113:1 56:1 152:1 169:1 16658:1 43848:1 
0.475394351563238 25:1 109:1 53:1 138:1 56:1 140:1 174:1 16658:1 30417:1 
0.1184008134247809 25:1 109:1 32:1 137:1 56:1 152:1 170:1 14984:1 39321:1 
0.2694832513169317 25:1 109:1 53:1 124:1 60:1 153:1 169:1 14592:1 43352:1 
0.475394351563238 25:1 96:1 53:1 125:1 81:1 166:1 169:1 18623:1 37927:1 
0.475394351563238 12:1 95:1 41:1 116:1 68:1 141:1 169:1 9998:1 36544:1 
0.1085593744330919 3:1 96:1 28:1 115:1 56:1 142:1 172:1 19223:1 27491:1 
0.475394351563238 3:1 87:1 28:1 114:1 56:1 152:1 173:1 19223:1 33312:1 
0.475394351563238 3:1 96:1 31:1 138:1 56:1 163:1 170:1 8583:1 44711:1 
0.08946851133829356 25:1 96:1 40:1 138:1 59:1 140:1 172:1 2348:1 48778:1 
0.09187786523966128 12:1 96:1 49:1 138:1 77:1 152:1 171:1 16087:1 40816:1 
0.3528999359028505 12:1 96:1 49:1 138:1 77:1 161:1 174:1 16087:1 40816:1 
0.2404843621191836 12:1 96:1 49:1 136:1 68:1 151:1 171:1 9875:1 42755:1 
0.1695755090683203 21:1 96:1 40:1 136:1 68:1 141:1 177:1 4624:1 40816:1 
0.475394351563238 22:1 109:1 53:1 123:1 56:1 166:1 171:1 23754:1 43624:1 
0.1559737428903954 25:1 96:1 53:1 123:1 56:1 162:1 170:1 3009:1 39266:1 
0.475394351563238 12:1 106:1 53:1 138:1 81:1 163:1 170:1 14537:1 36709:1 
0.1518225747770231 25:1 96:1 53:1 138:1 78:1 143:1 171:1 17062:1 38752:1 
0.2047564516862379 25:1 109:1 40:1 136:1 81:1 166:1 172:1 14159:1 48899:1 
0.475394351563238 12:1 96:1 40:1 124:1 59:1 164:1 169:1 6583:1 31308:1 
0.475394351563238 4:1 109:1 40:1 114:1 68:1 152:1 169:1 21963:1 41479:1 
0.475394351563238 12:1 96:1 40:1 116:1 77:1 165:1 173:1 14484:1 33811:1 
0.1743178456942474 25:1 109:1 53:1 138:1 56:1 161:1 169:1 1877:1 44368:1 
0.475394351563238 12:1 109:1 49:1 124:1 81:1 165:1 170:1 5081:1 40881:1 
0.1755307040601573 25:1 96:1 40:1 137:1 77:1 141:1 169:1 16152:1 31296:1 
0.1275653704474418 21:1 96:1 40:1 138:1 59:1 144:1 173:1 22563:1 42964:1 
0.475394351563238 9:1 93:1 49:1 138:1 81:1 149:1 170:1 6986:1 38482:1 
0.1194164916425508 9:1 93:1 49:1 138:1 81:1 149:1 172:1 6986:1 48334:1 
0.2020740354214205 9:1 93:1 49:1 123:1 81:1 162:1 174:1 6986:1 34293:1 
0.1309333946147781 25:1 96:1 53:1 138:1 56:1 140:1 174:1 7564:1 42697:1 
0.475394351563238 12:1 108:1 28:1 138:1 56:1 140:1 169:1 10318:1 38281:1 
0.4688307135375122 12:1 96:1 53:1 138:1 80:1 165:1 170:1 13651:1 30183:1 
0.2440135894270115 25:1 96:1 53:1 138:1 68:1 152:1 173:1 6662:1 42597:1 
0.475394351563238 8:1 109:1 40:1 134:1 81:1 166:1 171:1 12742:1 36044:1 
0.2394297431792195 25:1 106:1 36:1 138:1 68:1 159:1 169:1 11315:1 31625:1 
0.2058339106268989 25:1 103:1 36:1 138:1 68:1 163:1 171:1 11315:1 29088:1 
0.475394351563238 19:1 108:1 53:1 138:1 64:1 140:1 171:1 4359:1 29435:1 
0.475394351563238 23:1 107:1 53:1 136:1 81:1 152:1 169:1 13624:1 49064:1 
0.475394351563238 25:1 96:1 32:1 116:1 68:1 165:1 169:1 21445:1 31876:1 
0.475394351563238 25:1 109:1 29:1 137:1 56:1 152:1 170:1 2303:1 41387:1 
0.05363378943631211 25:1 109:1 53:1 137:1 57:1 166:1 172:1 16658:1 43926:1 
0.475394351563238 25:1 109:1 53:1 137:1 81:1 165:1 172:1 19197:1 43926:1 
0.1811811572140557 25:1 109:1 53:1 137:1 81:1 166:1 169:1 19197:1 31692:1 
0.0496262675821328 25:1 96:1 53:1 112:1 56:1 140:1 172:1 1774:1 42811:1 
0.475394351563238 25:1 96:1 53:1 138:1 56:1 140:1 169:1 11315:1 32858:1 
0.475394351563238 25:1 96:1 53:1 138:1 56:1 140:1 173:1 3646:1 28996:1 
0.1556063353233906 12:1 96:1 50:1 137:1 56:1 153:1 171:1 23455:1 29852:1 
0.1493344354203889 1:1 109:1 28:1 124:1 56:1 166:1 172:1 14239:1 43355:1 
0.01382483000373227 25:1 85:1 53:1 138:1 56:1 165:1 170:1 8765:1 48533:1 
0.1231335700348812 25:1 109:1 53:1 124:1 56:1 166:1 178:1 8765:1 49108:1 
0.06857079762987249 25:1 96:1 53:1 138:1 81:1 158:1 169:1 24379:1 30463:1 
0.1245967654951745 25:1 109:1 53:1 136:1 81:1 149:1 172:1 24379:1 35623:1 
0.1293545144651392 25:1 108:1 53:1 121:1 81:1 152:1 169:1 10894:1 36741:1 
0.07188308591485385 25:1 96:1 53:1 138:1 81:1 140:1 172:1 10894:1 48834:1 
0.04370738859884262 25:1 109:1 53:1 138:1 56:1 140:1 169:1 16090:1 43610:1 
0.129515649088354 25:1 109:1 53:1 136:1 80:1 152:1 169:1 20707:1 27928:1 
0.475394351563238 12:1 106:1 53:1 138:1 56:1 140:1 172:1 21981:1 37563:1 
0.07603020992479079 25:1 96:1 53:1 135:1 56:1 144:1 170:1 21732:1 33886:1 
0.141594756399088 25:1 96:1 53:1 138:1 56:1 152:1 169:1 16750:1 38107:1 
0.475394351563238 25:1 109:1 53:1 125:1 81:1 165:1 170:1 19493:1 44713:1 
0.06764874298531853 25:1 109:1 53:1 135:1 81:1 163:1 169:1 24123:1 43624:1 
0.3993412794935144 23:1 107:1 53:1 136:1 81:1 152:1 169:1 19133:1 49064:1 
0.475394351563238 23:1 107:1 53:1 114:1 81:1 164:1 169:1 19133:1 49064:1 
0.1580536863538269 25:1 109:1 40:1 124:1 81:1 166:1 175:1 16261:1 31914:1 
0.0459437625021893 25:1 96:1 53:1 138:1 68:1 140:1 169:1 7185:1 40793:1 
0.4672334528029516 25:1 96:1 32:1 124:1 68:1 144:1 169:1 5703:1 34545:1 
0.475394351563238 4:1 96:1 40:1 116:1 81:1 165:1 171:1 22563:1 30616:1 
0.475394351563238 25:1 109:1 49:1 124:1 56:1 163:1 169:1 11183:1 28375:1 
0.04609453057412253 21:1 85:1 32:1 133:1 79:1 163:1 170:1 21671:1 34842:1 
0.1803990770543878 25:1 85:1 53:1 138:1 56:1 165:1 172:1 10844:1 35306:1 
0.475394351563238 12:1 96:1 49:1 124:1 79:1 144:1 169:1 14458:1 30432:1 
0.2348385018956168 25:1 92:1 53:1 138:1 57:1 140:1 170:1 8616:1 27253:1 
0.475394351563238 25:1 97:1 53:1 138:1 56:1 148:1 169:1 11319:1 37804:1 
0.475394351563238 12:1 99:1 40:1 130:1 56:1 165:1 169:1 18198:1 36499:1 
0.4437835269107374 12:1 109:1 28:1 124:1 56:1 166:1 175:1 19994:1 30382:1 
0.2439076357371578 25:1 109:1 53:1 124:1 68:1 152:1 172:1 22595:1 34309:1 
0.3806919995717346 25:1 96:1 53:1 138:1 68:1 161:1 169:1 9683:1 41965:1 
0.0164010760621445 25:1 109:1 40:1 126:1 81:1 164:1 171:1 16249:1 39802:1 
0.1463217347920839 25:1 96:1 53:1 138:1 68:1 163:1 171:1 15073:1 46321:1 
0.4082588140858621 25:1 109:1 53:1 138:1 68:1 140:1 176:1 15073:1 28664:1 
0.03742522278199064 12:1 96:1 53:1 138:1 56:1 165:1 170:1 15743:1 47710:1 
0.475394351563238 22:1 97:1 53:1 138:1 81:1 165:1 169:1 7943:1 46278:1 
0.2517375975689185 12:1 95:1 53:1 138:1 56:1 152:1 169:1 13341:1 36544:1 
0.475394351563238 12:1 98:1 39:1 138:1 68:1 153:1 169:1 13342:1 36453:1 
0.475394351563238 12:1 97:1 39:1 138:1 68:1 144:1 171:1 13342:1 46833:1 
0.1733436874262647 17:1 101:1 28:1 138:1 56:1 157:1 170:1 4669:1 46502:1 
0.475394351563238 17:1 101:1 45:1 136:1 56:1 166:1 170:1 21773:1 30456:1 
0.06107751461071175 25:1 109:1 53:1 136:1 56:1 166:1 179:1 16750:1 30417:1 
0.475394351563238 25:1 108:1 53:1 138:1 81:1 140:1 169:1 5688:1 29435:1 
0.475394351563238 25:1 109:1 49:1 136:1 68:1 163:1 169:1 17755:1 29353:1 
0.3259072385916939 25:1 96:1 40:1 125:1 68:1 166:1 170:1 16990:1 33931:1 
0.475394351563238 12:1 97:1 53:1 138:1 68:1 152:1 169:1 9202:1 48334:1 
0.002902977665141724 21:1 96:1 40:1 133:1 69:1 152:1 170:1 9615:1 41823:1 
0.475394351563238 12:1 109:1 40:1 137:1 68:1 152:1 172:1 2174:1 38692:1 
0.165068340842751 12:1 96:1 53:1 137:1 81:1 144:1 170:1 16981:1 41904:1 
0.3086455505179874 25:1 109:1 40:1 116:1 68:1 165:1 173:1 13963:1 41482:1 
0.1040705527285849 25:1 109:1 53:1 138:1 68:1 140:1 170:1 16753:1 31151:1 
0.475394351563238 18:1 109:1 53:1 130:1 56:1 166:1 171:1 9916:1 41479:1 
0.2217309603985727 25:1 102:1 46:1 138:1 81:1 152:1 169:1 16750:1 28618:1 
0.132887708183453 25:1 109:1 53:1 138:1 74:1 165:1 170:1 20786:1 34195:1 
0.475394351563238 25:1 109:1 53:1 124:1 74:1 164:1 172:1 20786:1 48292:1 
0.074145004610479 25:1 96:1 53:1 138:1 74:1 140:1 176:1 20786:1 45180:1 
0.3293423076419855 25:1 109:1 53:1 135:1 81:1 163:1 171:1 8494:1 32291:1 
0.1873554869854586 25:1 109:1 53:1 125:1 81:1 152:1 171:1 7562:1 43624:1 
0.2442104825424749 25:1 109:1 53:1 138:1 81:1 152:1 176:1 8584:1 31082:1 
0.02838253794292776 25:1 109:1 53:1 130:1 81:1 164:1 175:1 6353:1 32460:1 
0.3983805347493357 25:1 102:1 53:1 136:1 81:1 166:1 169:1 7731:1 45934:1 
0.475394351563238 25:1 108:1 53:1 137:1 56:1 164:1 169:1 8713:1 36741:1 
0.475394351563238 12:1 96:1 40:1 136:1 77:1 152:1 171:1 21437:1 43740:1 
0.009705885898711396 12:1 96:1 52:1 136:1 81:1 152:1 171:1 21437:1 48997:1 
0.4449187641271858 25:1 109:1 53:1 138:1 56:1 166:1 179:1 2295:1 27024:1 
0.2747224945904184 25:1 96:1 53:1 124:1 69:1 143:1 169:1 12026:1 41012:1 
0.475394351563238 12:1 96:1 53:1 115:1 81:1 158:1 169:1 16283:1 39195:1 
0.02948032072293148 25:1 87:1 28:1 113:1 56:1 166:1 175:1 16750:1 30306:1 
0.1809927698395891 1:1 85:1 31:1 136:1 81:1 152:1 170:1 8995:1 49069:1 
0.475394351563238 3:1 96:1 53:1 115:1 56:1 152:1 173:1 5577:1 42039:1 
0.45001913325365 12:1 96:1 31:1 138:1 81:1 140:1 171:1 17310:1 28593:1 
0.475394351563238 12:1 96:1 40:1 115:1 81:1 152:1 170:1 16064:1 43767:1 
0.475394351563238 12:1 96:1 40:1 138:1 68:1 152:1 170:1 19038:1 44137:1 
0.475394351563238 12:1 96:1 40:1 138:1 68:1 152:1 170:1 19408:1 34992:1 
0.475394351563238 12:1 96:1 40:1 136:1 68:1 141:1 171:1 10263:1 43784:1 
0.475394351563238 12:1 109:1 40:1 124:1 68:1 164:1 172:1 5703:1 41353:1 
0.2040153144395351 9:1 93:1 53:1 121:1 56:1 156:1 169:1 9163:1 37129:1 
0.475394351563238 9:1 93:1 37:1 128:1 81:1 166:1 169:1 12400:1 47019:1 
0.475394351563238 14:1 96:1 41:1 137:1 77:1 166:1 169:1 4746:1 42981:1 
0.03160897610765292 12:1 96:1 53:1 124:1 56:1 165:1 169:1 6567:1 35493:1 
0.475394351563238 12:1 96:1 40:1 137:1 77:1 164:1 171:1 17980:1 33715:1 
0.05400829311426231 25:1 96:1 53:1 138:1 56:1 165:1 173:1 10750:1 35258:1 
0.475394351563238 25:1 108:1 53:1 124:1 81:1 148:1 169:1 24026:1 36741:1 
0.475394351563238 14:1 96:1 46:1 125:1 56:1 152:1 169:1 4746:1 42981:1 
0.475394351563238 12:1 106:1 28:1 138:1 56:1 165:1 176:1 17740:1 38364:1 
0.475394351563238 4:1 85:1 28:1 138:1 56:1 140:1 169:1 22429:1 39422:1 
0.07791223106458371 25:1 109:1 53:1 112:1 56:1 152:1 175:1 18931:1 43624:1 
0.03424598322664074 25:1 96:1 53:1 138:1 81:1 140:1 170:1 18895:1 43118:1 
0.1861418353928833 25:1 96:1 53:1 138:1 56:1 144:1 171:1 6663:1 48151:1 
0.475394351563238 18:1 102:1 28:1 138:1 56:1 151:1 172:1 595:1 27344:1 
0.02318470908415142 14:1 98:1 28:1 126:1 56:1 154:1 172:1 17576:1 46830:1 
0.475394351563238 14:1 98:1 42:1 112:1 56:1 140:1 170:1 22101:1 35548:1 
0.4312999729280845 1:1 85:1 53:1 138:1 56:1 163:1 170:1 10237:1 32688:1 
0.475394351563238 1:1 88:1 53:1 137:1 56:1 141:1 176:1 10237:1 35222:1 
0.475394351563238 4:1 85:1 29:1 138:1 81:1 140:1 170:1 10493:1 28904:1 
0.003395999736607272 25:1 109:1 53:1 135:1 56:1 164:1 174:1 22028:1 46757:1 
0.006786763979810398 25:1 109:1 53:1 136:1 81:1 166:1 169:1 11843:1 40628:1 
0.195031513871873 25:1 108:1 53:1 138:1 81:1 163:1 170:1 11843:1 29435:1 
0.475394351563238 12:1 85:1 28:1 112:1 56:1 140:1 172:1 8800:1 29964:1 
0.2551617778319041 25:1 109:1 53:1 112:1 56:1 140:1 176:1 12764:1 27092:1 
0.2495650898729695 21:1 109:1 42:1 137:1 81:1 140:1 169:1 18895:1 47501:1 
0.475394351563238 12:1 109:1 28:1 129:1 56:1 166:1 171:1 8523:1 35324:1 
0.2258814484536292 12:1 96:1 53:1 125:1 73:1 165:1 171:1 9730:1 35334:1 
0.01445751867178871 25:1 96:1 45:1 138:1 81:1 140:1 181:1 16750:1 35334:1 
0.08349500624388848 25:1 96:1 53:1 124:1 81:1 166:1 169:1 21071:1 45778:1 
0.2147725077805806 21:1 109:1 53:1 116:1 81:1 165:1 171:1 22200:1 28469:1 
0.205222404248362 25:1 109:1 53:1 124:1 56:1 141:1 170:1 21728:1 45133:1 
0.09741939748454574 25:1 96:1 53:1 138:1 81:1 140:1 171:1 20404:1 36639:1 
0.204580081247034 12:1 96:1 53:1 136:1 81:1 152:1 170:1 13009:1 45381:1 
0.04001960375769869 12:1 108:1 53:1 124:1 81:1 166:1 171:1 13009:1 29459:1 
0.0368187888244536 25:1 96:1 53:1 138:1 56:1 161:1 175:1 15381:1 48102:1 
0.4195456054021676 14:1 98:1 49:1 136:1 68:1 152:1 170:1 12270:1 44915:1 
0.1044195952709807 14:1 108:1 49:1 124:1 68:1 156:1 171:1 12270:1 29459:1 
0.023998249967203 21:1 96:1 40:1 128:1 81:1 165:1 173:1 18208:1 42981:1 
0.1145580200930656 25:1 96:1 53:1 138:1 81:1 140:1 171:1 10814:1 30014:1 
0.1302334091966146 12:1 96:1 53:1 138:1 56:1 156:1 173:1 17026:1 48004:1 
0.475394351563238 12:1 96:1 40:1 138:1 81:1 140:1 174:1 23275:1 48708:1 
0.0413843447866214 25:1 96:1 53:1 112:1 56:1 140:1 173:1 4041:1 34683:1 
0.475394351563238 1:1 85:1 53:1 138:1 81:1 140:1 170:1 20472:1 43753:1 
0.475394351563238 12:1 108:1 28:1 137:1 56:1 152:1 172:1 12931:1 29540:1 
0.02919078298011926 12:1 96:1 49:1 125:1 81:1 148:1 172:1 23891:1 44768:1 
0.1635173157173778 8:1 109:1 28:1 123:1 56:1 162:1 169:1 20695:1 28375:1 
0.2226099773491761 25:1 109:1 53:1 138:1 56:1 140:1 173:1 15917:1 44349:1 
0.3271703404802302 25:1 96:1 53:1 136:1 81:1 152:1 170:1 5703:1 27794:1 
0.4267954022498662 1:1 85:1 53:1 136:1 68:1 152:1 170:1 18277:1 37907:1 
0.1064331063058892 25:1 109:1 53:1 114:1 56:1 152:1 169:1 19520:1 28183:1 
0.475394351563238 12:1 96:1 40:1 116:1 81:1 165:1 170:1 4554:1 32398:1 
0.321150292253696 25:1 96:1 53:1 136:1 68:1 152:1 170:1 11273:1 32153:1 
0.04511412295841019 25:1 96:1 40:1 138:1 81:1 166:1 174:1 23430:1 47988:1 
0.1694531717325264 21:1 109:1 53:1 138:1 56:1 155:1 170:1 21966:1 48694:1 
0.475394351563238 25:1 109:1 49:1 136:1 81:1 151:1 172:1 23965:1 48675:1 
0.02107411801014458 21:1 109:1 50:1 136:1 81:1 152:1 172:1 21527:1 43647:1 
0.1305276507188499 25:1 96:1 40:1 137:1 77:1 166:1 169:1 5653:1 38994:1 
0.3524763578746442 25:1 96:1 53:1 138:1 81:1 144:1 171:1 6575:1 32153:1 
0.2993512922436005 25:1 96:1 53:1 138:1 68:1 166:1 171:1 20361:1 47988:1 
0.05899533994846516 25:1 96:1 53:1 138:1 56:1 144:1 173:1 1857:1 37846:1 
0.09311850981393417 25:1 96:1 53:1 136:1 81:1 157:1 170:1 17063:1 41476:1 
0.04138718409347622 25:1 96:1 53:1 115:1 81:1 152:1 175:1 1857:1 29283:1 
0.05517044621925162 12:1 96:1 53:1 136:1 81:1 166:1 170:1 4554:1 31868:1 
0.475394351563238 19:1 96:1 53:1 115:1 56:1 153:1 176:1 7688:1 42439:1 
0.475394351563238 12:1 109:1 47:1 138:1 81:1 144:1 178:1 17710:1 35527:1 
0.4232394890033794 25:1 109:1 53:1 137:1 68:1 141:1 169:1 18250:1 36545:1 
0.3234803429465355 25:1 96:1 53:1 138:1 81:1 140:1 171:1 11816:1 29283:1 
0.370973020663418 25:1 109:1 53:1 116:1 56:1 152:1 171:1 20648:1 43624:1 
0.03428625136770185 25:1 96:1 53:1 138:1 81:1 140:1 170:1 18895:1 35426:1 
0.08039723454633119 25:1 109:1 53:1 130:1 56:1 158:1 169:1 5083:1 48236:1 
0.2931890660419241 25:1 109:1 53:1 136:1 56:1 151:1 173:1 5083:1 28588:1 
0.475394351563238 25:1 108:1 53:1 123:1 81:1 162:1 169:1 3859:1 29435:1 
0.475394351563238 22:1 106:1 52:1 124:1 81:1 153:1 170:1 13635:1 31625:1 
0.475394351563238 12:1 97:1 52:1 136:1 81:1 152:1 169:1 22449:1 36044:1 
0.07317340572554483 25:1 109:1 53:1 124:1 56:1 164:1 171:1 21859:1 32710:1 
0.475394351563238 25:1 109:1 53:1 116:1 81:1 165:1 176:1 7981:1 41479:1 
0.475394351563238 25:1 109:1 53:1 124:1 81:1 152:1 170:1 16750:1 47363:1 
0.01414078684686704 25:1 109:1 29:1 138:1 56:1 163:1 170:1 15106:1 39186:1 
0.475394351563238 25:1 109:1 29:1 138:1 56:1 152:1 176:1 15106:1 40815:1 
0.4524089503911524 25:1 109:1 53:1 138:1 57:1 140:1 172:1 16086:1 29173:1 
0.475394351563238 22:1 106:1 28:1 123:1 56:1 166:1 170:1 22296:1 34505:1 
0.340507522090269 22:1 95:1 28:1 138:1 56:1 166:1 171:1 22296:1 30212:1 
0.475394351563238 1:1 96:1 40:1 124:1 81:1 165:1 170:1 6705:1 29500:1 
0.08916647313271907 25:1 96:1 53:1 138:1 81:1 166:1 169:1 11285:1 44729:1 
0.475394351563238 12:1 107:1 49:1 137:1 79:1 164:1 170:1 16064:1 42371:1 
0.0470183843994881 25:1 109:1 51:1 135:1 68:1 166:1 178:1 7247:1 29171:1 
0.2015561630839321 25:1 107:1 53:1 138:1 79:1 161:1 169:1 4442:1 48086:1 
0.2280857744414482 25:1 109:1 53:1 123:1 79:1 165:1 175:1 4442:1 30212:1 
0.475394351563238 25:1 109:1 53:1 115:1 81:1 165:1 170:1 5483:1 36306:1 
0.07245362885733914 25:1 109:1 53:1 138:1 81:1 143:1 170:1 11577:1 26151:1 
0.475394351563238 3:1 109:1 53:1 115:1 81:1 165:1 170:1 15998:1 39435:1 
0.0428248211686655 25:1 109:1 31:1 138:1 81:1 140:1 170:1 14706:1 42340:1 
0.01150263707010647 21:1 92:1 53:1 137:1 81:1 163:1 170:1 18895:1 35203:1 
0.475394351563238 25:1 109:1 49:1 138:1 74:1 158:1 169:1 6415:1 30409:1 
0.475394351563238 25:1 109:1 49:1 138:1 74:1 152:1 173:1 6415:1 38758:1 
0.475394351563238 25:1 109:1 49:1 138:1 74:1 161:1 176:1 6415:1 34130:1 
0.475394351563238 21:1 109:1 53:1 138:1 81:1 152:1 171:1 4624:1 30852:1 
0.475394351563238 25:1 109:1 49:1 136:1 81:1 166:1 171:1 6123:1 42142:1 
0.08702849093714749 25:1 96:1 53:1 138:1 81:1 140:1 171:1 21877:1 35042:1 
0.475394351563238 25:1 96:1 53:1 138:1 80:1 140:1 169:1 3646:1 48723:1 
0.1409144177885662 25:1 105:1 53:1 137:1 81:1 153:1 169:1 5829:1 47292:1 
0.01038003333604695 21:1 109:1 53:1 115:1 81:1 165:1 173:1 22563:1 48057:1 
0.475394351563238 25:1 109:1 49:1 138:1 81:1 144:1 170:1 23328:1 38750:1 
0.475394351563238 8:1 92:1 53:1 138:1 81:1 165:1 169:1 21903:1 36024:1 
0.475394351563238 8:1 109:1 53:1 120:1 81:1 164:1 171:1 21903:1 31531:1 
0.3105719276727619 25:1 92:1 53:1 138:1 56:1 144:1 171:1 24010:1 27429:1 
0.3377476505193776 25:1 109:1 53:1 124:1 56:1 151:1 175:1 24010:1 36508:1 
0.1606786305283581 25:1 96:1 53:1 138:1 81:1 140:1 173:1 11779:1 34311:1 
0.475394351563238 25:1 109:1 53:1 123:1 56:1 162:1 171:1 24690:1 34868:1 
0.03388387257197958 25:1 96:1 53:1 138:1 81:1 140:1 174:1 10139:1 36194:1 
0.475394351563238 12:1 96:1 45:1 124:1 74:1 152:1 169:1 16789:1 43738:1 
0.06530375377825162 25:1 96:1 53:1 138:1 81:1 161:1 173:1 23507:1 37148:1 
0.0386534038658715 25:1 105:1 40:1 124:1 81:1 166:1 170:1 24184:1 47292:1 
0.37624882865758 25:1 108:1 28:1 116:1 56:1 141:1 169:1 3527:1 29435:1 
0.475394351563238 24:1 85:1 53:1 138:1 56:1 165:1 170:1 4706:1 27752:1 
0.3488073101386047 25:1 85:1 29:1 138:1 80:1 143:1 170:1 11422:1 44931:1 
0.2433230109061108 25:1 96:1 53:1 138:1 56:1 165:1 170:1 4132:1 29710:1 
0.02622322794667757 25:1 108:1 53:1 138:1 56:1 163:1 169:1 10740:1 48971:1 
0.475394351563238 25:1 109:1 49:1 136:1 68:1 141:1 170:1 22634:1 29876:1 
0.475394351563238 12:1 96:1 40:1 138:1 81:1 166:1 169:1 15291:1 30603:1 
0.0864334145090833 21:1 96:1 40:1 116:1 57:1 165:1 170:1 18208:1 40163:1 
0.3139523381442463 25:1 85:1 29:1 138:1 56:1 165:1 178:1 5136:1 26601:1 
0.3045589425236704 1:1 85:1 53:1 138:1 57:1 140:1 173:1 1872:1 34190:1 
0.06348364631393098 12:1 96:1 53:1 138:1 56:1 140:1 170:1 7185:1 44228:1 
0.0614018048027096 25:1 96:1 53:1 138:1 56:1 165:1 171:1 9323:1 36883:1 
0.4374076656021487 25:1 96:1 53:1 138:1 81:1 165:1 171:1 7179:1 49306:1 
0.05372166632668646 12:1 96:1 53:1 138:1 81:1 140:1 170:1 16246:1 34861:1 
0.09888230336933709 25:1 96:1 53:1 137:1 81:1 165:1 171:1 12505:1 40102:1 
0.475394351563238 25:1 109:1 53:1 137:1 81:1 166:1 172:1 12505:1 35500:1 
0.2891517723318484 12:1 107:1 53:1 138:1 56:1 144:1 169:1 9822:1 48097:1 
0.194512099309136 25:1 96:1 53:1 138:1 79:1 158:1 171:1 12154:1 29069:1 
0.2910007328867654 25:1 109:1 53:1 136:1 79:1 157:1 175:1 12154:1 28570:1 
0.475394351563238 8:1 109:1 53:1 138:1 56:1 148:1 171:1 9459:1 31771:1 
0.390572117227755 25:1 92:1 36:1 138:1 81:1 148:1 170:1 7042:1 46266:1 
0.475394351563238 8:1 92:1 53:1 138:1 64:1 140:1 170:1 21537:1 46267:1 
0.0360544872358358 25:1 109:1 53:1 138:1 56:1 166:1 170:1 16642:1 32310:1 
0.1016205026062645 25:1 109:1 53:1 120:1 56:1 164:1 172:1 18356:1 32237:1 
0.475394351563238 18:1 102:1 49:1 138:1 56:1 161:1 170:1 9979:1 34705:1 
0.1130514055818798 25:1 109:1 46:1 124:1 77:1 164:1 171:1 5528:1 31908:1 
0.07064024660396299 25:1 96:1 53:1 136:1 74:1 152:1 169:1 7179:1 48003:1 
0.07597281855294892 25:1 85:1 53:1 123:1 68:1 152:1 169:1 6802:1 39648:1 
0.3666657305089508 25:1 109:1 53:1 137:1 68:1 165:1 174:1 6802:1 28422:1 
0.1806431176764043 25:1 109:1 40:1 113:1 81:1 164:1 169:1 16750:1 46757:1 
0.1341884718699735 21:1 109:1 40:1 113:1 56:1 161:1 169:1 21966:1 49227:1 
0.4329535521827653 25:1 85:1 49:1 133:1 68:1 165:1 169:1 24498:1 31434:1 
0.20030168194923 21:1 109:1 29:1 113:1 81:1 164:1 169:1 4624:1 39774:1 
0.03577987791317855 25:1 85:1 49:1 136:1 57:1 165:1 169:1 15045:1 29483:1 
0.1320267845227593 25:1 109:1 29:1 138:1 81:1 140:1 179:1 23249:1 30558:1 
0.1580186043054446 21:1 96:1 40:1 115:1 77:1 159:1 173:1 21966:1 45641:1 
0.0738624851406442 12:1 96:1 49:1 116:1 68:1 165:1 171:1 20912:1 28378:1 
0.07635003661569273 25:1 109:1 40:1 138:1 68:1 140:1 169:1 3647:1 30421:1 
0.001035103633262766 25:1 96:1 40:1 138:1 80:1 161:1 169:1 7581:1 28949:1 
0.2416614669593921 25:1 109:1 40:1 136:1 80:1 141:1 173:1 7581:1 31923:1 
0.475394351563238 8:1 109:1 53:1 138:1 56:1 149:1 177:1 17559:1 38668:1 
0.4633961875566621 25:1 108:1 53:1 123:1 64:1 162:1 169:1 17916:1 36741:1 
0.2634901515395756 24:1 85:1 53:1 138:1 81:1 165:1 170:1 4684:1 32891:1 
0.01668584290562773 25:1 96:1 29:1 138:1 80:1 140:1 171:1 12603:1 30977:1 
0.3162061570169088 25:1 96:1 53:1 138:1 56:1 140:1 170:1 6567:1 48269:1 
0.475394351563238 12:1 106:1 53:1 138:1 56:1 144:1 172:1 12479:1 40030:1 
0.1972141489073523 21:1 109:1 32:1 137:1 78:1 151:1 170:1 1618:1 30781:1 
0.3177637452474615 25:1 108:1 53:1 124:1 78:1 144:1 169:1 3864:1 36741:1 
0.06634511517475135 25:1 96:1 53:1 138:1 78:1 140:1 175:1 3864:1 33963:1 
0.2427013345857619 12:1 106:1 53:1 138:1 56:1 140:1 170:1 19035:1 38840:1 
0.475394351563238 1:1 108:1 53:1 138:1 56:1 140:1 169:1 10577:1 29435:1 
0.4268044186119163 25:1 109:1 53:1 135:1 56:1 166:1 170:1 6134:1 44712:1 
0.06081632313162697 12:1 96:1 39:1 124:1 81:1 165:1 171:1 10676:1 44488:1 
0.1987181081095997 25:1 109:1 53:1 116:1 68:1 141:1 170:1 16658:1 35321:1 
0.2998352720723166 12:1 93:1 28:1 124:1 56:1 161:1 170:1 3647:1 32269:1 
0.475394351563238 25:1 109:1 53:1 138:1 56:1 144:1 172:1 13432:1 49306:1 
0.05833092877422335 25:1 96:1 53:1 138:1 81:1 165:1 170:1 6571:1 30611:1 
0.2421027892560224 25:1 109:1 53:1 124:1 81:1 152:1 172:1 6571:1 34399:1 
0.0080775568081393 25:1 96:1 53:1 138:1 81:1 165:1 170:1 9670:1 46292:1 
0.2334394217895136 25:1 109:1 53:1 114:1 81:1 152:1 172:1 9670:1 36002:1 
0.1358865549957618 25:1 109:1 53:1 114:1 81:1 152:1 172:1 11273:1 34241:1 
0.3413088872062707 25:1 96:1 53:1 138:1 81:1 140:1 170:1 9512:1 44852:1 
0.2997909612200686 25:1 109:1 53:1 136:1 69:1 152:1 169:1 22014:1 31973:1 
0.2478950270824345 25:1 109:1 53:1 124:1 81:1 141:1 172:1 3220:1 36249:1 
0.258401497173663 25:1 96:1 53:1 113:1 81:1 151:1 169:1 11520:1 34477:1 
0.03679062402035944 12:1 106:1 53:1 138:1 81:1 140:1 171:1 9748:1 47025:1 
0.1481809002061522 4:1 109:1 28:1 113:1 56:1 166:1 177:1 13524:1 35120:1 
0.475394351563238 12:1 96:1 40:1 124:1 68:1 158:1 171:1 9077:1 31629:1 
0.1726613294044282 25:1 108:1 53:1 124:1 56:1 151:1 169:1 2863:1 36741:1 
0.2609284798927203 25:1 109:1 53:1 137:1 56:1 149:1 174:1 19904:1 38041:1 
0.1066427672687687 25:1 109:1 53:1 121:1 81:1 166:1 169:1 13312:1 47868:1 
0.0575136528877158 25:1 108:1 53:1 127:1 56:1 149:1 169:1 18206:1 36741:1 
0.08210891534357134 12:1 96:1 53:1 138:1 81:1 140:1 171:1 23985:1 47993:1 
0.2829172080019146 4:1 109:1 40:1 114:1 77:1 152:1 169:1 17846:1 41479:1 
0.008764743745922234 12:1 96:1 31:1 116:1 56:1 165:1 170:1 15878:1 46439:1 
0.475394351563238 25:1 109:1 53:1 130:1 56:1 166:1 171:1 17933:1 41479:1 
0.1659342181363515 25:1 102:1 53:1 138:1 81:1 140:1 169:1 16750:1 44975:1 
0.3884706702990028 25:1 96:1 32:1 115:1 70:1 144:1 169:1 8587:1 41592:1 
0.03141056483721047 25:1 109:1 53:1 138:1 56:1 140:1 170:1 15897:1 41504:1 
0.07520932619969276 25:1 96:1 53:1 136:1 56:1 166:1 172:1 17738:1 28828:1 
0.2276826991166257 12:1 96:1 53:1 133:1 81:1 141:1 172:1 13799:1 40990:1 
0.02543121291624876 21:1 97:1 41:1 138:1 77:1 144:1 174:1 22563:1 44332:1 
0.0008320933766563896 25:1 96:1 53:1 138:1 81:1 140:1 171:1 8884:1 41562:1 
0.475394351563238 12:1 109:1 49:1 124:1 68:1 152:1 170:1 5703:1 31304:1 
0.475394351563238 25:1 96:1 53:1 138:1 56:1 161:1 171:1 16615:1 48269:1 
0.475394351563238 25:1 109:1 49:1 138:1 68:1 165:1 170:1 16261:1 34311:1 
0.475394351563238 25:1 109:1 49:1 138:1 68:1 165:1 172:1 16261:1 37033:1 
0.475394351563238 25:1 109:1 49:1 136:1 68:1 163:1 174:1 16261:1 44706:1 
0.2395101621208233 12:1 96:1 53:1 116:1 56:1 144:1 170:1 9305:1 48861:1 
0.07166625280224309 25:1 109:1 53:1 124:1 56:1 152:1 176:1 8884:1 30873:1 
0.04472628875055246 25:1 96:1 53:1 138:1 81:1 143:1 175:1 6144:1 36496:1 
0.04973419799099093 25:1 109:1 53:1 138:1 81:1 140:1 182:1 6144:1 39196:1 
0.01961038976743755 21:1 109:1 40:1 138:1 56:1 165:1 171:1 1499:1 27494:1 
0.2521225561626198 25:1 109:1 53:1 124:1 68:1 152:1 172:1 5671:1 45155:1 
0.475394351563238 12:1 96:1 53:1 138:1 56:1 140:1 169:1 5891:1 30611:1 
0.3852518049238474 25:1 96:1 32:1 138:1 56:1 165:1 169:1 22496:1 48990:1 
0.3409343910309355 25:1 109:1 32:1 135:1 56:1 165:1 171:1 22496:1 41387:1 
0.05867212208141052 25:1 107:1 53:1 137:1 60:1 166:1 169:1 16658:1 48086:1 
0.04469123322201438 25:1 108:1 53:1 123:1 56:1 162:1 169:1 14722:1 32460:1 
0.1810424190395707 25:1 96:1 53:1 138:1 56:1 165:1 172:1 14722:1 41779:1 
0.2392731921345238 25:1 109:1 53:1 137:1 56:1 156:1 174:1 14722:1 40337:1 
0.02489917907936376 25:1 100:1 53:1 137:1 81:1 164:1 169:1 10124:1 49324:1 
0.2369866431858275 25:1 96:1 53:1 138:1 56:1 161:1 172:1 18895:1 33966:1 
0.01459184678315945 25:1 109:1 53:1 124:1 56:1 166:1 178:1 18895:1 49391:1 
0.475394351563238 1:1 96:1 52:1 136:1 78:1 152:1 169:1 6507:1 39707:1 
0.475394351563238 1:1 108:1 49:1 137:1 68:1 165:1 169:1 14342:1 29413:1 
0.475394351563238 24:1 109:1 29:1 137:1 77:1 164:1 169:1 4684:1 34901:1 
0.3972176192319814 25:1 108:1 53:1 124:1 81:1 152:1 169:1 17068:1 36741:1 
0.08598346972440414 25:1 85:1 40:1 113:1 56:1 166:1 172:1 2276:1 48804:1 
0.07666965635799393 1:1 85:1 53:1 138:1 68:1 152:1 169:1 24075:1 40869:1 
0.1818610938722292 25:1 109:1 29:1 113:1 57:1 166:1 169:1 7246:1 27739:1 
0.278316138442728 25:1 85:1 29:1 138:1 57:1 140:1 170:1 7246:1 27294:1 
0.1336850952164005 25:1 108:1 53:1 123:1 56:1 141:1 169:1 22697:1 36741:1 
0.475394351563238 18:1 96:1 28:1 138:1 56:1 140:1 170:1 22617:1 46729:1 
0.475394351563238 25:1 109:1 49:1 138:1 56:1 157:1 173:1 1925:1 48159:1 
0.1226737255580275 25:1 109:1 53:1 137:1 56:1 151:1 169:1 13044:1 29521:1 
0.1605943055677048 25:1 109:1 53:1 123:1 81:1 162:1 169:1 4792:1 43197:1 
0.2402274804810493 25:1 109:1 53:1 123:1 81:1 166:1 174:1 18626:1 47410:1 
0.2766047710102176 25:1 109:1 53:1 123:1 81:1 162:1 171:1 22681:1 47428:1 
0.475394351563238 12:1 108:1 40:1 112:1 81:1 140:1 169:1 17914:1 29459:1 
0.07212093866212073 25:1 108:1 53:1 124:1 64:1 166:1 169:1 10251:1 36741:1 
0.1119898013913655 25:1 96:1 53:1 138:1 64:1 165:1 170:1 10251:1 40102:1 
0.2033406193975932 25:1 109:1 53:1 124:1 64:1 166:1 172:1 10251:1 45538:1 
0.475394351563238 25:1 109:1 53:1 137:1 81:1 141:1 171:1 20809:1 48267:1 
0.2609501917590048 25:1 109:1 53:1 136:1 56:1 166:1 170:1 3839:1 28568:1 
0.475394351563238 17:1 109:1 53:1 136:1 56:1 152:1 169:1 2031:1 36044:1 
0.3452114868366472 25:1 109:1 53:1 123:1 56:1 152:1 170:1 1834:1 48053:1 
0.4544549863707976 1:1 85:1 50:1 138:1 80:1 144:1 169:1 19055:1 43559:1 
0.475394351563238 1:1 92:1 50:1 138:1 80:1 148:1 172:1 19055:1 28897:1 
0.475394351563238 1:1 92:1 50:1 138:1 80:1 165:1 174:1 19055:1 36613:1 
0.475394351563238 1:1 109:1 50:1 136:1 80:1 152:1 177:1 19055:1 31025:1 
0.01690073304782436 25:1 108:1 36:1 138:1 56:1 152:1 171:1 21154:1 29435:1 
0.475394351563238 12:1 98:1 28:1 123:1 56:1 162:1 169:1 23977:1 36954:1 
0.1600681812253677 21:1 96:1 40:1 137:1 77:1 164:1 170:1 18895:1 34311:1 
0.3790138465453071 12:1 96:1 46:1 122:1 81:1 161:1 171:1 18252:1 33948:1 
0.1177001332814976 12:1 94:1 40:1 133:1 74:1 151:1 169:1 9219:1 37679:1 
0.03754169333676156 25:1 109:1 38:1 137:1 68:1 166:1 172:1 17265:1 27375:1 
0.09116377498795465 25:1 109:1 53:1 138:1 66:1 140:1 169:1 2646:1 38801:1 
0.4451268636295666 25:1 109:1 49:1 123:1 56:1 152:1 169:1 17738:1 29353:1 
0.23120198021775 25:1 96:1 53:1 115:1 56:1 165:1 170:1 5703:1 32153:1 
0.1421631021541038 12:1 96:1 53:1 125:1 81:1 164:1 170:1 4554:1 29283:1 
0.08127479099054988 25:1 96:1 53:1 138:1 56:1 143:1 175:1 22694:1 36744:1 
0.2020176998991899 25:1 109:1 53:1 137:1 56:1 152:1 179:1 22694:1 46784:1 
0.04986479895692084 25:1 96:1 53:1 138:1 81:1 165:1 172:1 18448:1 30432:1 
0.04715276650953628 25:1 96:1 40:1 115:1 81:1 152:1 171:1 22055:1 32756:1 
0.174587812133566 25:1 109:1 51:1 124:1 67:1 164:1 170:1 24712:1 27928:1 
0.02292689569017715 25:1 96:1 53:1 136:1 79:1 141:1 169:1 3199:1 28939:1 
0.1022097476817608 12:1 96:1 52:1 136:1 81:1 151:1 180:1 9582:1 34311:1 
0.4610674763919355 12:1 96:1 53:1 113:1 81:1 164:1 170:1 24277:1 33304:1 
0.2471101714406203 25:1 109:1 53:1 120:1 81:1 166:1 179:1 3769:1 27350:1 
0.1838894546317629 25:1 92:1 53:1 138:1 81:1 148:1 169:1 2621:1 33830:1 
0.475394351563238 8:1 92:1 53:1 138:1 81:1 140:1 170:1 9101:1 34672:1 
0.475394351563238 25:1 109:1 46:1 137:1 78:1 151:1 170:1 2477:1 29167:1 
0.475394351563238 22:1 109:1 28:1 123:1 56:1 162:1 177:1 22296:1 28841:1 
0.1897498462975085 25:1 109:1 53:1 129:1 81:1 166:1 170:1 18431:1 48057:1 
0.475394351563238 1:1 108:1 45:1 138:1 81:1 140:1 169:1 21393:1 36741:1 
0.475394351563238 12:1 108:1 53:1 138:1 81:1 140:1 169:1 2357:1 29435:1 
0.4055014017092586 25:1 109:1 53:1 137:1 56:1 152:1 170:1 14984:1 28421:1 
0.1496974930164734 25:1 109:1 53:1 124:1 81:1 166:1 169:1 3692:1 36883:1 
0.2522933809076188 25:1 108:1 53:1 124:1 68:1 166:1 169:1 7275:1 36741:1 
0.1767204309380221 25:1 96:1 53:1 138:1 68:1 144:1 170:1 7275:1 32376:1 
0.4002828538051281 25:1 109:1 53:1 135:1 68:1 161:1 174:1 7275:1 47421:1 
0.1795736453233548 11:1 95:1 50:1 134:1 81:1 164:1 169:1 1167:1 30212:1 
0.4649852210492945 12:1 103:1 53:1 138:1 56:1 166:1 170:1 5028:1 42377:1 
0.1924649324635287 25:1 96:1 47:1 138:1 68:1 140:1 169:1 9449:1 35926:1 
0.01181956618445421 25:1 96:1 53:1 138:1 81:1 140:1 169:1 10148:1 30174:1 
0.1424671592221175 25:1 96:1 53:1 116:1 56:1 141:1 169:1 19493:1 43332:1 
0.1512260310793749 25:1 96:1 53:1 138:1 56:1 158:1 173:1 19493:1 32398:1 
0.2941727435733996 25:1 109:1 53:1 123:1 68:1 151:1 181:1 22784:1 28841:1 
0.158147080536299 25:1 106:1 53:1 138:1 81:1 140:1 172:1 4112:1 37656:1 
0.475394351563238 25:1 109:1 53:1 136:1 56:1 140:1 170:1 4958:1 38765:1 
0.03521469807920933 25:1 108:1 53:1 112:1 81:1 152:1 169:1 14036:1 48971:1 
0.1955103989932918 25:1 96:1 53:1 138:1 81:1 140:1 169:1 3578:1 45939:1 
0.475394351563238 12:1 97:1 40:1 138:1 77:1 152:1 169:1 16565:1 36044:1 
0.475394351563238 25:1 109:1 49:1 124:1 68:1 153:1 169:1 2334:1 29353:1 
0.1242512577223061 25:1 109:1 53:1 124:1 56:1 152:1 173:1 9465:1 28821:1 
0.07033180431428697 25:1 109:1 53:1 138:1 56:1 165:1 170:1 23443:1 43360:1 
0.1921411325496912 25:1 109:1 53:1 138:1 81:1 140:1 170:1 18631:1 43180:1 
0.3031802915267617 25:1 109:1 53:1 137:1 56:1 164:1 171:1 14984:1 38658:1 
0.475394351563238 17:1 101:1 52:1 136:1 81:1 152:1 170:1 9320:1 32727:1 
0.2545563740953237 25:1 96:1 53:1 137:1 68:1 156:1 169:1 13931:1 30162:1 
0.475394351563238 25:1 109:1 53:1 128:1 68:1 165:1 170:1 13931:1 31154:1 
0.4363015745088495 25:1 109:1 53:1 115:1 81:1 165:1 170:1 6425:1 45521:1 
0.475394351563238 25:1 109:1 53:1 137:1 81:1 151:1 170:1 20792:1 26911:1 
0.475394351563238 25:1 109:1 49:1 137:1 56:1 164:1 170:1 4651:1 42641:1 
0.2876448645455028 25:1 96:1 53:1 124:1 77:1 166:1 171:1 17912:1 47126:1 
0.1281011421076116 25:1 109:1 40:1 123:1 68:1 152:1 174:1 8717:1 35299:1 
0.01212041323426555 25:1 96:1 53:1 138:1 68:1 166:1 172:1 10570:1 39716:1 
0.1316403491130046 25:1 109:1 53:1 136:1 68:1 165:1 186:1 10570:1 49415:1 
0.475394351563238 25:1 97:1 40:1 116:1 81:1 165:1 169:1 8732:1 33004:1 
0.02527026018860484 25:1 108:1 53:1 124:1 56:1 152:1 169:1 3413:1 36741:1 
0.08270972640869109 25:1 96:1 53:1 138:1 56:1 165:1 171:1 3413:1 32044:1 
0.3477483868265645 25:1 109:1 53:1 120:1 56:1 164:1 173:1 3413:1 29131:1 
0.1741178584125609 25:1 96:1 53:1 116:1 81:1 141:1 171:1 4402:1 34315:1 
0.3233504556537623 25:1 109:1 53:1 129:1 81:1 163:1 175:1 4402:1 40203:1 
0.0488677452904107 25:1 97:1 53:1 138:1 81:1 140:1 177:1 15474:1 48334:1 
0.475394351563238 25:1 109:1 53:1 124:1 56:1 151:1 171:1 23390:1 31241:1 
0.0005320758465131247 25:1 96:1 53:1 138:1 56:1 165:1 171:1 16117:1 41592:1 
0.1505039840733567 25:1 92:1 40:1 138:1 81:1 165:1 170:1 24007:1 45968:1 
0.2858730927200673 25:1 85:1 53:1 138:1 81:1 140:1 170:1 1815:1 45140:1 
0.3064785225920807 12:1 94:1 51:1 116:1 77:1 165:1 169:1 23952:1 37679:1 
0.03484670674740147 12:1 96:1 49:1 136:1 60:1 165:1 170:1 6208:1 27718:1 
0.1613897367026876 25:1 97:1 28:1 138:1 56:1 154:1 169:1 3868:1 40628:1 
0.475394351563238 0:1 105:1 53:1 124:1 56:1 166:1 169:1 11375:1 46860:1 
0.475394351563238 0:1 96:1 53:1 138:1 56:1 144:1 170:1 11375:1 45226:1 
0.475394351563238 0:1 109:1 53:1 124:1 56:1 165:1 174:1 11375:1 33950:1 
0.1237418270391964 25:1 107:1 53:1 138:1 56:1 166:1 169:1 17260:1 41308:1 
0.475394351563238 24:1 96:1 51:1 116:1 81:1 144:1 169:1 11854:1 42397:1 
0.2429899133655691 25:1 96:1 53:1 138:1 79:1 166:1 170:1 20970:1 44305:1 
0.2004761968139022 25:1 96:1 53:1 138:1 56:1 161:1 173:1 13889:1 29744:1 
0.281110217308373 21:1 96:1 40:1 138:1 81:1 158:1 172:1 10283:1 48946:1 
0.3236089996766057 25:1 92:1 53:1 138:1 81:1 140:1 169:1 4700:1 37700:1 
0.1464049394584468 12:1 96:1 53:1 138:1 68:1 140:1 170:1 16155:1 35696:1 
0.4479896570932935 25:1 96:1 53:1 138:1 56:1 140:1 170:1 10740:1 38108:1 
0.005373533218456576 12:1 96:1 52:1 133:1 81:1 142:1 171:1 5430:1 41755:1 
0.3227803119043434 12:1 96:1 53:1 138:1 81:1 140:1 176:1 2009:1 49411:1 
0.06789958029710258 21:1 96:1 40:1 115:1 56:1 161:1 170:1 10493:1 46588:1 
0.1004057815220734 12:1 96:1 49:1 136:1 68:1 166:1 173:1 21859:1 46588:1 
0.475394351563238 12:1 108:1 49:1 138:1 68:1 163:1 174:1 21859:1 30307:1 
0.4139253909331964 1:1 106:1 52:1 138:1 68:1 152:1 169:1 15591:1 44853:1 
0.475394351563238 1:1 107:1 52:1 138:1 68:1 140:1 177:1 15591:1 40245:1 
0.06678197542040198 25:1 96:1 53:1 138:1 56:1 165:1 172:1 16750:1 35100:1 
0.1063723719733503 25:1 109:1 53:1 135:1 56:1 158:1 174:1 16750:1 41479:1 
0.2361535419618836 25:1 109:1 53:1 136:1 81:1 152:1 170:1 15705:1 42467:1 
0.475394351563238 25:1 109:1 53:1 128:1 81:1 152:1 174:1 12862:1 41479:1 
0.1140448326159699 25:1 100:1 53:1 124:1 81:1 166:1 169:1 16750:1 42742:1 
0.475394351563238 16:1 96:1 53:1 138:1 81:1 140:1 169:1 18013:1 40044:1 
0.475394351563238 4:1 106:1 32:1 133:1 59:1 166:1 169:1 11194:1 29677:1 
0.475394351563238 25:1 109:1 49:1 138:1 78:1 164:1 169:1 21145:1 33279:1 
0.475394351563238 12:1 109:1 28:1 138:1 56:1 140:1 171:1 3892:1 33203:1 
0.2750633319749008 25:1 109:1 53:1 138:1 56:1 166:1 170:1 15106:1 26975:1 
0.1445301477482608 25:1 96:1 53:1 138:1 81:1 161:1 172:1 18809:1 46908:1 
0.4361409815768246 25:1 108:1 53:1 124:1 81:1 166:1 169:1 16546:1 48971:1 
0.1396078198226357 25:1 96:1 53:1 138:1 56:1 165:1 174:1 22236:1 31903:1 
0.0739047213265904 25:1 92:1 40:1 138:1 81:1 140:1 170:1 6962:1 47124:1 
0.00319215593897442 25:1 96:1 53:1 115:1 56:1 152:1 170:1 9722:1 42926:1 
0.1762518929878418 12:1 96:1 53:1 138:1 81:1 140:1 170:1 18197:1 29710:1 
0.475394351563238 12:1 96:1 40:1 138:1 77:1 151:1 171:1 13604:1 32624:1 
0.475394351563238 12:1 96:1 40:1 136:1 77:1 165:1 175:1 13604:1 45472:1 
0.1902009277549242 25:1 96:1 53:1 138:1 56:1 165:1 172:1 24498:1 44787:1 
0.4565007427246691 25:1 109:1 53:1 123:1 56:1 162:1 177:1 24498:1 27752:1 
0.02693665360803959 25:1 96:1 53:1 112:1 56:1 140:1 171:1 14732:1 42437:1 
0.05827069149857259 25:1 85:1 53:1 138:1 56:1 152:1 170:1 19963:1 27922:1 
0.475394351563238 25:1 109:1 53:1 138:1 56:1 152:1 173:1 19963:1 44345:1 
0.106014037338376 25:1 109:1 53:1 138:1 81:1 140:1 173:1 19616:1 34234:1 
0.475394351563238 11:1 97:1 53:1 138:1 81:1 140:1 169:1 304:1 46278:1 
0.475394351563238 12:1 109:1 53:1 124:1 77:1 143:1 170:1 14977:1 48267:1 
0.2154850279759275 25:1 96:1 53:1 138:1 81:1 143:1 172:1 13071:1 40120:1 
0.1279963472572265 25:1 109:1 53:1 116:1 81:1 165:1 179:1 13071:1 28844:1 
0.2207477439400042 25:1 109:1 53:1 115:1 81:1 144:1 174:1 4115:1 36306:1 
0.08926802700989721 25:1 109:1 53:1 138:1 81:1 140:1 171:1 11577:1 48057:1 
0.4592610022543775 25:1 108:1 31:1 124:1 56:1 152:1 169:1 14457:1 48971:1 
0.07703481488627992 25:1 96:1 31:1 136:1 56:1 152:1 171:1 14457:1 49411:1 
0.198837157488401 12:1 96:1 46:1 138:1 56:1 157:1 171:1 24577:1 46439:1 
0.09482498853911525 25:1 96:1 53:1 138:1 56:1 165:1 173:1 17917:1 29167:1 
0.475394351563238 12:1 98:1 49:1 137:1 77:1 152:1 175:1 12156:1 37311:1 
0.1509446309008783 25:1 96:1 42:1 125:1 68:1 165:1 169:1 10148:1 28826:1 
0.2204992164042478 25:1 96:1 42:1 138:1 68:1 140:1 171:1 20648:1 35373:1 
0.475394351563238 12:1 109:1 53:1 127:1 69:1 152:1 170:1 18371:1 30381:1 
0.1502670306045931 25:1 96:1 53:1 138:1 56:1 163:1 170:1 12953:1 37788:1 
0.3931662386886096 25:1 109:1 53:1 134:1 56:1 152:1 175:1 12953:1 41479:1 
0.1298620726255698 25:1 108:1 53:1 123:1 56:1 151:1 169:1 3023:1 36741:1 
0.09471126931557376 12:1 96:1 53:1 138:1 68:1 165:1 171:1 15364:1 43798:1 
0.1552758295159598 25:1 97:1 53:1 138:1 68:1 165:1 173:1 5972:1 48096:1 
0.2417816125533733 25:1 109:1 53:1 113:1 68:1 164:1 175:1 5972:1 34877:1 
0.3139404164844852 12:1 96:1 53:1 135:1 68:1 141:1 173:1 5235:1 41849:1 
0.4380966601556351 1:1 85:1 53:1 138:1 56:1 143:1 173:1 1872:1 30212:1 
0.475394351563238 1:1 85:1 29:1 138:1 81:1 140:1 173:1 5483:1 37337:1 
0.1586355486769589 21:1 109:1 53:1 136:1 56:1 152:1 173:1 21663:1 41492:1 
0.131150102213906 25:1 109:1 49:1 136:1 81:1 152:1 174:1 16763:1 39221:1 
0.475394351563238 25:1 108:1 53:1 124:1 77:1 152:1 169:1 14492:1 36741:1 
0.1175933388379217 25:1 96:1 53:1 138:1 77:1 143:1 175:1 14492:1 37745:1 
0.1731280935365658 25:1 109:1 53:1 129:1 77:1 153:1 189:1 14492:1 41387:1 
0.04066792049945957 25:1 109:1 53:1 138:1 56:1 165:1 176:1 15407:1 44633:1 
0.2507593012733443 25:1 109:1 53:1 124:1 81:1 166:1 170:1 19904:1 45531:1 
0.003140479329428596 25:1 109:1 53:1 124:1 81:1 166:1 171:1 20802:1 39458:1 
0.113937564188581 25:1 108:1 53:1 135:1 56:1 164:1 169:1 9531:1 32460:1 
0.2300208217603058 25:1 108:1 41:1 138:1 77:1 140:1 169:1 17228:1 36741:1 
0.07831443121114358 4:1 109:1 40:1 121:1 56:1 152:1 169:1 17846:1 41479:1 
0.1816454250653051 25:1 96:1 53:1 138:1 56:1 165:1 170:1 9531:1 37788:1 
0.04954608222932079 25:1 109:1 53:1 138:1 56:1 165:1 173:1 9531:1 32315:1 
0.205814013640693 25:1 109:1 53:1 124:1 81:1 165:1 174:1 7586:1 42859:1 
0.1228847450421167 25:1 96:1 53:1 124:1 81:1 164:1 169:1 9835:1 26369:1 
0.475394351563238 12:1 96:1 53:1 136:1 81:1 152:1 169:1 1640:1 37357:1 
0.475394351563238 25:1 109:1 53:1 136:1 56:1 144:1 170:1 18511:1 28588:1 
0.3004951768031761 25:1 108:1 53:1 116:1 81:1 152:1 169:1 3859:1 36741:1 
0.4142406620389825 12:1 106:1 52:1 136:1 81:1 152:1 170:1 16852:1 47025:1 
0.1301416505777121 25:1 92:1 29:1 138:1 56:1 144:1 175:1 9852:1 41026:1 
0.475394351563238 8:1 109:1 53:1 124:1 57:1 148:1 171:1 16297:1 39985:1 
0.02355754657055103 21:1 96:1 40:1 138:1 56:1 144:1 171:1 19935:1 41917:1 
0.3976149686507377 25:1 109:1 53:1 124:1 56:1 166:1 173:1 3413:1 36928:1 
0.1842312925374282 25:1 96:1 42:1 137:1 56:1 164:1 170:1 23164:1 41869:1 
0.2028635945565117 25:1 109:1 53:1 136:1 56:1 166:1 171:1 6141:1 29674:1 
0.1910554253185982 25:1 108:1 53:1 138:1 81:1 140:1 169:1 4945:1 48971:1 
0.475394351563238 1:1 109:1 40:1 138:1 68:1 165:1 170:1 14813:1 44147:1 
0.475394351563238 1:1 109:1 40:1 124:1 68:1 166:1 172:1 14813:1 46757:1 
0.475394351563238 14:1 108:1 53:1 138:1 56:1 163:1 169:1 3887:1 45546:1 
0.09310075154857549 25:1 88:1 51:1 137:1 80:1 164:1 169:1 5991:1 28925:1 
0.475394351563238 25:1 108:1 53:1 138:1 56:1 152:1 169:1 6596:1 26284:1 
0.4363434410860441 25:1 109:1 53:1 135:1 56:1 164:1 174:1 6596:1 36608:1 
0.07843532252032363 25:1 96:1 53:1 115:1 81:1 152:1 171:1 11879:1 32398:1 
0.06593021068979622 12:1 96:1 53:1 136:1 81:1 166:1 170:1 7669:1 37872:1 
0.06015456700126638 25:1 105:1 28:1 135:1 56:1 151:1 169:1 16750:1 33680:1 
0.475394351563238 1:1 96:1 49:1 137:1 60:1 165:1 171:1 15925:1 45157:1 
0.3022600588304812 25:1 96:1 53:1 138:1 56:1 166:1 170:1 17298:1 43848:1 
0.475394351563238 12:1 96:1 53:1 137:1 56:1 165:1 169:1 23259:1 28828:1 
0.1048123222964893 25:1 96:1 53:1 137:1 68:1 164:1 170:1 9580:1 48269:1 
0.178910604093957 25:1 108:1 53:1 137:1 68:1 166:1 169:1 2164:1 48971:1 
0.475394351563238 25:1 109:1 53:1 138:1 68:1 140:1 175:1 6596:1 31325:1 
0.475394351563238 12:1 96:1 41:1 125:1 81:1 144:1 169:1 19791:1 41501:1 
0.475394351563238 12:1 86:1 53:1 138:1 81:1 149:1 170:1 15140:1 41071:1 
0.08855727537685681 12:1 96:1 53:1 138:1 81:1 166:1 170:1 3398:1 44520:1 
0.1595053943988736 17:1 101:1 28:1 138:1 56:1 157:1 170:1 8098:1 40554:1 
0.13893730927731 17:1 101:1 28:1 124:1 56:1 144:1 172:1 8098:1 38294:1 
0.08564506052455177 25:1 109:1 40:1 120:1 81:1 143:1 171:1 20141:1 48188:1 
0.09069218330178051 25:1 92:1 53:1 115:1 68:1 165:1 169:1 23459:1 35612:1 
0.3466291813797351 25:1 109:1 53:1 124:1 68:1 166:1 171:1 23459:1 34145:1 
0.04668529400742072 25:1 96:1 53:1 138:1 81:1 140:1 169:1 9416:1 47864:1 
0.09451131858170328 12:1 96:1 49:1 123:1 56:1 162:1 171:1 9238:1 29238:1 
0.475394351563238 12:1 106:1 40:1 138:1 77:1 154:1 170:1 4509:1 48580:1 
0.08798496665628718 25:1 108:1 53:1 126:1 78:1 152:1 169:1 16848:1 36741:1 
0.2091105453465487 25:1 96:1 53:1 124:1 78:1 166:1 174:1 16848:1 41745:1 
0.475394351563238 12:1 96:1 53:1 138:1 81:1 140:1 169:1 17016:1 42667:1 
0.1861545303551291 12:1 96:1 53:1 137:1 81:1 157:1 170:1 18378:1 26699:1 
0.444624370502516 25:1 96:1 53:1 137:1 73:1 165:1 169:1 21728:1 38508:1 
0.475394351563238 25:1 109:1 53:1 137:1 73:1 152:1 170:1 21728:1 30067:1 
0.08390412049216253 25:1 96:1 53:1 138:1 81:1 140:1 169:1 21902:1 41741:1 
0.04711315522087118 25:1 109:1 53:1 138:1 56:1 144:1 169:1 5078:1 37289:1 
0.1072052840254934 25:1 109:1 53:1 115:1 81:1 165:1 172:1 24577:1 26973:1 
0.09515895675951304 25:1 109:1 53:1 124:1 81:1 166:1 170:1 2244:1 34241:1 
0.475394351563238 25:1 96:1 53:1 138:1 81:1 140:1 171:1 2244:1 30985:1 
0.1681389596290626 25:1 96:1 53:1 138:1 56:1 165:1 172:1 19904:1 33842:1 
0.1783808823907559 25:1 96:1 53:1 138:1 81:1 166:1 169:1 11258:1 40056:1 
0.1081881865166925 12:1 96:1 49:1 113:1 68:1 164:1 172:1 7336:1 41502:1 
0.4279135812923005 17:1 101:1 28:1 121:1 56:1 165:1 170:1 7544:1 32287:1 
0.3242054633304577 25:1 96:1 53:1 138:1 56:1 140:1 176:1 16939:1 28118:1 
0.1520584613696475 9:1 93:1 36:1 123:1 81:1 152:1 169:1 23605:1 42376:1 
0.475394351563238 12:1 96:1 36:1 136:1 81:1 141:1 171:1 7639:1 35399:1 
0.1222954214399867 25:1 96:1 53:1 137:1 56:1 157:1 170:1 9019:1 40056:1 
0.09428286156949636 25:1 109:1 53:1 129:1 56:1 164:1 171:1 9019:1 45460:1 
0.2359625634660769 12:1 96:1 53:1 138:1 81:1 161:1 173:1 10313:1 42039:1 
0.475394351563238 8:1 109:1 40:1 137:1 68:1 166:1 170:1 7277:1 49386:1 
0.2098960073706197 25:1 109:1 36:1 138:1 68:1 140:1 169:1 24657:1 31771:1 
0.475394351563238 22:1 96:1 28:1 138:1 56:1 166:1 172:1 2753:1 45683:1 
0.1110561070848957 12:1 96:1 53:1 124:1 81:1 166:1 170:1 12423:1 42888:1 
0.1208113477429546 25:1 96:1 53:1 137:1 56:1 153:1 170:1 12190:1 35819:1 
0.3906275568069368 25:1 109:1 53:1 125:1 56:1 152:1 171:1 12190:1 31811:1 
0.08817087194398643 25:1 109:1 53:1 115:1 81:1 156:1 172:1 7082:1 48869:1 
0.4236900543675685 25:1 109:1 53:1 137:1 81:1 166:1 172:1 24140:1 28418:1 
0.2043542599351429 25:1 107:1 53:1 124:1 81:1 166:1 169:1 9786:1 42374:1 
0.01088938257122209 25:1 96:1 53:1 138:1 81:1 165:1 170:1 9786:1 31567:1 
0.05128570782282541 25:1 109:1 53:1 135:1 81:1 159:1 173:1 9786:1 34515:1 
0.09590910153989762 25:1 96:1 53:1 138:1 81:1 140:1 171:1 9786:1 30429:1 
0.1146021438735805 12:1 96:1 53:1 138:1 56:1 140:1 173:1 5902:1 42986:1 
0.4111678882644617 17:1 101:1 53:1 123:1 56:1 162:1 170:1 10784:1 33779:1 
0.1177438586190936 25:1 109:1 50:1 136:1 81:1 156:1 170:1 14142:1 29844:1 
0.02479442729122712 25:1 96:1 53:1 115:1 56:1 163:1 172:1 24519:1 28547:1 
0.1979018835433385 25:1 109:1 53:1 123:1 56:1 162:1 176:1 24519:1 28899:1 
0.003169092859642335 25:1 96:1 53:1 138:1 81:1 144:1 172:1 4170:1 28547:1 
0.3841477089236148 25:1 85:1 29:1 116:1 56:1 141:1 169:1 17260:1 44725:1 
0.04975334436080768 1:1 85:1 28:1 112:1 56:1 140:1 172:1 4175:1 44725:1 
0.2186985852902672 25:1 96:1 53:1 124:1 81:1 151:1 169:1 10756:1 39743:1 
0.475394351563238 12:1 96:1 53:1 123:1 81:1 151:1 169:1 15014:1 40527:1 
0.07455967179253321 11:1 95:1 40:1 134:1 68:1 166:1 169:1 1097:1 46877:1 
0.475394351563238 12:1 106:1 53:1 138:1 81:1 165:1 172:1 15014:1 38063:1 
0.08978944531086318 12:1 106:1 53:1 138:1 78:1 140:1 171:1 16095:1 28480:1 
0.475394351563238 12:1 106:1 53:1 114:1 56:1 152:1 170:1 6597:1 37927:1 
0.1902006300701816 12:1 96:1 53:1 138:1 81:1 166:1 176:1 19887:1 44616:1 
0.02138238121666321 25:1 96:1 40:1 138:1 68:1 140:1 169:1 16750:1 41635:1 
0.1701786472227044 25:1 109:1 53:1 113:1 56:1 152:1 169:1 11595:1 41683:1 
0.3265731323795235 12:1 106:1 40:1 138:1 56:1 144:1 170:1 8574:1 47025:1 
0.4025712066939765 11:1 95:1 53:1 138:1 78:1 165:1 170:1 880:1 25142:1 
0.283066928342898 12:1 96:1 53:1 123:1 56:1 162:1 173:1 11769:1 36138:1 
0.4481975706448587 12:1 106:1 40:1 138:1 81:1 140:1 170:1 11409:1 47025:1 
0.475394351563238 3:1 109:1 39:1 137:1 81:1 163:1 170:1 21970:1 32134:1 
0.475394351563238 12:1 107:1 53:1 138:1 67:1 140:1 169:1 9378:1 30237:1 
0.07759765166361475 25:1 108:1 53:1 123:1 56:1 162:1 169:1 7242:1 36741:1 
0.2899683030052433 25:1 96:1 53:1 138:1 56:1 165:1 172:1 13931:1 32164:1 
0.05960317022366878 25:1 109:1 53:1 135:1 56:1 152:1 174:1 13931:1 29790:1 
0.249901808520203 25:1 96:1 53:1 138:1 81:1 152:1 171:1 5061:1 44139:1 
0.05148233769354462 25:1 109:1 53:1 138:1 81:1 140:1 174:1 5061:1 28285:1 
0.1109100821148165 9:1 93:1 28:1 124:1 56:1 164:1 169:1 16517:1 27850:1 
0.475394351563238 12:1 96:1 40:1 138:1 77:1 165:1 170:1 19791:1 39779:1 
0.01977919980520529 25:1 108:1 53:1 124:1 56:1 166:1 169:1 5988:1 36741:1 
0.475394351563238 25:1 108:1 52:1 124:1 81:1 166:1 169:1 3646:1 36741:1 
0.475394351563238 25:1 96:1 52:1 138:1 81:1 143:1 170:1 3646:1 43848:1 
0.475394351563238 25:1 109:1 52:1 116:1 81:1 165:1 178:1 3646:1 33316:1 
0.475394351563238 25:1 109:1 53:1 124:1 80:1 165:1 170:1 8587:1 32460:1 
0.2273968933892387 25:1 96:1 53:1 137:1 81:1 166:1 169:1 7731:1 34931:1 
0.05830861870376202 25:1 109:1 53:1 138:1 81:1 144:1 170:1 7731:1 36044:1 
0.475394351563238 25:1 108:1 53:1 138:1 68:1 163:1 170:1 12862:1 29435:1 
0.475394351563238 25:1 109:1 49:1 137:1 78:1 152:1 169:1 16988:1 32198:1 
0.1242224724701788 25:1 96:1 53:1 138:1 81:1 143:1 169:1 8998:1 40027:1 
0.3047557060486359 25:1 109:1 53:1 137:1 81:1 166:1 173:1 8998:1 34041:1 
0.3496440905889811 25:1 109:1 53:1 138:1 56:1 143:1 179:1 19616:1 44344:1 
0.2763143489678542 25:1 96:1 53:1 124:1 79:1 164:1 169:1 5411:1 40026:1 
0.2203395785366991 25:1 96:1 53:1 136:1 79:1 148:1 170:1 5411:1 37144:1 
0.475394351563238 8:1 109:1 40:1 124:1 81:1 152:1 170:1 9101:1 31216:1 
0.06009167206960703 12:1 106:1 53:1 138:1 56:1 151:1 170:1 14173:1 33129:1 
0.1946163703611044 11:1 95:1 50:1 123:1 68:1 152:1 169:1 645:1 30212:1 
0.1906568486784454 12:1 94:1 29:1 133:1 81:1 163:1 169:1 20737:1 37679:1 
0.01414706601408371 25:1 109:1 49:1 136:1 66:1 152:1 169:1 20707:1 29353:1 
0.03571493913307702 25:1 96:1 40:1 137:1 77:1 164:1 169:1 12710:1 36853:1 
0.3312847645513493 25:1 109:1 40:1 136:1 77:1 151:1 170:1 12710:1 49312:1 
0.2605535368035522 25:1 108:1 53:1 123:1 68:1 162:1 169:1 24583:1 36741:1 
0.01488396277149287 25:1 96:1 53:1 115:1 68:1 151:1 172:1 24583:1 29729:1 
0.2307334154783658 12:1 96:1 53:1 138:1 81:1 140:1 173:1 5000:1 41590:1 
0.475394351563238 25:1 96:1 53:1 137:1 56:1 163:1 172:1 3646:1 29792:1 
0.475394351563238 25:1 109:1 53:1 135:1 56:1 152:1 173:1 3646:1 44346:1 
0.0850087918004848 25:1 96:1 53:1 124:1 81:1 166:1 170:1 19617:1 48605:1 
0.475394351563238 12:1 96:1 53:1 138:1 81:1 165:1 169:1 23876:1 41501:1 
0.09015833795968954 25:1 96:1 53:1 138:1 68:1 140:1 169:1 12159:1 36294:1 
0.475394351563238 25:1 96:1 40:1 137:1 77:1 165:1 171:1 10187:1 38548:1 
0.06627825861652395 12:1 96:1 53:1 138:1 81:1 152:1 173:1 7050:1 35683:1 
0.475394351563238 9:1 92:1 40:1 138:1 77:1 148:1 170:1 3112:1 40065:1 
0.475394351563238 9:1 92:1 40:1 138:1 77:1 152:1 172:1 3112:1 40060:1 
0.475394351563238 9:1 96:1 40:1 136:1 77:1 152:1 175:1 3112:1 34199:1 
0.475394351563238 25:1 109:1 49:1 137:1 68:1 141:1 170:1 15256:1 45436:1 
0.01180390846540428 25:1 96:1 53:1 137:1 81:1 152:1 170:1 4624:1 26858:1 
0.1520186310474378 25:1 85:1 53:1 113:1 68:1 166:1 170:1 3658:1 36872:1 
0.3212187429571156 1:1 85:1 53:1 138:1 81:1 140:1 169:1 12143:1 33690:1 
0.320624371629707 25:1 96:1 53:1 138:1 56:1 152:1 170:1 13995:1 29303:1 
0.01201870922031258 12:1 96:1 53:1 115:1 81:1 152:1 174:1 4574:1 48079:1 
0.3036481857786857 12:1 96:1 53:1 123:1 81:1 162:1 177:1 4574:1 43209:1 
0.475394351563238 12:1 106:1 53:1 138:1 81:1 165:1 179:1 4574:1 40030:1 
0.003473487260726815 25:1 109:1 50:1 137:1 68:1 144:1 169:1 18177:1 38724:1 
0.09777880363967904 25:1 96:1 53:1 138:1 78:1 140:1 174:1 22931:1 33886:1 
0.475394351563238 25:1 109:1 49:1 125:1 56:1 166:1 169:1 9383:1 39059:1 
0.0713540436465433 25:1 108:1 53:1 123:1 56:1 162:1 169:1 18447:1 36741:1 
0.4210806151018339 12:1 96:1 53:1 138:1 78:1 152:1 170:1 19175:1 30794:1 
0.2831408425310414 12:1 96:1 53:1 113:1 78:1 152:1 172:1 19175:1 30801:1 
0.475394351563238 12:1 96:1 40:1 138:1 68:1 152:1 171:1 9157:1 40816:1 
0.475394351563238 14:1 98:1 46:1 115:1 77:1 154:1 170:1 11017:1 38298:1 
0.475394351563238 14:1 98:1 46:1 136:1 77:1 165:1 172:1 11017:1 26081:1 
0.475394351563238 9:1 93:1 49:1 138:1 60:1 149:1 170:1 12890:1 46256:1 
0.3591071344348096 9:1 93:1 49:1 123:1 60:1 162:1 172:1 12890:1 26308:1 
0.4311989368664213 12:1 96:1 53:1 133:1 56:1 158:1 170:1 23264:1 40056:1 
0.475394351563238 25:1 105:1 49:1 129:1 68:1 152:1 169:1 5685:1 47292:1 
0.3454051651650222 12:1 96:1 53:1 124:1 77:1 164:1 170:1 2793:1 40102:1 
0.4431461367996167 25:1 109:1 40:1 137:1 77:1 143:1 179:1 7433:1 40871:1 
0.07857386393035126 25:1 109:1 53:1 115:1 68:1 165:1 169:1 16142:1 42962:1 
0.475394351563238 25:1 97:1 40:1 137:1 56:1 152:1 169:1 18130:1 33004:1 
0.02891376437801948 25:1 109:1 53:1 138:1 56:1 166:1 169:1 7885:1 29369:1 
0.475394351563238 25:1 108:1 53:1 138:1 81:1 144:1 169:1 11315:1 26284:1 
0.475394351563238 25:1 109:1 53:1 137:1 81:1 163:1 176:1 11315:1 47475:1 
0.00478934409810803 25:1 109:1 53:1 135:1 81:1 164:1 169:1 22746:1 42073:1 
0.1633729785290289 25:1 107:1 53:1 136:1 81:1 166:1 169:1 17344:1 43862:1 
0.475394351563238 12:1 101:1 52:1 128:1 81:1 166:1 169:1 16901:1 45559:1 
0.2393894089473328 25:1 96:1 40:1 137:1 72:1 152:1 171:1 13898:1 30158:1 
0.475394351563238 12:1 96:1 40:1 116:1 81:1 144:1 170:1 21710:1 47993:1 
0.2590786491676905 21:1 109:1 40:1 135:1 74:1 151:1 170:1 21527:1 48192:1 
0.475394351563238 25:1 109:1 49:1 121:1 68:1 153:1 173:1 23463:1 41479:1 
0.475394351563238 25:1 108:1 53:1 137:1 81:1 166:1 169:1 4664:1 29435:1 
0.0868129827215413 25:1 109:1 32:1 124:1 81:1 152:1 169:1 10166:1 35747:1 
0.130233531252696 25:1 96:1 53:1 124:1 60:1 165:1 169:1 11018:1 40026:1 
0.3333956341011697 25:1 109:1 53:1 113:1 56:1 166:1 172:1 24070:1 34260:1 
0.06355454646309131 12:1 96:1 49:1 122:1 60:1 165:1 170:1 24460:1 28201:1 
0.3794088893344721 12:1 94:1 40:1 137:1 77:1 163:1 169:1 3472:1 37679:1 
0.01217263950899054 25:1 109:1 53:1 121:1 66:1 166:1 169:1 4719:1 40628:1 
0.06685649096205736 25:1 109:1 37:1 136:1 81:1 166:1 174:1 5688:1 27335:1 
0.2380740651511743 25:1 108:1 53:1 138:1 65:1 140:1 169:1 2606:1 36741:1 
0.06824402856349184 25:1 109:1 51:1 136:1 77:1 166:1 172:1 5688:1 27335:1 
0.475394351563238 25:1 108:1 53:1 138:1 79:1 166:1 169:1 2606:1 36741:1 
0.05730863236203043 25:1 109:1 51:1 124:1 77:1 165:1 169:1 4025:1 31976:1 
0.475394351563238 8:1 108:1 53:1 138:1 56:1 165:1 169:1 11114:1 29435:1 
0.475394351563238 8:1 109:1 53:1 124:1 56:1 166:1 175:1 11114:1 49415:1 
0.2486187140581255 25:1 96:1 53:1 138:1 56:1 141:1 175:1 9580:1 48269:1 
0.170791330243528 25:1 109:1 53:1 138:1 56:1 165:1 172:1 9098:1 33827:1 
0.475394351563238 25:1 109:1 53:1 124:1 56:1 163:1 174:1 9098:1 26563:1 
0.4214949486329215 25:1 109:1 53:1 136:1 81:1 166:1 172:1 1834:1 45294:1 
0.04258580462464144 12:1 96:1 53:1 137:1 56:1 141:1 170:1 10414:1 30591:1 
0.05599527454986985 25:1 85:1 53:1 138:1 81:1 152:1 170:1 15949:1 35923:1 
0.07707308496368644 25:1 109:1 53:1 135:1 56:1 144:1 186:1 16750:1 41479:1 
0.08385876760097864 25:1 96:1 53:1 135:1 81:1 166:1 173:1 16750:1 43848:1 
0.02504063629177525 12:1 107:1 53:1 138:1 81:1 140:1 169:1 19119:1 48097:1 
0.3223154084556591 25:1 109:1 53:1 130:1 77:1 166:1 171:1 9850:1 33939:1 
0.475394351563238 9:1 96:1 31:1 116:1 81:1 144:1 175:1 23686:1 39213:1 
0.1638378908585013 25:1 109:1 40:1 116:1 77:1 151:1 169:1 5971:1 39828:1 
0.475394351563238 1:1 109:1 53:1 138:1 56:1 140:1 171:1 3077:1 26544:1 
0.1043403838744013 25:1 96:1 53:1 112:1 56:1 140:1 170:1 13432:1 32320:1 
0.475394351563238 1:1 106:1 40:1 113:1 56:1 140:1 169:1 11534:1 29677:1 
0.1415989455508366 25:1 96:1 53:1 138:1 56:1 152:1 169:1 16750:1 37552:1 
0.2086235830728946 25:1 96:1 53:1 138:1 81:1 140:1 169:1 16750:1 45030:1 
0.01049191492070825 12:1 96:1 53:1 138:1 81:1 152:1 170:1 12542:1 36830:1 
0.09780350756234328 25:1 96:1 40:1 115:1 68:1 152:1 169:1 16750:1 31530:1 
0.09681301730124776 12:1 96:1 53:1 138:1 68:1 166:1 170:1 6801:1 33890:1 
0.4182036518567835 25:1 96:1 53:1 138:1 56:1 142:1 175:1 18631:1 42697:1 
0.08994307551471815 25:1 96:1 40:1 112:1 81:1 140:1 170:1 16951:1 33296:1 
0.4412100157342613 25:1 96:1 32:1 137:1 59:1 164:1 172:1 23113:1 43848:1 
0.03481651228687061 25:1 96:1 53:1 115:1 56:1 152:1 171:1 17917:1 29180:1 
0.1067806724380357 12:1 96:1 53:1 138:1 81:1 140:1 172:1 4451:1 31082:1 
0.3836149182709574 12:1 96:1 53:1 136:1 77:1 152:1 171:1 7041:1 31851:1 
0.111320420275349 12:1 96:1 53:1 136:1 68:1 152:1 172:1 24027:1 29214:1 
0.2913425397558569 25:1 109:1 53:1 136:1 81:1 152:1 170:1 6567:1 41701:1 
0.1033902782618146 21:1 96:1 53:1 137:1 68:1 165:1 169:1 1491:1 47178:1 
0.07160607824187416 25:1 106:1 53:1 137:1 56:1 166:1 170:1 23507:1 38364:1 
0.3380026698876909 25:1 109:1 53:1 138:1 56:1 140:1 171:1 23507:1 48206:1 
0.2821450926242464 12:1 107:1 53:1 138:1 56:1 143:1 169:1 16340:1 48097:1 
0.4352281127374613 12:1 96:1 31:1 136:1 59:1 152:1 170:1 11740:1 49083:1 
0.2927946224674706 12:1 108:1 31:1 124:1 59:1 166:1 171:1 11740:1 29459:1 
0.475394351563238 3:1 96:1 31:1 138:1 79:1 148:1 173:1 21970:1 47066:1 
0.475394351563238 12:1 101:1 36:1 115:1 68:1 161:1 170:1 4841:1 42209:1 
0.475394351563238 12:1 96:1 36:1 124:1 68:1 152:1 174:1 4841:1 29570:1 
0.07823894289232988 15:1 99:1 53:1 133:1 56:1 152:1 170:1 4581:1 32439:1 
0.05407763631086006 12:1 96:1 53:1 137:1 81:1 144:1 171:1 24473:1 49192:1 
0.04433549959648549 25:1 109:1 53:1 116:1 56:1 165:1 175:1 7427:1 28866:1 
0.475394351563238 25:1 109:1 53:1 124:1 81:1 152:1 170:1 4137:1 43731:1 
0.475394351563238 25:1 109:1 49:1 124:1 80:1 152:1 170:1 18454:1 41344:1 
0.0541775658792866 25:1 96:1 53:1 136:1 77:1 151:1 170:1 16615:1 34545:1 
0.475394351563238 12:1 96:1 53:1 137:1 77:1 165:1 179:1 7443:1 28189:1 
0.07613675226319332 25:1 109:1 53:1 138:1 56:1 152:1 169:1 22608:1 46969:1 
0.09606985317122598 25:1 109:1 53:1 124:1 68:1 166:1 172:1 11002:1 41801:1 
0.2306215049832302 25:1 96:1 53:1 138:1 81:1 140:1 169:1 17072:1 45100:1 
0.05516178342811001 9:1 93:1 53:1 138:1 56:1 153:1 170:1 5148:1 48334:1 
0.475394351563238 9:1 97:1 53:1 124:1 56:1 165:1 172:1 5148:1 44171:1 
0.2237434554776302 1:1 85:1 53:1 138:1 56:1 152:1 178:1 5660:1 30212:1 
0.475394351563238 1:1 85:1 29:1 138:1 81:1 140:1 176:1 5483:1 31434:1 
0.475394351563238 13:1 97:1 49:1 124:1 68:1 141:1 170:1 5148:1 48342:1 
0.2262386877791599 21:1 96:1 40:1 113:1 57:1 166:1 172:1 2167:1 29570:1 
0.475394351563238 1:1 85:1 29:1 138:1 56:1 141:1 174:1 12772:1 29483:1 
0.475394351563238 1:1 109:1 29:1 123:1 57:1 162:1 173:1 4754:1 46606:1 
0.475394351563238 12:1 106:1 53:1 138:1 57:1 162:1 170:1 24464:1 42394:1 
0.475394351563238 22:1 106:1 40:1 138:1 81:1 166:1 170:1 17665:1 36709:1 
0.475394351563238 12:1 95:1 53:1 138:1 78:1 166:1 169:1 2347:1 25498:1 
0.1988199903697256 14:1 98:1 40:1 137:1 56:1 166:1 172:1 20585:1 36946:1 
0.003359790236099521 25:1 109:1 53:1 137:1 81:1 152:1 177:1 4155:1 48057:1 
0.08361282422495264 12:1 96:1 53:1 138:1 81:1 140:1 171:1 3065:1 35771:1 
0.04704536744285744 11:1 95:1 40:1 134:1 81:1 142:1 169:1 14567:1 46877:1 
0.475394351563238 12:1 96:1 40:1 137:1 81:1 165:1 170:1 18494:1 27998:1 
0.4094942773280517 21:1 96:1 53:1 138:1 81:1 165:1 169:1 22131:1 46549:1 
0.2711773315862265 25:1 108:1 53:1 123:1 68:1 162:1 169:1 3413:1 36741:1 
0.475394351563238 25:1 109:1 53:1 113:1 56:1 152:1 173:1 22563:1 41479:1 
0.475394351563238 25:1 96:1 53:1 138:1 81:1 151:1 171:1 16750:1 31326:1 
0.1600568621155231 25:1 106:1 53:1 138:1 81:1 166:1 175:1 18895:1 42285:1 
0.1460761218078422 25:1 109:1 40:1 124:1 68:1 149:1 170:1 10892:1 26199:1 
0.475394351563238 17:1 96:1 49:1 138:1 56:1 154:1 170:1 15774:1 28787:1 
0.4195584946197904 14:1 108:1 28:1 124:1 56:1 165:1 169:1 19000:1 29459:1 
0.475394351563238 25:1 96:1 53:1 138:1 56:1 161:1 173:1 4624:1 27997:1 
0.07067933574010438 14:1 98:1 28:1 116:1 56:1 165:1 175:1 19288:1 37368:1 
0.374148973560178 11:1 95:1 28:1 138:1 56:1 163:1 170:1 21406:1 46135:1 
0.475394351563238 12:1 97:1 49:1 136:1 81:1 154:1 171:1 14690:1 40628:1 
0.1300528717481354 25:1 109:1 53:1 137:1 69:1 152:1 169:1 6379:1 28375:1 
0.1516798472996335 25:1 96:1 53:1 123:1 81:1 162:1 169:1 24022:1 34274:1 
0.1070925363834596 25:1 106:1 53:1 136:1 81:1 162:1 171:1 24022:1 38364:1 
0.1745444259443137 25:1 96:1 53:1 138:1 69:1 140:1 176:1 6379:1 35114:1 
0.02685120105725299 12:1 106:1 53:1 138:1 56:1 165:1 170:1 7134:1 47025:1 
0.1752206807780144 25:1 109:1 50:1 137:1 68:1 151:1 169:1 16829:1 41680:1 
0.3588550006775393 25:1 109:1 50:1 123:1 68:1 162:1 170:1 16829:1 33493:1 
0.3415963921410625 12:1 96:1 53:1 137:1 78:1 151:1 170:1 11221:1 44122:1 
0.475394351563238 12:1 96:1 53:1 137:1 77:1 165:1 169:1 6597:1 39968:1 
0.08367484529147445 25:1 109:1 40:1 133:1 68:1 163:1 169:1 20439:1 39196:1 
0.2623360944695847 25:1 109:1 40:1 124:1 68:1 166:1 176:1 20439:1 49391:1 
0.4081389758030762 25:1 96:1 53:1 138:1 68:1 152:1 169:1 24662:1 30014:1 
0.1427526962462206 21:1 98:1 42:1 137:1 56:1 164:1 169:1 19937:1 39340:1 
0.126007560272419 25:1 96:1 40:1 137:1 81:1 158:1 171:1 4624:1 43108:1 
0.3521265938385484 25:1 109:1 40:1 130:1 81:1 164:1 172:1 4624:1 27747:1 
0.3527671630423864 25:1 109:1 53:1 137:1 68:1 166:1 176:1 3018:1 31187:1 
0.475394351563238 25:1 109:1 53:1 124:1 56:1 152:1 170:1 5692:1 33322:1 
0.1194293643626331 25:1 96:1 53:1 124:1 81:1 152:1 169:1 8593:1 33379:1 
0.2512672957253568 25:1 96:1 53:1 138:1 56:1 140:1 172:1 15101:1 48264:1 
0.3797417384442552 21:1 109:1 40:1 137:1 80:1 157:1 170:1 5436:1 29274:1 
0.475394351563238 25:1 109:1 49:1 129:1 68:1 152:1 169:1 4545:1 43624:1 
0.1309618293488338 25:1 109:1 40:1 135:1 81:1 161:1 170:1 14984:1 48855:1 
0.475394351563238 25:1 109:1 53:1 129:1 81:1 152:1 170:1 6813:1 46465:1 
0.0447825002258444 25:1 96:1 53:1 138:1 56:1 143:1 178:1 9205:1 46590:1 
0.1044250584526715 25:1 96:1 40:1 137:1 81:1 165:1 170:1 9210:1 46590:1 
0.2453410558808639 25:1 109:1 53:1 123:1 56:1 152:1 185:1 9205:1 28841:1 
0.475394351563238 22:1 95:1 49:1 137:1 69:1 152:1 169:1 13091:1 25810:1 
0.06866772110062221 25:1 85:1 39:1 136:1 78:1 151:1 186:1 5527:1 37501:1 
0.475394351563238 1:1 108:1 53:1 123:1 67:1 162:1 169:1 12772:1 36741:1 
0.475394351563238 1:1 106:1 53:1 123:1 67:1 166:1 171:1 12772:1 37820:1 
0.475394351563238 22:1 95:1 29:1 138:1 81:1 140:1 169:1 13091:1 30212:1 
0.3885935192478829 25:1 109:1 53:1 137:1 56:1 144:1 178:1 3780:1 28341:1 
0.2218584057704597 25:1 109:1 53:1 116:1 81:1 165:1 169:1 3612:1 47207:1 
0.3866376866807985 25:1 109:1 53:1 136:1 81:1 166:1 170:1 22478:1 28414:1 
0.0002548025037912327 21:1 96:1 32:1 137:1 66:1 144:1 169:1 20949:1 42841:1 
0.1519882692079122 25:1 96:1 53:1 138:1 56:1 166:1 173:1 7386:1 29445:1 
0.475394351563238 25:1 109:1 53:1 113:1 81:1 164:1 169:1 12015:1 29353:1 
0.4607631706718007 25:1 96:1 53:1 136:1 81:1 166:1 172:1 12015:1 39706:1 
0.475394351563238 25:1 108:1 53:1 138:1 81:1 140:1 173:1 12015:1 29435:1 
0.475394351563238 12:1 96:1 49:1 116:1 68:1 165:1 170:1 4841:1 29214:1 
0.341007752561669 25:1 97:1 53:1 137:1 81:1 165:1 170:1 4624:1 48334:1 
0.1360331561870777 25:1 109:1 53:1 137:1 81:1 165:1 171:1 4624:1 39835:1 
0.475394351563238 25:1 109:1 53:1 137:1 81:1 166:1 169:1 15106:1 42863:1 
0.02110370345740932 25:1 109:1 53:1 138:1 81:1 140:1 173:1 20345:1 35905:1 
0.1646806167315661 25:1 109:1 41:1 124:1 77:1 164:1 169:1 1977:1 27648:1 
0.1901760713534799 25:1 96:1 53:1 136:1 69:1 152:1 169:1 2919:1 46681:1 
0.1535866578691924 12:1 96:1 49:1 120:1 68:1 166:1 170:1 4822:1 27491:1 
0.05142042459851708 25:1 96:1 53:1 138:1 56:1 140:1 172:1 21446:1 36537:1 
0.1093106567433851 25:1 96:1 53:1 115:1 56:1 152:1 172:1 17072:1 32190:1 
0.249095645726973 12:1 96:1 53:1 138:1 81:1 165:1 171:1 7461:1 42030:1 
0.006525114300415282 25:1 109:1 53:1 124:1 68:1 166:1 169:1 24498:1 40628:1 
0.475394351563238 25:1 96:1 53:1 138:1 81:1 140:1 169:1 15899:1 41502:1 
0.2823758240027365 8:1 109:1 28:1 135:1 56:1 165:1 170:1 16147:1 41989:1 
0.1339712387986319 25:1 92:1 53:1 138:1 64:1 152:1 171:1 16750:1 36126:1 
0.475394351563238 8:1 109:1 53:1 138:1 81:1 166:1 171:1 11397:1 28262:1 
0.475394351563238 1:1 106:1 39:1 124:1 68:1 164:1 170:1 2708:1 37927:1 
0.2635717060008226 25:1 96:1 53:1 124:1 78:1 165:1 171:1 17439:1 35546:1 
0.3786669630263085 25:1 109:1 53:1 135:1 56:1 141:1 173:1 13988:1 33136:1 
0.3633934836311811 25:1 96:1 53:1 138:1 81:1 140:1 171:1 8407:1 39338:1 
0.1968028455043127 12:1 96:1 46:1 137:1 56:1 151:1 170:1 12154:1 42981:1 
0.1230796418382591 25:1 96:1 53:1 116:1 81:1 165:1 169:1 23516:1 43842:1 
0.1243869884025547 25:1 96:1 53:1 138:1 81:1 166:1 169:1 18782:1 40849:1 
0.3241852928094571 25:1 109:1 29:1 138:1 56:1 163:1 172:1 4412:1 46757:1 
0.1814821597037686 25:1 109:1 40:1 136:1 81:1 166:1 170:1 11495:1 36224:1 
0.02594476568853085 12:1 96:1 53:1 138:1 56:1 165:1 170:1 1664:1 46201:1 
0.475394351563238 25:1 96:1 40:1 137:1 68:1 163:1 169:1 3646:1 39338:1 
0.475394351563238 25:1 109:1 40:1 135:1 68:1 164:1 170:1 3646:1 39985:1 
0.1086962621395239 25:1 96:1 53:1 116:1 68:1 165:1 172:1 15256:1 38552:1 
0.475394351563238 25:1 108:1 53:1 124:1 81:1 166:1 169:1 10124:1 36741:1 
0.08391705668844363 25:1 96:1 53:1 138:1 81:1 165:1 170:1 10124:1 44830:1 
0.08686887096535345 25:1 96:1 53:1 138:1 68:1 140:1 171:1 20902:1 32298:1 
0.2284054859723996 25:1 109:1 53:1 136:1 81:1 152:1 170:1 10377:1 26159:1 
0.475394351563238 8:1 92:1 28:1 136:1 56:1 166:1 169:1 8223:1 40860:1 
0.475394351563238 8:1 108:1 36:1 138:1 56:1 140:1 169:1 16131:1 36741:1 
0.04700992557225271 21:1 96:1 40:1 125:1 81:1 165:1 170:1 6941:1 38788:1 
0.2220199450960513 25:1 85:1 53:1 136:1 56:1 166:1 173:1 19108:1 32680:1 
0.475394351563238 1:1 108:1 53:1 138:1 81:1 166:1 169:1 7951:1 37436:1 
0.3870214739356288 24:1 85:1 53:1 138:1 56:1 165:1 170:1 4684:1 33281:1 
0.004759998106963419 25:1 108:1 29:1 112:1 80:1 141:1 169:1 8692:1 48971:1 
0.475394351563238 8:1 92:1 28:1 138:1 56:1 143:1 176:1 21551:1 34188:1 
0.4313720296383882 8:1 109:1 28:1 137:1 56:1 148:1 180:1 21551:1 29128:1 
0.3292079387669782 12:1 96:1 53:1 138:1 64:1 148:1 173:1 12155:1 30162:1 
0.2882142556901956 12:1 96:1 53:1 138:1 64:1 140:1 178:1 12155:1 30971:1 
0.05297268930697173 21:1 109:1 53:1 138:1 81:1 144:1 170:1 2157:1 49353:1 
0.2380651398876906 25:1 109:1 49:1 136:1 81:1 152:1 171:1 24624:1 30174:1 
0.2674334772048564 12:1 96:1 53:1 138:1 81:1 166:1 170:1 9730:1 32822:1 
0.07458022335477527 25:1 96:1 53:1 129:1 56:1 166:1 169:1 2104:1 48540:1 
0.475394351563238 12:1 101:1 53:1 138:1 81:1 140:1 169:1 23811:1 29207:1 
0.475394351563238 9:1 96:1 53:1 138:1 56:1 165:1 171:1 12096:1 29809:1 
0.05134683268867543 21:1 96:1 53:1 125:1 68:1 165:1 169:1 22563:1 32608:1 
0.1731347986491293 25:1 97:1 40:1 137:1 65:1 148:1 171:1 14722:1 48092:1 
0.1565137012930237 25:1 96:1 53:1 112:1 68:1 165:1 171:1 15256:1 47262:1 
0.475394351563238 14:1 108:1 28:1 123:1 56:1 162:1 169:1 22846:1 29459:1 
0.1732991475150385 21:1 96:1 40:1 133:1 78:1 152:1 171:1 18177:1 43683:1 
0.475394351563238 12:1 106:1 53:1 138:1 56:1 152:1 170:1 17191:1 30200:1 
0.05303923399527401 21:1 97:1 40:1 137:1 80:1 164:1 169:1 19937:1 43277:1 
0.3560065891526113 25:1 109:1 39:1 136:1 56:1 151:1 170:1 20925:1 45155:1 
0.475394351563238 25:1 109:1 53:1 133:1 68:1 152:1 170:1 20925:1 28604:1 
0.06519385444361794 25:1 105:1 53:1 124:1 81:1 164:1 169:1 3875:1 46860:1 
0.3327878866234993 25:1 96:1 53:1 136:1 81:1 165:1 170:1 3875:1 29564:1 
0.08753771818410279 8:1 109:1 28:1 130:1 56:1 152:1 171:1 24877:1 37277:1 
0.366900499499791 25:1 109:1 49:1 136:1 81:1 152:1 170:1 9564:1 47297:1 
0.03598693673741334 25:1 96:1 40:1 138:1 77:1 152:1 170:1 1857:1 40824:1 
0.2413979241566386 12:1 96:1 53:1 115:1 68:1 152:1 175:1 16095:1 40824:1 
0.2070018887662219 12:1 96:1 53:1 138:1 68:1 165:1 179:1 16095:1 40824:1 
0.02431369634333133 25:1 96:1 53:1 138:1 56:1 152:1 169:1 9384:1 29718:1 
0.01046027270180086 12:1 96:1 53:1 138:1 81:1 152:1 170:1 4989:1 42921:1 
0.475394351563238 12:1 96:1 40:1 138:1 81:1 165:1 170:1 18192:1 32266:1 
0.475394351563238 12:1 96:1 53:1 138:1 68:1 140:1 169:1 7535:1 36035:1 
0.2504194501263246 21:1 109:1 53:1 124:1 81:1 152:1 170:1 2157:1 41492:1 
0.475394351563238 25:1 109:1 49:1 124:1 81:1 166:1 173:1 16763:1 34241:1 
0.1526159825223553 25:1 96:1 53:1 138:1 77:1 164:1 169:1 9512:1 41827:1 
0.1891887033525863 25:1 109:1 40:1 124:1 81:1 152:1 171:1 7469:1 35837:1 
0.4062331158870143 25:1 108:1 53:1 113:1 56:1 164:1 169:1 24666:1 32460:1 
0.475394351563238 8:1 96:1 53:1 136:1 56:1 152:1 172:1 20005:1 29084:1 
0.1242238836008 25:1 109:1 53:1 129:1 56:1 165:1 171:1 5688:1 35631:1 
0.2187345458391937 25:1 96:1 53:1 138:1 73:1 140:1 169:1 19958:1 42107:1 
0.09933510477991572 11:1 95:1 52:1 123:1 81:1 162:1 169:1 302:1 30212:1 
0.2873944285612629 25:1 96:1 53:1 113:1 56:1 151:1 170:1 16261:1 33681:1 
0.1580795594390305 12:1 96:1 53:1 138:1 81:1 140:1 171:1 8952:1 45078:1 
0.09525520511225361 25:1 96:1 53:1 138:1 56:1 143:1 171:1 15101:1 33918:1 
0.0546876265719073 25:1 96:1 53:1 138:1 81:1 140:1 171:1 18931:1 36503:1 
0.475394351563238 9:1 96:1 41:1 116:1 77:1 165:1 172:1 5536:1 41637:1 
0.2283541529017114 25:1 96:1 53:1 138:1 56:1 143:1 176:1 16240:1 43848:1 
0.2921509511364646 25:1 96:1 53:1 137:1 56:1 164:1 171:1 16750:1 43683:1 
0.475394351563238 25:1 108:1 53:1 138:1 81:1 140:1 169:1 15222:1 29435:1 
0.4241433551711357 25:1 96:1 53:1 124:1 56:1 165:1 169:1 4624:1 47995:1 
0.2071311232262635 12:1 96:1 41:1 124:1 68:1 152:1 170:1 23261:1 47209:1 
0.3471443597992925 1:1 85:1 49:1 136:1 81:1 152:1 169:1 7130:1 35705:1 
0.475394351563238 12:1 109:1 49:1 113:1 81:1 152:1 171:1 1955:1 41344:1 
0.2865653694353245 25:1 96:1 40:1 138:1 77:1 165:1 172:1 16615:1 48269:1 
0.001551941960084556 25:1 96:1 53:1 129:1 56:1 144:1 169:1 18489:1 35878:1 
0.475394351563238 25:1 109:1 49:1 138:1 56:1 165:1 174:1 9311:1 30432:1 
0.2296736418597845 25:1 109:1 53:1 138:1 81:1 140:1 174:1 11273:1 47421:1 
0.3588228968838211 12:1 96:1 53:1 116:1 56:1 165:1 172:1 22449:1 47178:1 
0.02052536281167697 12:1 96:1 53:1 138:1 56:1 144:1 173:1 21595:1 32190:1 
0.3450221886603341 25:1 96:1 40:1 133:1 68:1 152:1 173:1 22497:1 39848:1 
0.02972434628581462 25:1 96:1 53:1 138:1 56:1 165:1 171:1 6980:1 44549:1 
0.08696917387774122 25:1 96:1 40:1 138:1 81:1 165:1 171:1 17826:1 27044:1 
0.1169882368069318 25:1 96:1 40:1 115:1 81:1 152:1 170:1 7564:1 34680:1 
0.009731220858921365 12:1 96:1 53:1 138:1 68:1 140:1 170:1 9951:1 40816:1 
0.3087421283577169 25:1 109:1 53:1 124:1 56:1 144:1 171:1 3540:1 34261:1 
0.04492576593833459 25:1 96:1 53:1 116:1 81:1 165:1 169:1 9532:1 45805:1 
0.07392834432130059 25:1 109:1 32:1 138:1 56:1 166:1 170:1 15106:1 35801:1 
0.003644523350140607 1:1 109:1 28:1 123:1 56:1 166:1 174:1 19101:1 44355:1 
0.3587504170966603 25:1 108:1 28:1 116:1 56:1 165:1 169:1 12791:1 29435:1 
0.1515328419217526 25:1 109:1 53:1 115:1 56:1 148:1 169:1 16261:1 35043:1 
0.475394351563238 25:1 92:1 53:1 138:1 56:1 163:1 171:1 16261:1 46570:1 
0.3385732536771964 12:1 96:1 49:1 120:1 60:1 166:1 170:1 16261:1 46551:1 
0.05152577957545061 25:1 109:1 53:1 138:1 56:1 165:1 170:1 12854:1 31325:1 
0.1416250562567487 25:1 109:1 53:1 124:1 56:1 165:1 174:1 12854:1 37583:1 
0.475394351563238 1:1 106:1 53:1 138:1 81:1 144:1 169:1 15998:1 44853:1 
0.475394351563238 1:1 85:1 53:1 134:1 81:1 166:1 172:1 15998:1 40727:1 
0.475394351563238 1:1 106:1 29:1 138:1 81:1 140:1 169:1 15998:1 44853:1 
0.475394351563238 25:1 108:1 53:1 124:1 81:1 164:1 169:1 15899:1 36741:1 
0.475394351563238 25:1 96:1 53:1 136:1 81:1 152:1 170:1 15899:1 35779:1 
0.475394351563238 25:1 109:1 53:1 116:1 81:1 165:1 171:1 8719:1 31670:1 
0.3790994402885602 25:1 109:1 53:1 138:1 81:1 140:1 174:1 6941:1 34392:1 
0.3370935060534098 25:1 109:1 53:1 135:1 56:1 165:1 169:1 16750:1 41989:1 
0.475394351563238 25:1 109:1 53:1 123:1 81:1 162:1 170:1 17260:1 28889:1 
0.06804493294349905 25:1 96:1 53:1 138:1 81:1 144:1 171:1 4160:1 29541:1 
0.0872493936450592 25:1 96:1 53:1 138:1 81:1 140:1 171:1 4160:1 27187:1 
0.3426604888302016 25:1 96:1 40:1 125:1 81:1 144:1 169:1 4624:1 44611:1 
0.3059398466502222 25:1 109:1 53:1 133:1 56:1 165:1 170:1 10644:1 48251:1 
0.4333199837399841 25:1 96:1 53:1 112:1 56:1 140:1 179:1 22563:1 41277:1 
0.2127223990620891 25:1 96:1 53:1 138:1 56:1 163:1 176:1 1795:1 31998:1 
0.475394351563238 0:1 85:1 32:1 136:1 68:1 165:1 170:1 3994:1 28304:1 
0.00250607389288488 21:1 85:1 40:1 133:1 60:1 165:1 171:1 3996:1 38037:1 
0.0009297313414529451 21:1 109:1 40:1 116:1 60:1 165:1 169:1 4624:1 26149:1 
0.475394351563238 25:1 109:1 53:1 137:1 56:1 158:1 170:1 9312:1 31296:1 
0.475394351563238 25:1 109:1 53:1 130:1 56:1 152:1 171:1 9312:1 34309:1 
0.03655756595560578 25:1 96:1 53:1 112:1 81:1 140:1 171:1 9580:1 42697:1 
0.475394351563238 12:1 109:1 49:1 124:1 81:1 165:1 170:1 12827:1 44224:1 
0.01856421821152963 12:1 96:1 53:1 138:1 81:1 165:1 170:1 21938:1 35131:1 
0.3157728643622436 25:1 109:1 53:1 126:1 81:1 164:1 170:1 15404:1 36306:1 
0.2010481158298021 25:1 96:1 53:1 138:1 81:1 152:1 173:1 15404:1 48196:1 
0.1350242572856145 25:1 85:1 53:1 138:1 81:1 166:1 179:1 15404:1 30212:1 
0.2465306024128962 12:1 96:1 52:1 138:1 81:1 151:1 171:1 23852:1 48581:1 
0.2930644987807122 25:1 96:1 53:1 123:1 56:1 162:1 170:1 20299:1 41581:1 
0.475394351563238 12:1 96:1 29:1 113:1 81:1 144:1 170:1 4822:1 29214:1 
0.475394351563238 1:1 85:1 53:1 116:1 56:1 141:1 174:1 7947:1 35996:1 
0.475394351563238 1:1 85:1 29:1 138:1 81:1 143:1 170:1 11267:1 30212:1 
0.475394351563238 12:1 97:1 40:1 116:1 81:1 165:1 169:1 13548:1 36427:1 
0.475394351563238 12:1 109:1 53:1 136:1 56:1 148:1 173:1 5132:1 48899:1 
0.475394351563238 8:1 109:1 52:1 124:1 81:1 143:1 170:1 16754:1 26135:1 
0.1456321801496635 25:1 96:1 36:1 115:1 80:1 152:1 169:1 1406:1 41741:1 
0.172229042407263 25:1 96:1 36:1 138:1 80:1 165:1 171:1 1406:1 37973:1 
0.2817960105623771 17:1 101:1 28:1 136:1 56:1 152:1 170:1 20993:1 42435:1 
0.2432453462402159 12:1 96:1 53:1 120:1 56:1 166:1 176:1 15794:1 37144:1 
0.2136286323872406 9:1 93:1 53:1 138:1 68:1 149:1 170:1 13753:1 36787:1 
0.158583350424857 25:1 96:1 53:1 123:1 56:1 162:1 171:1 9384:1 44549:1 
0.475394351563238 12:1 106:1 53:1 138:1 81:1 165:1 170:1 19820:1 31864:1 
0.1320622459707987 12:1 106:1 53:1 138:1 78:1 165:1 170:1 5664:1 42394:1 
0.1482700352643226 25:1 109:1 50:1 121:1 68:1 152:1 170:1 20235:1 45371:1 
0.475394351563238 12:1 106:1 53:1 138:1 78:1 140:1 170:1 6990:1 44654:1 
0.1654625051044274 25:1 96:1 53:1 123:1 56:1 162:1 170:1 9569:1 27269:1 
0.343553975974286 12:1 106:1 53:1 138:1 81:1 140:1 170:1 2540:1 31625:1 
0.2440704190302138 25:1 96:1 53:1 113:1 56:1 151:1 170:1 5258:1 33693:1 
0.2353549914221102 12:1 106:1 53:1 138:1 81:1 165:1 171:1 8964:1 31625:1 
0.4154452846195669 25:1 109:1 50:1 136:1 68:1 151:1 170:1 9466:1 47930:1 
0.1982986360577503 25:1 96:1 40:1 123:1 81:1 162:1 171:1 3006:1 27069:1 
0.3449360595274317 12:1 106:1 53:1 138:1 68:1 140:1 170:1 2340:1 47025:1 
0.1040705456678475 12:1 96:1 49:1 138:1 79:1 161:1 173:1 23032:1 33453:1 
0.09926013375528252 21:1 96:1 40:1 115:1 77:1 165:1 170:1 5436:1 43767:1 
0.475394351563238 12:1 96:1 40:1 138:1 68:1 152:1 170:1 24720:1 47318:1 
0.475394351563238 12:1 95:1 40:1 138:1 68:1 165:1 169:1 6227:1 30243:1 
0.2464777586165443 25:1 96:1 53:1 138:1 56:1 165:1 173:1 13251:1 37144:1 
0.1611108307408868 12:1 96:1 53:1 136:1 68:1 152:1 173:1 18252:1 44816:1 
0.134168686017592 25:1 96:1 53:1 138:1 56:1 151:1 173:1 10124:1 47668:1 
0.1244931304250055 25:1 105:1 53:1 113:1 56:1 164:1 169:1 8718:1 47292:1 
0.1361781553621834 14:1 98:1 28:1 136:1 56:1 165:1 173:1 17790:1 36334:1 
0.475394351563238 9:1 93:1 52:1 138:1 81:1 164:1 169:1 10155:1 40603:1 
0.2827259995141306 12:1 96:1 41:1 136:1 81:1 152:1 171:1 20451:1 38867:1 
0.3367262173393411 12:1 108:1 41:1 124:1 81:1 166:1 172:1 20451:1 29459:1 
0.3993692657428124 25:1 109:1 53:1 138:1 56:1 143:1 174:1 4650:1 34576:1 
0.2596175619756042 25:1 96:1 53:1 138:1 56:1 166:1 179:1 4650:1 38295:1 
0.2384848071982104 25:1 109:1 53:1 113:1 68:1 164:1 170:1 1840:1 45426:1 
0.475394351563238 14:1 98:1 46:1 116:1 56:1 161:1 171:1 3379:1 32579:1 
0.04516384405313237 25:1 96:1 53:1 138:1 56:1 149:1 172:1 22095:1 32153:1 
0.15020569986019 25:1 109:1 53:1 116:1 56:1 165:1 176:1 22095:1 44249:1 
0.475394351563238 25:1 109:1 53:1 133:1 81:1 157:1 170:1 19520:1 34052:1 
0.2293141071520295 25:1 109:1 53:1 135:1 56:1 151:1 169:1 10892:1 34053:1 
0.475394351563238 11:1 85:1 37:1 124:1 77:1 157:1 169:1 4881:1 28904:1 
0.475394351563238 12:1 101:1 49:1 125:1 74:1 165:1 169:1 3408:1 27444:1 
0.475394351563238 25:1 109:1 49:1 113:1 79:1 157:1 169:1 24890:1 29353:1 
0.475394351563238 25:1 96:1 53:1 138:1 77:1 165:1 174:1 4624:1 40987:1 
0.2864639962877704 12:1 96:1 49:1 138:1 69:1 166:1 173:1 7032:1 30432:1 
0.475394351563238 16:1 96:1 49:1 115:1 60:1 152:1 171:1 22381:1 29570:1 
0.475394351563238 16:1 96:1 49:1 137:1 60:1 166:1 173:1 22381:1 38517:1 
0.475394351563238 9:1 96:1 53:1 138:1 56:1 152:1 171:1 11916:1 27571:1 
0.4020322657914759 25:1 109:1 53:1 138:1 56:1 165:1 175:1 16626:1 34683:1 
0.2335912217171445 25:1 109:1 53:1 138:1 81:1 165:1 171:1 6803:1 32298:1 
0.1422068930720825 25:1 96:1 53:1 138:1 81:1 165:1 170:1 7564:1 47228:1 
0.1961180960112225 25:1 109:1 53:1 124:1 81:1 152:1 172:1 7564:1 34052:1 
0.475394351563238 12:1 96:1 53:1 124:1 56:1 165:1 169:1 19791:1 41501:1 
0.2678009163560106 25:1 96:1 53:1 123:1 56:1 162:1 169:1 5703:1 41710:1 
0.475394351563238 12:1 106:1 53:1 138:1 81:1 165:1 170:1 16981:1 38063:1 
0.1527161001573254 21:1 109:1 53:1 116:1 56:1 165:1 173:1 5436:1 44686:1 
0.00104730653073588 21:1 96:1 53:1 136:1 81:1 152:1 169:1 5436:1 40805:1 
0.475394351563238 25:1 109:1 49:1 113:1 81:1 152:1 170:1 21732:1 44713:1 
0.1035115301721156 25:1 105:1 49:1 116:1 81:1 165:1 174:1 21732:1 47292:1 
0.2929207307709797 21:1 109:1 53:1 136:1 77:1 152:1 170:1 22563:1 28589:1 
0.475394351563238 25:1 109:1 53:1 136:1 77:1 166:1 169:1 5703:1 39196:1 
0.475394351563238 25:1 108:1 53:1 138:1 77:1 151:1 170:1 5703:1 29435:1 
0.427796681879183 25:1 109:1 53:1 138:1 77:1 140:1 176:1 5703:1 28399:1 
0.3021089879959564 23:1 107:1 28:1 136:1 56:1 151:1 169:1 19133:1 49064:1 
0.02173946982864547 25:1 109:1 40:1 136:1 81:1 166:1 171:1 16750:1 26973:1 
0.475394351563238 25:1 108:1 53:1 138:1 68:1 140:1 169:1 2244:1 29435:1 
0.09261903541127158 17:1 101:1 53:1 138:1 81:1 157:1 170:1 10061:1 28934:1 
0.2967821285441923 17:1 101:1 53:1 113:1 81:1 164:1 172:1 10061:1 45563:1 
0.475394351563238 17:1 96:1 53:1 138:1 81:1 143:1 176:1 10061:1 49006:1 
0.05510332070532654 25:1 109:1 53:1 134:1 56:1 144:1 175:1 11319:1 35564:1 
0.3446756415405359 25:1 105:1 49:1 135:1 56:1 153:1 169:1 22823:1 47292:1 
0.2216261444758258 25:1 109:1 53:1 124:1 57:1 152:1 169:1 6289:1 28142:1 
0.1181886444270334 25:1 96:1 53:1 138:1 81:1 153:1 171:1 3413:1 46199:1 
0.3894315023796516 25:1 96:1 53:1 138:1 68:1 140:1 169:1 10740:1 49613:1 
0.0983877834780964 25:1 96:1 53:1 138:1 56:1 143:1 173:1 4406:1 30984:1 
0.1901219792861588 25:1 109:1 53:1 136:1 56:1 163:1 177:1 4406:1 35511:1 
0.1038274306779524 25:1 108:1 53:1 135:1 81:1 164:1 169:1 10782:1 36741:1 
0.475394351563238 22:1 106:1 52:1 136:1 81:1 165:1 170:1 10026:1 34755:1 
0.1615151579942245 12:1 96:1 53:1 137:1 56:1 151:1 170:1 23643:1 36084:1 
0.16868776211512 24:1 85:1 53:1 138:1 56:1 161:1 170:1 4684:1 32676:1 
0.06825499207440688 25:1 108:1 29:1 124:1 80:1 166:1 169:1 10148:1 36741:1 
0.2026624267606664 14:1 98:1 40:1 138:1 56:1 166:1 172:1 18751:1 37321:1 
0.2825993096304078 25:1 96:1 53:1 138:1 56:1 144:1 171:1 7508:1 34989:1 
0.1337761670949412 12:1 96:1 53:1 138:1 68:1 140:1 174:1 5703:1 42645:1 
0.02142938963937715 25:1 109:1 53:1 124:1 56:1 166:1 174:1 13433:1 31052:1 
0.1399627847029628 25:1 96:1 53:1 138:1 81:1 140:1 169:1 6323:1 39213:1 
0.475394351563238 25:1 109:1 53:1 123:1 56:1 162:1 172:1 5703:1 27949:1 
0.1346709311487555 12:1 96:1 50:1 116:1 81:1 144:1 171:1 14092:1 45725:1 
0.163519359673589 25:1 109:1 53:1 138:1 81:1 140:1 182:1 3220:1 47415:1 
0.1433719738604863 25:1 109:1 53:1 136:1 56:1 141:1 176:1 10814:1 42641:1 
0.01664672540951842 25:1 96:1 53:1 138:1 81:1 140:1 173:1 17912:1 38106:1 
0.475394351563238 25:1 109:1 49:1 137:1 60:1 152:1 169:1 12448:1 46757:1 
0.475394351563238 12:1 96:1 40:1 137:1 81:1 166:1 176:1 23692:1 43516:1 
0.05593641969281349 25:1 96:1 53:1 136:1 81:1 151:1 174:1 7508:1 40120:1 
0.2001713588084453 25:1 109:1 53:1 137:1 56:1 166:1 182:1 16750:1 41479:1 
0.08269399234548297 21:1 96:1 40:1 138:1 56:1 153:1 173:1 10572:1 45096:1 
0.475394351563238 25:1 108:1 40:1 124:1 81:1 152:1 169:1 14225:1 30307:1 
0.0681331198303704 25:1 96:1 53:1 138:1 56:1 165:1 173:1 24657:1 31771:1 
0.2587657951621322 12:1 96:1 53:1 136:1 81:1 165:1 173:1 15391:1 27494:1 
0.3186710968147256 25:1 109:1 53:1 137:1 56:1 166:1 181:1 7424:1 32237:1 
0.2442235950189394 25:1 109:1 53:1 137:1 81:1 165:1 169:1 7424:1 29353:1 
0.3522274422869406 25:1 96:1 53:1 138:1 81:1 140:1 177:1 7424:1 39877:1 
0.475394351563238 12:1 96:1 53:1 138:1 56:1 140:1 169:1 23648:1 46120:1 
0.1736104676779651 12:1 96:1 53:1 136:1 81:1 152:1 170:1 6703:1 37656:1 
0.4546327988353117 1:1 85:1 53:1 136:1 81:1 141:1 170:1 19101:1 30505:1 
0.3219092197834224 25:1 109:1 49:1 115:1 56:1 152:1 173:1 4041:1 30432:1 
0.475394351563238 25:1 109:1 53:1 137:1 77:1 141:1 172:1 5703:1 34854:1 
0.125306224250375 25:1 109:1 53:1 113:1 81:1 164:1 174:1 3864:1 49395:1 
0.1709393275436831 25:1 109:1 53:1 138:1 56:1 165:1 170:1 10144:1 27666:1 
0.475394351563238 12:1 109:1 53:1 136:1 81:1 152:1 170:1 7733:1 43667:1 
0.02044476812598399 25:1 96:1 53:1 138:1 81:1 140:1 173:1 17916:1 41396:1 
0.0132350682280784 25:1 96:1 53:1 136:1 77:1 153:1 170:1 8711:1 32761:1 
0.07800441531661251 25:1 96:1 53:1 138:1 81:1 140:1 172:1 24560:1 29816:1 
0.03156739292441184 12:1 96:1 53:1 136:1 81:1 152:1 171:1 16773:1 35129:1 
0.1032499089030275 21:1 97:1 42:1 136:1 59:1 151:1 171:1 22563:1 33004:1 
0.3964853135114433 25:1 108:1 53:1 138:1 56:1 163:1 169:1 3060:1 36741:1 
0.162545663104481 25:1 96:1 53:1 136:1 59:1 152:1 170:1 4155:1 33963:1 
0.3950993492990383 25:1 85:1 53:1 138:1 81:1 144:1 170:1 5703:1 38948:1 
0.475394351563238 25:1 108:1 29:1 137:1 81:1 165:1 169:1 6499:1 29435:1 
0.07974285582204296 25:1 85:1 29:1 137:1 81:1 166:1 172:1 1840:1 31228:1 
0.475394351563238 1:1 109:1 53:1 138:1 57:1 140:1 169:1 6499:1 39196:1 
0.475394351563238 25:1 109:1 53:1 113:1 56:1 165:1 170:1 19621:1 39763:1 
0.202824988856631 25:1 109:1 53:1 113:1 81:1 166:1 170:1 15034:1 39763:1 
0.2692101812199408 25:1 96:1 53:1 138:1 56:1 152:1 171:1 14700:1 45158:1 
0.0510475361977004 25:1 109:1 53:1 136:1 56:1 166:1 186:1 14700:1 31613:1 
0.475394351563238 25:1 108:1 53:1 138:1 81:1 140:1 169:1 6884:1 36741:1 
0.3683093421692315 4:1 106:1 53:1 138:1 56:1 140:1 171:1 24471:1 47567:1 
0.475394351563238 12:1 98:1 31:1 138:1 68:1 165:1 169:1 6316:1 47449:1 
0.475394351563238 12:1 109:1 31:1 124:1 68:1 152:1 171:1 6316:1 34260:1 
0.06657707949410924 25:1 96:1 40:1 138:1 59:1 144:1 170:1 9531:1 28601:1 
0.475394351563238 25:1 109:1 49:1 126:1 56:1 161:1 170:1 2363:1 33967:1 
0.3649379215159644 9:1 93:1 49:1 120:1 69:1 164:1 169:1 13858:1 37619:1 
0.1427624479513094 25:1 96:1 53:1 138:1 56:1 152:1 172:1 22501:1 36272:1 
0.1300918917811182 12:1 96:1 53:1 138:1 81:1 152:1 176:1 11543:1 45138:1 
0.2633504779255443 12:1 96:1 53:1 138:1 81:1 140:1 180:1 11543:1 27646:1 
0.475394351563238 25:1 108:1 53:1 138:1 56:1 165:1 169:1 3841:1 29435:1 
0.1594292777250953 1:1 85:1 49:1 136:1 81:1 152:1 172:1 5483:1 32262:1 
0.02135574828348564 25:1 109:1 52:1 137:1 81:1 144:1 181:1 16750:1 34748:1 
0.475394351563238 25:1 109:1 53:1 116:1 80:1 142:1 169:1 10019:1 31670:1 
0.475394351563238 3:1 96:1 31:1 137:1 81:1 164:1 169:1 22200:1 37977:1 
0.1080990197169057 25:1 109:1 45:1 138:1 77:1 161:1 169:1 19539:1 49399:1 
0.2522585199384485 25:1 109:1 45:1 137:1 77:1 152:1 174:1 19539:1 34676:1 
0.03155182725371793 25:1 109:1 53:1 124:1 73:1 152:1 169:1 9947:1 43624:1 
0.1551057516952487 25:1 96:1 53:1 138:1 81:1 140:1 172:1 18895:1 43546:1 
0.4647535441974889 1:1 85:1 53:1 138:1 56:1 140:1 171:1 11987:1 47102:1 
0.475394351563238 1:1 105:1 28:1 128:1 56:1 166:1 171:1 9670:1 47292:1 
0.475394351563238 16:1 100:1 49:1 138:1 57:1 156:1 170:1 14505:1 39232:1 
0.475394351563238 16:1 100:1 49:1 138:1 57:1 156:1 172:1 14505:1 26352:1 
0.475394351563238 16:1 100:1 49:1 136:1 57:1 144:1 174:1 14505:1 31323:1 
0.475394351563238 16:1 108:1 49:1 116:1 57:1 141:1 175:1 14505:1 29459:1 
0.364232183653917 25:1 109:1 49:1 128:1 68:1 164:1 171:1 1840:1 30100:1 
0.1670856204442432 25:1 96:1 53:1 138:1 77:1 161:1 171:1 5371:1 38257:1 
0.2337232819093534 25:1 85:1 49:1 138:1 68:1 165:1 171:1 1925:1 43830:1 
0.475394351563238 25:1 108:1 29:1 116:1 81:1 141:1 169:1 14457:1 36741:1 
0.475394351563238 25:1 96:1 29:1 138:1 81:1 140:1 173:1 14457:1 49411:1 
