svm_type c_svc
kernel_type rbf
gamma 0.18
nr_class 2
total_sv 38837
rho -0.376372
label 1 -1
nr_sv 27294 11543
SV
0.03140300553078208 18:1 96:1 40:1 138:1 81:1 165:1 169:1 20246:1 34394:1 
0.2292886266827635 23:1 92:1 31:1 138:1 56:1 148:1 170:1 19133:1 34710:1 
0.2292886266827635 25:1 96:1 53:1 136:1 64:1 152:1 171:1 22028:1 40805:1 
0.2095072587540321 4:1 109:1 53:1 116:1 59:1 141:1 169:1 22422:1 49227:1 
0.2292886266827635 12:1 109:1 36:1 116:1 81:1 141:1 172:1 4649:1 49227:1 
0.1327144460092948 4:1 85:1 53:1 138:1 64:1 140:1 169:1 22422:1 35942:1 
0.2292886266827635 12:1 108:1 49:1 124:1 81:1 153:1 169:1 8235:1 29435:1 
0.03626240831251797 12:1 109:1 41:1 136:1 77:1 152:1 173:1 15327:1 37466:1 
0.2292886266827635 25:1 108:1 53:1 124:1 56:1 166:1 169:1 12737:1 29435:1 
0.2292886266827635 12:1 93:1 49:1 138:1 60:1 165:1 169:1 14484:1 48865:1 
0.005292968920667297 12:1 96:1 53:1 138:1 56:1 158:1 169:1 13850:1 46588:1 
0.2292886266827635 18:1 105:1 40:1 130:1 81:1 166:1 169:1 18646:1 29353:1 
0.2292886266827635 17:1 97:1 46:1 138:1 77:1 157:1 169:1 7612:1 38186:1 
0.2292886266827635 17:1 97:1 45:1 115:1 69:1 153:1 169:1 8453:1 44171:1 
0.2292886266827635 13:1 109:1 46:1 120:1 77:1 166:1 177:1 13457:1 46757:1 
0.2292886266827635 12:1 96:1 30:1 138:1 81:1 165:1 170:1 2468:1 40102:1 
0.1306255105324456 2:1 96:1 53:1 138:1 56:1 165:1 171:1 7539:1 40102:1 
0.2292886266827635 23:1 108:1 49:1 124:1 68:1 153:1 169:1 13628:1 29435:1 
0.2292886266827635 12:1 109:1 53:1 113:1 81:1 152:1 169:1 15327:1 49243:1 
0.147380553442242 12:1 96:1 30:1 138:1 80:1 140:1 169:1 10260:1 30969:1 
0.1986092448008834 12:1 108:1 53:1 124:1 56:1 152:1 169:1 22008:1 29435:1 
0.2292886266827635 12:1 109:1 53:1 136:1 56:1 151:1 169:1 13594:1 47421:1 
0.2292886266827635 2:1 96:1 37:1 136:1 77:1 152:1 169:1 3106:1 36316:1 
0.1414157469087876 9:1 96:1 49:1 136:1 81:1 152:1 170:1 1465:1 36316:1 
0.2292886266827635 12:1 108:1 49:1 124:1 81:1 161:1 169:1 11587:1 29435:1 
0.09114747600486065 21:1 109:1 53:1 137:1 56:1 152:1 176:1 1618:1 32115:1 
0.1767675203568267 18:1 109:1 40:1 123:1 57:1 162:1 170:1 589:1 46757:1 
0.2292886266827635 12:1 109:1 29:1 123:1 81:1 162:1 171:1 12828:1 46757:1 
0.05960634957539934 11:1 106:1 53:1 138:1 81:1 158:1 169:1 418:1 37656:1 
0.05960634957539951 11:1 106:1 53:1 138:1 81:1 158:1 169:1 392:1 37656:1 
0.1068172048593745 12:1 109:1 46:1 123:1 78:1 162:1 171:1 12828:1 28845:1 
0.2292886266827635 25:1 109:1 53:1 136:1 56:1 166:1 169:1 10997:1 28845:1 
0.002155885739694377 18:1 102:1 45:1 124:1 71:1 166:1 169:1 390:1 25531:1 
0.001749859745522918 17:1 96:1 43:1 138:1 56:1 152:1 171:1 2483:1 29697:1 
0.2292886266827635 18:1 109:1 42:1 124:1 70:1 166:1 173:1 802:1 30382:1 
0.2292886266827635 14:1 109:1 42:1 124:1 68:1 166:1 174:1 10047:1 30382:1 
0.2292886266827635 14:1 109:1 40:1 124:1 56:1 166:1 178:1 12468:1 30382:1 
0.2292886266827635 12:1 96:1 49:1 116:1 74:1 165:1 173:1 10285:1 30616:1 
0.1413941186008348 18:1 109:1 45:1 136:1 81:1 152:1 177:1 599:1 39818:1 
0.2292886266827635 17:1 109:1 53:1 136:1 81:1 152:1 178:1 13867:1 39818:1 
0.2292886266827635 17:1 109:1 53:1 137:1 56:1 165:1 172:1 23636:1 34306:1 
0.2292886266827635 25:1 109:1 53:1 137:1 56:1 151:1 169:1 9577:1 41479:1 
0.2292886266827635 1:1 108:1 40:1 130:1 81:1 152:1 169:1 7947:1 29435:1 
0.2292886266827635 25:1 108:1 53:1 130:1 81:1 152:1 174:1 6941:1 29435:1 
0.2292886266827635 17:1 108:1 28:1 129:1 56:1 158:1 169:1 12679:1 29435:1 
0.2292886266827635 18:1 97:1 53:1 138:1 56:1 165:1 169:1 599:1 29530:1 
0.2292886266827635 12:1 109:1 53:1 136:1 69:1 152:1 172:1 23264:1 42646:1 
0.2292886266827635 25:1 108:1 53:1 124:1 69:1 143:1 169:1 17917:1 29435:1 
0.2292886266827635 12:1 109:1 41:1 137:1 81:1 152:1 172:1 19928:1 46227:1 
0.01865744627722033 11:1 96:1 53:1 136:1 79:1 152:1 169:1 1695:1 49135:1 
0.2292886266827635 22:1 97:1 40:1 138:1 56:1 163:1 169:1 13635:1 36427:1 
0.01509849764937088 12:1 96:1 49:1 138:1 79:1 165:1 169:1 21622:1 34879:1 
0.2292886266827635 13:1 109:1 40:1 137:1 56:1 158:1 176:1 11698:1 27928:1 
0.1981358246454561 4:1 109:1 53:1 124:1 74:1 166:1 169:1 2222:1 46757:1 
0.2292886266827635 12:1 85:1 31:1 138:1 68:1 165:1 170:1 21593:1 44936:1 
0.2292886266827635 23:1 109:1 53:1 123:1 81:1 162:1 169:1 17643:1 41479:1 
0.2292886266827635 25:1 109:1 29:1 123:1 81:1 162:1 171:1 10532:1 41479:1 
0.06675166155873896 22:1 96:1 53:1 138:1 57:1 140:1 170:1 14111:1 47251:1 
0.2292886266827635 12:1 108:1 53:1 124:1 56:1 140:1 169:1 13143:1 29435:1 
0.2292886266827635 1:1 108:1 53:1 124:1 81:1 140:1 169:1 18161:1 29435:1 
0.2292886266827635 1:1 108:1 53:1 124:1 81:1 166:1 169:1 6745:1 29435:1 
0.2292886266827635 25:1 85:1 51:1 138:1 81:1 148:1 169:1 21764:1 34985:1 
0.2292886266827635 8:1 108:1 29:1 124:1 79:1 166:1 169:1 15736:1 29435:1 
0.2292886266827635 23:1 96:1 53:1 138:1 56:1 165:1 174:1 23062:1 32857:1 
0.2292886266827635 1:1 108:1 40:1 124:1 68:1 148:1 173:1 19557:1 48086:1 
0.2292886266827635 12:1 92:1 40:1 138:1 68:1 141:1 169:1 14966:1 46736:1 
0.2292886266827635 12:1 85:1 36:1 138:1 68:1 141:1 170:1 6652:1 42072:1 
0.2292886266827635 23:1 109:1 49:1 136:1 56:1 151:1 169:1 19126:1 41564:1 
0.1728400917204885 25:1 108:1 49:1 123:1 56:1 141:1 169:1 16835:1 29435:1 
0.2292886266827635 1:1 106:1 39:1 124:1 80:1 153:1 169:1 4175:1 49476:1 
0.2292886266827635 12:1 109:1 39:1 136:1 81:1 161:1 169:1 14059:1 49124:1 
0.2292886266827635 3:1 85:1 53:1 138:1 68:1 163:1 169:1 17533:1 34213:1 
0.2292886266827635 25:1 85:1 40:1 138:1 68:1 163:1 170:1 24655:1 34213:1 
0.2292886266827635 12:1 85:1 29:1 138:1 68:1 140:1 170:1 14966:1 38473:1 
0.2292886266827635 12:1 108:1 49:1 124:1 81:1 166:1 169:1 24361:1 29435:1 
0.2292886266827635 12:1 85:1 53:1 115:1 68:1 152:1 169:1 19894:1 43758:1 
0.2292886266827635 24:1 109:1 40:1 137:1 68:1 166:1 169:1 4811:1 43160:1 
0.2292886266827635 21:1 109:1 49:1 113:1 81:1 141:1 170:1 1618:1 34298:1 
0.2292886266827635 12:1 96:1 40:1 138:1 80:1 165:1 169:1 19759:1 32398:1 
0.2078540949948902 12:1 96:1 53:1 115:1 81:1 165:1 169:1 18277:1 29078:1 
0.2292886266827635 9:1 108:1 49:1 124:1 56:1 165:1 177:1 21286:1 29435:1 
0.2292886266827635 12:1 109:1 49:1 125:1 56:1 166:1 169:1 5899:1 48183:1 
0.2292886266827635 17:1 108:1 53:1 124:1 56:1 152:1 169:1 19867:1 29435:1 
0.1761025104117 1:1 108:1 49:1 124:1 74:1 153:1 169:1 24768:1 29435:1 
0.1849742281765264 17:1 109:1 41:1 137:1 77:1 152:1 170:1 11302:1 35279:1 
0.2292886266827635 25:1 96:1 53:1 138:1 56:1 140:1 170:1 16320:1 46234:1 
0.2292886266827635 25:1 96:1 45:1 137:1 77:1 152:1 170:1 24054:1 29035:1 
0.2292886266827635 18:1 106:1 39:1 138:1 56:1 157:1 170:1 20246:1 42714:1 
0.2292886266827635 17:1 109:1 50:1 123:1 67:1 152:1 173:1 2031:1 35279:1 
0.2292886266827635 22:1 109:1 39:1 123:1 56:1 152:1 175:1 17985:1 35279:1 
0.2292886266827635 12:1 109:1 53:1 129:1 56:1 157:1 169:1 15297:1 29448:1 
0.1906942134937637 17:1 101:1 53:1 115:1 81:1 151:1 169:1 1559:1 27853:1 
0.1063483439465252 12:1 109:1 31:1 128:1 73:1 152:1 169:1 15297:1 29448:1 
0.2052444619904278 16:1 96:1 53:1 124:1 81:1 166:1 169:1 5167:1 37920:1 
0.1632682428761943 12:1 96:1 53:1 138:1 81:1 158:1 169:1 13191:1 42376:1 
0.2292886266827635 18:1 85:1 40:1 138:1 81:1 152:1 170:1 20214:1 31434:1 
0.2292886266827635 1:1 96:1 40:1 138:1 81:1 140:1 170:1 6705:1 33568:1 
0.01534945716221514 1:1 95:1 31:1 134:1 70:1 156:1 169:1 10167:1 39296:1 
0.02768913692967679 11:1 106:1 31:1 128:1 70:1 152:1 169:1 14567:1 37927:1 
0.01920125239170135 16:1 96:1 50:1 137:1 59:1 152:1 169:1 7818:1 46742:1 
0.2292886266827635 14:1 109:1 53:1 124:1 56:1 152:1 175:1 12571:1 28435:1 
0.2292886266827635 12:1 96:1 53:1 112:1 81:1 140:1 169:1 8561:1 33568:1 
0.2292886266827635 18:1 92:1 40:1 138:1 56:1 157:1 169:1 21300:1 44976:1 
0.05479154325827553 19:1 96:1 45:1 113:1 64:1 165:1 169:1 23679:1 26710:1 
0.2292886266827635 17:1 96:1 36:1 113:1 68:1 165:1 170:1 1548:1 26710:1 
0.2292886266827635 12:1 109:1 36:1 124:1 68:1 166:1 170:1 1981:1 30382:1 
0.2292886266827635 8:1 109:1 40:1 124:1 56:1 166:1 174:1 20247:1 30382:1 
0.2292886266827635 17:1 109:1 53:1 136:1 68:1 141:1 173:1 23636:1 39818:1 
0.2292886266827635 25:1 108:1 53:1 113:1 68:1 152:1 169:1 15089:1 29435:1 
0.2292886266827635 12:1 96:1 40:1 124:1 81:1 148:1 169:1 19759:1 29078:1 
0.2292886266827635 12:1 96:1 40:1 120:1 81:1 166:1 169:1 4349:1 28166:1 
0.2292886266827635 12:1 92:1 40:1 138:1 81:1 166:1 169:1 3437:1 46984:1 
0.2292886266827635 18:1 96:1 40:1 138:1 81:1 155:1 170:1 22297:1 35184:1 
0.2106098111953415 12:1 96:1 53:1 138:1 56:1 155:1 171:1 8786:1 35184:1 
0.2292886266827635 15:1 96:1 40:1 114:1 81:1 152:1 170:1 20229:1 30864:1 
0.2292886266827635 12:1 96:1 40:1 126:1 81:1 165:1 170:1 6135:1 40792:1 
0.2292886266827635 12:1 98:1 40:1 137:1 81:1 164:1 169:1 16063:1 39564:1 
0.2292886266827635 14:1 109:1 40:1 136:1 81:1 152:1 169:1 14835:1 28435:1 
0.2292886266827635 12:1 108:1 49:1 124:1 60:1 152:1 169:1 23643:1 29435:1 
0.2182925548069939 9:1 96:1 49:1 138:1 68:1 161:1 171:1 20846:1 32756:1 
0.2292886266827635 12:1 96:1 40:1 136:1 81:1 152:1 169:1 11956:1 32153:1 
0.2292886266827635 25:1 96:1 49:1 136:1 68:1 152:1 171:1 11183:1 32153:1 
0.2292886266827635 12:1 108:1 49:1 124:1 68:1 143:1 169:1 7424:1 29435:1 
0.0998038377914089 1:1 96:1 53:1 137:1 74:1 166:1 169:1 14693:1 36269:1 
0.2292886266827635 12:1 97:1 53:1 123:1 74:1 152:1 169:1 8542:1 46257:1 
0.2292886266827635 11:1 96:1 41:1 137:1 81:1 151:1 169:1 4185:1 29570:1 
0.2292886266827635 12:1 109:1 53:1 123:1 74:1 162:1 169:1 4841:1 46757:1 
0.08284549326894608 11:1 106:1 50:1 113:1 81:1 152:1 169:1 1035:1 33851:1 
0.2292886266827635 22:1 106:1 53:1 113:1 56:1 152:1 171:1 9122:1 33851:1 
0.2292886266827635 22:1 96:1 53:1 138:1 56:1 149:1 170:1 9122:1 26754:1 
0.2292886266827635 17:1 97:1 31:1 137:1 73:1 151:1 169:1 8453:1 26747:1 
0.2292886266827635 9:1 109:1 40:1 123:1 81:1 162:1 174:1 9631:1 46757:1 
0.1931390233444781 11:1 106:1 50:1 113:1 81:1 152:1 169:1 1035:1 33851:1 
0.2292886266827635 22:1 106:1 53:1 113:1 81:1 152:1 171:1 9122:1 33851:1 
0.2292886266827635 22:1 96:1 53:1 138:1 81:1 152:1 170:1 9122:1 26754:1 
0.2292886266827635 13:1 96:1 40:1 137:1 68:1 151:1 171:1 5155:1 32569:1 
0.2292886266827635 12:1 96:1 40:1 137:1 81:1 151:1 172:1 19130:1 32569:1 
0.2292886266827635 12:1 109:1 40:1 123:1 81:1 162:1 169:1 7840:1 46757:1 
0.007808715942911449 11:1 106:1 53:1 138:1 81:1 151:1 169:1 1035:1 33851:1 
0.2292886266827635 22:1 106:1 53:1 124:1 81:1 166:1 171:1 9122:1 33851:1 
0.1058114847435509 22:1 96:1 53:1 138:1 81:1 140:1 169:1 9122:1 28939:1 
0.2292886266827635 23:1 109:1 53:1 115:1 68:1 165:1 170:1 19133:1 39803:1 
0.2292886266827635 25:1 109:1 40:1 115:1 68:1 165:1 173:1 3658:1 39803:1 
0.1227131085927602 4:1 109:1 53:1 124:1 81:1 143:1 170:1 2231:1 46568:1 
0.2292886266827635 22:1 85:1 51:1 138:1 56:1 148:1 170:1 12990:1 31434:1 
0.2238971968580109 22:1 85:1 36:1 138:1 57:1 152:1 169:1 11890:1 39682:1 
0.02055709350282757 12:1 109:1 29:1 123:1 64:1 162:1 169:1 16120:1 28508:1 
0.1614911444603484 22:1 96:1 53:1 138:1 57:1 152:1 171:1 17841:1 48397:1 
0.2292886266827635 12:1 97:1 40:1 137:1 81:1 151:1 169:1 14655:1 36427:1 
0.2292886266827635 12:1 109:1 49:1 125:1 56:1 164:1 170:1 7639:1 34306:1 
0.121077936814045 12:1 109:1 46:1 136:1 56:1 151:1 173:1 5002:1 48675:1 
0.1802940140668387 12:1 109:1 50:1 138:1 80:1 152:1 169:1 17935:1 43624:1 
0.2292886266827635 12:1 96:1 53:1 138:1 78:1 164:1 169:1 21062:1 27558:1 
0.2292886266827635 12:1 96:1 40:1 138:1 80:1 140:1 169:1 11833:1 43371:1 
0.1309190740863066 12:1 96:1 52:1 138:1 78:1 140:1 170:1 14998:1 43371:1 
0.2292886266827635 11:1 109:1 49:1 125:1 68:1 161:1 169:1 5488:1 44866:1 
0.1460333053418474 25:1 97:1 49:1 133:1 68:1 158:1 169:1 20137:1 33004:1 
0.2292886266827635 12:1 109:1 53:1 136:1 56:1 166:1 175:1 13800:1 49395:1 
0.02172144112996146 12:1 96:1 53:1 138:1 68:1 140:1 169:1 23962:1 38106:1 
0.2292886266827635 1:1 108:1 29:1 124:1 79:1 166:1 169:1 3805:1 48086:1 
0.06736887235122956 1:1 108:1 51:1 124:1 56:1 166:1 170:1 16279:1 48086:1 
0.1502706506665157 14:1 96:1 49:1 124:1 81:1 166:1 169:1 20584:1 44424:1 
0.1350601473816364 12:1 96:1 49:1 138:1 81:1 140:1 169:1 19695:1 46211:1 
0.2292886266827635 1:1 106:1 39:1 121:1 80:1 152:1 169:1 4175:1 38795:1 
0.2292886266827635 9:1 96:1 50:1 138:1 80:1 161:1 169:1 13762:1 41502:1 
0.02388544812017159 8:1 108:1 28:1 126:1 56:1 165:1 169:1 12864:1 29435:1 
0.2292886266827635 12:1 96:1 40:1 138:1 81:1 161:1 169:1 7041:1 34734:1 
0.2292886266827635 25:1 109:1 53:1 137:1 81:1 141:1 170:1 10391:1 28450:1 
0.02396271802196638 1:1 96:1 53:1 138:1 56:1 165:1 169:1 9423:1 28828:1 
0.2292886266827635 12:1 108:1 50:1 116:1 80:1 152:1 169:1 23961:1 29435:1 
0.04340285955380696 12:1 85:1 29:1 138:1 56:1 165:1 169:1 14281:1 30016:1 
0.2292886266827635 25:1 109:1 29:1 138:1 57:1 163:1 169:1 2644:1 45166:1 
0.2292886266827635 1:1 109:1 28:1 138:1 56:1 163:1 173:1 6705:1 45166:1 
0.2292886266827635 23:1 109:1 53:1 137:1 56:1 152:1 170:1 17641:1 26777:1 
0.2292886266827635 8:1 108:1 36:1 137:1 81:1 152:1 169:1 21216:1 29540:1 
0.2292886266827635 12:1 96:1 40:1 138:1 78:1 144:1 169:1 9157:1 40102:1 
0.2292886266827635 1:1 108:1 32:1 133:1 68:1 151:1 169:1 10113:1 29540:1 
0.2292886266827635 12:1 96:1 40:1 138:1 78:1 161:1 169:1 16040:1 44303:1 
0.01906179282452172 12:1 96:1 50:1 138:1 77:1 161:1 170:1 2216:1 44303:1 
0.2292886266827635 12:1 109:1 49:1 136:1 68:1 152:1 170:1 10329:1 40767:1 
0.2292886266827635 25:1 108:1 49:1 124:1 68:1 152:1 169:1 16038:1 29435:1 
0.2292886266827635 12:1 108:1 49:1 124:1 68:1 152:1 169:1 3269:1 29435:1 
0.2292886266827635 22:1 97:1 53:1 138:1 56:1 144:1 169:1 13635:1 36044:1 
0.1813689453084247 19:1 96:1 53:1 136:1 81:1 152:1 169:1 2925:1 32019:1 
0.2292886266827635 12:1 108:1 53:1 124:1 81:1 166:1 169:1 7290:1 29435:1 
0.2292886266827635 12:1 96:1 53:1 138:1 81:1 140:1 173:1 17463:1 31771:1 
0.1610792649672628 11:1 106:1 51:1 116:1 69:1 165:1 169:1 664:1 47025:1 
0.110313358272434 23:1 106:1 41:1 116:1 77:1 165:1 170:1 12877:1 47025:1 
0.2292886266827635 13:1 106:1 49:1 116:1 60:1 165:1 171:1 14616:1 47025:1 
0.2292886266827635 18:1 108:1 53:1 123:1 81:1 162:1 169:1 599:1 29435:1 
0.1644195642184965 17:1 101:1 28:1 115:1 56:1 165:1 169:1 20412:1 41909:1 
0.2292886266827635 1:1 96:1 53:1 137:1 78:1 166:1 169:1 5483:1 32510:1 
0.2292886266827635 12:1 109:1 53:1 138:1 78:1 152:1 169:1 7781:1 41044:1 
0.0625191952008894 21:1 109:1 53:1 113:1 68:1 152:1 171:1 6941:1 45258:1 
0.2292886266827635 25:1 109:1 40:1 113:1 68:1 152:1 172:1 21939:1 45258:1 
0.2292886266827635 12:1 109:1 53:1 113:1 81:1 152:1 175:1 19890:1 45258:1 
0.2292886266827635 12:1 96:1 53:1 124:1 81:1 166:1 170:1 15297:1 46448:1 
0.2292886266827635 12:1 96:1 53:1 138:1 81:1 165:1 169:1 21719:1 31719:1 
0.2292886266827635 12:1 108:1 49:1 124:1 56:1 161:1 169:1 17225:1 29435:1 
0.2292886266827635 12:1 108:1 53:1 114:1 77:1 165:1 173:1 2916:1 29435:1 
0.1311071106717697 12:1 107:1 46:1 137:1 56:1 148:1 169:1 15140:1 31644:1 
0.2292886266827635 8:1 108:1 53:1 124:1 56:1 152:1 169:1 6187:1 29435:1 
0.2292886266827635 15:1 96:1 40:1 137:1 56:1 152:1 170:1 7710:1 49192:1 
0.2292886266827635 14:1 109:1 40:1 133:1 81:1 157:1 170:1 14611:1 34693:1 
0.09789482383989981 17:1 96:1 53:1 136:1 74:1 151:1 169:1 7596:1 32659:1 
0.03227049851527512 1:1 108:1 40:1 137:1 74:1 161:1 169:1 14239:1 29540:1 
0.1517444501374737 12:1 109:1 46:1 133:1 56:1 152:1 171:1 6042:1 34417:1 
0.2292886266827635 12:1 109:1 40:1 137:1 69:1 165:1 169:1 15326:1 46564:1 
0.2292886266827635 12:1 109:1 41:1 137:1 77:1 165:1 171:1 16548:1 46564:1 
0.2292886266827635 14:1 108:1 53:1 124:1 81:1 166:1 169:1 22878:1 29435:1 
0.2292886266827635 12:1 109:1 53:1 138:1 81:1 140:1 170:1 7915:1 30563:1 
0.008813745839174523 17:1 109:1 28:1 123:1 56:1 166:1 170:1 21773:1 37944:1 
0.2292886266827635 12:1 96:1 40:1 116:1 59:1 151:1 169:1 14484:1 27175:1 
0.2292886266827635 12:1 109:1 50:1 123:1 68:1 162:1 171:1 10036:1 46757:1 
0.03834837686086742 11:1 106:1 53:1 138:1 78:1 144:1 169:1 358:1 37656:1 
0.2292886266827635 25:1 108:1 53:1 124:1 68:1 144:1 169:1 10643:1 29435:1 
0.2292886266827635 25:1 109:1 40:1 115:1 68:1 165:1 173:1 21988:1 44898:1 
0.1560362453518668 12:1 109:1 28:1 115:1 56:1 165:1 177:1 8800:1 44898:1 
0.1853935476164968 8:1 96:1 53:1 138:1 81:1 140:1 169:1 5555:1 48925:1 
0.2292886266827635 12:1 96:1 45:1 137:1 56:1 165:1 172:1 3055:1 28399:1 
0.2292886266827635 11:1 96:1 40:1 133:1 77:1 165:1 171:1 2758:1 29854:1 
0.2292886266827635 12:1 109:1 40:1 129:1 77:1 164:1 170:1 5125:1 48261:1 
0.2292886266827635 17:1 108:1 53:1 124:1 56:1 153:1 169:1 21548:1 29435:1 
0.2292886266827635 12:1 97:1 53:1 138:1 56:1 143:1 169:1 11108:1 48095:1 
0.03494024143063439 1:1 95:1 53:1 134:1 68:1 165:1 169:1 10167:1 26526:1 
0.2108756259796108 25:1 109:1 40:1 136:1 59:1 166:1 172:1 17925:1 30381:1 
0.03424444857981956 12:1 109:1 31:1 136:1 81:1 166:1 173:1 23264:1 30381:1 
0.1204457632241247 3:1 109:1 53:1 136:1 56:1 166:1 174:1 21970:1 30381:1 
0.2292886266827635 1:1 96:1 29:1 137:1 68:1 166:1 169:1 10480:1 26942:1 
0.2292886266827635 1:1 96:1 40:1 137:1 64:1 166:1 170:1 20207:1 26942:1 
0.2292886266827635 12:1 109:1 40:1 138:1 64:1 158:1 169:1 2213:1 42930:1 
0.2292886266827635 12:1 109:1 36:1 138:1 81:1 158:1 172:1 15161:1 42930:1 
0.1557511921236845 18:1 102:1 53:1 125:1 81:1 152:1 169:1 651:1 47026:1 
0.03677061060537772 18:1 97:1 53:1 124:1 81:1 165:1 169:1 22297:1 39345:1 
0.1470098264496602 25:1 109:1 40:1 124:1 69:1 166:1 170:1 10960:1 30155:1 
0.2292886266827635 13:1 109:1 53:1 124:1 81:1 166:1 172:1 14616:1 30155:1 
0.2292886266827635 17:1 96:1 53:1 138:1 68:1 140:1 170:1 13299:1 31461:1 
0.2292886266827635 18:1 109:1 53:1 135:1 77:1 165:1 170:1 599:1 38954:1 
0.2292886266827635 23:1 109:1 53:1 123:1 81:1 152:1 169:1 12883:1 46757:1 
0.2292886266827635 25:1 109:1 53:1 123:1 77:1 152:1 170:1 14225:1 46757:1 
0.0001826868786207673 11:1 96:1 53:1 137:1 56:1 161:1 169:1 729:1 40026:1 
0.2292886266827635 12:1 109:1 53:1 133:1 56:1 152:1 169:1 15297:1 42073:1 
0.03389327037149154 11:1 106:1 53:1 116:1 68:1 165:1 169:1 1010:1 30884:1 
0.2292886266827635 12:1 109:1 40:1 136:1 81:1 151:1 175:1 2391:1 33800:1 
0.1491198241806147 3:1 96:1 40:1 136:1 80:1 152:1 172:1 9094:1 27126:1 
0.1133223627458538 12:1 108:1 52:1 124:1 81:1 166:1 174:1 10696:1 48086:1 
0.1580416255313901 11:1 96:1 53:1 137:1 68:1 165:1 169:1 21583:1 39609:1 
0.2292886266827635 8:1 108:1 53:1 124:1 81:1 166:1 169:1 7991:1 29435:1 
0.2292886266827635 12:1 109:1 53:1 138:1 68:1 144:1 169:1 5278:1 32899:1 
0.04394893965287852 4:1 109:1 53:1 124:1 81:1 166:1 169:1 13519:1 28142:1 
0.2292886266827635 12:1 96:1 40:1 138:1 74:1 163:1 169:1 18371:1 33494:1 
0.2292886266827635 12:1 96:1 46:1 138:1 81:1 163:1 170:1 2786:1 33494:1 
0.2292886266827635 18:1 96:1 53:1 138:1 81:1 163:1 173:1 13162:1 33494:1 
0.2292886266827635 12:1 108:1 53:1 124:1 81:1 166:1 171:1 8765:1 29435:1 
0.2292886266827635 12:1 109:1 53:1 133:1 56:1 163:1 170:1 2521:1 41105:1 
0.2292886266827635 12:1 108:1 49:1 124:1 81:1 164:1 169:1 11528:1 29435:1 
0.1748490320171053 24:1 96:1 40:1 138:1 77:1 140:1 169:1 23357:1 28480:1 
0.2292886266827635 1:1 108:1 49:1 124:1 79:1 152:1 169:1 9604:1 29435:1 
0.2292886266827635 12:1 96:1 52:1 136:1 77:1 152:1 171:1 6141:1 35961:1 
0.2292886266827635 12:1 108:1 49:1 124:1 79:1 153:1 169:1 11232:1 29435:1 
0.1932926758194087 12:1 97:1 49:1 133:1 79:1 163:1 169:1 17082:1 44332:1 
0.2292886266827635 4:1 109:1 53:1 113:1 81:1 164:1 171:1 15217:1 41145:1 
0.2292886266827635 12:1 108:1 40:1 113:1 81:1 152:1 169:1 19076:1 29435:1 
0.2292886266827635 12:1 96:1 53:1 138:1 81:1 165:1 172:1 12203:1 45161:1 
0.2292886266827635 25:1 96:1 53:1 124:1 68:1 164:1 169:1 19186:1 33783:1 
0.2292886266827635 12:1 108:1 53:1 124:1 68:1 166:1 169:1 21256:1 29435:1 
0.03554618333596273 18:1 96:1 53:1 138:1 81:1 149:1 169:1 4524:1 45454:1 
0.2292886266827635 9:1 96:1 40:1 124:1 81:1 166:1 169:1 3778:1 45469:1 
0.2292886266827635 12:1 96:1 40:1 138:1 81:1 140:1 169:1 20740:1 43762:1 
0.2292886266827635 12:1 108:1 49:1 123:1 56:1 152:1 169:1 14484:1 29435:1 
0.2292886266827635 12:1 109:1 49:1 137:1 56:1 151:1 170:1 23376:1 48755:1 
0.2292886266827635 22:1 108:1 53:1 124:1 81:1 152:1 169:1 14214:1 29435:1 
0.2292886266827635 22:1 96:1 40:1 136:1 68:1 151:1 174:1 18992:1 43209:1 
0.2292886266827635 12:1 108:1 40:1 123:1 68:1 152:1 169:1 18480:1 29435:1 
0.02976569892216884 24:1 96:1 40:1 116:1 68:1 144:1 170:1 4706:1 33996:1 
0.2292886266827635 12:1 109:1 40:1 133:1 68:1 151:1 171:1 9267:1 48755:1 
0.2292886266827635 22:1 108:1 49:1 124:1 81:1 153:1 169:1 14214:1 29435:1 
0.02918738431861304 12:1 97:1 49:1 138:1 81:1 163:1 169:1 15887:1 36427:1 
0.05584694494947439 2:1 96:1 53:1 124:1 81:1 166:1 170:1 6717:1 31098:1 
0.2292886266827635 4:1 109:1 53:1 123:1 56:1 152:1 169:1 2561:1 39985:1 
0.01091947355734156 12:1 108:1 52:1 113:1 81:1 152:1 169:1 7669:1 29435:1 
0.141663302797414 25:1 109:1 51:1 137:1 79:1 164:1 174:1 10902:1 31228:1 
0.2292886266827635 23:1 109:1 53:1 138:1 81:1 163:1 183:1 22580:1 30880:1 
0.2292886266827635 23:1 109:1 53:1 138:1 81:1 166:1 171:1 17158:1 30880:1 
0.2292886266827635 25:1 96:1 53:1 113:1 56:1 166:1 175:1 13988:1 44505:1 
0.2292886266827635 12:1 85:1 53:1 138:1 56:1 152:1 169:1 19776:1 45627:1 
0.2292886266827635 12:1 108:1 29:1 124:1 81:1 144:1 169:1 17160:1 29435:1 
0.2292886266827635 12:1 109:1 29:1 123:1 81:1 166:1 171:1 11777:1 29353:1 
0.2292886266827635 23:1 108:1 53:1 124:1 81:1 166:1 169:1 24336:1 29435:1 
0.0610974872019868 12:1 96:1 40:1 136:1 68:1 152:1 169:1 9289:1 37621:1 
0.04831884763117617 12:1 96:1 53:1 138:1 68:1 140:1 169:1 10263:1 34311:1 
0.2292886266827635 12:1 96:1 36:1 116:1 56:1 165:1 170:1 16351:1 36883:1 
0.2292886266827635 12:1 109:1 53:1 133:1 81:1 156:1 170:1 16863:1 43869:1 
0.2292886266827635 14:1 109:1 53:1 130:1 56:1 158:1 170:1 5221:1 48187:1 
0.2292886266827635 18:1 102:1 53:1 137:1 81:1 151:1 169:1 1033:1 25436:1 
0.2292886266827635 22:1 108:1 49:1 124:1 70:1 166:1 169:1 7128:1 29435:1 
0.2292886266827635 14:1 109:1 46:1 136:1 56:1 142:1 175:1 3339:1 28884:1 
0.2292886266827635 12:1 96:1 40:1 138:1 80:1 140:1 169:1 16701:1 33963:1 
0.2292886266827635 12:1 97:1 53:1 133:1 56:1 152:1 169:1 16773:1 40628:1 
0.2292886266827635 12:1 109:1 53:1 137:1 56:1 152:1 169:1 20566:1 35338:1 
0.2292886266827635 25:1 109:1 53:1 124:1 56:1 161:1 169:1 10609:1 41479:1 
0.2292886266827635 12:1 96:1 53:1 137:1 81:1 164:1 171:1 21763:1 26902:1 
0.2292886266827635 12:1 109:1 53:1 136:1 81:1 142:1 169:1 2173:1 44345:1 
0.2292886266827635 25:1 108:1 53:1 114:1 81:1 152:1 169:1 19616:1 29435:1 
0.01021204648102956 12:1 85:1 29:1 138:1 56:1 165:1 169:1 17164:1 30922:1 
0.2292886266827635 12:1 109:1 53:1 115:1 57:1 165:1 169:1 5252:1 30511:1 
0.2292886266827635 1:1 108:1 53:1 124:1 81:1 166:1 169:1 11590:1 29435:1 
0.1047897454792686 12:1 108:1 53:1 124:1 56:1 166:1 169:1 1604:1 29435:1 
0.2292886266827635 12:1 109:1 53:1 136:1 56:1 152:1 171:1 4629:1 31339:1 
0.2292886266827635 12:1 108:1 28:1 137:1 56:1 165:1 169:1 10529:1 29435:1 
0.2292886266827635 25:1 109:1 42:1 135:1 81:1 151:1 169:1 10798:1 28884:1 
0.2292886266827635 13:1 96:1 53:1 116:1 68:1 165:1 170:1 15899:1 41429:1 
0.2292886266827635 25:1 109:1 40:1 137:1 56:1 157:1 173:1 23393:1 41479:1 
0.2292886266827635 12:1 108:1 51:1 124:1 77:1 166:1 169:1 15771:1 48086:1 
0.2292886266827635 23:1 85:1 53:1 136:1 68:1 166:1 169:1 14401:1 31240:1 
0.2292886266827635 24:1 109:1 40:1 135:1 77:1 156:1 171:1 4706:1 41479:1 
0.2292886266827635 12:1 97:1 44:1 136:1 72:1 152:1 169:1 9887:1 36695:1 
0.08741015336050798 16:1 108:1 51:1 124:1 81:1 166:1 173:1 5913:1 29435:1 
0.0379385866664952 23:1 96:1 53:1 138:1 56:1 144:1 175:1 13411:1 37244:1 
0.2292886266827635 12:1 108:1 49:1 124:1 68:1 166:1 169:1 17223:1 29435:1 
0.2292886266827635 12:1 97:1 28:1 138:1 56:1 143:1 169:1 13643:1 46268:1 
0.2292886266827635 9:1 109:1 31:1 116:1 69:1 141:1 169:1 5905:1 35485:1 
0.2292886266827635 4:1 85:1 53:1 115:1 69:1 142:1 169:1 7731:1 39995:1 
0.09567176340858062 25:1 109:1 41:1 123:1 56:1 152:1 177:1 10756:1 47363:1 
0.2292886266827635 1:1 108:1 29:1 137:1 81:1 166:1 169:1 18521:1 29540:1 
0.2292886266827635 1:1 108:1 53:1 137:1 68:1 166:1 170:1 9096:1 29540:1 
0.2292886266827635 24:1 109:1 53:1 138:1 68:1 144:1 169:1 4811:1 26213:1 
0.2292886266827635 12:1 109:1 53:1 138:1 56:1 144:1 173:1 3038:1 26213:1 
0.08019943213352523 4:1 109:1 53:1 124:1 81:1 165:1 171:1 3151:1 49250:1 
0.2292886266827635 17:1 96:1 45:1 112:1 68:1 140:1 169:1 12092:1 39258:1 
0.2292886266827635 17:1 96:1 40:1 112:1 56:1 140:1 170:1 23069:1 39258:1 
0.2292886266827635 14:1 106:1 28:1 138:1 56:1 152:1 171:1 15016:1 42285:1 
0.2292886266827635 23:1 109:1 53:1 135:1 68:1 152:1 170:1 19126:1 31392:1 
0.2292886266827635 12:1 108:1 53:1 124:1 81:1 166:1 171:1 14059:1 29435:1 
0.06471124288964421 9:1 96:1 31:1 113:1 56:1 166:1 169:1 10520:1 31771:1 
0.2292886266827635 16:1 85:1 31:1 138:1 57:1 166:1 170:1 20316:1 42390:1 
0.07800673579176935 12:1 96:1 50:1 136:1 81:1 151:1 172:1 7713:1 39213:1 
0.2292886266827635 22:1 108:1 53:1 123:1 78:1 166:1 174:1 8400:1 29435:1 
0.007693718363995313 24:1 95:1 53:1 138:1 78:1 140:1 169:1 4706:1 25778:1 
0.2292886266827635 12:1 96:1 40:1 136:1 74:1 152:1 169:1 14484:1 33811:1 
0.2292886266827635 12:1 108:1 46:1 124:1 81:1 152:1 169:1 9082:1 29435:1 
0.2292886266827635 12:1 97:1 40:1 137:1 74:1 144:1 169:1 24478:1 40628:1 
0.2292886266827635 13:1 109:1 40:1 116:1 74:1 141:1 169:1 15899:1 41479:1 
0.2292886266827635 18:1 109:1 53:1 116:1 81:1 141:1 176:1 13384:1 41479:1 
0.1152820409717117 4:1 85:1 53:1 136:1 81:1 166:1 169:1 2174:1 41982:1 
0.2292886266827635 25:1 108:1 39:1 124:1 81:1 166:1 169:1 24044:1 29435:1 
0.2292886266827635 11:1 96:1 53:1 138:1 80:1 140:1 172:1 21387:1 43848:1 
0.2292886266827635 25:1 109:1 32:1 137:1 68:1 152:1 171:1 2703:1 28443:1 
0.2292886266827635 12:1 96:1 53:1 136:1 81:1 152:1 173:1 10285:1 30616:1 
0.2292886266827635 25:1 96:1 53:1 124:1 57:1 152:1 169:1 19186:1 32146:1 
0.2292886266827635 12:1 96:1 40:1 133:1 81:1 165:1 169:1 5521:1 39213:1 
0.04821627737516689 12:1 96:1 53:1 133:1 57:1 165:1 170:1 7417:1 39213:1 
0.2292886266827635 12:1 109:1 53:1 124:1 57:1 152:1 173:1 14484:1 33613:1 
0.1734167619978121 25:1 97:1 31:1 137:1 81:1 144:1 170:1 9444:1 33004:1 
0.2292886266827635 3:1 109:1 53:1 116:1 56:1 141:1 172:1 21663:1 35192:1 
0.2292886266827635 12:1 96:1 40:1 124:1 78:1 166:1 169:1 14484:1 33811:1 
0.2069394238397826 12:1 96:1 50:1 124:1 81:1 166:1 170:1 16810:1 33811:1 
0.2292886266827635 12:1 85:1 53:1 138:1 56:1 141:1 170:1 10314:1 32485:1 
0.2292886266827635 1:1 108:1 29:1 116:1 81:1 165:1 169:1 23804:1 29435:1 
0.2292886266827635 24:1 109:1 29:1 124:1 81:1 152:1 170:1 4706:1 41479:1 
0.1806109957802431 12:1 96:1 53:1 138:1 57:1 143:1 169:1 16261:1 33568:1 
0.2292886266827635 12:1 96:1 40:1 136:1 59:1 166:1 169:1 7469:1 30162:1 
0.2292886266827635 23:1 109:1 45:1 124:1 69:1 152:1 170:1 12877:1 36761:1 
0.1478389769001023 17:1 109:1 41:1 124:1 57:1 152:1 171:1 9637:1 36761:1 
0.2292886266827635 12:1 96:1 40:1 136:1 81:1 152:1 169:1 16095:1 34311:1 
0.2292886266827635 12:1 108:1 53:1 124:1 56:1 152:1 169:1 9582:1 29435:1 
0.1999690171319405 21:1 92:1 53:1 136:1 56:1 157:1 170:1 22563:1 45510:1 
0.2292886266827635 8:1 108:1 53:1 129:1 56:1 159:1 169:1 20781:1 29435:1 
0.2292886266827635 19:1 96:1 45:1 124:1 80:1 165:1 170:1 11010:1 35337:1 
0.2292886266827635 17:1 108:1 53:1 124:1 56:1 152:1 169:1 23305:1 29435:1 
0.2292886266827635 12:1 108:1 53:1 124:1 56:1 166:1 170:1 21191:1 29435:1 
0.2292886266827635 12:1 109:1 40:1 126:1 81:1 165:1 169:1 9467:1 30417:1 
0.2292886266827635 14:1 109:1 53:1 136:1 81:1 165:1 169:1 12207:1 41672:1 
0.2292886266827635 24:1 109:1 53:1 136:1 81:1 152:1 169:1 17619:1 46631:1 
0.2292886266827635 25:1 108:1 53:1 124:1 81:1 144:1 169:1 21902:1 29435:1 
0.2292886266827635 12:1 109:1 53:1 138:1 81:1 152:1 170:1 1846:1 43600:1 
0.2292886266827635 12:1 108:1 53:1 124:1 81:1 144:1 169:1 3526:1 29435:1 
0.2292886266827635 12:1 109:1 53:1 137:1 81:1 166:1 171:1 14565:1 37994:1 
0.2292886266827635 12:1 96:1 45:1 124:1 73:1 152:1 169:1 8980:1 48288:1 
0.004673968114107662 12:1 96:1 45:1 124:1 73:1 164:1 169:1 23559:1 46805:1 
0.2292886266827635 17:1 96:1 45:1 124:1 56:1 164:1 171:1 12360:1 46805:1 
0.2292886266827635 12:1 108:1 40:1 124:1 56:1 154:1 169:1 4554:1 29435:1 
0.2292886266827635 12:1 98:1 40:1 138:1 56:1 144:1 169:1 7049:1 33381:1 
0.2292886266827635 12:1 98:1 28:1 138:1 56:1 144:1 172:1 22076:1 33381:1 
0.2292886266827635 12:1 108:1 45:1 124:1 81:1 166:1 170:1 4556:1 29435:1 
0.2292886266827635 24:1 109:1 49:1 137:1 56:1 152:1 169:1 4706:1 43607:1 
0.1701696316320145 3:1 109:1 53:1 138:1 68:1 165:1 173:1 8022:1 34683:1 
0.1583221855270101 25:1 109:1 40:1 138:1 81:1 165:1 174:1 15204:1 34683:1 
0.1954822572292413 1:1 109:1 40:1 138:1 81:1 140:1 169:1 8066:1 35043:1 
0.04340723594808058 12:1 96:1 29:1 112:1 81:1 140:1 169:1 15327:1 31870:1 
0.2292886266827635 23:1 109:1 53:1 137:1 56:1 166:1 169:1 13411:1 41479:1 
0.2292886266827635 12:1 109:1 49:1 137:1 79:1 152:1 172:1 15239:1 26697:1 
0.2292886266827635 12:1 108:1 53:1 124:1 81:1 166:1 169:1 15326:1 29435:1 
0.2292886266827635 25:1 106:1 46:1 136:1 56:1 157:1 170:1 6705:1 27711:1 
0.2292886266827635 22:1 108:1 46:1 129:1 56:1 152:1 169:1 2982:1 29435:1 
0.2292886266827635 12:1 109:1 49:1 137:1 68:1 149:1 169:1 18413:1 42445:1 
0.2042362091616393 12:1 109:1 46:1 121:1 56:1 152:1 173:1 4330:1 43586:1 
0.0600753685745806 9:1 96:1 53:1 138:1 56:1 140:1 169:1 16158:1 28928:1 
0.2292886266827635 23:1 108:1 53:1 123:1 56:1 152:1 169:1 19133:1 29435:1 
0.2292886266827635 12:1 109:1 53:1 124:1 56:1 164:1 171:1 6597:1 30169:1 
0.2292886266827635 12:1 108:1 53:1 124:1 81:1 152:1 169:1 6900:1 29435:1 
0.09809099451363465 12:1 98:1 43:1 138:1 56:1 154:1 169:1 2754:1 36412:1 
0.2292886266827635 15:1 98:1 28:1 138:1 56:1 154:1 171:1 19039:1 36412:1 
0.1948721941874126 17:1 101:1 46:1 133:1 68:1 154:1 169:1 7544:1 40588:1 
0.1853127485626716 9:1 96:1 40:1 137:1 70:1 151:1 169:1 8788:1 48421:1 
0.2292886266827635 12:1 96:1 42:1 137:1 77:1 151:1 170:1 7664:1 48421:1 
0.1052584608128747 14:1 96:1 49:1 137:1 73:1 151:1 171:1 12060:1 48421:1 
0.1364887536780436 17:1 109:1 46:1 123:1 68:1 162:1 174:1 15859:1 35279:1 
0.05975227905380438 18:1 109:1 40:1 123:1 56:1 162:1 177:1 15956:1 35279:1 
0.2292886266827635 12:1 96:1 40:1 124:1 78:1 152:1 169:1 8093:1 44657:1 
0.2292886266827635 12:1 96:1 40:1 138:1 68:1 140:1 169:1 14597:1 46234:1 
0.2292886266827635 12:1 96:1 40:1 138:1 81:1 140:1 170:1 9498:1 46234:1 
0.1446253424919776 12:1 96:1 53:1 138:1 56:1 140:1 171:1 19928:1 46234:1 
0.2292886266827635 12:1 96:1 40:1 116:1 81:1 165:1 169:1 1660:1 38919:1 
0.2292886266827635 12:1 109:1 40:1 138:1 81:1 152:1 170:1 14190:1 43202:1 
0.2292886266827635 12:1 95:1 53:1 123:1 56:1 166:1 170:1 9962:1 25713:1 
0.2292886266827635 12:1 96:1 39:1 116:1 67:1 165:1 171:1 11853:1 48499:1 
0.2292886266827635 12:1 109:1 39:1 123:1 67:1 162:1 170:1 23770:1 46757:1 
0.2292886266827635 12:1 109:1 39:1 138:1 78:1 140:1 169:1 3054:1 40307:1 
0.2292886266827635 12:1 103:1 28:1 124:1 56:1 166:1 170:1 19637:1 48371:1 
0.2292886266827635 12:1 109:1 42:1 137:1 78:1 152:1 169:1 14767:1 33534:1 
0.2292886266827635 14:1 109:1 50:1 137:1 81:1 152:1 171:1 21014:1 33534:1 
0.08880747132703126 12:1 96:1 53:1 138:1 81:1 166:1 169:1 15315:1 27558:1 
0.1089358200255767 8:1 108:1 28:1 137:1 56:1 166:1 169:1 23444:1 29435:1 
0.2292886266827635 9:1 96:1 49:1 136:1 68:1 152:1 172:1 12890:1 32368:1 
0.2292886266827635 12:1 108:1 49:1 124:1 68:1 164:1 169:1 7639:1 29435:1 
0.03728928800304721 24:1 109:1 40:1 138:1 77:1 163:1 169:1 17619:1 26587:1 
0.2292886266827635 12:1 109:1 53:1 138:1 56:1 163:1 179:1 10152:1 26587:1 
0.2292886266827635 23:1 106:1 53:1 137:1 81:1 157:1 170:1 14418:1 44654:1 
0.2292886266827635 22:1 109:1 53:1 129:1 81:1 166:1 169:1 19925:1 36072:1 
0.1008925312985495 22:1 109:1 45:1 129:1 81:1 166:1 169:1 19925:1 36072:1 
0.2292886266827635 12:1 96:1 42:1 124:1 73:1 154:1 169:1 11827:1 46166:1 
0.2292886266827635 14:1 96:1 45:1 124:1 73:1 154:1 170:1 8762:1 46166:1 
0.2292886266827635 17:1 96:1 45:1 124:1 74:1 154:1 171:1 22830:1 46166:1 
0.2292886266827635 12:1 98:1 46:1 133:1 56:1 165:1 169:1 22404:1 36661:1 
0.05990819969470309 14:1 109:1 46:1 123:1 56:1 162:1 170:1 11932:1 38998:1 
0.2292886266827635 12:1 96:1 40:1 138:1 78:1 152:1 169:1 23376:1 48113:1 
0.2292886266827635 12:1 96:1 40:1 138:1 78:1 140:1 170:1 17143:1 27060:1 
0.2292886266827635 12:1 96:1 50:1 138:1 81:1 140:1 172:1 23384:1 27060:1 
0.2292886266827635 12:1 96:1 40:1 138:1 79:1 143:1 169:1 13236:1 34775:1 
0.07393286253119324 12:1 96:1 51:1 138:1 81:1 143:1 170:1 7664:1 34775:1 
0.2292886266827635 12:1 96:1 40:1 138:1 80:1 152:1 169:1 22042:1 27491:1 
0.1389274775534445 12:1 96:1 40:1 115:1 80:1 157:1 169:1 15140:1 45009:1 
0.2292886266827635 12:1 108:1 52:1 116:1 81:1 165:1 177:1 2762:1 29435:1 
0.2292886266827635 12:1 106:1 40:1 137:1 56:1 152:1 170:1 19130:1 47567:1 
0.2292886266827635 12:1 96:1 53:1 137:1 78:1 164:1 169:1 5504:1 33886:1 
0.1090694800468867 25:1 109:1 50:1 136:1 68:1 166:1 171:1 2822:1 48294:1 
0.2292886266827635 22:1 109:1 40:1 136:1 56:1 166:1 172:1 22838:1 48294:1 
0.2292886266827635 25:1 108:1 40:1 138:1 56:1 157:1 169:1 23565:1 29435:1 
0.2292886266827635 12:1 96:1 40:1 138:1 73:1 152:1 169:1 14484:1 37935:1 
0.2292886266827635 12:1 96:1 45:1 138:1 80:1 152:1 170:1 21435:1 37935:1 
0.08825188740446284 24:1 96:1 40:1 138:1 56:1 158:1 175:1 4706:1 32252:1 
0.2292886266827635 12:1 109:1 40:1 137:1 56:1 152:1 171:1 7523:1 41399:1 
0.2292886266827635 12:1 96:1 40:1 138:1 81:1 140:1 169:1 20367:1 31497:1 
0.2292886266827635 12:1 96:1 49:1 125:1 77:1 144:1 169:1 17132:1 32153:1 
0.2292886266827635 12:1 97:1 49:1 116:1 77:1 165:1 169:1 7424:1 48334:1 
0.2292886266827635 21:1 109:1 49:1 121:1 65:1 152:1 173:1 22563:1 48774:1 
0.2292886266827635 9:1 96:1 53:1 125:1 77:1 166:1 169:1 10305:1 32822:1 
0.2292886266827635 9:1 109:1 40:1 133:1 81:1 152:1 182:1 5536:1 38041:1 
0.2292886266827635 12:1 96:1 40:1 138:1 80:1 140:1 169:1 10285:1 49306:1 
0.2292886266827635 12:1 96:1 53:1 136:1 56:1 152:1 171:1 23107:1 36537:1 
0.1439340135946471 12:1 108:1 53:1 124:1 56:1 166:1 169:1 11808:1 29435:1 
0.2292886266827635 12:1 108:1 46:1 124:1 81:1 166:1 169:1 7424:1 29435:1 
0.2292886266827635 9:1 96:1 53:1 116:1 81:1 161:1 171:1 5536:1 32368:1 
0.2292886266827635 12:1 109:1 53:1 124:1 81:1 166:1 175:1 7639:1 34052:1 
0.2292886266827635 12:1 92:1 28:1 138:1 56:1 152:1 170:1 15129:1 45543:1 
0.2292886266827635 12:1 109:1 36:1 136:1 56:1 151:1 172:1 7465:1 38422:1 
0.2292886266827635 23:1 109:1 53:1 137:1 81:1 152:1 169:1 17645:1 49227:1 
0.2292886266827635 12:1 109:1 40:1 137:1 81:1 141:1 170:1 15129:1 26726:1 
0.07415458126588478 1:1 108:1 53:1 124:1 81:1 166:1 169:1 15279:1 29435:1 
0.2292886266827635 12:1 108:1 53:1 124:1 81:1 152:1 169:1 19574:1 29435:1 
0.2292886266827635 12:1 109:1 49:1 125:1 70:1 165:1 169:1 23264:1 31312:1 
0.02751959584606861 25:1 97:1 49:1 137:1 70:1 166:1 169:1 6583:1 39345:1 
0.2292886266827635 12:1 109:1 53:1 137:1 56:1 152:1 169:1 6583:1 48224:1 
0.2292886266827635 12:1 108:1 53:1 124:1 81:1 152:1 169:1 23264:1 29435:1 
0.2292886266827635 25:1 108:1 53:1 135:1 81:1 152:1 169:1 13071:1 29435:1 
0.0204483971590246 25:1 109:1 45:1 123:1 69:1 162:1 169:1 10798:1 48159:1 
0.2292886266827635 17:1 109:1 41:1 123:1 56:1 162:1 170:1 6004:1 48159:1 
0.2292886266827635 12:1 96:1 40:1 138:1 78:1 165:1 169:1 10112:1 30605:1 
0.167802856149579 12:1 96:1 50:1 138:1 81:1 165:1 170:1 2806:1 30605:1 
0.1483011394161088 22:1 96:1 53:1 138:1 56:1 165:1 171:1 19925:1 30605:1 
0.2292886266827635 12:1 109:1 53:1 123:1 81:1 166:1 173:1 23265:1 44685:1 
0.05190154876955472 11:1 106:1 49:1 116:1 60:1 151:1 169:1 9140:1 31625:1 
0.2292886266827635 12:1 109:1 40:1 124:1 81:1 152:1 169:1 21187:1 32601:1 
0.2292886266827635 12:1 96:1 40:1 138:1 81:1 152:1 169:1 18326:1 46439:1 
0.2292886266827635 12:1 96:1 40:1 136:1 68:1 151:1 169:1 8942:1 32198:1 
0.2292886266827635 12:1 96:1 53:1 138:1 81:1 140:1 177:1 21710:1 36899:1 
0.2292886266827635 25:1 109:1 45:1 136:1 56:1 152:1 171:1 8407:1 31971:1 
0.2292886266827635 11:1 109:1 40:1 138:1 56:1 140:1 171:1 10656:1 34866:1 
0.2292886266827635 12:1 109:1 49:1 138:1 56:1 161:1 169:1 24086:1 29780:1 
0.1420704187101099 11:1 106:1 30:1 120:1 68:1 153:1 169:1 1071:1 48483:1 
0.2292886266827635 22:1 92:1 30:1 125:1 68:1 166:1 169:1 23754:1 27275:1 
0.2292886266827635 2:1 92:1 40:1 125:1 77:1 166:1 171:1 17629:1 27275:1 
0.2292886266827635 12:1 92:1 49:1 125:1 81:1 166:1 172:1 14383:1 27275:1 
0.2292886266827635 12:1 97:1 41:1 137:1 77:1 165:1 169:1 3408:1 36427:1 
0.1247425642088749 13:1 109:1 41:1 123:1 77:1 162:1 170:1 11698:1 35571:1 
0.08259314293345574 25:1 109:1 45:1 138:1 73:1 140:1 170:1 10997:1 34261:1 
0.2292886266827635 17:1 96:1 53:1 137:1 77:1 152:1 169:1 21771:1 46439:1 
0.2292886266827635 12:1 109:1 53:1 124:1 77:1 141:1 169:1 21710:1 30417:1 
0.2292886266827635 12:1 85:1 53:1 138:1 56:1 161:1 169:1 16727:1 45627:1 
0.1175265480006326 17:1 96:1 31:1 124:1 73:1 152:1 169:1 10786:1 39959:1 
0.2292886266827635 12:1 96:1 40:1 137:1 73:1 166:1 169:1 10058:1 29263:1 
0.2292886266827635 17:1 96:1 49:1 137:1 77:1 166:1 173:1 12394:1 29263:1 
0.2292886266827635 21:1 109:1 49:1 138:1 57:1 151:1 175:1 22200:1 34583:1 
0.1476135360782502 11:1 106:1 53:1 116:1 77:1 165:1 169:1 15634:1 30604:1 
0.2292886266827635 22:1 109:1 53:1 133:1 77:1 163:1 170:1 5875:1 42979:1 
0.2292886266827635 12:1 96:1 40:1 133:1 79:1 161:1 169:1 9410:1 29263:1 
0.1674876371430457 12:1 96:1 51:1 133:1 67:1 161:1 170:1 10058:1 29263:1 
0.2292886266827635 12:1 96:1 49:1 137:1 68:1 141:1 169:1 9410:1 30616:1 
0.2292886266827635 12:1 109:1 39:1 113:1 56:1 166:1 175:1 4534:1 32822:1 
0.2292886266827635 12:1 109:1 40:1 138:1 81:1 140:1 171:1 16560:1 30417:1 
0.08508393728404787 23:1 88:1 28:1 138:1 56:1 163:1 169:1 23048:1 27290:1 
0.02284987017871884 23:1 109:1 32:1 126:1 56:1 165:1 169:1 17645:1 39713:1 
0.01786228693583528 1:1 108:1 32:1 137:1 67:1 164:1 169:1 14816:1 29540:1 
0.2292886266827635 12:1 109:1 41:1 136:1 68:1 165:1 173:1 9998:1 36725:1 
0.2292886266827635 13:1 109:1 40:1 136:1 81:1 165:1 175:1 8275:1 36725:1 
0.2292886266827635 17:1 109:1 42:1 116:1 56:1 161:1 169:1 10216:1 44514:1 
0.04261928118887371 14:1 109:1 28:1 116:1 56:1 161:1 170:1 1328:1 44514:1 
0.1061743684143339 1:1 96:1 40:1 125:1 77:1 148:1 169:1 6705:1 42387:1 
0.2292886266827635 12:1 97:1 49:1 120:1 60:1 140:1 169:1 17658:1 34165:1 
0.01956688336936835 21:1 92:1 32:1 112:1 81:1 140:1 175:1 22563:1 49231:1 
0.2292886266827635 4:1 92:1 53:1 112:1 56:1 140:1 176:1 9615:1 49231:1 
0.2292886266827635 12:1 96:1 40:1 115:1 59:1 142:1 170:1 17973:1 27491:1 
0.2292886266827635 1:1 108:1 49:1 124:1 79:1 144:1 169:1 2665:1 29435:1 
0.2292886266827635 23:1 109:1 40:1 113:1 59:1 164:1 174:1 4239:1 27077:1 
0.2292886266827635 1:1 108:1 53:1 113:1 68:1 152:1 169:1 19860:1 29435:1 
0.2292886266827635 24:1 85:1 53:1 124:1 68:1 166:1 169:1 4706:1 37632:1 
0.1198212747427763 1:1 96:1 53:1 138:1 68:1 140:1 169:1 12903:1 48778:1 
0.2292886266827635 9:1 96:1 49:1 138:1 77:1 152:1 169:1 16038:1 40816:1 
0.2292886266827635 12:1 96:1 40:1 138:1 77:1 152:1 169:1 20972:1 40816:1 
0.2292886266827635 12:1 96:1 40:1 138:1 68:1 161:1 169:1 3032:1 40816:1 
0.2292886266827635 12:1 96:1 40:1 136:1 77:1 151:1 169:1 19014:1 42755:1 
0.2292886266827635 12:1 95:1 49:1 114:1 68:1 152:1 173:1 9875:1 46138:1 
0.2292886266827635 12:1 106:1 40:1 138:1 81:1 152:1 170:1 8070:1 48483:1 
0.2292886266827635 8:1 109:1 40:1 136:1 81:1 151:1 170:1 6078:1 47707:1 
0.2292886266827635 12:1 98:1 40:1 124:1 56:1 165:1 169:1 5052:1 40236:1 
0.2292886266827635 12:1 98:1 28:1 124:1 56:1 165:1 170:1 7802:1 40236:1 
0.2292886266827635 18:1 105:1 40:1 130:1 81:1 166:1 169:1 592:1 48236:1 
0.2292886266827635 25:1 109:1 39:1 114:1 81:1 152:1 169:1 16750:1 41791:1 
0.2292886266827635 12:1 96:1 40:1 136:1 59:1 152:1 170:1 6583:1 27472:1 
0.07470771765472332 12:1 96:1 31:1 136:1 68:1 152:1 171:1 14484:1 27472:1 
0.2292886266827635 12:1 108:1 49:1 124:1 78:1 166:1 175:1 5081:1 29435:1 
0.1968291489569971 2:1 96:1 53:1 116:1 60:1 165:1 170:1 4336:1 33811:1 
0.2292886266827635 12:1 109:1 40:1 137:1 77:1 152:1 175:1 14484:1 33345:1 
0.2292886266827635 12:1 109:1 40:1 138:1 68:1 140:1 170:1 20122:1 42645:1 
0.2292886266827635 18:1 109:1 53:1 137:1 56:1 166:1 171:1 10087:1 26606:1 
0.2292886266827635 12:1 108:1 49:1 124:1 81:1 143:1 169:1 9951:1 29435:1 
0.2292886266827635 1:1 108:1 53:1 124:1 68:1 166:1 169:1 2232:1 29435:1 
0.06687090795229793 18:1 97:1 49:1 138:1 56:1 152:1 169:1 606:1 39186:1 
0.2292886266827635 2:1 96:1 40:1 136:1 78:1 144:1 170:1 5332:1 46439:1 
0.2292886266827635 22:1 96:1 37:1 136:1 65:1 144:1 172:1 9267:1 46439:1 
0.2292886266827635 9:1 96:1 49:1 136:1 81:1 144:1 180:1 6986:1 46439:1 
0.2292886266827635 12:1 100:1 52:1 138:1 81:1 165:1 169:1 18101:1 28564:1 
0.1971905260767612 24:1 100:1 53:1 138:1 56:1 165:1 171:1 4706:1 28564:1 
0.2292886266827635 12:1 96:1 40:1 138:1 80:1 140:1 169:1 2937:1 42697:1 
0.2292886266827635 12:1 108:1 49:1 113:1 68:1 152:1 169:1 19980:1 29435:1 
0.2292886266827635 12:1 96:1 40:1 124:1 77:1 144:1 169:1 9289:1 44706:1 
0.122098387487638 12:1 96:1 49:1 116:1 60:1 165:1 169:1 19977:1 38323:1 
0.2026233560885802 12:1 109:1 31:1 138:1 68:1 140:1 176:1 5132:1 41492:1 
0.1805968151932583 11:1 106:1 53:1 136:1 80:1 152:1 169:1 427:1 42714:1 
0.2292886266827635 1:1 108:1 53:1 124:1 81:1 152:1 169:1 13751:1 29435:1 
0.2292886266827635 12:1 109:1 40:1 126:1 81:1 165:1 169:1 18371:1 43624:1 
0.2292886266827635 14:1 109:1 53:1 138:1 68:1 166:1 169:1 12212:1 40766:1 
0.2194694656871119 12:1 92:1 28:1 136:1 56:1 152:1 169:1 17653:1 46099:1 
0.05055144731751399 27:1 96:1 51:1 138:1 81:1 167:1 169:1 1308:1 45154:1 
0.2292886266827635 12:1 96:1 53:1 116:1 56:1 165:1 176:1 20425:1 30605:1 
0.2292886266827635 12:1 109:1 53:1 135:1 56:1 152:1 170:1 5876:1 41387:1 
0.2292886266827635 12:1 108:1 53:1 124:1 81:1 166:1 169:1 21060:1 29435:1 
0.2292886266827635 12:1 109:1 53:1 136:1 77:1 152:1 169:1 15928:1 32291:1 
0.2292886266827635 25:1 108:1 53:1 124:1 77:1 166:1 169:1 7562:1 29435:1 
0.03317230535313311 25:1 92:1 32:1 138:1 68:1 144:1 169:1 21145:1 37471:1 
0.220310444241867 4:1 92:1 40:1 138:1 68:1 144:1 170:1 2227:1 37471:1 
0.2292886266827635 12:1 92:1 40:1 138:1 81:1 144:1 171:1 19625:1 37471:1 
0.2292886266827635 23:1 108:1 47:1 138:1 81:1 140:1 169:1 16579:1 29435:1 
0.03508167238679073 12:1 96:1 53:1 138:1 81:1 140:1 169:1 4863:1 33939:1 
0.04143228936637539 25:1 109:1 32:1 138:1 68:1 165:1 171:1 21445:1 27032:1 
0.08829820993377539 12:1 109:1 31:1 138:1 57:1 165:1 173:1 2275:1 27032:1 
0.2292886266827635 25:1 96:1 53:1 115:1 81:1 165:1 169:1 18821:1 29389:1 
0.2292886266827635 12:1 97:1 53:1 124:1 81:1 152:1 169:1 9978:1 33010:1 
0.2292886266827635 12:1 96:1 53:1 112:1 81:1 140:1 169:1 2916:1 42811:1 
0.2292886266827635 25:1 109:1 40:1 137:1 81:1 166:1 170:1 2644:1 34877:1 
0.2292886266827635 12:1 109:1 53:1 137:1 56:1 166:1 171:1 23535:1 34877:1 
0.2292886266827635 0:1 109:1 40:1 137:1 74:1 142:1 169:1 10362:1 35469:1 
0.1062810623434433 12:1 109:1 46:1 137:1 56:1 142:1 170:1 23606:1 35469:1 
0.02470722773722549 2:1 96:1 53:1 136:1 81:1 152:1 170:1 21436:1 46233:1 
0.2292886266827635 12:1 108:1 53:1 124:1 81:1 166:1 169:1 21504:1 29435:1 
0.1721216559248643 12:1 96:1 43:1 124:1 78:1 144:1 169:1 9374:1 48694:1 
0.213950570834913 12:1 109:1 50:1 124:1 56:1 164:1 170:1 2762:1 31224:1 
0.2292886266827635 12:1 96:1 40:1 137:1 78:1 153:1 169:1 23264:1 29852:1 
0.2292886266827635 12:1 109:1 50:1 125:1 56:1 166:1 172:1 23455:1 48267:1 
0.2292886266827635 25:1 97:1 50:1 138:1 56:1 161:1 169:1 23538:1 33004:1 
0.2239633476599907 25:1 108:1 49:1 124:1 69:1 161:1 170:1 23538:1 29435:1 
0.2292886266827635 12:1 96:1 40:1 137:1 78:1 165:1 169:1 23965:1 27491:1 
0.2292886266827635 12:1 109:1 50:1 133:1 56:1 152:1 170:1 2762:1 34309:1 
0.1136011063976206 12:1 96:1 29:1 133:1 80:1 155:1 169:1 7469:1 26549:1 
0.2292886266827635 12:1 85:1 28:1 113:1 56:1 166:1 170:1 12991:1 38968:1 
0.2292886266827635 17:1 96:1 53:1 123:1 56:1 162:1 170:1 19304:1 31879:1 
0.1426311844050367 22:1 109:1 40:1 131:1 81:1 152:1 169:1 3978:1 31971:1 
0.2292886266827635 12:1 109:1 53:1 131:1 56:1 152:1 171:1 7150:1 31971:1 
0.2207026789906977 19:1 96:1 53:1 138:1 81:1 140:1 169:1 2499:1 35773:1 
0.2292886266827635 12:1 108:1 53:1 124:1 81:1 166:1 169:1 15297:1 29435:1 
0.2292886266827635 12:1 108:1 53:1 124:1 81:1 166:1 169:1 16064:1 29435:1 
0.2292886266827635 12:1 109:1 40:1 116:1 81:1 141:1 169:1 5734:1 33494:1 
0.2292886266827635 12:1 109:1 53:1 116:1 81:1 141:1 171:1 5703:1 33494:1 
0.2292886266827635 25:1 108:1 29:1 124:1 81:1 166:1 169:1 7042:1 48086:1 
0.09461419818092212 24:1 96:1 29:1 138:1 81:1 154:1 169:1 23357:1 46877:1 
0.2292886266827635 25:1 109:1 42:1 124:1 68:1 166:1 169:1 10798:1 49108:1 
0.2292886266827635 14:1 109:1 40:1 124:1 57:1 166:1 170:1 3367:1 49108:1 
0.2292886266827635 12:1 109:1 29:1 124:1 81:1 166:1 172:1 22148:1 49108:1 
0.03309093667537526 17:1 96:1 49:1 116:1 79:1 165:1 169:1 21818:1 35061:1 
0.1743000295149183 11:1 96:1 53:1 136:1 77:1 152:1 169:1 986:1 40026:1 
0.1718959693988724 11:1 109:1 40:1 133:1 69:1 152:1 169:1 15128:1 36919:1 
0.06468379761389682 12:1 109:1 41:1 133:1 77:1 152:1 170:1 10689:1 36919:1 
0.2292886266827635 1:1 96:1 53:1 113:1 56:1 152:1 170:1 5330:1 30950:1 
0.2292886266827635 1:1 96:1 40:1 136:1 81:1 152:1 170:1 16151:1 29538:1 
0.08430942887957901 12:1 96:1 51:1 125:1 77:1 166:1 169:1 5703:1 36460:1 
0.2292886266827635 12:1 109:1 40:1 136:1 68:1 152:1 177:1 21563:1 46757:1 
0.2292886266827635 12:1 109:1 53:1 138:1 80:1 152:1 169:1 13210:1 26775:1 
0.2292886266827635 12:1 109:1 53:1 137:1 81:1 164:1 170:1 15326:1 45436:1 
0.01811732237535225 18:1 109:1 43:1 138:1 70:1 158:1 169:1 10091:1 30421:1 
0.2292886266827635 15:1 109:1 42:1 138:1 68:1 158:1 170:1 21978:1 30421:1 
0.1411588341724463 14:1 109:1 40:1 138:1 56:1 158:1 172:1 17570:1 30421:1 
0.2292886266827635 18:1 96:1 53:1 123:1 56:1 162:1 171:1 19390:1 46710:1 
0.2292886266827635 22:1 106:1 40:1 138:1 81:1 140:1 170:1 17841:1 37563:1 
0.2292886266827635 25:1 109:1 53:1 124:1 56:1 166:1 173:1 21732:1 41479:1 
0.2292886266827635 12:1 109:1 40:1 137:1 81:1 166:1 169:1 7412:1 41479:1 
0.2292886266827635 25:1 97:1 53:1 137:1 81:1 165:1 171:1 19493:1 33004:1 
0.2292886266827635 13:1 109:1 53:1 137:1 81:1 163:1 169:1 8275:1 48852:1 
0.1109077003781782 2:1 108:1 51:1 124:1 79:1 165:1 169:1 21946:1 29435:1 
0.2292886266827635 25:1 96:1 32:1 116:1 68:1 165:1 170:1 5703:1 30616:1 
0.2292886266827635 23:1 85:1 53:1 136:1 56:1 152:1 169:1 14401:1 42575:1 
0.2292886266827635 12:1 96:1 40:1 124:1 74:1 152:1 169:1 6799:1 26940:1 
0.2292886266827635 25:1 107:1 49:1 138:1 56:1 163:1 171:1 11183:1 38151:1 
0.09904528565512275 23:1 109:1 51:1 136:1 77:1 165:1 170:1 13624:1 44673:1 
0.2292886266827635 12:1 85:1 49:1 133:1 60:1 163:1 169:1 10285:1 34842:1 
0.005580405553469012 18:1 97:1 49:1 133:1 68:1 155:1 169:1 386:1 39186:1 
0.2292886266827635 12:1 109:1 49:1 124:1 77:1 151:1 169:1 1825:1 47761:1 
0.2292886266827635 22:1 96:1 40:1 125:1 81:1 165:1 174:1 3978:1 34460:1 
0.2292886266827635 12:1 96:1 53:1 125:1 77:1 165:1 176:1 15140:1 34460:1 
0.2292886266827635 25:1 96:1 49:1 125:1 77:1 165:1 177:1 23032:1 34460:1 
0.2292886266827635 12:1 97:1 49:1 137:1 77:1 163:1 169:1 9731:1 39100:1 
0.2094809316801795 23:1 96:1 53:1 138:1 69:1 140:1 169:1 23049:1 48829:1 
0.2292886266827635 12:1 96:1 40:1 137:1 77:1 166:1 169:1 5703:1 39355:1 
0.2292886266827635 12:1 109:1 49:1 138:1 81:1 152:1 169:1 14626:1 35573:1 
0.2292886266827635 12:1 85:1 53:1 138:1 81:1 165:1 169:1 14665:1 35306:1 
0.2292886266827635 12:1 96:1 49:1 116:1 79:1 165:1 170:1 14458:1 34626:1 
0.2292886266827635 25:1 109:1 40:1 137:1 59:1 163:1 170:1 10848:1 29413:1 
0.005302585062457781 12:1 109:1 31:1 137:1 56:1 163:1 171:1 15024:1 29413:1 
0.1640202717534169 1:1 108:1 53:1 124:1 56:1 144:1 169:1 20207:1 29435:1 
0.2292886266827635 12:1 109:1 53:1 125:1 56:1 166:1 170:1 18074:1 36048:1 
0.2292886266827635 25:1 109:1 53:1 129:1 56:1 144:1 169:1 8765:1 41387:1 
0.001713622374098558 17:1 96:1 43:1 138:1 56:1 152:1 171:1 18364:1 29697:1 
0.2292886266827635 14:1 96:1 40:1 138:1 56:1 157:1 171:1 12239:1 44723:1 
0.1448593006140044 12:1 96:1 28:1 138:1 56:1 157:1 174:1 4968:1 44723:1 
0.2292886266827635 17:1 96:1 40:1 127:1 56:1 158:1 170:1 11748:1 42927:1 
0.2292886266827635 12:1 109:1 40:1 124:1 56:1 166:1 171:1 18198:1 30382:1 
0.2292886266827635 17:1 109:1 53:1 124:1 81:1 152:1 171:1 13464:1 34309:1 
0.2292886266827635 12:1 109:1 53:1 136:1 81:1 151:1 169:1 23264:1 47001:1 
0.2292886266827635 25:1 108:1 53:1 123:1 81:1 164:1 169:1 22272:1 29435:1 
0.2292886266827635 11:1 108:1 52:1 124:1 81:1 166:1 169:1 476:1 29435:1 
0.2292886266827635 12:1 101:1 49:1 137:1 70:1 166:1 169:1 24463:1 38298:1 
0.1217189852690854 4:1 109:1 49:1 124:1 68:1 164:1 169:1 10193:1 34241:1 
0.2292886266827635 12:1 108:1 53:1 124:1 77:1 152:1 169:1 23264:1 29435:1 
0.2292886266827635 3:1 109:1 53:1 126:1 68:1 164:1 170:1 23490:1 39802:1 
0.2292886266827635 14:1 108:1 53:1 124:1 81:1 166:1 169:1 11771:1 29435:1 
0.2292886266827635 23:1 109:1 40:1 138:1 81:1 140:1 171:1 17637:1 28664:1 
0.09516726712536835 13:1 101:1 28:1 124:1 56:1 164:1 169:1 5155:1 29057:1 
0.1687608609561092 12:1 108:1 28:1 129:1 56:1 152:1 169:1 21246:1 29435:1 
0.2292886266827635 1:1 109:1 40:1 124:1 56:1 152:1 169:1 5483:1 43624:1 
0.03359873491965146 12:1 96:1 53:1 115:1 56:1 152:1 169:1 15270:1 40472:1 
0.2292886266827635 12:1 108:1 53:1 123:1 68:1 166:1 169:1 12166:1 29435:1 
0.2292886266827635 12:1 109:1 53:1 136:1 69:1 152:1 169:1 23416:1 41004:1 
0.2292886266827635 25:1 108:1 53:1 124:1 69:1 166:1 169:1 16275:1 29435:1 
0.2292886266827635 12:1 85:1 53:1 138:1 56:1 165:1 170:1 16064:1 38548:1 
0.2292886266827635 18:1 109:1 53:1 123:1 81:1 162:1 170:1 13384:1 28183:1 
0.2292886266827635 22:1 109:1 53:1 124:1 81:1 166:1 169:1 23754:1 35912:1 
0.2292886266827635 12:1 109:1 53:1 137:1 56:1 161:1 169:1 22681:1 41479:1 
0.2292886266827635 1:1 108:1 49:1 124:1 81:1 148:1 169:1 11424:1 29435:1 
0.2292886266827635 12:1 92:1 52:1 125:1 77:1 164:1 169:1 8213:1 35016:1 
0.2292886266827635 24:1 92:1 49:1 125:1 81:1 164:1 170:1 4706:1 35016:1 
0.1472893768752296 8:1 97:1 49:1 136:1 81:1 166:1 169:1 10287:1 48093:1 
0.2292886266827635 27:1 109:1 32:1 138:1 59:1 161:1 170:1 1293:1 45377:1 
0.1306757508919343 17:1 96:1 51:1 125:1 77:1 166:1 169:1 13293:1 49164:1 
0.2292886266827635 12:1 97:1 49:1 138:1 81:1 163:1 169:1 24435:1 43272:1 
0.03274702589082482 12:1 100:1 49:1 137:1 68:1 152:1 169:1 18331:1 41625:1 
0.1113973052128839 12:1 109:1 41:1 124:1 77:1 166:1 173:1 6095:1 31968:1 
0.2249203633376052 21:1 109:1 53:1 124:1 56:1 166:1 180:1 3728:1 31968:1 
0.2292886266827635 25:1 108:1 53:1 129:1 56:1 152:1 169:1 19789:1 29435:1 
0.06685078562517914 17:1 96:1 53:1 123:1 56:1 166:1 169:1 6085:1 38070:1 
0.2292886266827635 12:1 109:1 39:1 123:1 68:1 162:1 174:1 13342:1 41479:1 
0.2292886266827635 12:1 108:1 53:1 124:1 67:1 166:1 169:1 7784:1 29435:1 
0.2292886266827635 23:1 109:1 53:1 138:1 81:1 140:1 171:1 17645:1 44518:1 
0.2292886266827635 17:1 108:1 28:1 129:1 56:1 166:1 169:1 13867:1 29435:1 
0.2292886266827635 17:1 96:1 51:1 137:1 77:1 166:1 169:1 21773:1 26710:1 
0.2292886266827635 12:1 109:1 53:1 138:1 56:1 159:1 170:1 20395:1 41479:1 
0.116184069821872 18:1 96:1 39:1 125:1 77:1 165:1 170:1 11460:1 32915:1 
0.06152930601528808 12:1 97:1 49:1 137:1 75:1 164:1 169:1 8186:1 48586:1 
0.2292886266827635 13:1 109:1 47:1 136:1 81:1 166:1 169:1 23857:1 30417:1 
0.2292886266827635 19:1 109:1 53:1 136:1 81:1 166:1 177:1 7770:1 30417:1 
0.220411974274673 12:1 108:1 52:1 124:1 77:1 143:1 169:1 14523:1 29435:1 
0.2292886266827635 13:1 108:1 49:1 124:1 68:1 152:1 169:1 23605:1 29435:1 
0.2292886266827635 25:1 96:1 40:1 138:1 68:1 144:1 169:1 10148:1 26903:1 
0.2292886266827635 12:1 109:1 53:1 116:1 81:1 165:1 171:1 16981:1 41482:1 
0.000778294186174217 12:1 109:1 46:1 138:1 81:1 142:1 170:1 5253:1 34873:1 
0.1552637856114667 2:1 96:1 53:1 138:1 74:1 166:1 169:1 21290:1 47523:1 
0.2292886266827635 12:1 109:1 40:1 138:1 81:1 165:1 170:1 23376:1 45515:1 
0.2292886266827635 12:1 108:1 53:1 124:1 81:1 152:1 169:1 22013:1 29435:1 
0.07989863979582183 4:1 109:1 53:1 124:1 56:1 166:1 169:1 21868:1 32291:1 
0.2292886266827635 23:1 107:1 53:1 137:1 81:1 153:1 169:1 13323:1 38058:1 
0.2292886266827635 23:1 109:1 53:1 125:1 81:1 152:1 169:1 13329:1 43624:1 
0.2292886266827635 12:1 109:1 40:1 138:1 81:1 144:1 169:1 9077:1 26550:1 
0.2292886266827635 12:1 109:1 53:1 138:1 81:1 144:1 170:1 2762:1 26550:1 
0.2292886266827635 12:1 96:1 40:1 116:1 81:1 165:1 169:1 16108:1 26689:1 
0.1103090558862584 12:1 96:1 53:1 116:1 81:1 165:1 170:1 7332:1 26689:1 
0.2292886266827635 12:1 109:1 53:1 130:1 81:1 164:1 170:1 1960:1 32460:1 
0.1843466581475136 25:1 109:1 32:1 133:1 56:1 141:1 172:1 17629:1 34309:1 
0.2292886266827635 23:1 109:1 40:1 137:1 56:1 164:1 169:1 17637:1 29128:1 
0.2292886266827635 12:1 108:1 40:1 124:1 77:1 152:1 172:1 21437:1 29435:1 
0.1695716000477646 24:1 96:1 40:1 116:1 77:1 165:1 171:1 4706:1 32153:1 
0.2292886266827635 12:1 109:1 40:1 138:1 77:1 163:1 170:1 7424:1 27024:1 
0.05019530376907463 24:1 96:1 53:1 116:1 56:1 144:1 175:1 4706:1 45214:1 
0.2292886266827635 12:1 109:1 53:1 138:1 56:1 161:1 171:1 20485:1 27024:1 
0.2292886266827635 21:1 92:1 53:1 136:1 81:1 152:1 171:1 18895:1 46347:1 
0.2292886266827635 8:1 108:1 53:1 124:1 81:1 144:1 169:1 21618:1 29435:1 
0.2292886266827635 12:1 109:1 53:1 138:1 81:1 166:1 172:1 20485:1 27024:1 
0.01661004921729549 12:1 109:1 41:1 137:1 77:1 163:1 170:1 24463:1 37109:1 
0.2292886266827635 23:1 108:1 53:1 124:1 81:1 165:1 169:1 17645:1 29435:1 
0.2292886266827635 12:1 97:1 53:1 138:1 81:1 141:1 169:1 18465:1 40628:1 
0.2292886266827635 13:1 108:1 53:1 113:1 56:1 152:1 169:1 15899:1 29435:1 
0.2292886266827635 12:1 96:1 40:1 136:1 68:1 141:1 169:1 16304:1 43784:1 
0.2292886266827635 12:1 108:1 53:1 113:1 68:1 141:1 169:1 16064:1 29435:1 
0.2292886266827635 1:1 96:1 29:1 138:1 80:1 140:1 169:1 9549:1 30432:1 
0.2292886266827635 12:1 96:1 40:1 136:1 77:1 152:1 169:1 6857:1 47551:1 
0.2292886266827635 12:1 108:1 49:1 124:1 56:1 166:1 169:1 22822:1 29435:1 
0.2292886266827635 12:1 96:1 40:1 116:1 77:1 165:1 169:1 8731:1 48063:1 
0.2292886266827635 12:1 109:1 40:1 121:1 77:1 149:1 170:1 23334:1 48879:1 
0.1422775981595875 12:1 96:1 53:1 137:1 56:1 141:1 170:1 6567:1 29225:1 
0.2292886266827635 12:1 109:1 53:1 113:1 56:1 151:1 169:1 4496:1 45874:1 
0.2292886266827635 22:1 108:1 49:1 124:1 56:1 166:1 169:1 13635:1 29435:1 
0.2292886266827635 12:1 109:1 40:1 136:1 77:1 141:1 172:1 17980:1 30414:1 
0.2292886266827635 8:1 108:1 40:1 137:1 78:1 165:1 169:1 9421:1 29540:1 
0.2292886266827635 24:1 109:1 40:1 120:1 78:1 164:1 170:1 4811:1 48159:1 
0.2292886266827635 12:1 109:1 50:1 120:1 56:1 164:1 172:1 23264:1 48159:1 
0.2292886266827635 8:1 108:1 53:1 124:1 56:1 152:1 169:1 5321:1 29435:1 
0.2292886266827635 12:1 96:1 53:1 136:1 81:1 141:1 169:1 18564:1 31771:1 
0.2292886266827635 12:1 108:1 53:1 113:1 81:1 152:1 169:1 7042:1 29435:1 
0.2292886266827635 12:1 92:1 52:1 136:1 81:1 152:1 169:1 7664:1 30994:1 
0.2292886266827635 14:1 96:1 46:1 115:1 56:1 152:1 171:1 4746:1 42469:1 
0.2292886266827635 9:1 97:1 31:1 136:1 68:1 151:1 169:1 16503:1 46268:1 
0.2292886266827635 12:1 85:1 53:1 136:1 56:1 152:1 173:1 6567:1 32676:1 
0.118017721790496 12:1 96:1 53:1 124:1 77:1 166:1 169:1 21187:1 31771:1 
0.1800553700627517 25:1 96:1 49:1 138:1 56:1 152:1 171:1 4041:1 30616:1 
0.2292886266827635 12:1 109:1 40:1 138:1 77:1 161:1 169:1 23334:1 49356:1 
0.2292886266827635 25:1 108:1 40:1 124:1 68:1 144:1 169:1 23761:1 29435:1 
0.2292886266827635 12:1 108:1 40:1 124:1 77:1 144:1 171:1 13779:1 29435:1 
0.2292886266827635 12:1 88:1 40:1 113:1 77:1 166:1 169:1 21595:1 47158:1 
0.2292886266827635 23:1 108:1 53:1 113:1 81:1 152:1 169:1 24335:1 29435:1 
0.2292886266827635 1:1 109:1 40:1 112:1 81:1 152:1 169:1 16597:1 43624:1 
0.2292886266827635 1:1 96:1 36:1 138:1 81:1 144:1 169:1 7169:1 48151:1 
0.2292886266827635 8:1 96:1 53:1 138:1 81:1 144:1 170:1 15331:1 48151:1 
0.1550535141184003 4:1 109:1 53:1 124:1 79:1 152:1 169:1 21392:1 30417:1 
0.08710538540846156 25:1 109:1 51:1 124:1 69:1 152:1 170:1 13588:1 30417:1 
0.2292886266827635 25:1 97:1 46:1 130:1 56:1 166:1 169:1 15945:1 33004:1 
0.08969366613033865 12:1 109:1 46:1 137:1 74:1 166:1 171:1 15297:1 47708:1 
0.2292886266827635 23:1 109:1 53:1 135:1 81:1 165:1 169:1 22033:1 36014:1 
0.2292886266827635 12:1 109:1 52:1 137:1 59:1 166:1 171:1 16283:1 37781:1 
0.2292886266827635 24:1 109:1 31:1 137:1 56:1 166:1 173:1 11854:1 37781:1 
0.2292886266827635 14:1 98:1 40:1 126:1 70:1 154:1 169:1 14609:1 46830:1 
0.2292886266827635 12:1 98:1 42:1 126:1 56:1 154:1 170:1 18200:1 46830:1 
0.2292886266827635 14:1 98:1 42:1 112:1 70:1 140:1 169:1 7623:1 35548:1 
0.2292886266827635 12:1 108:1 32:1 135:1 56:1 152:1 169:1 2361:1 29435:1 
0.2292886266827635 23:1 108:1 49:1 124:1 81:1 152:1 169:1 17641:1 29435:1 
0.2292886266827635 12:1 108:1 49:1 124:1 68:1 144:1 169:1 7669:1 29435:1 
0.2292886266827635 12:1 109:1 49:1 124:1 81:1 166:1 174:1 2360:1 36572:1 
0.2292886266827635 25:1 96:1 49:1 138:1 81:1 165:1 169:1 11843:1 41277:1 
0.2292886266827635 25:1 85:1 40:1 116:1 77:1 141:1 171:1 6037:1 34966:1 
0.2292886266827635 21:1 85:1 53:1 116:1 56:1 141:1 184:1 4518:1 34966:1 
0.2292886266827635 23:1 108:1 29:1 124:1 57:1 144:1 169:1 17637:1 29435:1 
0.2292886266827635 12:1 88:1 29:1 137:1 57:1 141:1 170:1 9378:1 35222:1 
0.2292886266827635 25:1 85:1 32:1 138:1 57:1 140:1 169:1 22422:1 28904:1 
0.2292886266827635 23:1 109:1 53:1 124:1 56:1 166:1 169:1 17641:1 29145:1 
0.001753965620231686 23:1 109:1 40:1 135:1 81:1 166:1 170:1 19133:1 48775:1 
0.1220087988881105 12:1 109:1 31:1 135:1 68:1 164:1 170:1 10679:1 46757:1 
0.2292886266827635 23:1 108:1 53:1 123:1 81:1 166:1 169:1 17645:1 29435:1 
0.2292886266827635 23:1 108:1 53:1 123:1 81:1 166:1 169:1 13700:1 29435:1 
0.07257151636510638 24:1 95:1 53:1 138:1 81:1 140:1 169:1 4706:1 45964:1 
0.2292886266827635 12:1 95:1 49:1 134:1 59:1 152:1 169:1 2041:1 41223:1 
0.2292886266827635 13:1 108:1 49:1 129:1 59:1 165:1 169:1 15899:1 29435:1 
0.06581945090391599 12:1 108:1 28:1 123:1 56:1 162:1 173:1 15189:1 29435:1 
0.01849484532962207 12:1 109:1 31:1 135:1 57:1 161:1 170:1 19928:1 41479:1 
0.2292886266827635 23:1 109:1 49:1 137:1 79:1 165:1 169:1 24335:1 43240:1 
0.2292886266827635 23:1 109:1 53:1 137:1 81:1 164:1 172:1 17637:1 36572:1 
0.2292886266827635 12:1 85:1 31:1 112:1 68:1 140:1 169:1 10058:1 29964:1 
0.2292886266827635 12:1 96:1 40:1 137:1 81:1 152:1 169:1 19038:1 41012:1 
0.2292886266827635 12:1 96:1 40:1 123:1 81:1 165:1 169:1 19038:1 45295:1 
0.2292886266827635 25:1 96:1 40:1 137:1 81:1 165:1 169:1 19650:1 44414:1 
0.2292886266827635 25:1 109:1 40:1 112:1 68:1 140:1 169:1 16951:1 27092:1 
0.2292886266827635 12:1 109:1 40:1 112:1 81:1 140:1 170:1 19685:1 27092:1 
0.2292886266827635 14:1 109:1 53:1 112:1 56:1 140:1 171:1 11646:1 42667:1 
0.2292886266827635 12:1 109:1 40:1 129:1 56:1 166:1 169:1 8367:1 35324:1 
0.2292886266827635 23:1 96:1 53:1 123:1 73:1 162:1 170:1 23050:1 34459:1 
0.2292886266827635 12:1 97:1 53:1 137:1 73:1 152:1 172:1 9730:1 48334:1 
0.2292886266827635 13:1 96:1 53:1 138:1 73:1 140:1 174:1 23605:1 35334:1 
0.06590388814101647 19:1 93:1 28:1 124:1 56:1 144:1 169:1 15125:1 37764:1 
0.2292886266827635 12:1 96:1 40:1 137:1 77:1 152:1 169:1 6353:1 27491:1 
0.2292886266827635 12:1 109:1 40:1 124:1 56:1 140:1 169:1 20216:1 33248:1 
0.2292886266827635 12:1 108:1 49:1 124:1 68:1 152:1 169:1 14484:1 29435:1 
0.2292886266827635 12:1 109:1 53:1 136:1 56:1 144:1 176:1 14484:1 28239:1 
0.0003669610099871773 25:1 109:1 40:1 137:1 81:1 166:1 170:1 13592:1 45530:1 
0.2292886266827635 12:1 109:1 53:1 137:1 56:1 166:1 171:1 5961:1 45530:1 
0.1885620554977888 12:1 96:1 40:1 124:1 81:1 164:1 169:1 7030:1 36899:1 
0.2292886266827635 12:1 108:1 53:1 123:1 56:1 152:1 169:1 7163:1 29435:1 
0.0722393474073311 12:1 96:1 39:1 138:1 80:1 140:1 169:1 16624:1 45158:1 
0.2292886266827635 25:1 96:1 53:1 138:1 81:1 140:1 170:1 21071:1 33886:1 
0.2292886266827635 17:1 109:1 40:1 124:1 56:1 152:1 169:1 5917:1 27550:1 
0.2292886266827635 12:1 109:1 53:1 133:1 56:1 152:1 170:1 2762:1 28469:1 
0.2292886266827635 12:1 109:1 49:1 116:1 81:1 165:1 170:1 13779:1 28469:1 
0.2292886266827635 25:1 109:1 53:1 138:1 56:1 165:1 174:1 3740:1 34683:1 
0.2292886266827635 12:1 109:1 53:1 124:1 81:1 141:1 169:1 13779:1 45133:1 
0.1740542455897836 12:1 96:1 53:1 138:1 81:1 140:1 170:1 9289:1 36639:1 
0.2292886266827635 12:1 108:1 53:1 124:1 56:1 152:1 169:1 9816:1 29435:1 
0.01937080793211356 17:1 93:1 53:1 124:1 81:1 166:1 169:1 15846:1 42603:1 
0.2292886266827635 9:1 96:1 53:1 138:1 81:1 152:1 169:1 17874:1 37738:1 
0.2292886266827635 12:1 96:1 53:1 138:1 81:1 161:1 172:1 13009:1 48102:1 
0.09854354570083522 14:1 96:1 49:1 128:1 68:1 165:1 172:1 12270:1 42981:1 
0.1385544235318161 16:1 109:1 40:1 129:1 77:1 152:1 169:1 21340:1 35543:1 
0.2292886266827635 12:1 96:1 45:1 138:1 81:1 140:1 169:1 6857:1 30014:1 
0.2292886266827635 17:1 96:1 53:1 138:1 81:1 140:1 170:1 15846:1 30014:1 
0.1415007518313561 12:1 109:1 46:1 137:1 56:1 155:1 170:1 18252:1 40117:1 
0.03897212949928227 15:1 96:1 53:1 123:1 81:1 152:1 169:1 23634:1 44169:1 
0.1329792281067184 12:1 96:1 53:1 138:1 81:1 157:1 170:1 19440:1 41755:1 
0.2292886266827635 12:1 96:1 40:1 138:1 81:1 156:1 170:1 10687:1 48004:1 
0.2292886266827635 16:1 93:1 40:1 124:1 68:1 152:1 169:1 19438:1 40420:1 
0.2292886266827635 12:1 96:1 37:1 138:1 68:1 140:1 169:1 18954:1 48708:1 
0.2292886266827635 9:1 96:1 40:1 138:1 68:1 140:1 171:1 15691:1 48708:1 
0.2292886266827635 9:1 96:1 43:1 124:1 81:1 164:1 169:1 6691:1 41458:1 
0.08432148232158016 15:1 96:1 53:1 124:1 56:1 164:1 170:1 7710:1 41458:1 
0.186485096225967 12:1 108:1 53:1 124:1 56:1 166:1 169:1 1824:1 29435:1 
0.2292886266827635 12:1 96:1 40:1 126:1 68:1 161:1 169:1 23277:1 42055:1 
0.2292886266827635 12:1 96:1 40:1 126:1 81:1 161:1 170:1 17866:1 42055:1 
0.2292886266827635 12:1 98:1 40:1 133:1 81:1 158:1 169:1 17326:1 28054:1 
0.2292886266827635 14:1 109:1 40:1 137:1 81:1 166:1 172:1 3325:1 29524:1 
0.2292886266827635 12:1 108:1 53:1 113:1 56:1 152:1 169:1 5081:1 29435:1 
0.2292886266827635 12:1 108:1 53:1 124:1 81:1 140:1 171:1 10925:1 29435:1 
0.06381799087661207 23:1 109:1 40:1 135:1 56:1 166:1 169:1 12868:1 46339:1 
0.2292886266827635 0:1 85:1 53:1 138:1 81:1 141:1 169:1 19187:1 45201:1 
0.2292886266827635 12:1 109:1 40:1 124:1 56:1 164:1 169:1 20954:1 32590:1 
0.2292886266827635 22:1 108:1 49:1 116:1 56:1 165:1 169:1 13635:1 29435:1 
0.2292886266827635 24:1 109:1 49:1 138:1 56:1 161:1 170:1 4706:1 45425:1 
0.1109136336313172 11:1 106:1 49:1 124:1 81:1 151:1 170:1 1167:1 31625:1 
0.2167703253452168 22:1 96:1 49:1 123:1 81:1 151:1 169:1 6896:1 48620:1 
0.1336277123870554 11:1 106:1 40:1 124:1 77:1 153:1 170:1 259:1 48619:1 
0.2292886266827635 22:1 96:1 40:1 125:1 77:1 148:1 169:1 23890:1 44768:1 
0.2292886266827635 12:1 97:1 49:1 120:1 81:1 165:1 173:1 23891:1 48334:1 
0.2292886266827635 21:1 92:1 53:1 137:1 77:1 151:1 178:1 22563:1 45424:1 
0.06671428129114146 12:1 85:1 50:1 138:1 81:1 142:1 169:1 20486:1 43830:1 
0.1904271373721997 12:1 96:1 30:1 138:1 57:1 140:1 170:1 20039:1 38915:1 
0.2292886266827635 2:1 96:1 29:1 138:1 78:1 140:1 171:1 3212:1 38915:1 
0.2292886266827635 1:1 96:1 50:1 138:1 81:1 140:1 173:1 19101:1 38915:1 
0.2292886266827635 22:1 96:1 53:1 138:1 64:1 140:1 175:1 6896:1 38915:1 
0.2292886266827635 9:1 109:1 53:1 124:1 56:1 164:1 170:1 2508:1 49405:1 
0.2292886266827635 12:1 108:1 53:1 123:1 81:1 141:1 169:1 4340:1 29435:1 
0.2292886266827635 1:1 96:1 39:1 138:1 80:1 152:1 170:1 23804:1 31418:1 
0.2292886266827635 12:1 109:1 40:1 138:1 81:1 152:1 169:1 6345:1 40646:1 
0.2292886266827635 25:1 109:1 53:1 138:1 56:1 152:1 177:1 24676:1 40646:1 
0.2292886266827635 12:1 109:1 53:1 138:1 81:1 140:1 171:1 2585:1 44349:1 
0.2292886266827635 1:1 108:1 53:1 137:1 68:1 152:1 169:1 4196:1 29540:1 
0.2292886266827635 24:1 109:1 53:1 124:1 68:1 152:1 169:1 4811:1 34392:1 
0.06735422273748447 12:1 109:1 32:1 124:1 56:1 152:1 172:1 15326:1 34392:1 
0.2292886266827635 12:1 108:1 49:1 124:1 68:1 143:1 172:1 3065:1 29435:1 
0.2292886266827635 11:1 108:1 53:1 124:1 81:1 152:1 169:1 1049:1 29435:1 
0.2292886266827635 12:1 96:1 51:1 138:1 81:1 140:1 170:1 16786:1 28118:1 
0.2292886266827635 17:1 108:1 53:1 124:1 81:1 152:1 169:1 22430:1 29435:1 
0.0301988639024364 24:1 96:1 53:1 112:1 81:1 166:1 170:1 4706:1 47988:1 
0.2292886266827635 25:1 84:1 49:1 138:1 56:1 154:1 174:1 17738:1 41277:1 
0.2292886266827635 17:1 109:1 53:1 137:1 56:1 142:1 169:1 22430:1 44249:1 
0.2292886266827635 12:1 108:1 53:1 124:1 81:1 166:1 169:1 7669:1 29435:1 
0.2292886266827635 12:1 109:1 40:1 138:1 81:1 165:1 173:1 4554:1 48159:1 
0.2292886266827635 15:1 109:1 49:1 138:1 81:1 155:1 169:1 15334:1 48694:1 
0.2292886266827635 15:1 96:1 53:1 137:1 77:1 164:1 169:1 15334:1 32394:1 
0.2292886266827635 12:1 109:1 53:1 136:1 77:1 151:1 169:1 7665:1 48675:1 
0.2292886266827635 24:1 106:1 53:1 133:1 81:1 152:1 170:1 4706:1 47567:1 
0.2292886266827635 12:1 109:1 49:1 137:1 78:1 164:1 169:1 16570:1 26686:1 
0.2292886266827635 25:1 109:1 49:1 136:1 78:1 152:1 169:1 1957:1 43647:1 
0.02563192487905878 15:1 101:1 49:1 130:1 56:1 158:1 169:1 20229:1 38959:1 
0.2292886266827635 17:1 96:1 40:1 138:1 77:1 158:1 171:1 3237:1 45000:1 
0.2292886266827635 12:1 109:1 40:1 124:1 77:1 165:1 171:1 20271:1 30382:1 
0.1042941593220368 25:1 109:1 40:1 138:1 77:1 143:1 170:1 5653:1 48182:1 
0.2276966857594582 3:1 109:1 53:1 137:1 56:1 149:1 170:1 15515:1 44249:1 
0.2292886266827635 9:1 96:1 53:1 138:1 81:1 144:1 170:1 3234:1 32153:1 
0.2292886266827635 24:1 109:1 53:1 115:1 68:1 165:1 171:1 4706:1 45090:1 
0.2292886266827635 25:1 96:1 31:1 138:1 81:1 166:1 169:1 4789:1 47988:1 
0.08232763584366266 1:1 96:1 53:1 136:1 81:1 152:1 169:1 1906:1 41476:1 
0.1942501529414645 25:1 108:1 53:1 129:1 81:1 141:1 171:1 17063:1 29435:1 
0.1410578887670341 24:1 96:1 53:1 115:1 81:1 152:1 171:1 4706:1 29283:1 
0.1856237939032857 12:1 98:1 47:1 137:1 81:1 164:1 169:1 16914:1 46953:1 
0.2292886266827635 14:1 109:1 47:1 136:1 81:1 152:1 169:1 22224:1 43639:1 
0.2292886266827635 25:1 108:1 47:1 124:1 81:1 143:1 169:1 18910:1 29435:1 
0.1071638886063741 12:1 98:1 31:1 137:1 68:1 164:1 169:1 16914:1 44312:1 
0.02861509372973083 25:1 108:1 31:1 138:1 68:1 161:1 169:1 18910:1 29435:1 
0.2292886266827635 9:1 109:1 40:1 135:1 81:1 152:1 171:1 1465:1 45377:1 
0.2292886266827635 12:1 109:1 53:1 116:1 81:1 152:1 169:1 1801:1 43624:1 
0.2292886266827635 25:1 97:1 46:1 137:1 68:1 165:1 169:1 10793:1 33004:1 
0.2292886266827635 9:1 96:1 53:1 124:1 56:1 144:1 170:1 15432:1 32062:1 
0.2292886266827635 12:1 109:1 53:1 137:1 56:1 158:1 170:1 23470:1 29812:1 
0.2292886266827635 18:1 102:1 53:1 137:1 81:1 164:1 170:1 15110:1 25490:1 
0.2292886266827635 18:1 109:1 53:1 136:1 81:1 151:1 169:1 761:1 28588:1 
0.2292886266827635 1:1 103:1 53:1 133:1 56:1 158:1 169:1 9549:1 38127:1 
0.2292886266827635 19:1 109:1 53:1 136:1 56:1 152:1 173:1 13398:1 41651:1 
0.2292886266827635 25:1 108:1 53:1 124:1 56:1 163:1 169:1 16922:1 29435:1 
0.2292886266827635 12:1 85:1 53:1 115:1 56:1 144:1 170:1 16087:1 28069:1 
0.2292886266827635 1:1 109:1 53:1 124:1 56:1 166:1 171:1 3340:1 46588:1 
0.2292886266827635 12:1 108:1 53:1 124:1 81:1 166:1 169:1 3471:1 29435:1 
0.1571892813603073 1:1 108:1 40:1 137:1 81:1 144:1 169:1 10982:1 29435:1 
0.2292886266827635 12:1 109:1 29:1 116:1 56:1 165:1 169:1 4249:1 39835:1 
0.2292886266827635 23:1 109:1 53:1 138:1 81:1 152:1 172:1 17645:1 40815:1 
0.1078368863882248 17:1 96:1 53:1 113:1 56:1 166:1 169:1 1461:1 38487:1 
0.2292886266827635 1:1 96:1 40:1 137:1 81:1 153:1 171:1 6705:1 29735:1 
0.2292886266827635 12:1 96:1 53:1 137:1 56:1 153:1 172:1 13758:1 29735:1 
0.2292886266827635 12:1 109:1 53:1 125:1 56:1 166:1 169:1 5006:1 47932:1 
0.2292886266827635 25:1 97:1 53:1 138:1 56:1 151:1 169:1 23203:1 39345:1 
0.2292886266827635 11:1 108:1 41:1 137:1 81:1 152:1 169:1 1218:1 29435:1 
0.2200636891875928 25:1 96:1 52:1 137:1 69:1 166:1 169:1 14017:1 27044:1 
0.2292886266827635 13:1 109:1 53:1 138:1 56:1 152:1 174:1 14616:1 41479:1 
0.2292886266827635 12:1 109:1 53:1 124:1 81:1 166:1 169:1 4265:1 36014:1 
0.1178369061160337 25:1 108:1 51:1 116:1 68:1 165:1 169:1 6470:1 29435:1 
0.2292886266827635 24:1 109:1 51:1 113:1 68:1 164:1 170:1 4706:1 31976:1 
0.2292886266827635 25:1 108:1 49:1 124:1 81:1 165:1 169:1 17960:1 48086:1 
0.1117729119595418 21:1 109:1 53:1 135:1 68:1 166:1 172:1 21527:1 29171:1 
0.1579919106288573 25:1 109:1 40:1 135:1 80:1 166:1 173:1 21794:1 29171:1 
0.2292886266827635 12:1 109:1 52:1 135:1 81:1 166:1 174:1 23822:1 29171:1 
0.006687383805211826 4:1 109:1 53:1 123:1 79:1 165:1 169:1 6968:1 30212:1 
0.2292886266827635 11:1 109:1 53:1 115:1 81:1 165:1 169:1 21387:1 36306:1 
0.2292886266827635 12:1 92:1 49:1 137:1 81:1 163:1 169:1 15239:1 35203:1 
0.2002414418749287 21:1 109:1 53:1 135:1 81:1 164:1 171:1 18895:1 41479:1 
0.2292886266827635 23:1 108:1 53:1 124:1 81:1 166:1 169:1 1488:1 29435:1 
0.2292886266827635 12:1 109:1 49:1 137:1 74:1 166:1 169:1 21141:1 31144:1 
0.2292886266827635 18:1 109:1 53:1 138:1 81:1 152:1 170:1 22505:1 38758:1 
0.2292886266827635 12:1 109:1 53:1 138:1 81:1 161:1 169:1 22507:1 34130:1 
0.2292886266827635 12:1 109:1 49:1 138:1 81:1 152:1 169:1 8367:1 30852:1 
0.2292886266827635 12:1 109:1 53:1 136:1 77:1 166:1 169:1 22120:1 42142:1 
0.05521708208224656 12:1 109:1 52:1 113:1 81:1 164:1 169:1 15373:1 46606:1 
0.2292886266827635 1:1 108:1 53:1 124:1 81:1 166:1 169:1 6186:1 29435:1 
0.2292886266827635 23:1 108:1 49:1 124:1 68:1 152:1 169:1 19133:1 29435:1 
0.2292886266827635 12:1 96:1 40:1 138:1 77:1 152:1 169:1 11355:1 26199:1 
0.2292886266827635 12:1 96:1 40:1 136:1 68:1 165:1 169:1 13568:1 29861:1 
0.2292886266827635 12:1 97:1 53:1 113:1 56:1 164:1 169:1 4485:1 34165:1 
0.2292886266827635 12:1 109:1 53:1 113:1 56:1 164:1 169:1 9730:1 41479:1 
0.2292886266827635 13:1 108:1 49:1 116:1 81:1 165:1 169:1 15899:1 29435:1 
0.2292886266827635 24:1 109:1 49:1 115:1 81:1 165:1 170:1 4706:1 48057:1 
0.2292886266827635 8:1 108:1 53:1 135:1 64:1 151:1 169:1 3528:1 29435:1 
0.06152695832022451 23:1 106:1 52:1 138:1 81:1 140:1 170:1 13411:1 42570:1 
0.2292886266827635 24:1 106:1 53:1 138:1 64:1 140:1 171:1 4706:1 42570:1 
0.2292886266827635 1:1 108:1 51:1 138:1 56:1 152:1 169:1 23770:1 29435:1 
0.06291330492868905 11:1 92:1 52:1 138:1 81:1 144:1 169:1 21387:1 27429:1 
0.2292886266827635 22:1 96:1 40:1 138:1 81:1 140:1 170:1 6896:1 34311:1 
0.2292886266827635 12:1 96:1 53:1 138:1 81:1 140:1 172:1 13758:1 34311:1 
0.2292886266827635 25:1 109:1 51:1 134:1 74:1 152:1 170:1 4624:1 26544:1 
0.2292886266827635 18:1 108:1 53:1 123:1 56:1 162:1 169:1 968:1 29435:1 
0.2292886266827635 22:1 102:1 52:1 138:1 81:1 157:1 169:1 17985:1 44377:1 
0.2292886266827635 24:1 102:1 53:1 138:1 56:1 157:1 171:1 4706:1 44377:1 
0.2292886266827635 12:1 96:1 45:1 124:1 74:1 154:1 170:1 16789:1 32200:1 
0.1943859088507937 12:1 98:1 46:1 137:1 81:1 159:1 169:1 17332:1 42177:1 
0.06596138005282806 19:1 96:1 53:1 137:1 56:1 165:1 169:1 5175:1 39266:1 
0.1321124944581899 17:1 96:1 53:1 123:1 81:1 141:1 169:1 13499:1 29908:1 
0.143329739558417 11:1 96:1 40:1 138:1 81:1 161:1 170:1 21220:1 37148:1 
0.2292886266827635 12:1 96:1 53:1 138:1 81:1 161:1 171:1 5179:1 37148:1 
0.002715028546312525 19:1 96:1 45:1 124:1 77:1 166:1 169:1 6414:1 29069:1 
0.02742107985336953 17:1 96:1 49:1 124:1 81:1 166:1 170:1 2031:1 29069:1 
0.2071145964505248 12:1 96:1 53:1 138:1 68:1 140:1 169:1 17281:1 45458:1 
0.1105459914154451 12:1 109:1 31:1 137:1 57:1 152:1 170:1 17502:1 32153:1 
0.2292886266827635 12:1 108:1 53:1 130:1 81:1 166:1 169:1 7784:1 29435:1 
0.2292886266827635 24:1 102:1 53:1 138:1 81:1 140:1 169:1 4706:1 43699:1 
0.08119226049646711 14:1 96:1 40:1 138:1 56:1 165:1 169:1 19278:1 38563:1 
0.1628543969582318 12:1 96:1 50:1 138:1 80:1 158:1 170:1 6990:1 46406:1 
0.2292886266827635 1:1 108:1 50:1 137:1 68:1 166:1 169:1 3592:1 29435:1 
0.2292886266827635 22:1 109:1 40:1 138:1 81:1 165:1 171:1 23754:1 26135:1 
0.2292886266827635 12:1 109:1 53:1 138:1 68:1 165:1 173:1 15320:1 26135:1 
0.2292886266827635 25:1 109:1 40:1 123:1 56:1 162:1 176:1 24676:1 41479:1 
0.1018635787135319 12:1 109:1 28:1 123:1 56:1 162:1 178:1 13337:1 41479:1 
0.1077206502617991 22:1 96:1 53:1 138:1 56:1 163:1 171:1 10914:1 29039:1 
0.2292886266827635 24:1 92:1 51:1 138:1 68:1 140:1 169:1 4811:1 48047:1 
0.2292886266827635 23:1 92:1 40:1 138:1 81:1 140:1 171:1 17645:1 48047:1 
0.2292886266827635 25:1 96:1 53:1 112:1 56:1 140:1 170:1 5142:1 35950:1 
0.2292886266827635 12:1 96:1 53:1 125:1 77:1 166:1 169:1 14006:1 47379:1 
0.1981998066143662 25:1 97:1 49:1 138:1 68:1 165:1 171:1 3510:1 33004:1 
0.2292886266827635 25:1 108:1 53:1 124:1 69:1 152:1 169:1 3014:1 29435:1 
0.1136546256946639 25:1 109:1 41:1 137:1 77:1 165:1 180:1 21445:1 48726:1 
0.2292886266827635 12:1 109:1 53:1 135:1 81:1 164:1 172:1 15118:1 47292:1 
0.2292886266827635 23:1 108:1 53:1 124:1 81:1 152:1 169:1 2110:1 29435:1 
0.2292886266827635 12:1 97:1 53:1 138:1 81:1 140:1 169:1 5842:1 48091:1 
0.2292886266827635 23:1 109:1 49:1 135:1 74:1 162:1 169:1 19126:1 36888:1 
0.01910072792792663 23:1 106:1 53:1 113:1 77:1 142:1 169:1 13411:1 26838:1 
0.2292886266827635 2:1 108:1 29:1 124:1 78:1 152:1 169:1 17811:1 29435:1 
0.2292886266827635 22:1 96:1 53:1 124:1 77:1 166:1 174:1 2109:1 48044:1 
0.2292886266827635 25:1 96:1 49:1 138:1 74:1 152:1 177:1 12159:1 41277:1 
0.2292886266827635 12:1 109:1 40:1 137:1 77:1 164:1 172:1 24923:1 39982:1 
0.004001827657400451 12:1 109:1 46:1 136:1 56:1 163:1 170:1 3649:1 28376:1 
0.2292886266827635 1:1 108:1 40:1 113:1 59:1 152:1 169:1 10480:1 29435:1 
0.2292886266827635 12:1 108:1 31:1 113:1 65:1 152:1 170:1 4866:1 29435:1 
0.2292886266827635 9:1 85:1 28:1 138:1 56:1 154:1 176:1 22443:1 45237:1 
0.2292886266827635 14:1 108:1 29:1 123:1 56:1 152:1 169:1 20941:1 29435:1 
0.01936595929812623 17:1 96:1 49:1 116:1 68:1 165:1 169:1 12095:1 40163:1 
0.2292886266827635 12:1 109:1 29:1 137:1 56:1 165:1 173:1 10670:1 29865:1 
0.2292886266827635 25:1 109:1 53:1 136:1 57:1 152:1 169:1 11827:1 30540:1 
0.2292886266827635 25:1 108:1 53:1 124:1 57:1 166:1 169:1 5811:1 29435:1 
0.2292886266827635 12:1 96:1 40:1 113:1 59:1 166:1 169:1 7042:1 33657:1 
0.1294091163862852 12:1 96:1 31:1 113:1 68:1 166:1 170:1 19128:1 33657:1 
0.2292886266827635 25:1 109:1 29:1 116:1 81:1 141:1 169:1 10743:1 31771:1 
0.05242506536769113 4:1 85:1 53:1 138:1 57:1 140:1 169:1 9058:1 34190:1 
0.2292886266827635 25:1 85:1 29:1 138:1 81:1 140:1 170:1 7042:1 34190:1 
0.1424474377510206 12:1 108:1 28:1 129:1 56:1 152:1 169:1 21783:1 29435:1 
0.2292886266827635 12:1 108:1 49:1 124:1 68:1 165:1 169:1 18883:1 29435:1 
0.2292886266827635 1:1 108:1 53:1 124:1 68:1 165:1 169:1 6946:1 29435:1 
0.01528266523899429 25:1 109:1 40:1 138:1 56:1 140:1 174:1 24676:1 48791:1 
0.2292886266827635 25:1 109:1 53:1 124:1 56:1 164:1 170:1 21145:1 34052:1 
0.2292886266827635 12:1 108:1 53:1 124:1 81:1 166:1 169:1 4554:1 29435:1 
0.2292886266827635 12:1 108:1 53:1 124:1 81:1 166:1 169:1 4554:1 29435:1 
0.08238756088392045 1:1 96:1 53:1 136:1 81:1 152:1 169:1 18618:1 41476:1 
0.2292886266827635 12:1 108:1 53:1 124:1 81:1 143:1 169:1 16747:1 29435:1 
0.2292886266827635 12:1 96:1 40:1 137:1 81:1 165:1 169:1 7042:1 40102:1 
0.2292886266827635 12:1 97:1 53:1 116:1 56:1 141:1 169:1 11740:1 40628:1 
0.2292886266827635 13:1 109:1 53:1 124:1 56:1 152:1 171:1 15899:1 28738:1 
0.2292886266827635 12:1 96:1 53:1 136:1 81:1 152:1 169:1 9816:1 31771:1 
0.2292886266827635 13:1 109:1 40:1 124:1 81:1 152:1 170:1 8275:1 36883:1 
0.05480418377084313 12:1 96:1 53:1 138:1 81:1 158:1 169:1 10707:1 29069:1 
0.04968940511482583 18:1 109:1 40:1 136:1 81:1 157:1 170:1 9977:1 28570:1 
0.1621019627321201 12:1 96:1 40:1 137:1 56:1 164:1 169:1 16545:1 35559:1 
0.2292886266827635 12:1 92:1 53:1 138:1 56:1 144:1 169:1 23376:1 34188:1 
0.2292886266827635 12:1 109:1 53:1 136:1 56:1 165:1 169:1 8299:1 41371:1 
0.2292886266827635 24:1 109:1 53:1 138:1 81:1 166:1 169:1 17619:1 32310:1 
0.2292886266827635 12:1 108:1 46:1 124:1 81:1 152:1 169:1 7042:1 29435:1 
0.2292886266827635 8:1 108:1 53:1 124:1 81:1 166:1 169:1 19106:1 29435:1 
0.2292886266827635 12:1 108:1 29:1 124:1 81:1 165:1 169:1 15297:1 29435:1 
0.01394938792771073 12:1 109:1 52:1 137:1 57:1 165:1 169:1 9289:1 28422:1 
0.2292886266827635 24:1 109:1 29:1 137:1 81:1 165:1 170:1 4706:1 28422:1 
0.2292886266827635 25:1 109:1 53:1 137:1 68:1 141:1 175:1 6802:1 41479:1 
0.2292886266827635 25:1 109:1 40:1 137:1 81:1 141:1 177:1 11335:1 41479:1 
0.166372186448053 12:1 96:1 53:1 116:1 56:1 165:1 170:1 16064:1 44505:1 
0.2292886266827635 12:1 96:1 40:1 120:1 81:1 166:1 169:1 10263:1 34311:1 
0.2292886266827635 12:1 92:1 40:1 138:1 81:1 140:1 169:1 9582:1 27381:1 
0.2194410451090242 24:1 109:1 29:1 138:1 81:1 165:1 169:1 4706:1 27032:1 
0.2292886266827635 25:1 109:1 29:1 124:1 81:1 152:1 170:1 2303:1 47978:1 
0.2292886266827635 12:1 96:1 40:1 116:1 81:1 165:1 169:1 24464:1 32153:1 
0.2292886266827635 12:1 96:1 53:1 116:1 57:1 165:1 170:1 7090:1 32153:1 
0.2292886266827635 12:1 109:1 53:1 133:1 57:1 152:1 170:1 7424:1 27032:1 
0.2292886266827635 25:1 108:1 53:1 116:1 57:1 165:1 172:1 2303:1 29435:1 
0.2292886266827635 24:1 109:1 53:1 138:1 57:1 140:1 170:1 4706:1 30558:1 
0.2292886266827635 12:1 96:1 40:1 133:1 74:1 152:1 169:1 22494:1 48924:1 
0.07497007596172522 25:1 109:1 40:1 113:1 74:1 164:1 169:1 9663:1 41479:1 
0.1540184551691159 12:1 109:1 46:1 113:1 56:1 164:1 173:1 24195:1 41479:1 
0.2292886266827635 4:1 109:1 53:1 137:1 81:1 165:1 169:1 2561:1 28821:1 
0.2292886266827635 25:1 109:1 52:1 137:1 81:1 165:1 171:1 16750:1 28821:1 
0.08065743003837057 1:1 106:1 32:1 133:1 56:1 152:1 170:1 10167:1 38364:1 
0.2040710447194522 12:1 96:1 49:1 116:1 78:1 165:1 169:1 19394:1 47663:1 
0.2292886266827635 12:1 109:1 49:1 136:1 78:1 152:1 170:1 22934:1 33459:1 
0.2292886266827635 25:1 108:1 49:1 124:1 78:1 166:1 169:1 8730:1 29435:1 
0.2292886266827635 12:1 96:1 40:1 124:1 77:1 144:1 169:1 10285:1 47410:1 
0.2292886266827635 12:1 96:1 40:1 116:1 77:1 165:1 169:1 22681:1 42234:1 
0.2292886266827635 12:1 109:1 40:1 124:1 77:1 166:1 170:1 17505:1 46800:1 
0.1494373346383952 22:1 109:1 32:1 124:1 56:1 166:1 181:1 13635:1 46800:1 
0.2292886266827635 12:1 96:1 43:1 115:1 77:1 159:1 170:1 20908:1 45641:1 
0.1526962804427664 15:1 96:1 49:1 115:1 68:1 159:1 172:1 23634:1 45641:1 
0.2292886266827635 25:1 108:1 40:1 138:1 68:1 154:1 169:1 2273:1 29435:1 
0.2292886266827635 24:1 96:1 40:1 138:1 68:1 158:1 172:1 4706:1 33205:1 
0.1804029925610988 18:1 109:1 40:1 137:1 68:1 166:1 172:1 10180:1 28376:1 
0.2292886266827635 12:1 109:1 40:1 137:1 68:1 166:1 174:1 8476:1 28376:1 
0.2292886266827635 12:1 109:1 40:1 124:1 80:1 166:1 169:1 8819:1 32310:1 
0.2292886266827635 25:1 108:1 40:1 113:1 80:1 152:1 174:1 7581:1 29435:1 
0.2292886266827635 12:1 92:1 52:1 138:1 81:1 157:1 169:1 2954:1 42288:1 
0.07858260845884865 17:1 96:1 36:1 136:1 81:1 152:1 169:1 4299:1 44659:1 
0.2292886266827635 12:1 108:1 36:1 124:1 81:1 152:1 169:1 19930:1 29435:1 
0.2292886266827635 12:1 109:1 36:1 138:1 81:1 149:1 171:1 16852:1 38668:1 
0.2292886266827635 12:1 96:1 37:1 124:1 81:1 165:1 169:1 2954:1 45368:1 
0.2292886266827635 12:1 96:1 37:1 137:1 81:1 164:1 169:1 20639:1 41581:1 
0.2292886266827635 9:1 96:1 53:1 137:1 64:1 164:1 171:1 15316:1 41581:1 
0.2292886266827635 12:1 109:1 53:1 136:1 64:1 151:1 169:1 16852:1 42645:1 
0.2061635107656041 13:1 106:1 42:1 137:1 81:1 164:1 170:1 14616:1 38364:1 
0.2292886266827635 22:1 109:1 42:1 136:1 81:1 144:1 169:1 13635:1 31325:1 
0.2292886266827635 14:1 109:1 53:1 136:1 56:1 144:1 172:1 11475:1 31325:1 
0.2292886266827635 12:1 109:1 51:1 138:1 77:1 140:1 169:1 18206:1 45883:1 
0.2292886266827635 14:1 109:1 49:1 138:1 56:1 165:1 169:1 12219:1 34748:1 
0.2292886266827635 12:1 109:1 53:1 137:1 77:1 152:1 169:1 7042:1 41479:1 
0.1089338972097961 12:1 96:1 53:1 138:1 81:1 140:1 169:1 18275:1 48269:1 
0.2292886266827635 23:1 109:1 37:1 124:1 56:1 151:1 169:1 12877:1 47220:1 
0.2292886266827635 4:1 109:1 49:1 137:1 60:1 151:1 169:1 1471:1 30781:1 
0.2292886266827635 25:1 108:1 40:1 113:1 80:1 152:1 169:1 6052:1 29435:1 
0.09291434035861639 19:1 96:1 53:1 136:1 56:1 152:1 170:1 18396:1 41294:1 
0.2292886266827635 12:1 108:1 53:1 124:1 56:1 151:1 169:1 16565:1 29435:1 
0.2292886266827635 12:1 108:1 53:1 124:1 56:1 151:1 169:1 16565:1 29435:1 
0.2292886266827635 11:1 85:1 53:1 136:1 56:1 166:1 169:1 16487:1 35306:1 
0.005832664176553546 23:1 109:1 40:1 137:1 77:1 152:1 169:1 17637:1 40136:1 
0.2292886266827635 25:1 109:1 53:1 124:1 56:1 164:1 170:1 19529:1 41479:1 
0.2292886266827635 12:1 108:1 53:1 114:1 81:1 152:1 169:1 8227:1 29435:1 
0.2292886266827635 23:1 96:1 53:1 138:1 56:1 163:1 169:1 19126:1 48700:1 
0.1552147608234031 23:1 109:1 40:1 115:1 81:1 165:1 170:1 19133:1 30863:1 
0.1506476463337069 12:1 96:1 39:1 137:1 81:1 165:1 172:1 10676:1 34311:1 
0.2292886266827635 12:1 109:1 39:1 113:1 81:1 152:1 170:1 9582:1 41355:1 
0.2292886266827635 11:1 109:1 53:1 113:1 56:1 152:1 176:1 255:1 41355:1 
0.1306953541584277 12:1 96:1 53:1 138:1 81:1 140:1 169:1 5945:1 47535:1 
0.2292886266827635 12:1 96:1 40:1 137:1 56:1 148:1 169:1 19759:1 34311:1 
0.2292886266827635 12:1 108:1 36:1 124:1 81:1 143:1 169:1 17502:1 29435:1 
0.2140821196106091 12:1 96:1 49:1 136:1 68:1 152:1 171:1 17310:1 30616:1 
0.2292886266827635 12:1 108:1 49:1 124:1 68:1 153:1 169:1 5887:1 29435:1 
0.2292886266827635 12:1 97:1 49:1 138:1 68:1 144:1 169:1 21154:1 43272:1 
0.2292886266827635 1:1 108:1 53:1 124:1 81:1 152:1 169:1 6705:1 29435:1 
0.01767865135236706 12:1 96:1 28:1 133:1 56:1 141:1 171:1 3647:1 44303:1 
0.1350027334444697 12:1 97:1 49:1 138:1 68:1 144:1 169:1 21155:1 43272:1 
0.04918327856289102 12:1 96:1 53:1 135:1 56:1 152:1 169:1 22215:1 43819:1 
0.2292886266827635 12:1 96:1 53:1 115:1 56:1 152:1 170:1 19090:1 32293:1 
0.2292886266827635 12:1 96:1 40:1 116:1 77:1 165:1 169:1 21922:1 30616:1 
0.2292886266827635 12:1 96:1 49:1 116:1 68:1 165:1 170:1 21920:1 30616:1 
0.2292886266827635 12:1 108:1 53:1 124:1 68:1 166:1 169:1 16064:1 29435:1 
0.2292886266827635 12:1 92:1 51:1 136:1 81:1 141:1 169:1 14363:1 38270:1 
0.2292886266827635 8:1 108:1 51:1 113:1 81:1 152:1 169:1 13541:1 29435:1 
0.2292886266827635 23:1 96:1 53:1 138:1 56:1 140:1 173:1 13424:1 44789:1 
0.1031342788451489 12:1 98:1 40:1 137:1 56:1 166:1 169:1 9219:1 31013:1 
0.06600029279184602 12:1 98:1 53:1 123:1 56:1 162:1 169:1 1416:1 40751:1 
0.1052151335973443 17:1 100:1 49:1 124:1 78:1 152:1 169:1 23636:1 38284:1 
0.2292886266827635 16:1 96:1 49:1 124:1 78:1 165:1 169:1 13555:1 34545:1 
0.2292886266827635 22:1 109:1 42:1 123:1 81:1 152:1 174:1 3978:1 47452:1 
0.2292886266827635 14:1 109:1 53:1 123:1 56:1 152:1 176:1 16022:1 47452:1 
0.02120115699146143 24:1 96:1 53:1 137:1 81:1 151:1 169:1 4706:1 35776:1 
0.2292886266827635 12:1 109:1 53:1 123:1 81:1 162:1 169:1 11047:1 27949:1 
0.01105261322381397 11:1 106:1 53:1 138:1 81:1 165:1 169:1 306:1 40030:1 
0.00518753174590183 11:1 106:1 40:1 138:1 81:1 140:1 169:1 338:1 47025:1 
0.2292886266827635 12:1 88:1 28:1 123:1 56:1 162:1 169:1 15346:1 38253:1 
0.09831924329361265 22:1 96:1 32:1 138:1 56:1 165:1 169:1 8713:1 27256:1 
0.2292886266827635 11:1 109:1 40:1 138:1 68:1 141:1 169:1 15634:1 44379:1 
0.2292886266827635 25:1 96:1 40:1 138:1 68:1 141:1 171:1 19650:1 33806:1 
0.2292886266827635 12:1 96:1 40:1 130:1 68:1 161:1 172:1 9077:1 27093:1 
0.2292886266827635 12:1 96:1 40:1 130:1 56:1 161:1 178:1 15140:1 27093:1 
0.2292886266827635 12:1 109:1 40:1 138:1 56:1 140:1 172:1 2364:1 35279:1 
0.2292886266827635 22:1 96:1 40:1 124:1 80:1 166:1 170:1 3978:1 33522:1 
0.2292886266827635 12:1 96:1 40:1 138:1 80:1 163:1 169:1 8793:1 45704:1 
0.2292886266827635 12:1 96:1 52:1 138:1 81:1 163:1 173:1 15172:1 45704:1 
0.08555901865132168 23:1 108:1 40:1 124:1 81:1 165:1 169:1 17641:1 29435:1 
0.2292886266827635 12:1 109:1 40:1 136:1 81:1 152:1 169:1 4416:1 27592:1 
0.1722144354428074 22:1 96:1 40:1 138:1 80:1 140:1 169:1 10021:1 38884:1 
0.203182549027991 3:1 109:1 53:1 136:1 74:1 149:1 172:1 5573:1 30047:1 
0.2292886266827635 25:1 108:1 53:1 121:1 74:1 159:1 169:1 5318:1 29435:1 
0.2292886266827635 9:1 103:1 52:1 124:1 74:1 144:1 169:1 14934:1 42946:1 
0.2292886266827635 9:1 96:1 49:1 124:1 77:1 152:1 169:1 5322:1 32398:1 
0.1681782141760221 12:1 96:1 49:1 137:1 65:1 164:1 169:1 7424:1 30616:1 
0.2292886266827635 9:1 109:1 46:1 136:1 56:1 151:1 175:1 5536:1 39818:1 
0.2292886266827635 9:1 109:1 31:1 124:1 56:1 166:1 175:1 5536:1 49378:1 
0.2292886266827635 25:1 109:1 53:1 137:1 81:1 149:1 171:1 18895:1 38041:1 
0.2292886266827635 12:1 96:1 40:1 137:1 56:1 166:1 169:1 5697:1 26553:1 
0.2292886266827635 14:1 109:1 53:1 136:1 56:1 155:1 173:1 1468:1 42935:1 
0.04947856266238366 18:1 85:1 40:1 121:1 56:1 152:1 169:1 12358:1 38575:1 
0.1164557830572441 12:1 85:1 28:1 121:1 56:1 152:1 170:1 8448:1 38575:1 
0.2292886266827635 12:1 85:1 37:1 138:1 57:1 165:1 169:1 6218:1 32603:1 
0.2292886266827635 9:1 85:1 29:1 138:1 56:1 165:1 170:1 21778:1 32603:1 
0.09354013500849258 4:1 96:1 40:1 136:1 77:1 152:1 172:1 17846:1 33693:1 
0.09132167089156359 12:1 109:1 31:1 138:1 56:1 156:1 172:1 15878:1 32148:1 
0.2292886266827635 16:1 109:1 53:1 123:1 56:1 161:1 171:1 9890:1 44644:1 
0.2292886266827635 4:1 109:1 53:1 136:1 67:1 152:1 169:1 2561:1 29353:1 
0.2292886266827635 11:1 108:1 53:1 124:1 81:1 165:1 175:1 21408:1 29435:1 
0.2292886266827635 12:1 109:1 53:1 135:1 56:1 158:1 169:1 2001:1 42662:1 
0.009127549823045485 12:1 96:1 53:1 138:1 56:1 154:1 169:1 7444:1 34626:1 
0.2292886266827635 12:1 108:1 31:1 137:1 60:1 152:1 169:1 5459:1 29435:1 
0.2292886266827635 14:1 109:1 40:1 138:1 81:1 140:1 177:1 13698:1 39826:1 
0.2292886266827635 12:1 96:1 40:1 124:1 77:1 164:1 169:1 20792:1 31771:1 
0.2292886266827635 12:1 96:1 40:1 136:1 77:1 152:1 169:1 7042:1 33513:1 
0.2292886266827635 12:1 108:1 49:1 124:1 81:1 153:1 169:1 8784:1 29435:1 
0.09827981167774763 21:1 109:1 53:1 137:1 56:1 163:1 176:1 22563:1 42467:1 
0.2292886266827635 19:1 96:1 42:1 138:1 56:1 166:1 170:1 15333:1 49162:1 
0.2292886266827635 12:1 96:1 40:1 136:1 70:1 152:1 170:1 17973:1 48997:1 
0.2292886266827635 12:1 108:1 40:1 124:1 70:1 166:1 169:1 24268:1 29435:1 
0.2292886266827635 12:1 109:1 40:1 116:1 70:1 165:1 170:1 20426:1 36286:1 
0.06752557016702547 14:1 109:1 28:1 116:1 56:1 165:1 181:1 11653:1 36286:1 
0.2292886266827635 4:1 109:1 53:1 124:1 56:1 152:1 169:1 2561:1 35469:1 
0.2292886266827635 12:1 108:1 53:1 124:1 81:1 166:1 169:1 12867:1 29435:1 
0.2292886266827635 11:1 109:1 53:1 124:1 81:1 144:1 169:1 21220:1 41479:1 
0.03765894375261009 12:1 96:1 53:1 133:1 60:1 141:1 169:1 11918:1 40990:1 
0.2292886266827635 1:1 106:1 49:1 113:1 68:1 152:1 170:1 11873:1 38364:1 
0.2292886266827635 12:1 97:1 49:1 138:1 68:1 161:1 169:1 6195:1 48087:1 
0.2292886266827635 1:1 96:1 53:1 136:1 77:1 152:1 169:1 20898:1 32622:1 
0.2292886266827635 12:1 109:1 53:1 116:1 81:1 141:1 190:1 13799:1 33613:1 
0.2292886266827635 1:1 96:1 53:1 138:1 81:1 140:1 169:1 7947:1 41562:1 
0.2292886266827635 12:1 108:1 53:1 124:1 56:1 152:1 169:1 17160:1 29435:1 
0.2292886266827635 25:1 96:1 53:1 138:1 81:1 161:1 170:1 15098:1 48269:1 
0.2292886266827635 25:1 96:1 49:1 115:1 68:1 152:1 177:1 16261:1 36899:1 
0.2292886266827635 12:1 96:1 53:1 124:1 68:1 166:1 170:1 24277:1 41395:1 
0.1071758603411269 12:1 96:1 53:1 138:1 68:1 140:1 169:1 16666:1 48269:1 
0.184152887239165 12:1 108:1 53:1 124:1 56:1 166:1 169:1 11918:1 29435:1 
0.2292886266827635 12:1 85:1 53:1 138:1 56:1 140:1 173:1 9305:1 27321:1 
0.2292886266827635 12:1 96:1 40:1 138:1 81:1 144:1 169:1 3068:1 35043:1 
0.2292886266827635 12:1 108:1 53:1 124:1 81:1 166:1 169:1 8573:1 29435:1 
0.1473023491348678 12:1 96:1 53:1 138:1 81:1 152:1 169:1 13755:1 34034:1 
0.2292886266827635 12:1 96:1 40:1 136:1 81:1 152:1 169:1 12304:1 33302:1 
0.2292886266827635 12:1 108:1 40:1 124:1 81:1 166:1 169:1 8573:1 29435:1 
0.2292886266827635 12:1 108:1 53:1 124:1 81:1 166:1 172:1 9305:1 29435:1 
0.2292886266827635 1:1 109:1 52:1 138:1 59:1 140:1 169:1 6511:1 39196:1 
0.1202114793885457 4:1 109:1 53:1 133:1 68:1 152:1 169:1 10193:1 34241:1 
0.2292886266827635 12:1 109:1 49:1 138:1 68:1 165:1 170:1 4569:1 27494:1 
0.01719911057619252 11:1 96:1 53:1 115:1 56:1 152:1 170:1 5522:1 45158:1 
0.04966997329660444 12:1 96:1 53:1 138:1 81:1 140:1 169:1 22146:1 32808:1 
0.1899635844169589 25:1 96:1 31:1 137:1 56:1 151:1 170:1 24062:1 31771:1 
0.2292886266827635 11:1 109:1 53:1 124:1 68:1 152:1 169:1 16487:1 48774:1 
0.1905182542821854 25:1 109:1 40:1 124:1 59:1 152:1 170:1 21794:1 48774:1 
0.2292886266827635 12:1 108:1 53:1 124:1 56:1 166:1 169:1 5734:1 29435:1 
0.2292886266827635 12:1 96:1 40:1 136:1 81:1 144:1 169:1 3055:1 34680:1 
0.2292886266827635 12:1 108:1 53:1 116:1 56:1 165:1 169:1 9951:1 29435:1 
0.2292886266827635 24:1 109:1 53:1 138:1 56:1 140:1 170:1 4706:1 46659:1 
0.2292886266827635 1:1 108:1 40:1 124:1 56:1 144:1 169:1 8920:1 29435:1 
0.2292886266827635 12:1 88:1 28:1 137:1 56:1 152:1 169:1 7870:1 35227:1 
0.05025794453173819 12:1 96:1 53:1 136:1 81:1 165:1 169:1 14484:1 35025:1 
0.2292886266827635 12:1 108:1 53:1 137:1 81:1 166:1 169:1 10296:1 29435:1 
0.2292886266827635 24:1 109:1 53:1 138:1 81:1 140:1 169:1 4706:1 49327:1 
0.2292886266827635 18:1 92:1 53:1 136:1 56:1 152:1 170:1 14234:1 32752:1 
0.2292886266827635 8:1 108:1 53:1 124:1 56:1 144:1 169:1 8023:1 29435:1 
0.2292886266827635 12:1 109:1 53:1 137:1 56:1 164:1 170:1 18583:1 40848:1 
0.2292886266827635 12:1 109:1 40:1 124:1 77:1 164:1 169:1 12336:1 41479:1 
0.2292886266827635 12:1 108:1 53:1 137:1 68:1 166:1 169:1 21563:1 29435:1 
0.2292886266827635 24:1 109:1 53:1 138:1 68:1 165:1 169:1 4706:1 28593:1 
0.2292886266827635 25:1 109:1 40:1 123:1 77:1 152:1 173:1 16750:1 29145:1 
0.2292886266827635 12:1 108:1 53:1 124:1 81:1 152:1 169:1 4380:1 29435:1 
0.2292886266827635 12:1 108:1 49:1 124:1 68:1 165:1 169:1 15320:1 29435:1 
0.2292886266827635 12:1 108:1 53:1 123:1 68:1 162:1 169:1 24550:1 29435:1 
0.2292886266827635 1:1 108:1 50:1 113:1 80:1 152:1 169:1 5330:1 29435:1 
0.2096923616189471 1:1 108:1 52:1 124:1 78:1 166:1 170:1 6507:1 29435:1 
0.007010496961003707 24:1 96:1 53:1 138:1 68:1 140:1 176:1 4706:1 28593:1 
0.2292886266827635 25:1 109:1 53:1 124:1 59:1 152:1 169:1 19621:1 45644:1 
0.2292886266827635 12:1 96:1 53:1 138:1 59:1 144:1 169:1 17868:1 27784:1 
0.2292886266827635 17:1 93:1 41:1 124:1 77:1 154:1 169:1 18001:1 43783:1 
0.1724688246398089 12:1 98:1 41:1 133:1 77:1 154:1 169:1 23985:1 31016:1 
0.2292886266827635 12:1 96:1 42:1 138:1 77:1 152:1 169:1 24319:1 40442:1 
0.06822128362789466 14:1 96:1 49:1 138:1 70:1 152:1 170:1 13602:1 40442:1 
0.2292886266827635 25:1 109:1 40:1 135:1 68:1 164:1 171:1 18895:1 41989:1 
0.2292886266827635 23:1 108:1 53:1 124:1 68:1 161:1 169:1 23063:1 29435:1 
0.01835240708338648 4:1 85:1 40:1 136:1 80:1 152:1 169:1 2561:1 39633:1 
0.2292886266827635 1:1 108:1 40:1 124:1 80:1 152:1 169:1 14904:1 29435:1 
0.2292886266827635 25:1 109:1 53:1 138:1 77:1 152:1 169:1 6112:1 27005:1 
0.2292886266827635 25:1 109:1 49:1 138:1 68:1 152:1 170:1 6114:1 27005:1 
0.2292886266827635 12:1 85:1 53:1 113:1 68:1 166:1 170:1 13568:1 48804:1 
0.2292886266827635 12:1 85:1 29:1 138:1 57:1 165:1 170:1 2767:1 38697:1 
0.2292886266827635 1:1 106:1 39:1 113:1 80:1 152:1 169:1 4175:1 38795:1 
0.2292886266827635 13:1 96:1 53:1 116:1 77:1 165:1 170:1 13554:1 48269:1 
0.2292886266827635 12:1 109:1 53:1 138:1 77:1 157:1 170:1 23540:1 48159:1 
0.2292886266827635 17:1 109:1 53:1 136:1 81:1 141:1 169:1 4345:1 40823:1 
0.2292886266827635 12:1 96:1 40:1 138:1 69:1 140:1 169:1 9406:1 27491:1 
0.1907501521623211 12:1 96:1 41:1 138:1 80:1 140:1 170:1 16226:1 27491:1 
0.2292886266827635 12:1 96:1 40:1 137:1 81:1 165:1 169:1 3670:1 39213:1 
0.2292886266827635 12:1 109:1 53:1 137:1 56:1 165:1 169:1 14484:1 37773:1 
0.2292886266827635 18:1 109:1 53:1 123:1 78:1 162:1 174:1 15110:1 43355:1 
0.07574139400713664 25:1 109:1 50:1 123:1 81:1 162:1 176:1 9201:1 43355:1 
0.04916893170269791 11:1 106:1 53:1 138:1 81:1 140:1 169:1 912:1 47025:1 
0.05650837694457626 12:1 93:1 53:1 133:1 81:1 165:1 169:1 7669:1 35677:1 
0.2292886266827635 12:1 96:1 40:1 136:1 81:1 140:1 169:1 8793:1 42643:1 
0.2292886266827635 12:1 96:1 40:1 125:1 68:1 164:1 169:1 18787:1 44303:1 
0.2292886266827635 12:1 96:1 40:1 125:1 56:1 164:1 170:1 21187:1 44303:1 
0.07762935388278303 12:1 92:1 52:1 124:1 56:1 158:1 169:1 3741:1 42901:1 
0.2292886266827635 18:1 109:1 53:1 123:1 56:1 162:1 172:1 13384:1 46757:1 
0.2292886266827635 1:1 96:1 40:1 137:1 81:1 165:1 170:1 20207:1 40291:1 
0.2292886266827635 12:1 96:1 53:1 137:1 68:1 165:1 171:1 3741:1 40291:1 
0.1731847946833673 25:1 109:1 40:1 137:1 81:1 166:1 173:1 2822:1 40656:1 
0.1887351219438397 17:1 109:1 46:1 128:1 56:1 152:1 172:1 17795:1 38682:1 
0.103267950246164 16:1 96:1 53:1 123:1 56:1 162:1 169:1 16788:1 43124:1 
0.01705748547070115 11:1 106:1 40:1 138:1 81:1 140:1 169:1 945:1 38063:1 
0.2292886266827635 25:1 109:1 40:1 124:1 80:1 166:1 170:1 9098:1 46631:1 
0.1602502161107207 24:1 109:1 28:1 124:1 56:1 166:1 174:1 4706:1 46631:1 
0.2292886266827635 12:1 109:1 40:1 134:1 81:1 166:1 169:1 16558:1 37458:1 
0.1682699773553084 23:1 109:1 51:1 128:1 59:1 165:1 170:1 22672:1 29353:1 
0.2292886266827635 11:1 109:1 53:1 136:1 81:1 166:1 169:1 21220:1 28568:1 
0.2292886266827635 17:1 108:1 53:1 124:1 56:1 166:1 170:1 2031:1 29435:1 
0.2292886266827635 12:1 96:1 40:1 138:1 80:1 165:1 169:1 6567:1 37285:1 
0.2292886266827635 9:1 96:1 40:1 136:1 80:1 144:1 169:1 17953:1 29808:1 
0.2292886266827635 12:1 108:1 52:1 116:1 81:1 165:1 169:1 5079:1 29435:1 
0.1202594889588864 1:1 108:1 50:1 124:1 80:1 152:1 178:1 19055:1 29435:1 
0.1803947847104403 23:1 92:1 28:1 138:1 56:1 165:1 172:1 17641:1 37236:1 
0.1792778638457482 12:1 109:1 52:1 138:1 81:1 140:1 171:1 12154:1 49381:1 
0.125257808202228 23:1 96:1 53:1 136:1 59:1 165:1 169:1 3946:1 41712:1 
0.2292886266827635 4:1 109:1 53:1 136:1 56:1 152:1 172:1 15285:1 29137:1 
0.2292886266827635 25:1 108:1 53:1 124:1 56:1 154:1 169:1 4408:1 29435:1 
0.1977025412373417 24:1 98:1 53:1 138:1 56:1 140:1 170:1 4706:1 28204:1 
0.2292886266827635 12:1 92:1 40:1 125:1 77:1 165:1 170:1 2339:1 46226:1 
0.2292886266827635 8:1 97:1 40:1 137:1 77:1 152:1 169:1 21497:1 33004:1 
0.1118772346708789 13:1 109:1 40:1 124:1 77:1 148:1 169:1 8275:1 36904:1 
0.04956278597524167 11:1 106:1 42:1 137:1 68:1 151:1 169:1 9140:1 38364:1 
0.2292886266827635 22:1 109:1 42:1 123:1 68:1 162:1 169:1 13635:1 40238:1 
0.2292886266827635 1:1 108:1 40:1 124:1 77:1 152:1 169:1 14342:1 29435:1 
0.2292886266827635 12:1 96:1 49:1 138:1 78:1 161:1 172:1 6525:1 40014:1 
0.2292886266827635 25:1 109:1 42:1 136:1 68:1 141:1 185:1 15509:1 49380:1 
0.02500650159964716 12:1 109:1 28:1 136:1 56:1 141:1 189:1 23977:1 49380:1 
0.07753043726984057 11:1 96:1 41:1 124:1 74:1 161:1 169:1 4185:1 29570:1 
0.1320887710926249 1:1 96:1 49:1 137:1 68:1 166:1 169:1 5483:1 47192:1 
0.009065945340662882 12:1 109:1 46:1 138:1 56:1 157:1 172:1 18007:1 43647:1 
0.2292886266827635 17:1 97:1 53:1 137:1 56:1 152:1 169:1 8443:1 38186:1 
0.2292886266827635 13:1 109:1 53:1 124:1 56:1 166:1 169:1 13457:1 46757:1 
0.2292886266827635 22:1 109:1 49:1 125:1 66:1 165:1 169:1 3978:1 49422:1 
0.2292886266827635 17:1 109:1 53:1 137:1 66:1 166:1 169:1 17999:1 27375:1 
0.2292886266827635 25:1 96:1 49:1 138:1 56:1 154:1 173:1 17738:1 41277:1 
0.1040163369618375 12:1 96:1 53:1 115:1 81:1 165:1 169:1 4559:1 32153:1 
0.2292886266827635 25:1 109:1 53:1 124:1 56:1 143:1 173:1 5703:1 47423:1 
0.2292886266827635 12:1 97:1 53:1 136:1 81:1 142:1 171:1 4554:1 48089:1 
0.2292886266827635 13:1 108:1 53:1 114:1 81:1 152:1 169:1 23360:1 29435:1 
0.2292886266827635 12:1 108:1 53:1 124:1 81:1 166:1 169:1 7424:1 29435:1 
0.2292886266827635 12:1 108:1 53:1 124:1 68:1 143:1 169:1 16701:1 29435:1 
0.2292886266827635 25:1 96:1 36:1 138:1 56:1 151:1 169:1 12862:1 31500:1 
0.2292886266827635 22:1 96:1 40:1 137:1 64:1 164:1 171:1 18992:1 34349:1 
0.2292886266827635 12:1 109:1 40:1 136:1 64:1 152:1 169:1 9620:1 49415:1 
0.03809945106743783 8:1 109:1 28:1 136:1 56:1 152:1 178:1 13194:1 49415:1 
0.2292886266827635 25:1 97:1 40:1 136:1 81:1 142:1 169:1 9575:1 33004:1 
0.2292886266827635 13:1 108:1 40:1 114:1 81:1 152:1 169:1 8275:1 29435:1 
0.2292886266827635 12:1 108:1 53:1 114:1 73:1 152:1 171:1 3408:1 29435:1 
0.2292886266827635 12:1 96:1 40:1 124:1 80:1 166:1 169:1 15886:1 33661:1 
0.2292886266827635 12:1 96:1 40:1 138:1 68:1 151:1 169:1 8093:1 35485:1 
0.2292886266827635 12:1 96:1 40:1 138:1 80:1 151:1 170:1 6631:1 35485:1 
0.2292886266827635 12:1 96:1 40:1 124:1 78:1 164:1 169:1 16261:1 33661:1 
0.2292886266827635 12:1 96:1 40:1 136:1 78:1 151:1 169:1 8932:1 34311:1 
0.2292886266827635 22:1 96:1 40:1 136:1 68:1 151:1 173:1 13334:1 34311:1 
0.2292886266827635 12:1 96:1 40:1 138:1 68:1 140:1 169:1 10756:1 44657:1 
0.2292886266827635 12:1 96:1 40:1 138:1 78:1 140:1 170:1 8093:1 44657:1 
0.2292886266827635 12:1 109:1 53:1 124:1 56:1 166:1 169:1 15778:1 40238:1 
0.1721704739362925 12:1 85:1 29:1 138:1 68:1 140:1 169:1 15452:1 28306:1 
0.1029408364954016 12:1 98:1 40:1 137:1 56:1 166:1 169:1 9219:1 34070:1 
0.2292886266827635 12:1 96:1 53:1 136:1 67:1 152:1 169:1 13799:1 43848:1 
0.2292886266827635 25:1 96:1 39:1 136:1 81:1 152:1 170:1 20902:1 43848:1 
0.2292886266827635 12:1 108:1 39:1 124:1 81:1 158:1 169:1 19119:1 29435:1 
0.2292886266827635 12:1 109:1 53:1 138:1 56:1 152:1 170:1 24086:1 41989:1 
0.2292886266827635 12:1 108:1 53:1 113:1 81:1 152:1 169:1 19130:1 29435:1 
0.2292886266827635 12:1 109:1 53:1 124:1 81:1 166:1 170:1 4841:1 28498:1 
0.2292886266827635 12:1 85:1 53:1 136:1 81:1 152:1 171:1 24277:1 28785:1 
0.2292886266827635 1:1 108:1 53:1 124:1 81:1 166:1 169:1 4056:1 29435:1 
0.2292886266827635 12:1 96:1 40:1 116:1 81:1 165:1 169:1 6325:1 31771:1 
0.2292886266827635 12:1 109:1 40:1 120:1 81:1 166:1 170:1 7042:1 27350:1 
0.1848250270725367 12:1 96:1 53:1 124:1 74:1 152:1 169:1 3065:1 34680:1 
0.2292886266827635 25:1 96:1 46:1 123:1 56:1 162:1 172:1 21919:1 49000:1 
0.2292886266827635 12:1 106:1 46:1 138:1 56:1 158:1 170:1 24271:1 47025:1 
0.001324456039872827 18:1 106:1 28:1 138:1 56:1 158:1 175:1 597:1 47025:1 
0.2292886266827635 18:1 109:1 50:1 123:1 56:1 162:1 174:1 15903:1 28841:1 
0.06344541673361805 22:1 96:1 53:1 136:1 56:1 165:1 170:1 14111:1 31535:1 
0.2292886266827635 17:1 108:1 40:1 124:1 81:1 165:1 169:1 12900:1 29435:1 
0.2292886266827635 12:1 109:1 40:1 124:1 81:1 166:1 170:1 12962:1 46757:1 
0.2292886266827635 12:1 109:1 53:1 124:1 56:1 166:1 175:1 16565:1 46757:1 
0.2292886266827635 13:1 96:1 53:1 136:1 77:1 152:1 169:1 18547:1 43560:1 
0.03566096035445793 12:1 97:1 49:1 138:1 59:1 163:1 169:1 14977:1 44332:1 
0.1372160340292628 4:1 85:1 40:1 136:1 59:1 166:1 169:1 2561:1 46122:1 
0.2292886266827635 12:1 85:1 31:1 136:1 73:1 166:1 170:1 14977:1 46122:1 
0.2292886266827635 17:1 96:1 45:1 113:1 77:1 152:1 169:1 23621:1 32761:1 
0.2292886266827635 12:1 98:1 40:1 133:1 77:1 149:1 169:1 20132:1 37311:1 
0.2292886266827635 12:1 98:1 49:1 133:1 81:1 149:1 171:1 8032:1 37311:1 
0.2292886266827635 9:1 93:1 49:1 125:1 70:1 165:1 169:1 1579:1 46256:1 
0.2292886266827635 9:1 97:1 49:1 137:1 70:1 141:1 169:1 21527:1 48089:1 
0.2292886266827635 14:1 109:1 49:1 113:1 81:1 151:1 173:1 12582:1 34877:1 
0.2292886266827635 1:1 106:1 53:1 124:1 77:1 153:1 170:1 20207:1 37264:1 
