svm_type c_svc
kernel_type rbf
gamma 0.18
nr_class 2
total_sv 30607
rho 0.660164
label 1 -1
nr_sv 9439 21168
SV
0.2773932625826588 12:1 108:1 53:1 113:1 81:1 152:1 169:1 19520:1 29435:1 
0.6722008251245686 12:1 96:1 53:1 138:1 56:1 165:1 172:1 16700:1 34394:1 
0.1657843043797073 12:1 92:1 53:1 138:1 64:1 165:1 170:1 8985:1 35533:1 
0.06945915441186426 12:1 108:1 53:1 124:1 64:1 143:1 169:1 16076:1 29435:1 
0.03289224142740273 12:1 109:1 53:1 124:1 81:1 164:1 170:1 16286:1 28301:1 
1 12:1 109:1 40:1 137:1 81:1 163:1 170:1 11740:1 44249:1 
0.5360184521387553 23:1 109:1 53:1 137:1 81:1 152:1 170:1 4239:1 41387:1 
0.0663002485058312 12:1 109:1 53:1 124:1 81:1 164:1 169:1 22740:1 44540:1 
0.1709037650345118 12:1 109:1 40:1 138:1 81:1 140:1 171:1 11740:1 48531:1 
1 17:1 97:1 41:1 115:1 74:1 153:1 171:1 9633:1 44171:1 
1 13:1 97:1 41:1 116:1 74:1 165:1 170:1 19442:1 26747:1 
0.4108466767548634 13:1 109:1 41:1 120:1 74:1 166:1 170:1 2018:1 46757:1 
0.08950969973181595 12:1 109:1 53:1 120:1 56:1 166:1 185:1 21859:1 46757:1 
0.1795653049430464 12:1 109:1 53:1 129:1 81:1 152:1 174:1 15327:1 35571:1 
0.08069174207140074 12:1 109:1 49:1 137:1 81:1 152:1 171:1 19534:1 32115:1 
0.2976244926487121 22:1 109:1 53:1 137:1 81:1 151:1 172:1 12927:1 35338:1 
0.1848530199225419 12:1 109:1 53:1 129:1 56:1 158:1 170:1 9665:1 28114:1 
1 12:1 96:1 40:1 124:1 77:1 144:1 170:1 23282:1 43293:1 
0.7914770641663951 17:1 109:1 45:1 137:1 81:1 165:1 170:1 13464:1 34306:1 
1 12:1 108:1 53:1 130:1 81:1 152:1 171:1 15327:1 29435:1 
0.291579596573353 13:1 109:1 53:1 137:1 56:1 152:1 189:1 4801:1 46227:1 
0.1376434618361522 12:1 109:1 49:1 137:1 79:1 158:1 170:1 10150:1 27928:1 
0.3377047337693026 12:1 85:1 53:1 138:1 74:1 165:1 173:1 14814:1 44936:1 
0.687981269962768 1:1 85:1 29:1 136:1 68:1 152:1 170:1 9013:1 44925:1 
0.5046267632129926 1:1 108:1 29:1 124:1 68:1 148:1 169:1 20196:1 48086:1 
0.1514384729155824 1:1 108:1 29:1 124:1 64:1 144:1 169:1 18065:1 29435:1 
0.08147198354482087 12:1 108:1 53:1 124:1 68:1 166:1 169:1 2783:1 29435:1 
0.3493884501379089 12:1 85:1 40:1 138:1 68:1 163:1 172:1 8128:1 34213:1 
0.3085833727963425 12:1 109:1 49:1 113:1 77:1 141:1 169:1 19130:1 34298:1 
0.7723924055866853 1:1 85:1 29:1 136:1 81:1 152:1 169:1 13135:1 43784:1 
0.7198314610854744 8:1 109:1 37:1 136:1 77:1 152:1 172:1 6701:1 49125:1 
0.5000105189494042 25:1 108:1 37:1 124:1 77:1 165:1 169:1 24396:1 29435:1 
0.08958545309578904 13:1 109:1 49:1 129:1 56:1 164:1 171:1 19603:1 26606:1 
0.1709657238121639 14:1 108:1 42:1 113:1 56:1 152:1 169:1 18685:1 29459:1 
0.6193925277491864 17:1 96:1 53:1 137:1 73:1 152:1 169:1 13464:1 29035:1 
0.4588893653142904 17:1 96:1 45:1 116:1 78:1 165:1 169:1 15921:1 36688:1 
0.4305444471404605 12:1 109:1 45:1 123:1 78:1 152:1 170:1 11959:1 35279:1 
0.1019530783395457 17:1 109:1 53:1 128:1 81:1 152:1 172:1 3124:1 29448:1 
0.417704049330914 12:1 109:1 42:1 124:1 81:1 152:1 169:1 22013:1 28435:1 
0.06521950087305356 12:1 96:1 37:1 138:1 77:1 161:1 169:1 16701:1 32756:1 
0.8018302041306635 12:1 96:1 53:1 136:1 77:1 152:1 170:1 16700:1 32153:1 
1 17:1 97:1 37:1 137:1 68:1 151:1 171:1 9633:1 26747:1 
0.4384548288985032 13:1 109:1 37:1 123:1 68:1 162:1 169:1 2018:1 46757:1 
1 13:1 96:1 41:1 137:1 68:1 151:1 169:1 13457:1 32569:1 
0.2042904668474965 25:1 109:1 53:1 124:1 68:1 143:1 172:1 18309:1 46568:1 
0.1213945197456617 12:1 109:1 53:1 124:1 81:1 166:1 170:1 18074:1 49395:1 
0.2561035852544369 11:1 85:1 50:1 138:1 79:1 148:1 169:1 5483:1 31434:1 
0.04802160003671169 12:1 109:1 53:1 123:1 57:1 162:1 172:1 23668:1 27716:1 
0.008470509652793537 13:1 109:1 49:1 129:1 81:1 152:1 169:1 15899:1 41049:1 
0.5515474402122086 13:1 108:1 49:1 130:1 56:1 158:1 169:1 14651:1 29435:1 
0.6874022268154709 12:1 108:1 53:1 124:1 78:1 152:1 170:1 2829:1 29435:1 
0.2034515766601014 23:1 109:1 53:1 136:1 56:1 161:1 169:1 17637:1 39951:1 
0.02427077560052671 12:1 96:1 40:1 138:1 68:1 152:1 170:1 12835:1 42144:1 
0.4207240670464524 12:1 96:1 40:1 137:1 68:1 152:1 170:1 17415:1 26421:1 
1 21:1 96:1 53:1 138:1 56:1 140:1 171:1 22131:1 46211:1 
0.293143455513508 25:1 108:1 53:1 123:1 56:1 141:1 169:1 18631:1 36741:1 
1 12:1 105:1 53:1 137:1 56:1 143:1 170:1 16773:1 46256:1 
1 25:1 96:1 53:1 137:1 77:1 152:1 169:1 21728:1 38495:1 
0.6493219184841869 12:1 109:1 53:1 124:1 77:1 166:1 169:1 13766:1 34877:1 
0.3673841086476042 24:1 96:1 53:1 138:1 56:1 152:1 170:1 12012:1 34734:1 
0.2097919032281604 12:1 109:1 53:1 137:1 81:1 141:1 169:1 9372:1 28450:1 
0.1985827959121491 25:1 109:1 53:1 137:1 68:1 141:1 172:1 7469:1 28450:1 
0.1679464141069229 24:1 96:1 53:1 115:1 81:1 148:1 175:1 12012:1 44288:1 
0.1399997793902646 1:1 109:1 29:1 138:1 56:1 163:1 171:1 5287:1 45166:1 
0.02228764872423698 12:1 92:1 53:1 138:1 56:1 148:1 170:1 2056:1 30497:1 
0.481173848245136 12:1 96:1 40:1 137:1 68:1 152:1 170:1 4820:1 39703:1 
0.0009428367488935306 13:1 109:1 53:1 131:1 56:1 152:1 173:1 11315:1 34877:1 
1 12:1 96:1 40:1 124:1 81:1 166:1 170:1 23209:1 26614:1 
0.2868862261036121 12:1 109:1 40:1 113:1 81:1 152:1 173:1 23264:1 45258:1 
0.5028944705746611 25:1 109:1 53:1 113:1 56:1 152:1 177:1 16315:1 45258:1 
0.1708705085585148 12:1 109:1 53:1 137:1 81:1 152:1 170:1 7137:1 34293:1 
1 12:1 96:1 40:1 124:1 81:1 166:1 169:1 20636:1 46448:1 
0.1448338347961023 12:1 109:1 53:1 124:1 81:1 165:1 170:1 6990:1 46457:1 
0.05721747488130204 12:1 96:1 40:1 136:1 81:1 142:1 170:1 3184:1 37857:1 
0.2725824686967673 12:1 108:1 40:1 114:1 81:1 165:1 169:1 13128:1 29435:1 
0.08981914060412381 17:1 101:1 45:1 138:1 77:1 157:1 170:1 21548:1 26322:1 
0.01884268230889919 17:1 101:1 45:1 115:1 77:1 157:1 170:1 1593:1 26111:1 
0.02299924875573212 18:1 109:1 49:1 129:1 68:1 166:1 171:1 10091:1 33448:1 
0.5549148519244841 12:1 109:1 45:1 129:1 73:1 166:1 174:1 5960:1 33448:1 
0.4013462823186633 12:1 109:1 53:1 130:1 81:1 153:1 170:1 16863:1 48779:1 
1 11:1 96:1 53:1 116:1 56:1 151:1 173:1 4881:1 27175:1 
0.5421079649001959 12:1 109:1 40:1 115:1 56:1 165:1 174:1 9374:1 44898:1 
0.1920832697001446 25:1 109:1 53:1 114:1 56:1 152:1 170:1 19603:1 48254:1 
0.1099856436224666 12:1 109:1 53:1 120:1 56:1 152:1 169:1 10285:1 44538:1 
0.1041924539473572 12:1 109:1 49:1 129:1 56:1 164:1 175:1 5876:1 48261:1 
0.1000635165198664 8:1 109:1 53:1 138:1 81:1 158:1 176:1 1467:1 42930:1 
0.9488775735759988 22:1 109:1 40:1 129:1 56:1 151:1 170:1 12990:1 41479:1 
0.03877546581513118 12:1 109:1 49:1 137:1 56:1 166:1 169:1 8299:1 31022:1 
0.4241762601539555 12:1 109:1 40:1 136:1 68:1 151:1 172:1 13311:1 33800:1 
0.1634933195702352 12:1 108:1 40:1 124:1 80:1 166:1 169:1 2397:1 48086:1 
0.9547405286921735 12:1 109:1 53:1 123:1 68:1 152:1 170:1 15297:1 45874:1 
0.07876577852272577 12:1 109:1 53:1 120:1 68:1 164:1 170:1 14880:1 47190:1 
0.45552407977467 23:1 108:1 40:1 124:1 81:1 166:1 169:1 23361:1 29435:1 
0.1395184576755652 25:1 109:1 53:1 113:1 56:1 164:1 173:1 3674:1 41145:1 
1 24:1 96:1 53:1 136:1 78:1 152:1 170:1 12012:1 45913:1 
0.6975677248078795 12:1 109:1 40:1 133:1 81:1 151:1 183:1 16548:1 48755:1 
0.5360654017526643 23:1 96:1 53:1 138:1 69:1 140:1 172:1 19133:1 39222:1 
1 24:1 95:1 53:1 138:1 56:1 141:1 170:1 12012:1 45992:1 
0.3852658941925504 11:1 109:1 53:1 137:1 56:1 165:1 172:1 21263:1 49380:1 
0.1667546054885462 12:1 109:1 53:1 137:1 79:1 164:1 169:1 23259:1 31228:1 
0.2892296596244703 12:1 109:1 51:1 138:1 81:1 163:1 172:1 15297:1 30880:1 
0.3293914444072716 25:1 109:1 53:1 124:1 81:1 141:1 170:1 4774:1 37110:1 
1 25:1 96:1 53:1 113:1 81:1 166:1 169:1 12381:1 44505:1 
0.2901764335915304 12:1 109:1 53:1 137:1 56:1 152:1 169:1 13779:1 30169:1 
1 25:1 96:1 32:1 138:1 56:1 164:1 170:1 16750:1 42981:1 
0.08141989555331924 12:1 108:1 40:1 124:1 81:1 166:1 169:1 12892:1 29435:1 
0.2063240936791235 12:1 109:1 53:1 137:1 56:1 141:1 170:1 9816:1 42639:1 
0.1513993960432964 1:1 85:1 29:1 136:1 81:1 152:1 170:1 8027:1 43830:1 
0.266322199493226 25:1 109:1 53:1 133:1 56:1 156:1 174:1 18623:1 43869:1 
0.4290319522292634 18:1 109:1 53:1 123:1 81:1 162:1 169:1 707:1 43624:1 
0.1405052225619463 12:1 109:1 53:1 137:1 74:1 166:1 169:1 10003:1 45411:1 
1 12:1 96:1 49:1 137:1 68:1 164:1 169:1 12927:1 26902:1 
0.4474912833856484 1:1 109:1 29:1 114:1 56:1 152:1 170:1 6193:1 41479:1 
1 25:1 108:1 53:1 124:1 81:1 166:1 171:1 16275:1 29435:1 
1 24:1 96:1 53:1 137:1 56:1 152:1 169:1 12012:1 41175:1 
0.08746049672969163 12:1 109:1 53:1 124:1 56:1 143:1 169:1 16446:1 36783:1 
0.1438347959156252 12:1 109:1 53:1 124:1 81:1 166:1 170:1 13377:1 27272:1 
1 22:1 96:1 41:1 116:1 81:1 165:1 169:1 6896:1 41429:1 
0.6127358393797141 17:1 109:1 53:1 136:1 81:1 152:1 169:1 12719:1 27964:1 
0.006413861185458575 25:1 108:1 53:1 124:1 81:1 166:1 169:1 3235:1 29435:1 
1 16:1 97:1 44:1 136:1 79:1 152:1 171:1 19182:1 36695:1 
0.006286248441838623 13:1 108:1 44:1 124:1 79:1 166:1 169:1 11966:1 29435:1 
0.2832434103675974 25:1 109:1 53:1 123:1 69:1 152:1 170:1 6579:1 47363:1 
0.06620785313622966 12:1 109:1 53:1 138:1 81:1 161:1 169:1 5916:1 32468:1 
1 1:1 109:1 29:1 133:1 56:1 158:1 171:1 6461:1 45874:1 
0.1760119645754039 18:1 109:1 49:1 124:1 81:1 166:1 172:1 18646:1 49378:1 
0.3296718654673506 12:1 108:1 50:1 123:1 81:1 166:1 169:1 14484:1 29435:1 
0.811655881114854 22:1 109:1 53:1 137:1 60:1 152:1 169:1 3978:1 28443:1 
0.01606540856624009 12:1 109:1 53:1 113:1 56:1 152:1 170:1 10892:1 49301:1 
0.3678050555929264 25:1 97:1 53:1 137:1 59:1 144:1 169:1 16838:1 33004:1 
1 4:1 85:1 53:1 135:1 81:1 166:1 169:1 2561:1 33566:1 
0.6519616282069154 1:1 107:1 53:1 138:1 81:1 143:1 169:1 8837:1 27103:1 
0.2018919069516914 23:1 109:1 53:1 113:1 81:1 164:1 173:1 2374:1 43222:1 
0.30344639913786 12:1 109:1 40:1 124:1 56:1 152:1 169:1 8964:1 40136:1 
1 12:1 87:1 53:1 124:1 57:1 166:1 170:1 8839:1 30306:1 
0.5169445842835547 13:1 109:1 29:1 124:1 56:1 152:1 173:1 11315:1 36761:1 
0.05824774791430159 12:1 92:1 53:1 138:1 56:1 165:1 170:1 15391:1 33301:1 
0.3185635362445154 8:1 109:1 53:1 137:1 56:1 152:1 170:1 8572:1 48791:1 
0.2979057461442131 9:1 92:1 49:1 136:1 81:1 157:1 169:1 8442:1 45510:1 
0.3168391925824139 25:1 109:1 53:1 137:1 81:1 166:1 175:1 18871:1 37994:1 
0.2509723252292225 12:1 108:1 49:1 137:1 77:1 165:1 169:1 13778:1 29435:1 
1 25:1 109:1 31:1 138:1 81:1 165:1 170:1 3034:1 34683:1 
0.3001017900995639 1:1 96:1 53:1 112:1 56:1 140:1 170:1 7947:1 31870:1 
1 12:1 109:1 40:1 137:1 77:1 152:1 169:1 22013:1 26697:1 
0.03531981976131345 12:1 109:1 53:1 124:1 56:1 164:1 170:1 5877:1 47425:1 
0.593865058810039 25:1 109:1 49:1 121:1 68:1 152:1 169:1 17716:1 43586:1 
0.8351381136316148 12:1 96:1 40:1 124:1 80:1 166:1 169:1 12190:1 48851:1 
0.161499040312028 14:1 108:1 42:1 137:1 56:1 164:1 169:1 13949:1 29459:1 
0.2761539885072294 24:1 109:1 42:1 136:1 56:1 158:1 169:1 4730:1 32188:1 
0.02004643103040716 12:1 109:1 53:1 138:1 56:1 152:1 173:1 13643:1 43202:1 
1 11:1 109:1 39:1 123:1 81:1 162:1 175:1 24645:1 46757:1 
0.2779267950010694 25:1 96:1 53:1 138:1 78:1 166:1 170:1 10493:1 27558:1 
0.3209487289724817 17:1 109:1 53:1 129:1 81:1 166:1 172:1 12900:1 36072:1 
0.2518598115238772 17:1 96:1 45:1 136:1 59:1 144:1 169:1 6392:1 36883:1 
0.00144386197531462 12:1 96:1 40:1 136:1 80:1 144:1 173:1 20280:1 36883:1 
0.2894573544598037 13:1 109:1 49:1 121:1 77:1 152:1 170:1 23605:1 48774:1 
0.1110444238250238 12:1 109:1 53:1 133:1 56:1 152:1 184:1 13377:1 38041:1 
0.2206845388805247 25:1 109:1 53:1 137:1 56:1 151:1 170:1 9865:1 38041:1 
0.08153203774561708 12:1 109:1 53:1 121:1 56:1 149:1 171:1 5703:1 39424:1 
0.08776538257242912 9:1 96:1 37:1 116:1 81:1 161:1 170:1 5719:1 32368:1 
0.03495534458278838 12:1 109:1 53:1 135:1 64:1 165:1 170:1 7895:1 48122:1 
0.173668981050832 12:1 109:1 53:1 137:1 68:1 151:1 170:1 16871:1 49246:1 
0.2516085048740799 25:1 96:1 53:1 138:1 81:1 152:1 172:1 14457:1 31567:1 
0.3756321369290511 12:1 109:1 53:1 137:1 81:1 141:1 172:1 6838:1 26726:1 
0.5183003228089171 23:1 109:1 53:1 137:1 68:1 164:1 170:1 14401:1 46529:1 
0.004698867317301269 12:1 109:1 53:1 135:1 56:1 152:1 170:1 5876:1 39447:1 
0.5519386393548572 22:1 109:1 53:1 136:1 73:1 152:1 169:1 12668:1 31971:1 
0.1537777186299777 13:1 109:1 49:1 123:1 81:1 162:1 173:1 23605:1 35571:1 
0.02495209545621141 25:1 109:1 49:1 123:1 56:1 162:1 182:1 5051:1 35571:1 
1 12:1 96:1 45:1 137:1 77:1 166:1 170:1 15230:1 29263:1 
0.05921224571166366 12:1 109:1 49:1 138:1 77:1 151:1 169:1 4534:1 34583:1 
0.2257768329815978 25:1 109:1 49:1 133:1 57:1 163:1 173:1 9854:1 42979:1 
0.3519659521461527 1:1 109:1 53:1 133:1 56:1 163:1 183:1 20898:1 42979:1 
0.06440083184190149 12:1 109:1 53:1 135:1 81:1 152:1 170:1 9864:1 47311:1 
1 12:1 96:1 49:1 124:1 77:1 165:1 169:1 21710:1 34139:1 
0.02296155974071016 12:1 109:1 53:1 138:1 81:1 140:1 173:1 19119:1 30417:1 
0.1911334298510518 14:1 109:1 53:1 137:1 60:1 152:1 169:1 4748:1 39321:1 
0.81218376803284 11:1 109:1 40:1 136:1 69:1 165:1 172:1 11815:1 36725:1 
0.3377965795983219 13:1 92:1 49:1 112:1 60:1 140:1 169:1 9436:1 49231:1 
1 12:1 87:1 31:1 114:1 56:1 152:1 169:1 2762:1 33312:1 
0.6196742858568395 12:1 96:1 40:1 138:1 77:1 161:1 171:1 16087:1 40816:1 
0.1081938927426754 12:1 108:1 40:1 123:1 77:1 142:1 169:1 18026:1 29459:1 
1 24:1 95:1 40:1 114:1 77:1 152:1 169:1 4730:1 46138:1 
0.7577042954753848 12:1 106:1 53:1 138:1 56:1 152:1 172:1 3055:1 48483:1 
0.100330596429028 18:1 109:1 49:1 114:1 68:1 152:1 172:1 599:1 27738:1 
0.05702656556746596 12:1 109:1 53:1 114:1 56:1 152:1 176:1 9219:1 27738:1 
0.1974941765840568 11:1 109:1 53:1 114:1 78:1 152:1 170:1 984:1 41791:1 
0.2780672853189217 25:1 109:1 53:1 136:1 68:1 166:1 170:1 24561:1 48899:1 
0.4676310969140273 12:1 108:1 40:1 124:1 77:1 166:1 169:1 2743:1 29435:1 
0.828059649808694 25:1 96:1 32:1 116:1 68:1 165:1 171:1 16750:1 33811:1 
0.4696594264327241 12:1 109:1 40:1 137:1 68:1 152:1 170:1 9082:1 33345:1 
0.084765915770812 12:1 109:1 49:1 137:1 78:1 152:1 178:1 9312:1 33345:1 
1 25:1 96:1 53:1 115:1 56:1 152:1 169:1 3646:1 41015:1 
0.2693889990413949 12:1 108:1 53:1 124:1 77:1 166:1 169:1 6567:1 29435:1 
0.2040995330583444 13:1 109:1 49:1 133:1 56:1 149:1 172:1 14457:1 35471:1 
0.08029933706266884 9:1 93:1 37:1 138:1 77:1 149:1 170:1 13753:1 48334:1 
0.3323788685905095 9:1 93:1 37:1 123:1 77:1 162:1 170:1 23605:1 34293:1 
0.2840086285885048 9:1 96:1 37:1 136:1 77:1 144:1 174:1 9564:1 46439:1 
0.0908574242204245 12:1 108:1 49:1 116:1 81:1 152:1 169:1 21710:1 29435:1 
0.508654151308693 16:1 109:1 53:1 137:1 56:1 164:1 170:1 3835:1 32293:1 
0.07686515731241859 25:1 108:1 53:1 116:1 81:1 152:1 169:1 18631:1 36741:1 
0.2183651431503093 16:1 109:1 49:1 137:1 68:1 164:1 169:1 12938:1 39460:1 
1 12:1 109:1 52:1 137:1 81:1 152:1 170:1 12597:1 38743:1 
0.4231866180594541 25:1 96:1 53:1 138:1 80:1 152:1 169:1 15899:1 38380:1 
0.3347460938123292 12:1 109:1 53:1 137:1 68:1 141:1 169:1 7357:1 31391:1 
0.2697532996270011 25:1 96:1 53:1 138:1 81:1 152:1 172:1 4624:1 42597:1 
0.2013608937190649 24:1 96:1 40:1 116:1 81:1 165:1 170:1 4730:1 30605:1 
0.1231631586856566 12:1 109:1 53:1 133:1 81:1 152:1 170:1 24028:1 46757:1 
1 22:1 103:1 53:1 138:1 64:1 163:1 170:1 6896:1 29088:1 
0.4126487808479232 12:1 109:1 53:1 137:1 81:1 166:1 170:1 4660:1 43926:1 
0.4768529220283084 25:1 109:1 53:1 137:1 81:1 165:1 171:1 9906:1 43926:1 
0.1293323361461775 12:1 109:1 53:1 124:1 56:1 153:1 169:1 13245:1 26503:1 
0.04640878852829905 12:1 108:1 40:1 124:1 81:1 148:1 169:1 5726:1 29435:1 
0.2167454248580638 12:1 109:1 40:1 125:1 78:1 166:1 169:1 5123:1 48267:1 
0.4646217072503952 1:1 109:1 29:1 124:1 56:1 166:1 171:1 3577:1 43355:1 
0.1386506132769265 12:1 109:1 53:1 124:1 56:1 164:1 170:1 2665:1 37591:1 
1 25:1 109:1 53:1 116:1 56:1 141:1 175:1 4624:1 33494:1 
0.3439828926249398 1:1 109:1 53:1 124:1 81:1 166:1 176:1 23804:1 49108:1 
0.1219030599874745 12:1 109:1 53:1 136:1 81:1 149:1 171:1 5734:1 35623:1 
0.07966304504384868 25:1 109:1 53:1 137:1 80:1 164:1 172:1 2046:1 45436:1 
1 12:1 107:1 53:1 116:1 81:1 165:1 169:1 9157:1 26865:1 
1 25:1 97:1 53:1 137:1 81:1 165:1 169:1 19984:1 33004:1 
1 23:1 108:1 51:1 124:1 81:1 165:1 170:1 24335:1 29435:1 
1 25:1 96:1 53:1 137:1 68:1 152:1 173:1 3646:1 27784:1 
0.01468043970628133 12:1 109:1 53:1 124:1 68:1 166:1 169:1 3055:1 31914:1 
0.8350167084708384 12:1 96:1 53:1 116:1 60:1 165:1 169:1 9816:1 30616:1 
0.2524874079548844 12:1 109:1 32:1 135:1 68:1 141:1 170:1 5887:1 46757:1 
0.2351692154498749 11:1 109:1 53:1 136:1 56:1 144:1 175:1 1225:1 46757:1 
1 25:1 96:1 53:1 135:1 77:1 166:1 169:1 3646:1 44822:1 
1 12:1 107:1 53:1 138:1 77:1 163:1 169:1 20093:1 38151:1 
0.1996443591576405 23:1 109:1 49:1 136:1 56:1 165:1 172:1 13422:1 44673:1 
0.4444073537285084 24:1 109:1 53:1 137:1 56:1 157:1 169:1 24242:1 42388:1 
1 25:1 101:1 53:1 138:1 81:1 140:1 169:1 15899:1 38201:1 
1 13:1 105:1 49:1 127:1 68:1 152:1 169:1 14457:1 47292:1 
0.311589357118508 25:1 109:1 53:1 138:1 56:1 152:1 174:1 12952:1 35573:1 
0.04834785574909604 12:1 109:1 49:1 137:1 79:1 148:1 170:1 9897:1 33345:1 
0.1906035004893056 23:1 109:1 53:1 137:1 57:1 148:1 174:1 14401:1 33345:1 
0.5799802050229822 24:1 109:1 53:1 136:1 59:1 152:1 169:1 24242:1 26619:1 
0.7206520422870315 25:1 108:1 49:1 124:1 56:1 144:1 169:1 16423:1 29435:1 
0.2878223584653381 13:1 92:1 53:1 138:1 81:1 140:1 170:1 13075:1 41280:1 
0.6315191381073237 15:1 109:1 40:1 124:1 68:1 166:1 170:1 11770:1 30382:1 
0.03261032257678604 12:1 109:1 53:1 129:1 68:1 161:1 171:1 14265:1 47324:1 
0.1751216926770095 11:1 109:1 53:1 124:1 56:1 165:1 171:1 368:1 29502:1 
0.09354342035807715 12:1 109:1 53:1 138:1 81:1 140:1 173:1 21592:1 28664:1 
0.2460656873550593 11:1 109:1 53:1 123:1 68:1 162:1 172:1 293:1 47292:1 
0.2149299492629928 1:1 109:1 53:1 130:1 56:1 144:1 170:1 13819:1 28876:1 
0.6098149986087988 12:1 109:1 53:1 124:1 81:1 164:1 170:1 7669:1 35912:1 
0.01785458849164049 13:1 109:1 49:1 124:1 81:1 166:1 176:1 18543:1 31968:1 
1 14:1 97:1 40:1 138:1 67:1 144:1 170:1 11724:1 46833:1 
0.3417367954785414 13:1 109:1 40:1 123:1 67:1 162:1 171:1 22104:1 41479:1 
1 23:1 96:1 49:1 137:1 56:1 166:1 170:1 3953:1 26710:1 
0.0209134555001496 25:1 108:1 53:1 135:1 77:1 152:1 169:1 4624:1 29435:1 
1 25:1 96:1 53:1 125:1 68:1 166:1 169:1 4624:1 33931:1 
0.7780839059885105 12:1 109:1 40:1 116:1 81:1 165:1 169:1 17175:1 41482:1 
0.7782274050116707 25:1 109:1 53:1 124:1 81:1 164:1 170:1 9466:1 48292:1 
0.3447487055639257 25:1 96:1 53:1 138:1 81:1 140:1 172:1 23563:1 45180:1 
0.08695291843704907 12:1 109:1 53:1 124:1 81:1 166:1 171:1 23452:1 33223:1 
0.07653220268224252 12:1 109:1 53:1 135:1 81:1 163:1 170:1 16560:1 32291:1 
0.0506912423730572 12:1 109:1 53:1 135:1 81:1 152:1 170:1 14377:1 33313:1 
0.3121662737401584 25:1 109:1 53:1 138:1 81:1 152:1 171:1 1821:1 31082:1 
0.2072063341314006 23:1 109:1 53:1 133:1 60:1 141:1 171:1 23062:1 34309:1 
0.3320921385977897 12:1 92:1 49:1 136:1 81:1 152:1 169:1 19009:1 46347:1 
0.111973965094676 13:1 109:1 49:1 137:1 56:1 163:1 173:1 11698:1 37109:1 
1 25:1 96:1 53:1 137:1 56:1 165:1 171:1 24026:1 46834:1 
0.3054813267790044 12:1 109:1 53:1 137:1 56:1 152:1 169:1 22105:1 26679:1 
1 12:1 87:1 53:1 113:1 56:1 166:1 170:1 4731:1 30306:1 
0.2045586460010252 12:1 109:1 49:1 121:1 56:1 149:1 173:1 20570:1 48879:1 
0.2147064628125958 12:1 109:1 40:1 136:1 68:1 141:1 169:1 8986:1 30414:1 
0.3705637493498822 12:1 109:1 53:1 137:1 81:1 164:1 170:1 10529:1 35039:1 
1 12:1 96:1 42:1 115:1 74:1 152:1 170:1 18252:1 42469:1 
0.9472182426096772 22:1 109:1 40:1 124:1 56:1 143:1 170:1 13635:1 41479:1 
1 12:1 85:1 40:1 136:1 81:1 152:1 171:1 5703:1 32676:1 
0.3242343462082971 12:1 96:1 53:1 138:1 77:1 152:1 169:1 7042:1 30616:1 
1 25:1 109:1 49:1 124:1 81:1 166:1 169:1 6567:1 45874:1 
1 12:1 108:1 53:1 124:1 81:1 166:1 170:1 10337:1 29435:1 
1 12:1 88:1 49:1 113:1 56:1 166:1 175:1 13758:1 47158:1 
0.4933301690675219 24:1 96:1 53:1 137:1 56:1 148:1 169:1 24242:1 40006:1 
0.07225153268474596 12:1 109:1 53:1 120:1 56:1 141:1 169:1 15277:1 31392:1 
1 18:1 109:1 46:1 137:1 56:1 166:1 174:1 2615:1 47708:1 
0.02814639003626337 23:1 109:1 53:1 124:1 81:1 166:1 170:1 17637:1 49378:1 
1 24:1 85:1 53:1 116:1 68:1 141:1 170:1 4684:1 34966:1 
1 12:1 85:1 49:1 116:1 81:1 141:1 173:1 16548:1 34966:1 
1 1:1 88:1 29:1 137:1 81:1 141:1 174:1 7959:1 35222:1 
0.3239574357268378 11:1 109:1 53:1 135:1 81:1 164:1 171:1 21235:1 46757:1 
0.2989974123306625 24:1 108:1 53:1 123:1 68:1 162:1 169:1 7731:1 29435:1 
0.03086724211067692 1:1 109:1 53:1 135:1 56:1 161:1 176:1 14167:1 41479:1 
0.4733605372666325 25:1 109:1 49:1 137:1 79:1 164:1 169:1 18511:1 36572:1 
0.06572291902858131 12:1 109:1 53:1 124:1 56:1 152:1 169:1 16283:1 37493:1 
0.9563911948941737 12:1 97:1 40:1 137:1 81:1 152:1 169:1 10605:1 48334:1 
0.104021261071741 25:1 109:1 49:1 125:1 68:1 166:1 169:1 11251:1 29331:1 
0.2760054581715528 25:1 109:1 53:1 124:1 56:1 165:1 170:1 9954:1 46457:1 
0.1455764012631322 14:1 108:1 42:1 124:1 77:1 156:1 169:1 20186:1 29459:1 
0.03755982793343474 24:1 96:1 42:1 128:1 77:1 165:1 169:1 4730:1 42981:1 
0.2397162743697926 12:1 109:1 53:1 129:1 81:1 152:1 177:1 23373:1 35543:1 
0.1450540930236196 17:1 109:1 53:1 124:1 56:1 152:1 170:1 20918:1 27592:1 
0.8953244997342327 25:1 96:1 53:1 138:1 56:1 157:1 172:1 18895:1 41755:1 
1 3:1 109:1 53:1 124:1 56:1 152:1 169:1 8022:1 42645:1 
1 25:1 96:1 53:1 137:1 56:1 152:1 170:1 17916:1 27794:1 
0.07563163215904165 12:1 108:1 40:1 124:1 81:1 140:1 169:1 10285:1 29435:1 
0.4449539310919324 12:1 108:1 53:1 137:1 68:1 152:1 169:1 11531:1 29540:1 
1 24:1 109:1 40:1 124:1 56:1 166:1 169:1 4811:1 45734:1 
0.2481505983467078 11:1 106:1 39:1 124:1 77:1 151:1 169:1 5483:1 31625:1 
0.0394892085529024 11:1 106:1 39:1 124:1 68:1 153:1 169:1 5483:1 48619:1 
0.6817069295670811 12:1 97:1 40:1 120:1 77:1 165:1 169:1 20039:1 48334:1 
1 13:1 92:1 49:1 137:1 81:1 151:1 169:1 23605:1 45424:1 
1 25:1 92:1 49:1 137:1 56:1 151:1 180:1 20696:1 45424:1 
0.5119999615360056 25:1 96:1 36:1 138:1 56:1 140:1 177:1 3646:1 38915:1 
0.04126852691493866 12:1 109:1 53:1 138:1 81:1 152:1 171:1 6689:1 40646:1 
0.2001365073479061 13:1 109:1 49:1 137:1 68:1 152:1 170:1 23605:1 37980:1 
0.2878792175967731 12:1 108:1 53:1 124:1 81:1 166:1 169:1 3065:1 29435:1 
0.2871018671179059 12:1 108:1 40:1 124:1 77:1 143:1 169:1 6587:1 29435:1 
0.05124778958429716 12:1 109:1 53:1 124:1 56:1 166:1 171:1 6178:1 35321:1 
0.9139696183745666 25:1 96:1 53:1 112:1 77:1 166:1 172:1 4624:1 47988:1 
0.7253689645553726 12:1 84:1 53:1 138:1 77:1 154:1 169:1 23259:1 41277:1 
0.1831097546996128 0:1 109:1 49:1 138:1 56:1 157:1 171:1 16548:1 27085:1 
0.3219290119519247 12:1 108:1 53:1 124:1 81:1 166:1 169:1 7424:1 29435:1 
0.05895358528894721 12:1 109:1 49:1 138:1 56:1 143:1 177:1 4968:1 48182:1 
0.3418529229140433 12:1 109:1 53:1 137:1 81:1 153:1 171:1 13117:1 26586:1 
0.1427850884758057 12:1 108:1 53:1 129:1 81:1 141:1 169:1 16747:1 29435:1 
0.8803593245160127 25:1 96:1 53:1 138:1 81:1 140:1 170:1 18895:1 29283:1 
0.01391540149461669 18:1 109:1 49:1 133:1 73:1 163:1 169:1 1249:1 28844:1 
0.03942811988157178 17:1 109:1 49:1 133:1 65:1 163:1 172:1 11019:1 28844:1 
0.8390351847640126 25:1 109:1 53:1 136:1 81:1 151:1 172:1 23507:1 28588:1 
1 22:1 96:1 50:1 125:1 80:1 164:1 169:1 6896:1 47178:1 
0.6021237232029378 24:1 96:1 53:1 138:1 81:1 140:1 176:1 4706:1 49329:1 
0.1669911462746966 12:1 109:1 53:1 124:1 81:1 164:1 170:1 3276:1 32710:1 
0.3357254003576842 12:1 109:1 53:1 116:1 81:1 165:1 173:1 16560:1 41479:1 
0.376915444578409 23:1 108:1 53:1 124:1 56:1 141:1 169:1 17645:1 29435:1 
0.04969171320835193 12:1 109:1 53:1 138:1 81:1 140:1 170:1 20998:1 29173:1 
1 22:1 95:1 50:1 138:1 56:1 166:1 169:1 9776:1 30212:1 
1 12:1 96:1 29:1 137:1 68:1 153:1 169:1 4771:1 29735:1 
0.5990995689227419 12:1 96:1 40:1 116:1 56:1 165:1 170:1 2799:1 38323:1 
0.02410299174455538 23:1 109:1 49:1 123:1 79:1 165:1 171:1 17641:1 30212:1 
0.09727988896654187 23:1 109:1 53:1 123:1 81:1 165:1 174:1 23357:1 30212:1 
0.05625643637084763 8:1 109:1 49:1 135:1 81:1 164:1 169:1 10474:1 41479:1 
0.1446133446525131 25:1 109:1 53:1 135:1 56:1 164:1 174:1 11359:1 41479:1 
0.5591283083301963 25:1 109:1 53:1 138:1 77:1 152:1 172:1 5680:1 38758:1 
0.3263115667641505 25:1 109:1 53:1 138:1 77:1 161:1 171:1 14029:1 34130:1 
0.06273001536444298 12:1 96:1 40:1 136:1 77:1 165:1 171:1 1470:1 29861:1 
0.543737815550486 24:1 109:1 53:1 133:1 81:1 165:1 172:1 4706:1 30558:1 
0.6557530057117388 8:1 109:1 36:1 120:1 81:1 164:1 170:1 11295:1 31531:1 
0.2748408104285499 8:1 109:1 53:1 124:1 81:1 151:1 172:1 2700:1 36508:1 
0.14186680540717 12:1 109:1 53:1 134:1 79:1 152:1 169:1 13130:1 26544:1 
0.7114445504725782 12:1 96:1 40:1 124:1 73:1 154:1 169:1 19009:1 32200:1 
0.3746886770236946 18:1 109:1 53:1 131:1 56:1 152:1 176:1 19648:1 34118:1 
0.1580645960530474 12:1 109:1 53:1 137:1 56:1 157:1 169:1 14537:1 45164:1 
0.0594553438299292 12:1 109:1 49:1 137:1 68:1 161:1 169:1 14872:1 48913:1 
1 25:1 105:1 53:1 124:1 68:1 166:1 169:1 4601:1 47292:1 
0.1959553970711913 12:1 109:1 53:1 123:1 81:1 162:1 170:1 4981:1 35349:1 
1 24:1 96:1 53:1 137:1 56:1 165:1 169:1 12012:1 42871:1 
0.1150746414787212 12:1 109:1 53:1 137:1 56:1 152:1 170:1 18142:1 38733:1 
1 12:1 109:1 53:1 136:1 77:1 141:1 169:1 8905:1 29876:1 
0.05745115144123963 25:1 108:1 53:1 113:1 77:1 152:1 169:1 5147:1 29435:1 
0.07327143231782064 12:1 109:1 53:1 137:1 69:1 165:1 176:1 23101:1 48726:1 
0.1158428686386581 13:1 109:1 49:1 137:1 68:1 165:1 182:1 8275:1 48726:1 
0.1799872222338459 12:1 109:1 49:1 137:1 68:1 165:1 170:1 15434:1 29865:1 
0.2971507702290538 12:1 85:1 53:1 138:1 57:1 165:1 174:1 20139:1 26601:1 
0.3579359504249323 24:1 96:1 53:1 115:1 56:1 152:1 171:1 12012:1 31914:1 
0.2034957502662041 12:1 109:1 53:1 124:1 81:1 164:1 170:1 12154:1 31908:1 
0.01004030861288326 12:1 109:1 53:1 113:1 81:1 152:1 171:1 18825:1 28876:1 
0.1616581596062622 12:1 109:1 53:1 137:1 81:1 166:1 169:1 15373:1 35500:1 
0.4887722559723738 12:1 108:1 53:1 124:1 81:1 163:1 169:1 7042:1 29435:1 
0.2821888536263366 12:1 109:1 53:1 136:1 81:1 157:1 172:1 4340:1 28570:1 
0.2455772775289906 12:1 109:1 53:1 120:1 81:1 164:1 171:1 23775:1 32237:1 
0.2604746839882781 12:1 109:1 40:1 138:1 81:1 165:1 169:1 20570:1 36064:1 
0.5444947727137092 1:1 109:1 53:1 137:1 81:1 165:1 173:1 14919:1 28422:1 
1 25:1 109:1 53:1 137:1 81:1 141:1 169:1 3693:1 41479:1 
0.7100578003645166 13:1 108:1 49:1 116:1 81:1 165:1 169:1 15899:1 29435:1 
1 24:1 85:1 53:1 136:1 56:1 166:1 170:1 4706:1 34278:1 
0.4746137323992527 25:1 109:1 53:1 137:1 80:1 165:1 170:1 17260:1 28821:1 
0.0263210445814001 24:1 109:1 53:1 137:1 56:1 165:1 175:1 4706:1 28821:1 
0.02910529485916328 25:1 108:1 53:1 124:1 81:1 166:1 169:1 24044:1 29435:1 
1 8:1 108:1 53:1 114:1 78:1 152:1 170:1 7808:1 29435:1 
0.1369170812004046 25:1 108:1 53:1 113:1 68:1 152:1 169:1 7194:1 29435:1 
0.5131836111788872 11:1 106:1 39:1 137:1 56:1 164:1 169:1 5483:1 38364:1 
0.1513254995950582 24:1 92:1 53:1 138:1 56:1 157:1 172:1 12012:1 42288:1 
0.1361056657074721 25:1 96:1 53:1 138:1 57:1 140:1 170:1 19603:1 30977:1 
0.1219191598202372 25:1 109:1 49:1 123:1 60:1 162:1 169:1 6052:1 30728:1 
0.4242051817059994 22:1 109:1 53:1 136:1 78:1 152:1 171:1 18992:1 28593:1 
0.04258210723646251 12:1 109:1 49:1 137:1 56:1 152:1 171:1 16565:1 40136:1 
0.2234928593576481 13:1 109:1 49:1 137:1 68:1 163:1 171:1 18543:1 46527:1 
0.3684786962818039 23:1 109:1 53:1 116:1 81:1 141:1 169:1 17641:1 35321:1 
0.8589496966630722 9:1 96:1 40:1 133:1 56:1 141:1 169:1 7540:1 44303:1 
0.00513478477621138 23:1 109:1 49:1 135:1 56:1 152:1 172:1 23057:1 42474:1 
0.1065883037614787 12:1 109:1 53:1 138:1 81:1 144:1 171:1 21636:1 49306:1 
0.3065909998259624 12:1 109:1 53:1 137:1 81:1 152:1 172:1 11806:1 48773:1 
0.1014281246081069 12:1 109:1 53:1 124:1 81:1 152:1 170:1 5882:1 34399:1 
0.1842048260853057 12:1 109:1 53:1 114:1 81:1 152:1 170:1 21563:1 36002:1 
0.03615692904172514 12:1 109:1 53:1 114:1 81:1 152:1 170:1 20123:1 34241:1 
0.5123034101454287 22:1 109:1 53:1 124:1 81:1 141:1 170:1 15301:1 36249:1 
0.4142353219552022 12:1 109:1 32:1 113:1 56:1 166:1 174:1 2527:1 35120:1 
1 12:1 96:1 49:1 124:1 77:1 165:1 169:1 7669:1 32153:1 
0.3278093383357672 12:1 109:1 53:1 133:1 56:1 163:1 170:1 24217:1 44633:1 
0.2944263499578354 12:1 109:1 53:1 137:1 81:1 149:1 170:1 14499:1 38041:1 
0.4153236609230451 24:1 96:1 53:1 115:1 81:1 157:1 171:1 12012:1 48714:1 
0.4661917860735642 1:1 109:1 29:1 124:1 56:1 151:1 170:1 7874:1 31241:1 
1 25:1 96:1 32:1 136:1 68:1 152:1 171:1 16750:1 33693:1 
0.07207132757144168 17:1 109:1 49:1 116:1 67:1 165:1 170:1 2031:1 42859:1 
0.03398851128236832 23:1 109:1 53:1 130:1 81:1 166:1 170:1 19126:1 41479:1 
1 12:1 108:1 53:1 124:1 67:1 165:1 170:1 20417:1 29435:1 
0.7744008521539367 25:1 96:1 53:1 136:1 81:1 166:1 171:1 4624:1 28828:1 
0.7987370992571798 12:1 109:1 42:1 116:1 56:1 165:1 177:1 24433:1 36286:1 
0.577424398236479 25:1 109:1 53:1 124:1 56:1 144:1 171:1 22563:1 41479:1 
1 25:1 96:1 32:1 133:1 68:1 141:1 170:1 16750:1 40990:1 
0.5130793058465962 12:1 109:1 40:1 116:1 81:1 141:1 186:1 16261:1 33613:1 
0.1951916008968439 12:1 109:1 40:1 138:1 81:1 140:1 173:1 21154:1 41492:1 
0.1673049975207964 25:1 109:1 53:1 138:1 77:1 165:1 170:1 9582:1 37033:1 
0.7485054256018697 25:1 109:1 53:1 136:1 77:1 163:1 170:1 12304:1 44706:1 
0.2527343045369897 25:1 108:1 53:1 135:1 77:1 152:1 169:1 19977:1 29459:1 
0.3648618189733616 12:1 85:1 40:1 138:1 81:1 140:1 171:1 24132:1 27321:1 
0.1755026324006909 12:1 109:1 53:1 124:1 81:1 152:1 172:1 16859:1 30873:1 
0.3709291312377027 12:1 109:1 53:1 138:1 81:1 140:1 175:1 11767:1 39196:1 
0.1024441019958608 25:1 109:1 49:1 123:1 68:1 152:1 170:1 2765:1 47226:1 
0.5762315100073319 12:1 96:1 53:1 137:1 59:1 151:1 169:1 4964:1 31771:1 
0.5772049022484483 25:1 109:1 53:1 124:1 81:1 152:1 170:1 22707:1 41353:1 
0.2041864200612411 12:1 109:1 53:1 137:1 81:1 156:1 170:1 17050:1 40337:1 
0.3433983999675737 25:1 109:1 53:1 123:1 68:1 152:1 170:1 3864:1 29145:1 
0.2930026582246809 12:1 109:1 53:1 124:1 56:1 164:1 170:1 4862:1 43624:1 
0.2563497855151199 12:1 109:1 53:1 124:1 81:1 166:1 174:1 9237:1 49391:1 
0.03800678382710024 12:1 109:1 53:1 136:1 81:1 152:1 169:1 5891:1 41797:1 
0.8667257614468767 1:1 109:1 29:1 137:1 57:1 141:1 170:1 13968:1 31975:1 
0.4045749239115741 25:1 85:1 53:1 138:1 57:1 140:1 169:1 3010:1 27294:1 
0.04594790965479413 22:1 109:1 53:1 123:1 81:1 162:1 181:1 22296:1 43355:1 
0.2921829119741807 11:1 109:1 53:1 123:1 81:1 162:1 170:1 344:1 47428:1 
0.2897642899221984 25:1 109:1 53:1 124:1 56:1 149:1 171:1 16240:1 42906:1 
0.3257623289330705 12:1 109:1 53:1 137:1 68:1 166:1 169:1 15562:1 40656:1 
0.1257662072531957 12:1 109:1 53:1 137:1 81:1 166:1 174:1 18785:1 40656:1 
0.08182346335753737 12:1 109:1 53:1 136:1 64:1 152:1 170:1 1765:1 34980:1 
0.3427042279635992 12:1 109:1 53:1 137:1 81:1 141:1 170:1 10817:1 48267:1 
0.6082203603511324 24:1 109:1 53:1 124:1 68:1 166:1 169:1 24242:1 46631:1 
0.1606327484265834 12:1 109:1 53:1 134:1 56:1 166:1 172:1 14609:1 37458:1 
0.3993280429583003 16:1 109:1 53:1 123:1 56:1 165:1 169:1 13463:1 28568:1 
0.4138936677122775 25:1 108:1 45:1 124:1 81:1 166:1 169:1 11315:1 29435:1 
0.4875039651473079 23:1 109:1 53:1 123:1 81:1 152:1 169:1 1488:1 48053:1 
0.1469736480377179 12:1 109:1 40:1 136:1 56:1 151:1 170:1 8575:1 47368:1 
0.3566136264623923 1:1 92:1 29:1 138:1 78:1 148:1 171:1 18830:1 28897:1 
0.1398868794231515 8:1 92:1 29:1 138:1 78:1 165:1 170:1 4168:1 36613:1 
0.2949095872347629 8:1 109:1 29:1 136:1 78:1 152:1 171:1 11884:1 31025:1 
0.06046514430953646 25:1 108:1 29:1 124:1 78:1 152:1 169:1 6296:1 29435:1 
0.08999135157759469 12:1 109:1 49:1 124:1 59:1 148:1 174:1 4822:1 36904:1 
0.2820420958808121 22:1 109:1 53:1 136:1 70:1 141:1 183:1 15416:1 49380:1 
0.6365405154102001 14:1 109:1 40:1 136:1 56:1 141:1 188:1 12225:1 49380:1 
1 25:1 96:1 53:1 124:1 77:1 166:1 171:1 4624:1 32153:1 
0.1290030214470041 12:1 109:1 53:1 124:1 81:1 143:1 171:1 7424:1 47423:1 
0.09342632898825817 12:1 97:1 40:1 136:1 81:1 142:1 169:1 4554:1 48089:1 
0.2400445499304131 12:1 109:1 53:1 137:1 81:1 152:1 172:1 12015:1 46784:1 
0.6874819168716468 12:1 109:1 36:1 136:1 56:1 152:1 175:1 6771:1 49415:1 
0.3891228494627887 24:1 96:1 53:1 137:1 56:1 157:1 169:1 24242:1 33363:1 
0.254709608037503 1:1 85:1 40:1 138:1 81:1 140:1 171:1 14950:1 28306:1 
1 12:1 85:1 40:1 136:1 81:1 152:1 169:1 8575:1 28785:1 
0.1443992223997214 12:1 109:1 53:1 120:1 81:1 166:1 173:1 4841:1 27350:1 
0.8436089999145727 12:1 96:1 53:1 123:1 74:1 162:1 169:1 5081:1 49000:1 
0.6853788413370028 25:1 109:1 53:1 123:1 74:1 162:1 169:1 4438:1 28841:1 
0.3742433655157739 12:1 109:1 53:1 138:1 81:1 165:1 183:1 22402:1 43160:1 
0.3470606878458727 12:1 97:1 53:1 137:1 77:1 142:1 169:1 19138:1 48088:1 
0.02403366215982367 13:1 109:1 49:1 114:1 81:1 152:1 169:1 23359:1 49395:1 
0.5870508392803426 14:1 109:1 53:1 137:1 81:1 152:1 169:1 17608:1 28421:1 
0.3023577371303009 12:1 109:1 53:1 135:1 81:1 161:1 172:1 7647:1 47421:1 
1 12:1 96:1 53:1 138:1 81:1 158:1 172:1 18603:1 32398:1 
0.7028988409208402 12:1 106:1 53:1 138:1 68:1 165:1 171:1 18603:1 37656:1 
1 12:1 96:1 53:1 136:1 81:1 151:1 170:1 4841:1 43332:1 
0.2331348470859292 11:1 109:1 53:1 123:1 81:1 151:1 174:1 794:1 28841:1 
0.3134923446059897 12:1 92:1 53:1 138:1 81:1 164:1 170:1 13519:1 38837:1 
1 8:1 108:1 53:1 124:1 81:1 166:1 170:1 14108:1 29435:1 
0.02625355805412076 12:1 109:1 53:1 138:1 56:1 165:1 173:1 16563:1 29687:1 
1 24:1 96:1 53:1 116:1 81:1 165:1 170:1 24242:1 33609:1 
0.03074494458337152 12:1 109:1 53:1 124:1 81:1 166:1 170:1 8880:1 28307:1 
0.2135039295681758 13:1 109:1 40:1 138:1 68:1 140:1 175:1 11315:1 44345:1 
0.1887909311973746 12:1 109:1 49:1 137:1 77:1 152:1 169:1 19407:1 27063:1 
1 25:1 96:1 53:1 125:1 77:1 165:1 169:1 4624:1 35606:1 
0.128508518061104 12:1 97:1 53:1 137:1 77:1 165:1 169:1 10877:1 40628:1 
0.09695403802481423 13:1 109:1 49:1 137:1 68:1 152:1 170:1 15899:1 34194:1 
0.0009895026913781032 12:1 109:1 53:1 137:1 56:1 152:1 179:1 23125:1 34194:1 
0.6552209022917349 25:1 109:1 53:1 124:1 81:1 152:1 172:1 4624:1 28821:1 
1 24:1 106:1 53:1 113:1 56:1 152:1 169:1 12012:1 31625:1 
0.2141331319882251 22:1 96:1 53:1 138:1 56:1 165:1 170:1 6896:1 43061:1 
0.06390386783018794 12:1 109:1 53:1 116:1 56:1 165:1 170:1 18332:1 48172:1 
0.7795377481377609 25:1 109:1 53:1 137:1 81:1 164:1 170:1 10139:1 38658:1 
0.2099126079003607 12:1 109:1 53:1 128:1 81:1 165:1 169:1 5433:1 31154:1 
0.3363139910600341 16:1 109:1 53:1 115:1 81:1 165:1 169:1 7705:1 45521:1 
0.122749517559814 23:1 108:1 53:1 124:1 70:1 144:1 169:1 17645:1 29435:1 
0.02078918332700147 23:1 109:1 49:1 115:1 79:1 165:1 172:1 3946:1 29380:1 
0.2688045242489148 12:1 109:1 53:1 136:1 81:1 165:1 182:1 14987:1 49415:1 
0.3298389471314296 13:1 109:1 53:1 136:1 68:1 152:1 170:1 8275:1 28142:1 
0.04564361376284947 12:1 109:1 53:1 120:1 81:1 164:1 170:1 7315:1 29131:1 
0.2786244053122732 12:1 109:1 53:1 129:1 81:1 163:1 172:1 9586:1 40203:1 
0.05873897656064392 12:1 109:1 53:1 137:1 59:1 152:1 169:1 17940:1 31308:1 
1 25:1 106:1 53:1 138:1 56:1 143:1 170:1 20970:1 27807:1 
0.2767282753869853 22:1 109:1 53:1 129:1 56:1 166:1 172:1 3078:1 48119:1 
0.08154375736540581 17:1 109:1 53:1 124:1 81:1 151:1 170:1 2031:1 31241:1 
0.6618775020258085 23:1 92:1 53:1 138:1 68:1 165:1 169:1 17645:1 45968:1 
0.04441128032069895 8:1 109:1 53:1 124:1 68:1 161:1 170:1 21239:1 39985:1 
0.4478757835671517 12:1 108:1 49:1 126:1 81:1 152:1 169:1 21563:1 29435:1 
0.1038927053223563 12:1 109:1 53:1 116:1 81:1 141:1 170:1 9816:1 26544:1 
0.08992072045246924 13:1 109:1 53:1 124:1 56:1 161:1 171:1 15899:1 45883:1 
1 12:1 84:1 49:1 133:1 68:1 152:1 170:1 17668:1 36104:1 
1 21:1 96:1 28:1 138:1 81:1 144:1 169:1 22131:1 45226:1 
1 12:1 109:1 28:1 124:1 81:1 165:1 172:1 20497:1 33950:1 
0.5032933565073587 12:1 109:1 52:1 138:1 79:1 163:1 171:1 17668:1 33950:1 
0.1178884077965691 12:1 109:1 49:1 123:1 81:1 162:1 173:1 4621:1 38618:1 
0.1044747822876542 12:1 109:1 49:1 120:1 68:1 166:1 172:1 24217:1 29429:1 
0.1579214310250467 12:1 109:1 53:1 120:1 81:1 166:1 178:1 5015:1 29429:1 
0.06639490971669977 23:1 109:1 49:1 136:1 77:1 152:1 169:1 17641:1 38370:1 
1 21:1 97:1 53:1 138:1 56:1 140:1 176:1 22563:1 48334:1 
1 24:1 107:1 53:1 133:1 56:1 152:1 169:1 24242:1 42366:1 
0.08684261618266646 12:1 109:1 53:1 124:1 56:1 161:1 172:1 14800:1 31376:1 
0.02392938436898874 12:1 108:1 49:1 124:1 59:1 164:1 169:1 19079:1 29435:1 
0.1931373734625064 12:1 108:1 40:1 138:1 77:1 163:1 169:1 21859:1 30307:1 
0.8694851741958847 22:1 107:1 29:1 138:1 80:1 140:1 176:1 20124:1 40245:1 
0.2631843316017793 12:1 109:1 53:1 135:1 81:1 158:1 170:1 10371:1 41479:1 
0.005707511171208567 25:1 108:1 53:1 124:1 81:1 166:1 169:1 17738:1 29435:1 
0.1486408411902987 12:1 109:1 53:1 124:1 81:1 166:1 170:1 14975:1 37591:1 
0.0007287787881368642 12:1 109:1 53:1 128:1 81:1 152:1 173:1 17317:1 41479:1 
1 25:1 108:1 53:1 124:1 77:1 153:1 170:1 8550:1 29435:1 
0.6508986345861787 22:1 109:1 32:1 137:1 60:1 164:1 178:1 4948:1 26470:1 
1 24:1 96:1 53:1 136:1 77:1 156:1 169:1 12012:1 27974:1 
0.127754062221846 16:1 109:1 49:1 136:1 68:1 152:1 169:1 7791:1 41275:1 
0.3616405216364498 12:1 109:1 53:1 136:1 81:1 152:1 176:1 22179:1 41275:1 
0.1465317851910991 23:1 108:1 49:1 139:1 56:1 166:1 169:1 23063:1 29435:1 
0.3024285812251313 24:1 109:1 53:1 137:1 56:1 151:1 169:1 24242:1 46965:1 
0.02380660408787812 23:1 92:1 53:1 138:1 68:1 140:1 169:1 17637:1 47124:1 
0.3528218485612047 12:1 109:1 53:1 136:1 56:1 152:1 170:1 2373:1 34451:1 
0.5057363712621182 24:1 96:1 53:1 115:1 81:1 152:1 169:1 12012:1 42926:1 
0.4120579075108659 12:1 96:1 40:1 136:1 68:1 165:1 172:1 7895:1 45472:1 
0.7352463828342698 12:1 108:1 40:1 137:1 68:1 152:1 169:1 20743:1 29540:1 
0.1489585503674502 12:1 109:1 53:1 123:1 81:1 162:1 173:1 20058:1 27752:1 
0.1784881218778434 12:1 109:1 53:1 124:1 56:1 164:1 169:1 7273:1 39461:1 
0.01207397965700893 11:1 109:1 53:1 123:1 56:1 153:1 173:1 974:1 34241:1 
0.04948369985412476 13:1 109:1 49:1 124:1 81:1 152:1 171:1 15899:1 30432:1 
0.7356278450307898 25:1 109:1 53:1 113:1 56:1 164:1 169:1 7058:1 39818:1 
0.7679667870621809 25:1 109:1 53:1 124:1 56:1 152:1 170:1 3646:1 26215:1 
0.7727034778081601 12:1 106:1 53:1 138:1 81:1 144:1 171:1 4981:1 27482:1 
0.2270411434534118 9:1 109:1 37:1 113:1 81:1 164:1 169:1 13271:1 46757:1 
0.4387594281232088 12:1 109:1 53:1 136:1 81:1 142:1 172:1 22607:1 37800:1 
0.2925751870709623 12:1 109:1 53:1 116:1 81:1 165:1 175:1 15391:1 28844:1 
0.2826381356191937 25:1 109:1 53:1 115:1 81:1 144:1 172:1 11995:1 36306:1 
0.8740653264678527 24:1 96:1 53:1 136:1 59:1 152:1 170:1 24242:1 49411:1 
0.04571065276612726 24:1 96:1 40:1 137:1 74:1 161:1 171:1 4730:1 33693:1 
0.5245086623073241 13:1 109:1 42:1 136:1 68:1 142:1 169:1 8275:1 45377:1 
0.5153821619897712 12:1 109:1 40:1 133:1 56:1 152:1 175:1 2410:1 38432:1 
0.08336541516741741 12:1 109:1 53:1 134:1 81:1 152:1 173:1 13059:1 41479:1 
1 25:1 105:1 49:1 116:1 56:1 165:1 169:1 22597:1 29353:1 
0.1787181207864984 12:1 109:1 53:1 114:1 68:1 164:1 170:1 5465:1 30701:1 
0.05370092912564543 13:1 109:1 53:1 113:1 81:1 164:1 170:1 23367:1 34877:1 
1 12:1 85:1 40:1 136:1 81:1 152:1 170:1 17120:1 46416:1 
1 24:1 96:1 49:1 138:1 81:1 165:1 170:1 12012:1 29788:1 
0.6036962627210833 12:1 109:1 53:1 136:1 77:1 152:1 170:1 17878:1 39221:1 
0.09089524656377333 12:1 109:1 53:1 129:1 81:1 153:1 182:1 13016:1 41387:1 
0.07425577271240458 12:1 109:1 53:1 136:1 56:1 152:1 171:1 20415:1 26465:1 
0.5397234363357112 12:1 109:1 53:1 137:1 56:1 164:1 169:1 16885:1 34392:1 
0.003197250763990875 12:1 109:1 53:1 124:1 81:1 166:1 170:1 5459:1 39458:1 
1 24:1 107:1 53:1 136:1 81:1 166:1 169:1 7731:1 38353:1 
0.1900980657779232 23:1 108:1 53:1 138:1 81:1 166:1 169:1 13624:1 45546:1 
0.6031148103952716 12:1 109:1 41:1 124:1 77:1 153:1 172:1 5778:1 41479:1 
0.5611205370004396 24:1 96:1 53:1 137:1 56:1 156:1 171:1 24242:1 38337:1 
0.1043300155559073 16:1 109:1 53:1 124:1 81:1 166:1 171:1 9280:1 43235:1 
0.1029186811313582 12:1 109:1 53:1 138:1 81:1 165:1 171:1 13059:1 32315:1 
0.1467356880096199 12:1 109:1 49:1 124:1 81:1 165:1 169:1 4981:1 42859:1 
0.0731163373791843 12:1 109:1 53:1 138:1 56:1 158:1 170:1 20056:1 31545:1 
0.2163077464453696 25:1 109:1 53:1 138:1 56:1 165:1 174:1 6816:1 43240:1 
0.652816747512929 22:1 92:1 53:1 138:1 57:1 144:1 173:1 14066:1 41026:1 
0.01517549086539415 12:1 109:1 53:1 124:1 81:1 166:1 171:1 11740:1 36928:1 
1 1:1 96:1 53:1 137:1 70:1 164:1 169:1 4175:1 41869:1 
0.5182749117153492 12:1 109:1 40:1 131:1 56:1 152:1 172:1 17942:1 45390:1 
0.2233419549860706 14:1 108:1 49:1 124:1 56:1 144:1 169:1 8675:1 29435:1 
0.764873523339941 25:1 109:1 29:1 124:1 68:1 166:1 170:1 19418:1 46757:1 
0.1399344054889195 12:1 108:1 53:1 135:1 56:1 158:1 169:1 2995:1 29435:1 
0.3564198105350593 4:1 109:1 53:1 136:1 79:1 166:1 169:1 4196:1 31325:1 
0.09226417333828883 24:1 109:1 53:1 135:1 81:1 164:1 173:1 1555:1 36608:1 
0.06153275697859117 24:1 100:1 53:1 138:1 81:1 140:1 171:1 12012:1 40861:1 
0.2014602948200324 25:1 109:1 49:1 113:1 73:1 164:1 170:1 11137:1 27024:1 
0.03233857507820159 12:1 109:1 53:1 136:1 81:1 165:1 169:1 23540:1 26893:1 
0.04825015147427442 24:1 109:1 53:1 138:1 81:1 152:1 169:1 24242:1 31325:1 
0.1713124999255045 12:1 97:1 40:1 116:1 69:1 165:1 169:1 16772:1 48334:1 
0.1168186656577366 13:1 109:1 53:1 123:1 56:1 162:1 177:1 4801:1 46757:1 
0.8732270626171979 22:1 109:1 53:1 137:1 56:1 152:1 170:1 6896:1 37976:1 
0.989767230483157 2:1 96:1 40:1 138:1 81:1 152:1 172:1 16342:1 28127:1 
1 17:1 101:1 45:1 124:1 56:1 144:1 170:1 15825:1 38294:1 
0.8852660335750305 17:1 96:1 45:1 116:1 56:1 165:1 169:1 13565:1 29589:1 
0.129746243464273 16:1 109:1 49:1 128:1 68:1 152:1 169:1 19755:1 44870:1 
0.03400724268957699 12:1 109:1 53:1 120:1 68:1 143:1 169:1 23264:1 48188:1 
0.01301736004113672 8:1 109:1 53:1 124:1 81:1 166:1 170:1 10883:1 34145:1 
0.2209665727747471 22:1 108:1 53:1 126:1 81:1 152:1 169:1 14214:1 29435:1 
1 24:1 96:1 53:1 124:1 81:1 166:1 173:1 12012:1 41745:1 
0.3463768280821044 12:1 109:1 53:1 137:1 81:1 152:1 169:1 13779:1 30067:1 
0.2563611840502464 25:1 109:1 53:1 115:1 81:1 165:1 171:1 16615:1 26973:1 
0.1010585383836526 12:1 109:1 53:1 124:1 81:1 166:1 171:1 9113:1 35987:1 
1 12:1 85:1 40:1 136:1 77:1 152:1 169:1 16773:1 29964:1 
1 17:1 93:1 45:1 137:1 56:1 165:1 169:1 7558:1 31253:1 
0.4565013775564194 14:1 96:1 53:1 138:1 81:1 140:1 175:1 15018:1 28118:1 
0.3954464638193373 23:1 109:1 53:1 129:1 60:1 152:1 169:1 3946:1 33748:1 
0.1159329151693499 12:1 109:1 53:1 129:1 81:1 164:1 169:1 15327:1 45460:1 
0.729108754832027 12:1 109:1 50:1 123:1 56:1 162:1 174:1 20954:1 28841:1 
0.1006553454779409 12:1 108:1 53:1 124:1 56:1 144:1 169:1 8220:1 29435:1 
0.3152584589385497 25:1 96:1 53:1 138:1 56:1 144:1 173:1 24026:1 28399:1 
1 25:1 96:1 53:1 137:1 81:1 153:1 169:1 3646:1 35819:1 
0.281217787682655 12:1 109:1 53:1 125:1 81:1 152:1 169:1 11090:1 31811:1 
0.229904705103496 12:1 109:1 53:1 135:1 81:1 152:1 175:1 6832:1 34515:1 
0.07624237001586422 12:1 109:1 53:1 135:1 81:1 159:1 171:1 6838:1 34515:1 
0.4849057517481751 23:1 96:1 53:1 138:1 81:1 140:1 170:1 17645:1 30429:1 
1 17:1 106:1 45:1 137:1 81:1 144:1 170:1 9050:1 33129:1 
0.04872286886712938 25:1 108:1 53:1 128:1 78:1 152:1 169:1 5115:1 29435:1 
0.04606411077628278 12:1 109:1 53:1 113:1 56:1 152:1 172:1 15453:1 37440:1 
0.1872078598447565 12:1 109:1 53:1 123:1 81:1 162:1 172:1 3818:1 28899:1 
1 1:1 85:1 53:1 137:1 68:1 141:1 170:1 4175:1 28904:1 
0.5533493725305376 1:1 85:1 53:1 112:1 57:1 140:1 170:1 19996:1 44725:1 
0.3498656482246607 12:1 109:1 53:1 124:1 81:1 152:1 169:1 13779:1 35485:1 
0.9496935779887369 12:1 106:1 40:1 138:1 81:1 165:1 171:1 15798:1 38063:1 
0.3279363043378357 12:1 109:1 53:1 137:1 56:1 141:1 170:1 20451:1 36324:1 
1 22:1 96:1 40:1 123:1 56:1 162:1 171:1 22296:1 33303:1 
0.2704746509531901 22:1 96:1 40:1 123:1 81:1 162:1 171:1 22296:1 36138:1 
1 25:1 109:1 31:1 135:1 67:1 162:1 169:1 7405:1 36118:1 
1 12:1 96:1 53:1 135:1 67:1 166:1 170:1 4968:1 34107:1 
0.6637605951190344 25:1 109:1 53:1 136:1 56:1 151:1 177:1 5829:1 31971:1 
0.2216601542247951 12:1 106:1 53:1 138:1 56:1 161:1 170:1 22338:1 30200:1 
0.08096400438697925 12:1 109:1 53:1 123:1 56:1 151:1 170:1 23460:1 38660:1 
0.2935248257497712 11:1 106:1 39:1 124:1 81:1 166:1 169:1 22148:1 37927:1 
0.07786125174058259 12:1 109:1 53:1 135:1 81:1 152:1 170:1 7435:1 29790:1 
0.09371721628999837 12:1 109:1 53:1 138:1 81:1 140:1 171:1 19410:1 28285:1 
0.1352067337404307 9:1 96:1 37:1 136:1 56:1 152:1 169:1 3121:1 42841:1 
1 12:1 109:1 52:1 136:1 81:1 152:1 171:1 13799:1 28375:1 
0.03109048907173193 12:1 109:1 53:1 116:1 80:1 165:1 176:1 19119:1 33316:1 
0.2147715938801985 12:1 109:1 53:1 138:1 81:1 144:1 169:1 10202:1 36044:1 
0.2984795911773611 13:1 109:1 49:1 137:1 81:1 152:1 172:1 11698:1 44633:1 
0.05881635929530197 12:1 109:1 53:1 120:1 68:1 164:1 170:1 14024:1 37591:1 
0.06526431483681366 12:1 109:1 53:1 124:1 81:1 166:1 170:1 10313:1 33727:1 
0.2856857269335074 12:1 109:1 53:1 137:1 81:1 166:1 172:1 15298:1 34041:1 
0.3518527274545605 25:1 109:1 53:1 124:1 81:1 166:1 170:1 6579:1 47425:1 
0.4476795184796233 25:1 109:1 53:1 138:1 56:1 152:1 176:1 17260:1 44345:1 
1 12:1 105:1 49:1 135:1 66:1 164:1 170:1 9157:1 46631:1 
0.1242923718909055 12:1 109:1 53:1 135:1 81:1 152:1 169:1 5063:1 44346:1 
1 25:1 96:1 53:1 136:1 68:1 152:1 169:1 18272:1 39213:1 
0.388239256676272 12:1 109:1 53:1 137:1 68:1 166:1 169:1 13819:1 39835:1 
0.02228035648874751 12:1 109:1 49:1 137:1 68:1 166:1 173:1 10337:1 39835:1 
0.09503051241488165 12:1 109:1 49:1 137:1 56:1 166:1 179:1 15043:1 39835:1 
0.003237355094050244 12:1 109:1 53:1 120:1 56:1 166:1 169:1 4643:1 28639:1 
0.02618809072506334 8:1 109:1 53:1 138:1 56:1 152:1 175:1 6206:1 30398:1 
0.749218332759636 8:1 92:1 37:1 138:1 68:1 152:1 170:1 15336:1 40060:1 
1 8:1 96:1 37:1 136:1 68:1 152:1 171:1 15331:1 34199:1 
0.6566824769039658 12:1 109:1 53:1 137:1 77:1 141:1 169:1 20721:1 45436:1 
0.1175851721287337 12:1 109:1 53:1 138:1 68:1 141:1 174:1 13378:1 28387:1 
0.2093663203089644 24:1 109:1 53:1 124:1 56:1 164:1 173:1 21393:1 41680:1 
0.1664439564765635 12:1 96:1 40:1 123:1 81:1 162:1 171:1 23350:1 43209:1 
0.6160233661179559 12:1 106:1 40:1 138:1 81:1 165:1 170:1 18480:1 40030:1 
0.4795334063797343 25:1 109:1 53:1 116:1 78:1 165:1 169:1 13995:1 41387:1 
0.2181589567556039 25:1 97:1 53:1 138:1 77:1 163:1 169:1 14330:1 43272:1 
1 12:1 96:1 40:1 113:1 81:1 152:1 170:1 6065:1 30801:1 
0.2239293248522742 14:1 108:1 42:1 137:1 74:1 165:1 169:1 1352:1 29435:1 
0.4963174582458804 25:1 109:1 49:1 124:1 81:1 166:1 169:1 8783:1 49391:1 
0.545916369526021 9:1 93:1 37:1 123:1 77:1 162:1 170:1 21527:1 26308:1 
1 9:1 106:1 37:1 137:1 77:1 165:1 170:1 1579:1 30604:1 
0.4081451537092639 25:1 109:1 49:1 113:1 60:1 152:1 169:1 8780:1 29135:1 
0.762721952337069 12:1 109:1 40:1 138:1 77:1 161:1 170:1 4859:1 32162:1 
0.08498620133055478 12:1 108:1 53:1 124:1 77:1 152:1 169:1 17597:1 29435:1 
0.2603657904948049 12:1 109:1 49:1 137:1 81:1 143:1 169:1 15327:1 40871:1 
0.3606873289038023 25:1 109:1 53:1 136:1 81:1 166:1 173:1 4640:1 36044:1 
0.540832924912781 12:1 109:1 40:1 137:1 77:1 151:1 169:1 23808:1 41479:1 
0.5194712853899995 12:1 109:1 40:1 136:1 81:1 142:1 170:1 7819:1 42082:1 
0.3277377604287668 25:1 108:1 53:1 114:1 81:1 152:1 169:1 17353:1 29435:1 
0.7916571682480657 17:1 100:1 40:1 138:1 80:1 156:1 169:1 20830:1 34621:1 
1 25:1 96:1 53:1 137:1 68:1 152:1 170:1 14457:1 30158:1 
0.1121140217670557 12:1 109:1 53:1 124:1 68:1 165:1 169:1 5429:1 31971:1 
0.09643884880595133 16:1 109:1 53:1 124:1 56:1 165:1 176:1 9892:1 31971:1 
0.2577332517232887 22:1 109:1 53:1 116:1 56:1 165:1 173:1 13635:1 40136:1 
0.06148305966088925 12:1 109:1 40:1 124:1 68:1 166:1 173:1 23264:1 27550:1 
1 12:1 109:1 40:1 137:1 81:1 144:1 169:1 19119:1 36517:1 
0.05433698277650137 11:1 109:1 49:1 129:1 71:1 155:1 169:1 1169:1 47542:1 
0.3039159617399167 13:1 109:1 49:1 127:1 74:1 165:1 170:1 15899:1 34849:1 
0.2212444671420961 15:1 109:1 53:1 133:1 71:1 151:1 169:1 1576:1 38627:1 
0.07705277075537227 15:1 109:1 53:1 133:1 56:1 151:1 177:1 13466:1 38627:1 
1 21:1 95:1 53:1 138:1 81:1 140:1 169:1 22563:1 29610:1 
0.1588685910972371 17:1 96:1 53:1 136:1 77:1 152:1 169:1 12929:1 29570:1 
1 12:1 108:1 49:1 124:1 81:1 166:1 170:1 20025:1 29435:1 
0.003251566863366654 12:1 109:1 53:1 137:1 66:1 149:1 175:1 21592:1 29448:1 
1 25:1 109:1 51:1 123:1 77:1 162:1 172:1 7762:1 30417:1 
1 25:1 96:1 53:1 137:1 79:1 152:1 169:1 7247:1 39338:1 
1 12:1 92:1 53:1 136:1 56:1 166:1 172:1 8519:1 35843:1 
1 24:1 109:1 36:1 124:1 81:1 166:1 174:1 4706:1 49415:1 
0.03335618905726807 25:1 109:1 49:1 123:1 56:1 151:1 183:1 18275:1 43624:1 
0.1887068230439243 12:1 109:1 53:1 136:1 56:1 152:1 169:1 7122:1 34309:1 
0.1853360035763703 24:1 96:1 53:1 138:1 81:1 141:1 174:1 12012:1 48269:1 
0.3614310391744107 12:1 109:1 53:1 136:1 81:1 152:1 172:1 23540:1 42645:1 
0.4382089335838555 25:1 109:1 53:1 124:1 81:1 163:1 170:1 9098:1 26563:1 
1 1:1 108:1 53:1 124:1 81:1 166:1 175:1 11194:1 29435:1 
0.3111928973489162 12:1 109:1 53:1 135:1 81:1 144:1 172:1 1509:1 41479:1 
0.3664497651178577 25:1 102:1 53:1 138:1 81:1 165:1 169:1 9210:1 41277:1 
0.5270343047219166 25:1 109:1 49:1 124:1 56:1 164:1 178:1 1903:1 31859:1 
0.4408689349407067 12:1 109:1 37:1 137:1 59:1 152:1 172:1 14484:1 47923:1 
0.0534331716912391 25:1 85:1 53:1 138:1 68:1 140:1 171:1 15099:1 39074:1 
0.2023246055248446 25:1 108:1 53:1 124:1 81:1 151:1 169:1 5854:1 29435:1 
0.7168842926515717 12:1 96:1 53:1 116:1 80:1 144:1 169:1 16945:1 33568:1 
0.2065396270178296 25:1 109:1 49:1 133:1 56:1 151:1 180:1 10019:1 41402:1 
0.3935430729776201 22:1 85:1 29:1 112:1 68:1 140:1 169:1 4948:1 32676:1 
0.131668403835332 12:1 109:1 53:1 124:1 81:1 166:1 173:1 12823:1 41479:1 
0.03523469370365234 25:1 109:1 53:1 138:1 68:1 140:1 169:1 2915:1 28808:1 
0.07981941759897211 12:1 109:1 53:1 138:1 68:1 140:1 171:1 14190:1 28808:1 
0.4152692524449264 25:1 109:1 49:1 124:1 68:1 152:1 169:1 7236:1 42646:1 
0.1792083484751229 12:1 109:1 49:1 124:1 77:1 152:1 169:1 24271:1 36313:1 
0.02291122143884615 12:1 109:1 40:1 124:1 68:1 152:1 170:1 5891:1 39502:1 
0.04587792423200875 25:1 109:1 53:1 138:1 56:1 165:1 174:1 4624:1 44457:1 
0.3300861742706076 25:1 109:1 53:1 116:1 56:1 165:1 170:1 19728:1 42699:1 
0.03789774470925878 25:1 108:1 53:1 124:1 81:1 166:1 169:1 16972:1 29435:1 
1 1:1 96:1 53:1 115:1 56:1 165:1 172:1 24525:1 34827:1 
1 12:1 108:1 53:1 138:1 56:1 165:1 171:1 10098:1 29435:1 
0.1153579934150621 12:1 96:1 40:1 138:1 81:1 143:1 170:1 15391:1 43848:1 
1 12:1 96:1 49:1 124:1 59:1 152:1 169:1 9624:1 29570:1 
1 17:1 96:1 40:1 124:1 64:1 152:1 172:1 17480:1 29570:1 
0.1356903312440347 12:1 109:1 40:1 113:1 64:1 152:1 172:1 4841:1 28821:1 
1 12:1 109:1 31:1 113:1 59:1 152:1 183:1 22337:1 28821:1 
0.004329323631784956 24:1 96:1 53:1 115:1 56:1 152:1 172:1 12012:1 48421:1 
0.04459278837740076 15:1 109:1 43:1 138:1 81:1 154:1 173:1 7710:1 32156:1 
0.819657661107091 12:1 109:1 40:1 116:1 81:1 165:1 169:1 24463:1 28866:1 
1 12:1 109:1 40:1 124:1 81:1 152:1 172:1 21592:1 34052:1 
1 17:1 97:1 53:1 123:1 81:1 162:1 169:1 23636:1 33004:1 
1 25:1 109:1 40:1 138:1 68:1 141:1 169:1 5958:1 27085:1 
0.1943353201218372 1:1 96:1 53:1 138:1 56:1 143:1 172:1 7947:1 31788:1 
1 12:1 109:1 53:1 116:1 56:1 165:1 171:1 7059:1 45874:1 
0.002427005271294432 12:1 109:1 49:1 137:1 74:1 166:1 169:1 9953:1 31840:1 
1 9:1 97:1 37:1 124:1 81:1 165:1 170:1 23605:1 44171:1 
0.8636475061958809 13:1 96:1 37:1 137:1 81:1 165:1 169:1 19442:1 29570:1 
0.5709639308391969 13:1 85:1 49:1 138:1 57:1 152:1 174:1 21552:1 30212:1 
1 13:1 96:1 41:1 113:1 77:1 166:1 169:1 23613:1 29570:1 
0.1920785045653252 12:1 85:1 49:1 138:1 68:1 152:1 169:1 4841:1 37501:1 
0.1517652223551968 12:1 109:1 53:1 133:1 56:1 152:1 170:1 22806:1 33844:1 
0.3370792543753233 12:1 109:1 53:1 124:1 81:1 166:1 172:1 4619:1 43624:1 
0.08126595881739057 12:1 109:1 53:1 124:1 81:1 166:1 170:1 2345:1 28884:1 
0.9647529433097476 12:1 96:1 40:1 124:1 81:1 166:1 170:1 20456:1 42361:1 
0.1397813066509392 12:1 109:1 53:1 137:1 81:1 152:1 171:1 10005:1 48057:1 
0.4394224186522345 11:1 106:1 39:1 114:1 68:1 152:1 169:1 22148:1 42394:1 
0.21382447919029 12:1 109:1 40:1 133:1 68:1 152:1 170:1 3269:1 28510:1 
0.02615307161320388 12:1 109:1 53:1 133:1 56:1 152:1 178:1 3085:1 28510:1 
0.5868928554100642 11:1 106:1 39:1 121:1 68:1 164:1 169:1 5483:1 42348:1 
0.190768881623573 12:1 109:1 53:1 124:1 56:1 153:1 172:1 2212:1 47292:1 
0.01020171364700945 13:1 109:1 53:1 113:1 81:1 152:1 171:1 21549:1 41479:1 
0.1686063551318844 12:1 106:1 53:1 138:1 81:1 166:1 173:1 4574:1 42285:1 
0.03671109376138912 12:1 109:1 53:1 138:1 81:1 140:1 170:1 8728:1 38129:1 
0.1506310370567522 25:1 96:1 53:1 138:1 68:1 140:1 171:1 1470:1 31771:1 
0.1126328873953514 24:1 96:1 42:1 137:1 56:1 165:1 169:1 4730:1 36883:1 
0.2366827298082924 14:1 109:1 42:1 136:1 56:1 158:1 170:1 12639:1 48678:1 
1 12:1 106:1 53:1 136:1 81:1 162:1 170:1 9545:1 38364:1 
0.1129562335003894 22:1 108:1 53:1 134:1 81:1 152:1 169:1 13635:1 29435:1 
0.567615265184472 25:1 109:1 53:1 123:1 78:1 162:1 169:1 16951:1 33493:1 
0.08107880606411608 12:1 109:1 53:1 130:1 68:1 164:1 169:1 18379:1 27747:1 
0.2232276569547877 19:1 109:1 53:1 137:1 81:1 166:1 172:1 15333:1 31187:1 
0.1926032408371989 12:1 109:1 53:1 124:1 81:1 152:1 169:1 7167:1 33322:1 
0.8401028982408288 9:1 96:1 53:1 136:1 81:1 141:1 170:1 17685:1 47209:1 
0.1648880429991088 12:1 109:1 49:1 137:1 60:1 165:1 170:1 9953:1 35621:1 
0.2029247837622893 12:1 109:1 49:1 137:1 56:1 165:1 181:1 10650:1 35621:1 
0.7182463289249148 12:1 109:1 40:1 126:1 81:1 165:1 171:1 24050:1 39713:1 
0.5441671622241816 25:1 109:1 49:1 136:1 56:1 158:1 174:1 18275:1 28571:1 
0.9094758282884097 13:1 109:1 40:1 137:1 81:1 166:1 173:1 23358:1 38811:1 
0.06757533429058238 11:1 109:1 53:1 137:1 56:1 151:1 171:1 448:1 33934:1 
0.4766226997213843 25:1 96:1 53:1 138:1 81:1 143:1 177:1 15535:1 46590:1 
0.1440227581529627 12:1 109:1 53:1 123:1 81:1 152:1 175:1 21861:1 28841:1 
1 12:1 85:1 49:1 136:1 60:1 151:1 169:1 9234:1 37501:1 
0.6954780189800374 12:1 85:1 53:1 136:1 67:1 151:1 185:1 10053:1 37501:1 
1 24:1 106:1 29:1 123:1 81:1 166:1 170:1 12012:1 37820:1 
0.2568364701171048 22:1 106:1 53:1 138:1 81:1 140:1 172:1 14214:1 38943:1 
0.2033131864015491 1:1 108:1 53:1 123:1 56:1 162:1 169:1 7947:1 36741:1 
1 25:1 85:1 53:1 137:1 56:1 164:1 170:1 20544:1 45140:1 
0.4309563663461802 25:1 108:1 29:1 124:1 56:1 150:1 169:1 14467:1 29435:1 
0.1758316444340887 10:1 109:1 40:1 116:1 56:1 141:1 173:1 12950:1 49243:1 
0.1832259995615995 17:1 109:1 53:1 137:1 78:1 148:1 169:1 3141:1 32115:1 
0.1868815553495041 12:1 109:1 53:1 137:1 81:1 141:1 173:1 3525:1 36744:1 
1 25:1 96:1 53:1 136:1 81:1 166:1 171:1 4624:1 39706:1 
0.5764081558102498 12:1 108:1 53:1 138:1 81:1 140:1 169:1 14977:1 29435:1 
0.01180204826989887 12:1 109:1 53:1 126:1 56:1 166:1 172:1 5262:1 41479:1 
0.242595129686621 25:1 109:1 49:1 133:1 68:1 152:1 170:1 19418:1 48731:1 
1 12:1 108:1 53:1 124:1 69:1 152:1 172:1 16724:1 29435:1 
0.8949762020375044 13:1 109:1 53:1 137:1 81:1 165:1 169:1 23605:1 39835:1 
0.01066557054005134 12:1 108:1 49:1 113:1 73:1 152:1 169:1 15320:1 29435:1 
0.01179668664795714 1:1 109:1 53:1 113:1 56:1 164:1 171:1 14178:1 46757:1 
0.1518385039830751 23:1 92:1 49:1 138:1 68:1 165:1 169:1 3946:1 40876:1 
0.2610497543535708 25:1 109:1 53:1 137:1 56:1 166:1 170:1 21796:1 37520:1 
1 22:1 96:1 29:1 136:1 67:1 165:1 169:1 13198:1 48105:1 
0.132154070962085 25:1 109:1 53:1 135:1 56:1 141:1 175:1 20158:1 33136:1 
0.03990576974162883 12:1 109:1 53:1 135:1 56:1 141:1 169:1 16560:1 38717:1 
0.2577579036716788 12:1 109:1 40:1 123:1 74:1 165:1 169:1 18252:1 49227:1 
0.290427371382193 12:1 109:1 53:1 138:1 81:1 140:1 170:1 19113:1 27350:1 
0.01978760905857657 25:1 109:1 53:1 138:1 81:1 165:1 170:1 11398:1 45132:1 
0.2518724435597572 24:1 108:1 53:1 138:1 81:1 164:1 169:1 4684:1 49491:1 
1 24:1 108:1 53:1 124:1 81:1 166:1 170:1 24762:1 48086:1 
0.141174740811673 25:1 108:1 53:1 124:1 56:1 166:1 169:1 15106:1 36741:1 
0.001814525825740969 12:1 109:1 53:1 137:1 81:1 164:1 170:1 13823:1 49227:1 
0.3379206040372265 23:1 109:1 53:1 137:1 68:1 164:1 169:1 17637:1 45631:1 
0.530464555765099 25:1 108:1 53:1 124:1 81:1 166:1 169:1 1430:1 48086:1 
0.4714098526459113 12:1 97:1 49:1 137:1 68:1 166:1 169:1 14059:1 33004:1 
0.5176877962255758 8:1 92:1 36:1 138:1 56:1 143:1 174:1 14848:1 34188:1 
0.6215611825560647 8:1 109:1 36:1 137:1 56:1 148:1 172:1 9459:1 29128:1 
0.06409897607818932 12:1 96:1 40:1 138:1 81:1 140:1 173:1 5433:1 30971:1 
0.4425320222564136 12:1 109:1 53:1 133:1 81:1 157:1 169:1 10260:1 30432:1 
0.0005068071954026554 12:1 108:1 49:1 124:1 81:1 143:1 169:1 16067:1 29435:1 
1 25:1 96:1 32:1 136:1 68:1 152:1 171:1 16750:1 44505:1 
0.06648303845699799 12:1 109:1 53:1 124:1 56:1 157:1 169:1 10672:1 26833:1 
0.8987082978774614 12:1 97:1 49:1 137:1 81:1 148:1 169:1 7879:1 48092:1 
0.2035571153173505 13:1 109:1 53:1 120:1 68:1 164:1 169:1 23363:1 39985:1 
0.07058915026819383 12:1 109:1 53:1 138:1 81:1 140:1 170:1 22533:1 47152:1 
0.03231796448967628 12:1 109:1 49:1 124:1 68:1 151:1 171:1 18954:1 35348:1 
0.3509823179454618 22:1 96:1 40:1 123:1 81:1 162:1 170:1 5471:1 34107:1 
0.3839693093381525 25:1 109:1 53:1 115:1 68:1 165:1 175:1 18895:1 45654:1 
1 21:1 96:1 53:1 136:1 81:1 165:1 169:1 22131:1 29564:1 
0.1071294729984837 25:1 108:1 53:1 124:1 77:1 152:1 169:1 22568:1 29435:1 
0.1959066019260379 12:1 96:1 40:1 115:1 81:1 152:1 172:1 16095:1 40824:1 
0.2733004025189481 12:1 97:1 49:1 137:1 59:1 152:1 169:1 6630:1 40628:1 
0.9357960450164128 12:1 109:1 40:1 124:1 81:1 152:1 170:1 6900:1 41567:1 
0.3356264480846282 12:1 109:1 53:1 124:1 77:1 166:1 171:1 20570:1 34241:1 
0.4105763752804854 12:1 109:1 40:1 138:1 81:1 144:1 174:1 22340:1 32198:1 
0.3529170623789162 12:1 109:1 53:1 124:1 81:1 166:1 171:1 12155:1 46757:1 
0.003887348403145085 12:1 108:1 53:1 124:1 77:1 166:1 169:1 2745:1 29435:1 
0.161473203869918 12:1 109:1 49:1 136:1 64:1 163:1 172:1 16554:1 42641:1 
0.1498651726895906 12:1 109:1 53:1 136:1 56:1 141:1 174:1 11579:1 49395:1 
0.1059824574581761 12:1 108:1 36:1 124:1 81:1 166:1 169:1 4355:1 29435:1 
0.07323558839844502 12:1 109:1 53:1 137:1 56:1 163:1 174:1 20455:1 45404:1 
0.1312043909980033 17:1 109:1 53:1 129:1 81:1 165:1 170:1 18714:1 35631:1 
0.02411760072693265 25:1 109:1 53:1 124:1 68:1 166:1 171:1 10308:1 44687:1 
0.1418051648692447 25:1 97:1 53:1 138:1 56:1 157:1 169:1 10764:1 46268:1 
0.2127826030657413 9:1 109:1 53:1 125:1 56:1 165:1 171:1 2044:1 39830:1 
0.06528259979416956 12:1 109:1 53:1 138:1 68:1 144:1 171:1 11787:1 48590:1 
0.2489091341447558 12:1 109:1 37:1 123:1 69:1 162:1 170:1 16908:1 34877:1 
0.3110105162438366 12:1 109:1 53:1 124:1 81:1 152:1 175:1 19119:1 37591:1 
0.1269191015069525 23:1 109:1 49:1 138:1 56:1 152:1 170:1 3946:1 28114:1 
0.61419236615941 12:1 109:1 40:1 125:1 81:1 166:1 169:1 7042:1 43355:1 
0.5757055418123482 25:1 97:1 40:1 138:1 81:1 163:1 169:1 18626:1 33004:1 
0.2065483527932364 12:1 96:1 40:1 116:1 69:1 144:1 170:1 22480:1 43848:1 
0.8433400776100883 12:1 109:1 40:1 123:1 81:1 141:1 172:1 22449:1 41569:1 
0.2382392080117596 25:1 109:1 49:1 130:1 56:1 161:1 171:1 1957:1 41479:1 
0.05759500311654595 1:1 109:1 49:1 137:1 68:1 152:1 169:1 6725:1 49405:1 
0.05462086257223366 12:1 109:1 53:1 124:1 81:1 144:1 170:1 13368:1 34261:1 
0.09849902845946597 12:1 109:1 53:1 138:1 81:1 140:1 170:1 21076:1 28861:1 
0.2432856662076022 25:1 109:1 53:1 123:1 60:1 141:1 174:1 11072:1 33136:1 
0.2056969206796213 24:1 95:1 53:1 138:1 56:1 165:1 169:1 12012:1 46111:1 
0.2100868786417662 11:1 109:1 53:1 133:1 56:1 151:1 170:1 21382:1 28860:1 
0.1968010923926096 12:1 109:1 49:1 137:1 81:1 163:1 169:1 9374:1 37458:1 
0.4228334268041897 25:1 92:1 53:1 138:1 81:1 163:1 170:1 10314:1 46570:1 
0.001187545832618844 12:1 108:1 53:1 124:1 56:1 143:1 169:1 20547:1 29435:1 
0.1932198269675665 12:1 109:1 53:1 124:1 81:1 165:1 169:1 8837:1 37583:1 
0.4118462388241704 25:1 109:1 53:1 124:1 81:1 165:1 172:1 6596:1 37583:1 
1 22:1 85:1 29:1 134:1 81:1 166:1 171:1 20124:1 40727:1 
0.1356789567860692 1:1 109:1 49:1 113:1 56:1 164:1 172:1 22075:1 30879:1 
0.04483271815956637 12:1 109:1 53:1 137:1 56:1 166:1 169:1 15297:1 39835:1 
1 24:1 96:1 53:1 136:1 81:1 152:1 169:1 12012:1 35779:1 
0.1643766547060707 12:1 108:1 53:1 124:1 81:1 165:1 169:1 11050:1 29435:1 
0.2546895256578839 12:1 109:1 53:1 116:1 81:1 165:1 170:1 17515:1 31670:1 
0.1826212498650906 12:1 109:1 53:1 123:1 81:1 162:1 171:1 4812:1 28889:1 
0.1378433605920564 12:1 97:1 53:1 116:1 68:1 165:1 169:1 19882:1 33004:1 
0.0482010172494484 9:1 96:1 37:1 137:1 56:1 153:1 169:1 12890:1 41637:1 
0.02005086967830619 9:1 109:1 37:1 116:1 81:1 165:1 169:1 12890:1 35373:1 
1 25:1 96:1 53:1 124:1 56:1 152:1 170:1 8724:1 47908:1 
0.1272307497265912 12:1 109:1 53:1 137:1 56:1 166:1 170:1 19557:1 44881:1 
1 25:1 96:1 53:1 124:1 81:1 165:1 170:1 8724:1 47908:1 
0.238558583951672 12:1 109:1 53:1 136:1 56:1 152:1 170:1 24907:1 26524:1 
0.9620118730131423 1:1 108:1 28:1 137:1 60:1 164:1 169:1 3575:1 29540:1 
0.3512842410423104 24:1 102:1 53:1 138:1 68:1 140:1 169:1 12012:1 46031:1 
1 12:1 85:1 49:1 133:1 77:1 165:1 169:1 11260:1 38037:1 
0.7648716894033403 1:1 105:1 49:1 137:1 68:1 144:1 169:1 13308:1 29353:1 
0.2866287058269666 12:1 109:1 53:1 137:1 56:1 165:1 170:1 20371:1 34041:1 
1 25:1 109:1 53:1 130:1 81:1 152:1 169:1 6567:1 34309:1 
0.05692116658453594 12:1 109:1 53:1 135:1 68:1 141:1 175:1 18074:1 46606:1 
0.2678503031417111 23:1 109:1 49:1 115:1 81:1 165:1 170:1 23063:1 40133:1 
0.6269697212189629 25:1 96:1 53:1 138:1 81:1 152:1 171:1 11577:1 48196:1 
0.3533915912141954 25:1 96:1 53:1 138:1 56:1 158:1 170:1 4624:1 40026:1 
0.02401585989999394 25:1 109:1 49:1 123:1 56:1 162:1 171:1 18275:1 43045:1 
0.08978358566154446 22:1 109:1 53:1 124:1 56:1 152:1 170:1 22296:1 45028:1 
0.9153760627703015 12:1 96:1 40:1 116:1 81:1 141:1 170:1 4485:1 41478:1 
1 12:1 85:1 40:1 116:1 57:1 141:1 169:1 4485:1 35996:1 
0.7279994388894669 13:1 109:1 40:1 136:1 68:1 148:1 170:1 11698:1 48899:1 
0.8840533138849714 12:1 96:1 53:1 138:1 64:1 165:1 170:1 17012:1 37973:1 
0.09315238806744422 8:1 108:1 29:1 113:1 81:1 152:1 169:1 20003:1 29435:1 
0.2027707632933869 17:1 108:1 45:1 124:1 56:1 166:1 169:1 17706:1 29435:1 
1 21:1 96:1 53:1 138:1 56:1 152:1 169:1 22131:1 40523:1 
0.3551154632444875 12:1 96:1 40:1 120:1 81:1 166:1 170:1 12058:1 37144:1 
0.5328864039633463 8:1 109:1 40:1 121:1 68:1 166:1 170:1 24429:1 28770:1 
0.3459715340270689 9:1 96:1 37:1 113:1 81:1 165:1 170:1 13389:1 27794:1 
1 25:1 96:1 53:1 123:1 78:1 162:1 170:1 20642:1 31719:1 
0.2293273737212075 22:1 109:1 53:1 114:1 56:1 152:1 170:1 5471:1 34298:1 
0.103059617888418 25:1 109:1 49:1 123:1 56:1 162:1 180:1 18275:1 28386:1 
0.5041689653674897 22:1 109:1 53:1 124:1 56:1 152:1 170:1 15301:1 29987:1 
0.7574937920656691 12:1 106:1 53:1 112:1 81:1 140:1 170:1 16061:1 48580:1 
1 25:1 97:1 53:1 124:1 59:1 152:1 169:1 10764:1 46268:1 
0.7780159044728195 11:1 109:1 40:1 116:1 68:1 141:1 170:1 5514:1 46757:1 
0.1204049720004639 12:1 109:1 49:1 137:1 81:1 151:1 169:1 7042:1 37980:1 
0.195125150864589 25:1 109:1 53:1 137:1 56:1 151:1 175:1 6325:1 37980:1 
0.1598281977908174 12:1 108:1 40:1 124:1 81:1 166:1 169:1 20087:1 29435:1 
0.1394328219222499 14:1 108:1 42:1 137:1 56:1 165:1 169:1 11605:1 29459:1 
0.003628325743129253 24:1 109:1 42:1 136:1 56:1 152:1 170:1 4730:1 28435:1 
0.1141457289577923 12:1 108:1 40:1 124:1 81:1 166:1 169:1 24577:1 29435:1 
0.1066887788924346 17:1 108:1 53:1 138:1 81:1 149:1 169:1 23636:1 29435:1 
0.9567469359467948 9:1 108:1 37:1 113:1 80:1 152:1 170:1 15874:1 29435:1 
1 24:1 109:1 53:1 124:1 56:1 166:1 170:1 12012:1 29379:1 
0.1336076498895636 12:1 109:1 53:1 138:1 81:1 143:1 173:1 17997:1 34576:1 
0.09536343792708002 25:1 96:1 53:1 138:1 81:1 166:1 173:1 9847:1 38295:1 
0.0745744134976661 12:1 109:1 53:1 124:1 68:1 165:1 171:1 21445:1 26569:1 
0.1837319550017142 14:1 109:1 42:1 124:1 74:1 166:1 172:1 7850:1 36048:1 
0.2228305591366837 9:1 96:1 37:1 137:1 81:1 144:1 170:1 23605:1 32368:1 
0.1573068605172196 12:1 109:1 53:1 116:1 81:1 165:1 172:1 7424:1 44249:1 
1 17:1 96:1 49:1 138:1 81:1 140:1 174:1 23636:1 32822:1 
0.5029654111969516 19:1 96:1 53:1 116:1 59:1 165:1 169:1 17652:1 36565:1 
1 1:1 96:1 39:1 129:1 65:1 153:1 169:1 4175:1 28137:1 
0.5622469506803879 17:1 97:1 40:1 137:1 77:1 166:1 169:1 2715:1 31246:1 
0.4185168285824408 13:1 109:1 49:1 136:1 77:1 165:1 174:1 14371:1 47326:1 
1 16:1 105:1 49:1 128:1 60:1 166:1 169:1 10173:1 44666:1 
1 12:1 96:1 44:1 137:1 77:1 166:1 170:1 4841:1 38517:1 
0.07382307835079825 17:1 109:1 49:1 124:1 71:1 149:1 169:1 2031:1 47761:1 
1 12:1 96:1 37:1 124:1 81:1 166:1 170:1 2842:1 31771:1 
0.3922373010208551 12:1 109:1 49:1 124:1 81:1 152:1 173:1 5887:1 41355:1 
0.7547962644823616 25:1 109:1 53:1 124:1 81:1 152:1 170:1 9954:1 31532:1 
0.6873215565195434 25:1 109:1 53:1 124:1 81:1 152:1 170:1 7569:1 32293:1 
0.9953551839218157 12:1 109:1 40:1 124:1 81:1 151:1 169:1 15050:1 30432:1 
0.02088447973894862 17:1 109:1 49:1 124:1 80:1 164:1 169:1 16930:1 43624:1 
0.3895981789237056 25:1 109:1 49:1 133:1 81:1 152:1 170:1 19957:1 41479:1 
0.01521003647802043 12:1 108:1 49:1 124:1 81:1 166:1 169:1 16076:1 29435:1 
1 25:1 96:1 53:1 115:1 77:1 161:1 170:1 19984:1 33886:1 
1 12:1 105:1 53:1 116:1 77:1 165:1 170:1 9157:1 47292:1 
0.7681367599158236 13:1 109:1 53:1 137:1 77:1 164:1 169:1 15899:1 30432:1 
0.3476906717564734 23:1 108:1 51:1 123:1 56:1 152:1 169:1 24335:1 29435:1 
0.1788874040405725 25:1 109:1 53:1 124:1 56:1 166:1 175:1 5042:1 33854:1 
1 17:1 101:1 45:1 113:1 81:1 164:1 170:1 4205:1 45563:1 
0.3736900440958195 17:1 96:1 45:1 138:1 81:1 143:1 172:1 20834:1 49006:1 
1 24:1 96:1 53:1 137:1 56:1 152:1 171:1 12012:1 39601:1 
0.377018474030137 12:1 109:1 53:1 134:1 81:1 144:1 174:1 11070:1 35564:1 
1 22:1 88:1 53:1 138:1 81:1 140:1 169:1 6896:1 35141:1 
1 1:1 108:1 53:1 124:1 79:1 166:1 172:1 4698:1 29435:1 
0.4082570539005339 12:1 109:1 53:1 137:1 57:1 152:1 169:1 2712:1 31018:1 
0.01202992816353385 17:1 109:1 53:1 136:1 56:1 141:1 173:1 16540:1 29135:1 
0.2325563377803142 12:1 109:1 53:1 136:1 81:1 163:1 172:1 6255:1 35511:1 
0.7349580519476249 22:1 108:1 50:1 137:1 80:1 166:1 169:1 10026:1 29540:1 
0.8461689692884005 12:1 109:1 40:1 123:1 81:1 162:1 169:1 11355:1 35474:1 
1 12:1 96:1 40:1 126:1 56:1 165:1 171:1 23985:1 48714:1 
0.6814611600199494 12:1 98:1 40:1 137:1 56:1 143:1 169:1 23985:1 34373:1 
0.8581796811213379 12:1 109:1 40:1 136:1 81:1 141:1 176:1 20902:1 49395:1 
0.4310093290012376 12:1 98:1 40:1 133:1 56:1 158:1 169:1 17026:1 43729:1 
0.08466573133543467 12:1 109:1 53:1 124:1 81:1 152:1 173:1 10260:1 34052:1 
0.01497980196338714 12:1 109:1 53:1 124:1 81:1 166:1 170:1 16773:1 26830:1 
0.171792510651146 17:1 108:1 53:1 123:1 81:1 141:1 169:1 12900:1 29435:1 
0.06238835148514078 12:1 109:1 53:1 124:1 81:1 166:1 173:1 4231:1 31052:1 
0.05986565954097889 22:1 109:1 53:1 138:1 81:1 140:1 180:1 14214:1 47415:1 
0.3158820693615453 12:1 109:1 53:1 136:1 81:1 141:1 171:1 8839:1 42641:1 
1 25:1 96:1 53:1 136:1 81:1 151:1 173:1 12613:1 40120:1 
0.4227941430327859 12:1 109:1 53:1 137:1 81:1 149:1 170:1 7042:1 32153:1 
0.2067495206886167 12:1 108:1 40:1 137:1 81:1 165:1 169:1 2765:1 29435:1 
0.321374419090634 25:1 109:1 53:1 137:1 81:1 166:1 180:1 4624:1 32237:1 
1 12:1 96:1 53:1 124:1 81:1 164:1 169:1 17868:1 40805:1 
0.7128995460787282 12:1 96:1 53:1 136:1 81:1 152:1 169:1 16076:1 41463:1 
0.2143874761853387 18:1 109:1 53:1 138:1 68:1 158:1 171:1 8648:1 47806:1 
1 24:1 96:1 53:1 124:1 56:1 166:1 172:1 12012:1 48377:1 
0.04564563198225557 12:1 109:1 53:1 137:1 81:1 157:1 170:1 11845:1 41479:1 
0.007799311051276178 13:1 109:1 49:1 123:1 81:1 162:1 170:1 23605:1 46757:1 
0.4464425598391282 22:1 109:1 53:1 138:1 81:1 141:1 169:1 17619:1 47479:1 
0.2629916050454388 12:1 109:1 53:1 136:1 68:1 152:1 172:1 20445:1 28770:1 
0.09481212309670034 12:1 109:1 53:1 113:1 81:1 164:1 170:1 8575:1 49395:1 
0.6260179617722098 9:1 100:1 37:1 136:1 81:1 157:1 169:1 13056:1 26986:1 
0.3771176570856327 16:1 108:1 53:1 129:1 81:1 157:1 169:1 2257:1 29435:1 
0.008803116566214376 13:1 109:1 49:1 114:1 81:1 152:1 169:1 14616:1 34298:1 
0.00767741826618488 12:1 109:1 53:1 114:1 56:1 152:1 176:1 16108:1 34298:1 
0.3693057326287888 25:1 109:1 53:1 124:1 56:1 143:1 173:1 23454:1 38629:1 
0.07388272762368969 12:1 109:1 53:1 116:1 56:1 165:1 170:1 7350:1 34873:1 
0.3376797838482605 25:1 108:1 40:1 124:1 81:1 166:1 169:1 18938:1 29435:1 
0.08349789958361449 12:1 109:1 53:1 136:1 81:1 152:1 170:1 12788:1 42645:1 
0.1316050924862101 25:1 108:1 53:1 137:1 56:1 140:1 169:1 21599:1 29435:1 
0.1992976485098493 12:1 96:1 40:1 116:1 81:1 144:1 169:1 7137:1 34467:1 
0.1099868040636005 12:1 109:1 49:1 124:1 56:1 165:1 176:1 4968:1 36904:1 
0.145697044102919 12:1 108:1 53:1 125:1 81:1 151:1 169:1 8032:1 29435:1 
1 12:1 108:1 53:1 124:1 77:1 144:1 170:1 8970:1 29435:1 
0.2331308042194778 12:1 108:1 40:1 124:1 81:1 166:1 169:1 10400:1 29435:1 
0.01499651498483616 12:1 108:1 53:1 129:1 77:1 152:1 169:1 11266:1 29435:1 
0.4718329064354766 13:1 108:1 49:1 123:1 70:1 162:1 169:1 8275:1 29435:1 
0.7497075879717011 24:1 109:1 53:1 114:1 57:1 152:1 170:1 4706:1 26569:1 
1 12:1 85:1 53:1 137:1 57:1 166:1 170:1 4841:1 31228:1 
0.1503536031058251 1:1 109:1 53:1 113:1 81:1 166:1 169:1 4175:1 39763:1 
0.1122739273520405 13:1 109:1 49:1 135:1 81:1 152:1 169:1 15899:1 39429:1 
1 25:1 96:1 53:1 136:1 68:1 144:1 171:1 2360:1 39007:1 
0.07807706226162535 12:1 96:1 40:1 138:1 56:1 144:1 175:1 2965:1 40102:1 
0.1414629613186298 12:1 109:1 40:1 114:1 56:1 151:1 171:1 15373:1 41479:1 
1 12:1 88:1 53:1 135:1 56:1 151:1 174:1 15297:1 49200:1 
0.01480561064687563 12:1 109:1 53:1 135:1 68:1 151:1 171:1 15328:1 44924:1 
0.0927859819587596 12:1 109:1 53:1 135:1 56:1 151:1 176:1 6835:1 44924:1 
0.4459174103562488 14:1 109:1 40:1 124:1 59:1 152:1 170:1 22720:1 34260:1 
0.7949471923964682 9:1 92:1 37:1 136:1 77:1 152:1 169:1 12890:1 30315:1 
1 13:1 96:1 49:1 138:1 70:1 158:1 176:1 23605:1 31791:1 
0.9581562160536408 25:1 96:1 53:1 138:1 77:1 158:1 180:1 9238:1 31791:1 
1 25:1 109:1 53:1 136:1 56:1 152:1 171:1 2527:1 47230:1 
0.1546001156675284 12:1 96:1 40:1 138:1 81:1 140:1 172:1 20409:1 27646:1 
0.01481781716327599 12:1 109:1 53:1 135:1 81:1 163:1 172:1 19119:1 41387:1 
0.0002185711911604883 12:1 109:1 49:1 137:1 81:1 144:1 169:1 20266:1 34748:1 
0.7441672757938744 12:1 109:1 31:1 136:1 59:1 152:1 169:1 13248:1 27257:1 
0.2505481164247639 25:1 109:1 53:1 137:1 73:1 152:1 173:1 24670:1 34676:1 
0.08451115861952328 25:1 85:1 53:1 138:1 56:1 140:1 171:1 14072:1 32615:1 
1 12:1 96:1 53:1 116:1 56:1 165:1 169:1 23968:1 34101:1 
0.03189698470520863 22:1 109:1 53:1 123:1 56:1 152:1 170:1 13635:1 28223:1 
0.3296482382575701 25:1 108:1 53:1 124:1 56:1 164:1 169:1 15899:1 36741:1 
0.2862396641340794 22:1 85:1 53:1 138:1 59:1 140:1 169:1 4948:1 31190:1 
1 16:1 100:1 44:1 138:1 77:1 156:1 170:1 14503:1 26352:1 
1 16:1 100:1 44:1 136:1 77:1 144:1 170:1 1623:1 31323:1 
0.5144369074723705 16:1 108:1 44:1 116:1 77:1 141:1 169:1 6594:1 29459:1 
0.1932935992307754 24:1 96:1 44:1 138:1 77:1 140:1 171:1 4730:1 28480:1 
0.02716943692691444 12:1 109:1 53:1 128:1 77:1 164:1 169:1 23376:1 30100:1 
0.07544742060313568 12:1 108:1 53:1 137:1 56:1 152:1 169:1 4963:1 29435:1 
0.1482446411882253 14:1 98:1 42:1 138:1 81:1 154:1 174:1 23297:1 42214:1 
0.3188792523917982 12:1 109:1 40:1 113:1 56:1 161:1 171:1 5918:1 48773:1 
0.08126654506304867 12:1 109:1 53:1 137:1 81:1 152:1 172:1 6567:1 43183:1 
0.04628862212772201 22:1 92:1 53:1 138:1 81:1 140:1 172:1 12927:1 31813:1 
1 12:1 93:1 53:1 115:1 68:1 165:1 169:1 20053:1 48881:1 
0.229269412907196 25:1 109:1 53:1 124:1 81:1 166:1 171:1 22957:1 41651:1 
0.3344805975960445 12:1 109:1 53:1 124:1 56:1 165:1 169:1 7150:1 48793:1 
1 1:1 108:1 29:1 124:1 68:1 152:1 170:1 5483:1 29435:1 
0.05261867384109618 25:1 109:1 49:1 123:1 70:1 162:1 175:1 1957:1 29664:1 
0.1132211531851577 12:1 109:1 53:1 129:1 56:1 165:1 170:1 23017:1 35608:1 
0.9001445355075158 12:1 96:1 53:1 137:1 73:1 157:1 169:1 7829:1 35405:1 
1 25:1 96:1 53:1 115:1 81:1 152:1 173:1 19904:1 44264:1 
1 12:1 96:1 53:1 138:1 81:1 165:1 171:1 19535:1 39833:1 
1 12:1 105:1 49:1 138:1 80:1 152:1 170:1 3811:1 44666:1 
0.7858731650334374 12:1 96:1 53:1 138:1 81:1 140:1 171:1 15297:1 28070:1 
0.560848795233207 12:1 96:1 40:1 136:1 56:1 152:1 172:1 3810:1 31680:1 
0.2970863808293623 12:1 109:1 40:1 137:1 56:1 152:1 172:1 7651:1 40133:1 
0.3589153129053716 24:1 109:1 53:1 123:1 56:1 152:1 173:1 12012:1 34873:1 
0.1957262310175014 12:1 109:1 53:1 124:1 81:1 166:1 176:1 9897:1 48871:1 
0.2239762626658869 25:1 109:1 53:1 116:1 77:1 148:1 171:1 20975:1 34311:1 
0.06362399038960473 12:1 109:1 53:1 124:1 81:1 164:1 172:1 17968:1 41479:1 
0.5173279428494647 25:1 96:1 53:1 138:1 77:1 165:1 171:1 10267:1 37991:1 
0.355104900055058 8:1 109:1 53:1 116:1 81:1 165:1 171:1 5708:1 41479:1 
0.1073044267766508 1:1 109:1 53:1 136:1 56:1 144:1 170:1 22613:1 30432:1 
0.1773800371450616 1:1 85:1 29:1 136:1 81:1 152:1 170:1 7169:1 31869:1 
0.04240374267215304 12:1 109:1 53:1 138:1 68:1 161:1 170:1 18366:1 48791:1 
0.003639476510161636 25:1 108:1 53:1 124:1 81:1 152:1 169:1 3413:1 36741:1 
1 12:1 92:1 53:1 136:1 78:1 141:1 169:1 12066:1 43241:1 
0.002163945221235806 12:1 109:1 53:1 137:1 81:1 142:1 171:1 23259:1 38129:1 
1 25:1 96:1 53:1 137:1 81:1 165:1 170:1 3646:1 49000:1 
0.5079530667406079 12:1 109:1 53:1 137:1 81:1 152:1 169:1 24271:1 46648:1 
0.5410150533731927 4:1 109:1 53:1 124:1 68:1 164:1 169:1 2561:1 35469:1 
0.1535088707158111 25:1 96:1 53:1 138:1 68:1 140:1 171:1 10740:1 44860:1 
0.0448894192843351 12:1 109:1 53:1 124:1 56:1 152:1 169:1 17198:1 29185:1 
0.1976588536027029 25:1 109:1 53:1 134:1 56:1 165:1 171:1 18316:1 30088:1 
0.4121076054112661 12:1 108:1 49:1 137:1 68:1 144:1 169:1 14484:1 29435:1 
0.2257424085217514 24:1 98:1 53:1 138:1 56:1 166:1 173:1 12012:1 26898:1 
1 18:1 105:1 49:1 130:1 56:1 166:1 169:1 581:1 48236:1 
0.2011008242087455 18:1 109:1 49:1 137:1 56:1 164:1 174:1 597:1 38729:1 
0.6444035429810003 22:1 109:1 53:1 124:1 81:1 151:1 170:1 13334:1 47409:1 
0.7391544592366837 12:1 97:1 49:1 133:1 66:1 152:1 169:1 9804:1 36427:1 
0.6784155268045495 12:1 97:1 49:1 137:1 70:1 165:1 169:1 18400:1 36427:1 
0.2727666518235166 25:1 108:1 53:1 123:1 56:1 152:1 169:1 3674:1 29435:1 
0.2209743534345669 12:1 109:1 53:1 138:1 81:1 158:1 171:1 13277:1 26697:1 
0.6268436036217798 12:1 97:1 49:1 137:1 60:1 166:1 169:1 18538:1 48334:1 
0.04576962747168549 12:1 109:1 53:1 135:1 81:1 166:1 172:1 2757:1 31670:1 
0.08894837106945143 23:1 109:1 53:1 135:1 81:1 166:1 177:1 5508:1 34448:1 
0.2764232979476697 12:1 97:1 49:1 137:1 59:1 166:1 169:1 24478:1 40628:1 
0.3455817955877503 1:1 109:1 53:1 113:1 81:1 165:1 169:1 16140:1 39763:1 
0.905220664199227 12:1 85:1 40:1 136:1 78:1 152:1 170:1 21571:1 33989:1 
0.4491973462405616 25:1 96:1 53:1 138:1 81:1 161:1 177:1 3868:1 49402:1 
0.05333672072954077 25:1 109:1 49:1 137:1 68:1 166:1 170:1 19787:1 49386:1 
1 12:1 96:1 53:1 138:1 81:1 165:1 170:1 13543:1 31719:1 
0.01584507790921711 12:1 109:1 53:1 137:1 56:1 152:1 170:1 6990:1 47425:1 
1 12:1 96:1 40:1 124:1 81:1 152:1 171:1 20740:1 48078:1 
0.006313162732552352 12:1 96:1 40:1 138:1 81:1 140:1 170:1 23349:1 36577:1 
0.3210646702163498 25:1 108:1 53:1 124:1 68:1 153:1 169:1 4624:1 36741:1 
0.5593921350975875 24:1 96:1 53:1 125:1 68:1 166:1 169:1 12012:1 46371:1 
0.1115547431034607 24:1 96:1 53:1 138:1 81:1 152:1 172:1 12012:1 35553:1 
0.04253482747692015 17:1 108:1 45:1 124:1 81:1 166:1 169:1 4328:1 29435:1 
0.1037680505059991 1:1 108:1 53:1 137:1 81:1 165:1 169:1 12746:1 36741:1 
0.1120750684423451 13:1 109:1 49:1 137:1 68:1 166:1 170:1 23605:1 33197:1 
0.4398333310201948 24:1 96:1 53:1 115:1 70:1 141:1 173:1 12012:1 40824:1 
0.1493922192109986 12:1 85:1 49:1 138:1 56:1 165:1 170:1 18554:1 40281:1 
0.07407786437166919 12:1 109:1 53:1 116:1 57:1 151:1 173:1 18099:1 45299:1 
0.05345833943065639 13:1 109:1 49:1 123:1 74:1 162:1 171:1 11698:1 35575:1 
0.05579414777319935 18:1 109:1 49:1 123:1 56:1 162:1 179:1 8648:1 35575:1 
0.1962188578259068 12:1 109:1 53:1 137:1 56:1 165:1 172:1 13832:1 40109:1 
0.7576179106140137 25:1 109:1 53:1 135:1 81:1 163:1 169:1 15106:1 30110:1 
1 22:1 109:1 46:1 137:1 56:1 164:1 175:1 17985:1 42567:1 
0.138706006830131 12:1 109:1 53:1 124:1 81:1 166:1 170:1 16247:1 28861:1 
0.2137638637379218 12:1 109:1 53:1 137:1 81:1 140:1 170:1 9895:1 39428:1 
0.2656899160616968 24:1 108:1 53:1 124:1 81:1 143:1 169:1 7731:1 29435:1 
0.8279768394457223 12:1 109:1 40:1 137:1 81:1 152:1 170:1 3055:1 27420:1 
1 17:1 96:1 49:1 116:1 68:1 144:1 169:1 1739:1 32153:1 
0.03775302388683004 1:1 109:1 53:1 124:1 56:1 166:1 173:1 2592:1 47692:1 
0.9934242675858548 17:1 101:1 45:1 124:1 77:1 152:1 170:1 15616:1 30456:1 
0.6307581463961669 17:1 96:1 45:1 137:1 77:1 152:1 170:1 5727:1 45462:1 
0.6629800478745764 12:1 108:1 40:1 124:1 77:1 166:1 169:1 18078:1 29435:1 
1 11:1 96:1 53:1 116:1 56:1 151:1 172:1 445:1 38401:1 
0.3750688415846188 12:1 108:1 36:1 129:1 81:1 166:1 169:1 6047:1 29435:1 
0.223024457960641 25:1 109:1 53:1 123:1 56:1 152:1 178:1 23530:1 46757:1 
1 23:1 92:1 53:1 136:1 81:1 166:1 169:1 13628:1 27860:1 
1 12:1 100:1 49:1 138:1 81:1 163:1 169:1 15327:1 45071:1 
0.6453521983482841 12:1 97:1 49:1 120:1 68:1 166:1 169:1 4201:1 40628:1 
0.1259882256020706 12:1 92:1 53:1 138:1 68:1 140:1 173:1 17160:1 47097:1 
0.03463791657401325 16:1 92:1 53:1 138:1 56:1 140:1 183:1 20342:1 47097:1 
0.06438627081262639 13:1 109:1 49:1 138:1 56:1 158:1 172:1 15899:1 42641:1 
1 23:1 109:1 40:1 137:1 81:1 144:1 170:1 23368:1 41479:1 
0.3756535505321821 1:1 96:1 53:1 138:1 81:1 165:1 170:1 7947:1 41012:1 
0.665346154745814 25:1 109:1 53:1 124:1 81:1 164:1 171:1 18528:1 48769:1 
0.1664334709026577 12:1 109:1 53:1 129:1 81:1 152:1 170:1 2345:1 37493:1 
0.1618730849311637 12:1 108:1 40:1 124:1 81:1 166:1 169:1 20570:1 29435:1 
0.06055912946562313 12:1 109:1 53:1 120:1 81:1 161:1 170:1 18997:1 49381:1 
0.3245834985775246 12:1 109:1 40:1 136:1 68:1 161:1 173:1 18211:1 34579:1 
1 13:1 108:1 49:1 124:1 80:1 143:1 172:1 19603:1 29435:1 
0.4784392614783627 24:1 96:1 53:1 115:1 68:1 141:1 178:1 12012:1 41012:1 
1 12:1 85:1 40:1 136:1 81:1 152:1 171:1 3476:1 29483:1 
0.04833419448551145 12:1 109:1 53:1 134:1 56:1 165:1 172:1 19047:1 28436:1 
0.1514943998205016 12:1 109:1 53:1 137:1 81:1 151:1 169:1 19889:1 39835:1 
0.5648865604637858 25:1 109:1 53:1 123:1 81:1 165:1 170:1 24498:1 35564:1 
0.7868736302242269 12:1 85:1 53:1 136:1 67:1 152:1 173:1 16582:1 35949:1 
0.5680609303379782 12:1 109:1 53:1 124:1 77:1 166:1 169:1 12101:1 30105:1 
0.570018006299246 17:1 105:1 49:1 129:1 81:1 165:1 169:1 7557:1 29353:1 
1 25:1 96:1 53:1 136:1 73:1 152:1 172:1 9874:1 29710:1 
0.06504985730764942 17:1 109:1 49:1 137:1 81:1 166:1 193:1 16181:1 35530:1 
1 24:1 96:1 53:1 136:1 81:1 149:1 171:1 24242:1 41478:1 
0.05765337238221408 12:1 109:1 53:1 129:1 56:1 164:1 172:1 10176:1 32084:1 
0.1267435984086898 12:1 108:1 53:1 124:1 81:1 150:1 169:1 9661:1 29435:1 
0.1568865864201656 12:1 108:1 53:1 138:1 81:1 140:1 169:1 6440:1 38281:1 
1 25:1 109:1 40:1 116:1 70:1 165:1 173:1 19644:1 27085:1 
0.7124235731747882 13:1 85:1 49:1 138:1 56:1 152:1 173:1 3629:1 29964:1 
1 12:1 96:1 53:1 133:1 56:1 149:1 170:1 10285:1 45642:1 
0.2038119861449887 12:1 109:1 53:1 116:1 56:1 152:1 169:1 7574:1 26473:1 
0.117821421439036 12:1 109:1 49:1 124:1 81:1 166:1 173:1 15122:1 41568:1 
0.09822111556843778 13:1 109:1 49:1 113:1 60:1 165:1 170:1 9436:1 29988:1 
1 11:1 96:1 53:1 137:1 81:1 163:1 169:1 15953:1 40026:1 
0.6763014104416674 24:1 96:1 53:1 116:1 68:1 165:1 171:1 24242:1 29925:1 
0.3483568359240522 13:1 85:1 49:1 138:1 70:1 165:1 173:1 15899:1 44281:1 
0.4088901854370206 12:1 85:1 49:1 138:1 56:1 165:1 185:1 4968:1 44281:1 
0.9691087266023096 24:1 93:1 53:1 138:1 57:1 144:1 176:1 12012:1 32179:1 
1 1:1 96:1 41:1 124:1 69:1 152:1 169:1 22373:1 35323:1 
1 12:1 96:1 40:1 124:1 68:1 144:1 169:1 9777:1 33883:1 
1 12:1 96:1 49:1 116:1 57:1 144:1 169:1 9154:1 45883:1 
0.09086622506607216 12:1 109:1 53:1 138:1 56:1 165:1 175:1 5081:1 37459:1 
0.1036927888509799 12:1 109:1 53:1 138:1 81:1 140:1 172:1 19928:1 28399:1 
1 25:1 96:1 53:1 116:1 66:1 161:1 169:1 7750:1 33907:1 
0.3133382534399299 25:1 109:1 49:1 124:1 56:1 152:1 174:1 18275:1 27738:1 
0.2771610987957747 12:1 108:1 53:1 138:1 81:1 152:1 169:1 16299:1 29435:1 
0.6375552862940519 10:1 109:1 40:1 136:1 81:1 152:1 174:1 12950:1 41156:1 
0.1220696901441669 24:1 96:1 53:1 138:1 81:1 152:1 169:1 12012:1 45136:1 
0.152350998507773 12:1 92:1 53:1 138:1 81:1 140:1 172:1 20407:1 31812:1 
0.09403819805233415 12:1 109:1 53:1 120:1 80:1 166:1 171:1 7469:1 46329:1 
1 12:1 109:1 53:1 137:1 68:1 141:1 169:1 5546:1 36044:1 
0.01502362032118104 12:1 109:1 53:1 134:1 56:1 166:1 172:1 24464:1 41479:1 
1 12:1 96:1 40:1 124:1 68:1 158:1 169:1 10058:1 41502:1 
0.02400163041442954 24:1 109:1 49:1 137:1 68:1 166:1 171:1 4706:1 37586:1 
0.6332281231196074 9:1 100:1 37:1 136:1 81:1 157:1 169:1 13611:1 26986:1 
0.206689994063416 17:1 109:1 49:1 137:1 81:1 157:1 169:1 5182:1 30821:1 
1 17:1 96:1 45:1 116:1 77:1 165:1 171:1 19867:1 33811:1 
0.1442049343799231 12:1 97:1 53:1 138:1 77:1 165:1 169:1 18856:1 48087:1 
0.5080682219915575 1:1 109:1 29:1 133:1 73:1 151:1 173:1 21444:1 26606:1 
1 24:1 109:1 53:1 124:1 56:1 166:1 169:1 12012:1 43915:1 
0.3641521069501072 24:1 109:1 29:1 134:1 56:1 166:1 170:1 12012:1 37591:1 
1 1:1 85:1 53:1 136:1 68:1 151:1 172:1 3314:1 38437:1 
0.1207963731411876 13:1 109:1 49:1 124:1 56:1 141:1 170:1 13284:1 34715:1 
0.2862090549558796 12:1 109:1 53:1 114:1 81:1 164:1 171:1 7062:1 39731:1 
0.3389798115708158 12:1 109:1 40:1 136:1 68:1 165:1 170:1 22494:1 41353:1 
0.4908620869634201 25:1 109:1 53:1 136:1 56:1 161:1 171:1 16775:1 45155:1 
0.1820699155468459 12:1 96:1 40:1 136:1 68:1 152:1 171:1 16773:1 37033:1 
0.1917338647858955 12:1 108:1 40:1 124:1 68:1 166:1 169:1 12304:1 29435:1 
1 12:1 108:1 53:1 124:1 80:1 166:1 184:1 4619:1 29435:1 
0.3183127176690092 12:1 96:1 40:1 137:1 81:1 164:1 170:1 24398:1 48134:1 
0.09163907544059853 12:1 109:1 53:1 136:1 68:1 141:1 177:1 23540:1 27550:1 
0.6843437893518714 25:1 109:1 53:1 124:1 56:1 152:1 174:1 23430:1 42164:1 
0.01035042789047227 12:1 109:1 53:1 137:1 56:1 165:1 171:1 9470:1 44884:1 
0.05987038487237538 25:1 108:1 53:1 124:1 81:1 166:1 169:1 23430:1 29435:1 
0.07802690156476207 25:1 108:1 53:1 124:1 81:1 152:1 169:1 21075:1 29435:1 
1 15:1 96:1 43:1 124:1 77:1 166:1 171:1 23705:1 49164:1 
0.4020280571451043 12:1 96:1 43:1 138:1 77:1 157:1 169:1 24435:1 35373:1 
0.1432343265747031 18:1 109:1 49:1 137:1 68:1 166:1 169:1 472:1 32118:1 
0.02416882094755853 12:1 109:1 49:1 137:1 68:1 166:1 180:1 10644:1 32118:1 
0.1722504302907008 12:1 109:1 53:1 138:1 81:1 151:1 171:1 6687:1 35543:1 
0.3279436630665514 12:1 109:1 53:1 124:1 77:1 165:1 173:1 16283:1 26544:1 
0.2172855368452425 18:1 109:1 40:1 138:1 81:1 158:1 171:1 16548:1 41989:1 
0.5022130221321385 22:1 96:1 40:1 123:1 78:1 162:1 170:1 11231:1 30746:1 
0.4025128407428817 11:1 96:1 50:1 125:1 81:1 166:1 169:1 5483:1 47178:1 
0.004132226996249214 12:1 109:1 53:1 124:1 81:1 152:1 170:1 21639:1 41355:1 
1 17:1 96:1 45:1 124:1 73:1 152:1 169:1 15984:1 29570:1 
1 24:1 96:1 53:1 123:1 81:1 162:1 172:1 12012:1 47076:1 
0.4818099949349315 12:1 109:1 37:1 121:1 81:1 161:1 171:1 8839:1 34052:1 
0.06199319984106923 12:1 109:1 53:1 124:1 65:1 166:1 174:1 5696:1 33616:1 
0.2199495936936293 25:1 109:1 49:1 116:1 56:1 161:1 171:1 6575:1 35373:1 
0.2289758725445578 12:1 109:1 40:1 124:1 68:1 166:1 170:1 18954:1 27055:1 
0.5399565151163016 14:1 109:1 53:1 137:1 81:1 149:1 169:1 12664:1 39406:1 
0.1569694891695788 25:1 108:1 53:1 113:1 81:1 152:1 169:1 3288:1 29435:1 
0.2471201473374839 11:1 97:1 50:1 138:1 56:1 152:1 169:1 5483:1 36044:1 
0.5416886147255303 25:1 92:1 53:1 138:1 81:1 165:1 176:1 9964:1 37922:1 
0.08020591299115611 12:1 109:1 53:1 126:1 56:1 164:1 170:1 8612:1 34606:1 
1 27:1 96:1 53:1 125:1 69:1 164:1 169:1 1267:1 44310:1 
0.2292365479296504 12:1 96:1 40:1 138:1 81:1 140:1 172:1 17665:1 34782:1 
0.07940226281046139 16:1 109:1 49:1 123:1 57:1 162:1 169:1 4527:1 44407:1 
0.2169857652417799 1:1 109:1 53:1 123:1 57:1 162:1 172:1 4175:1 44407:1 
0.08746926922453252 12:1 109:1 40:1 124:1 74:1 152:1 171:1 7150:1 35279:1 
0.1596064822466795 12:1 109:1 53:1 123:1 81:1 162:1 170:1 22532:1 37591:1 
0.2069581556512067 1:1 108:1 53:1 113:1 56:1 151:1 169:1 6596:1 36741:1 
0.2547166457310073 12:1 109:1 53:1 137:1 56:1 144:1 173:1 4337:1 35587:1 
0.4278519314233966 22:1 109:1 53:1 135:1 56:1 152:1 175:1 18992:1 30728:1 
1 24:1 108:1 53:1 124:1 81:1 152:1 169:1 12012:1 29435:1 
0.1832160340561246 12:1 109:1 53:1 116:1 56:1 165:1 171:1 2303:1 35564:1 
0.1681721203104645 25:1 109:1 53:1 116:1 81:1 165:1 170:1 9531:1 37978:1 
0.270526430088795 25:1 108:1 53:1 138:1 81:1 166:1 169:1 5232:1 45905:1 
0.40991036626099 12:1 97:1 49:1 116:1 77:1 141:1 169:1 15404:1 40628:1 
0.6340127103014291 13:1 85:1 49:1 138:1 68:1 152:1 170:1 15899:1 39681:1 
0.3108110382696753 24:1 85:1 53:1 138:1 56:1 152:1 179:1 24242:1 39681:1 
0.1713010412920715 12:1 109:1 53:1 129:1 81:1 152:1 174:1 19791:1 40186:1 
0.7857201550002343 12:1 109:1 40:1 123:1 81:1 162:1 170:1 16772:1 38986:1 
0.04736751929135129 12:1 109:1 40:1 138:1 56:1 140:1 172:1 20429:1 36505:1 
0.1337918765748882 12:1 109:1 53:1 124:1 81:1 164:1 170:1 19038:1 46757:1 
0.02357478295724754 13:1 109:1 49:1 116:1 56:1 141:1 175:1 4547:1 41479:1 
0.2306080229435407 23:1 109:1 53:1 137:1 60:1 142:1 169:1 19133:1 42646:1 
1 22:1 97:1 53:1 124:1 81:1 164:1 169:1 13635:1 36044:1 
0.7726107390306364 11:1 109:1 42:1 124:1 56:1 166:1 172:1 21220:1 26497:1 
0.2625615179749334 12:1 108:1 53:1 138:1 81:1 148:1 169:1 2425:1 29435:1 
0.1186525497519539 12:1 96:1 40:1 115:1 81:1 152:1 171:1 21136:1 45866:1 
1 12:1 105:1 49:1 124:1 60:1 152:1 169:1 23579:1 44666:1 
1 24:1 108:1 40:1 124:1 77:1 152:1 171:1 4730:1 29435:1 
0.2354320587511459 23:1 109:1 53:1 124:1 81:1 152:1 169:1 17641:1 28376:1 
0.4514460565750774 17:1 105:1 49:1 129:1 68:1 165:1 169:1 2031:1 29353:1 
0.1872292005724002 12:1 109:1 53:1 136:1 56:1 152:1 177:1 22535:1 30388:1 
0.1132200750134021 17:1 109:1 45:1 120:1 81:1 166:1 170:1 2069:1 41479:1 
0.3287300073824264 24:1 96:1 43:1 137:1 77:1 141:1 170:1 4730:1 36899:1 
0.08354318261257393 12:1 109:1 53:1 113:1 81:1 164:1 177:1 11774:1 46824:1 
0.9052568467202993 1:1 85:1 29:1 113:1 81:1 164:1 170:1 19101:1 31898:1 
0.7180572159921809 1:1 85:1 29:1 136:1 81:1 152:1 169:1 7169:1 32806:1 
0.2056986352477308 12:1 96:1 40:1 137:1 80:1 165:1 170:1 10285:1 48302:1 
0.5173994877815076 25:1 108:1 40:1 113:1 81:1 152:1 169:1 5703:1 29435:1 
0.2237660477502457 12:1 92:1 53:1 138:1 81:1 165:1 170:1 11806:1 39882:1 
0.09679023320930356 12:1 109:1 53:1 124:1 64:1 166:1 174:1 1471:1 26661:1 
0.1600346969580943 24:1 96:1 40:1 137:1 73:1 157:1 174:1 4730:1 44139:1 
0.6990341808193648 1:1 96:1 53:1 137:1 77:1 164:1 175:1 7947:1 31771:1 
0.3074226188386628 24:1 96:1 53:1 138:1 81:1 152:1 172:1 12012:1 31879:1 
0.2234774012765308 12:1 109:1 53:1 137:1 81:1 164:1 177:1 8573:1 41479:1 
0.4252796289507203 24:1 109:1 37:1 123:1 56:1 162:1 169:1 4730:1 28327:1 
0.1321827785749089 25:1 109:1 53:1 133:1 73:1 165:1 170:1 21450:1 34052:1 
0.3026747130690938 12:1 109:1 53:1 137:1 81:1 151:1 180:1 16773:1 28151:1 
0.04312286122435192 12:1 109:1 53:1 124:1 81:1 166:1 171:1 14484:1 27476:1 
0.1937746786303617 24:1 96:1 40:1 133:1 81:1 152:1 169:1 4730:1 26238:1 
0.1458176632089817 25:1 109:1 53:1 137:1 56:1 166:1 173:1 7483:1 43647:1 
0.1909369546123578 25:1 109:1 53:1 124:1 81:1 166:1 172:1 23121:1 46914:1 
0.3366283075194774 22:1 109:1 40:1 138:1 67:1 166:1 169:1 18076:1 32291:1 
0.2730870347258614 12:1 108:1 53:1 125:1 81:1 144:1 169:1 9523:1 29435:1 
0.7644183808189614 22:1 108:1 40:1 124:1 77:1 165:1 169:1 18076:1 29435:1 
1 17:1 96:1 45:1 124:1 68:1 152:1 169:1 17702:1 29570:1 
0.5301862590716797 14:1 98:1 42:1 136:1 56:1 165:1 179:1 6719:1 31605:1 
0.161499040312028 14:1 108:1 42:1 137:1 56:1 164:1 169:1 6876:1 29459:1 
0.02155973480286424 14:1 109:1 53:1 124:1 81:1 166:1 169:1 18700:1 31295:1 
0.5605138981477748 13:1 108:1 45:1 124:1 68:1 144:1 169:1 5149:1 29459:1 
1 11:1 106:1 39:1 113:1 81:1 152:1 169:1 1035:1 33851:1 
0.3726441293419786 12:1 109:1 53:1 138:1 81:1 140:1 175:1 2025:1 44355:1 
1 25:1 85:1 53:1 136:1 56:1 166:1 171:1 12012:1 27752:1 
0.3735173421633427 13:1 109:1 49:1 137:1 56:1 164:1 169:1 23605:1 30401:1 
0.1463883272262825 12:1 109:1 53:1 124:1 81:1 166:1 172:1 20648:1 49395:1 
0.4563695600590914 12:1 109:1 53:1 133:1 81:1 152:1 171:1 9959:1 45874:1 
0.01517423363436377 12:1 108:1 40:1 114:1 77:1 152:1 169:1 15347:1 29435:1 
1 12:1 108:1 53:1 121:1 81:1 149:1 170:1 16700:1 29435:1 
0.004274874990377894 12:1 108:1 53:1 124:1 68:1 144:1 169:1 7424:1 29435:1 
0.3075944635681778 12:1 109:1 40:1 116:1 59:1 141:1 169:1 1957:1 46757:1 
0.0103935655086894 12:1 109:1 49:1 138:1 56:1 163:1 179:1 4968:1 45377:1 
0.3611302560177269 23:1 109:1 53:1 137:1 59:1 142:1 169:1 14401:1 30430:1 
0.008881081817938872 12:1 92:1 53:1 138:1 81:1 140:1 169:1 7443:1 40259:1 
0.005700327205230958 12:1 109:1 53:1 124:1 81:1 144:1 170:1 24535:1 46457:1 
0.09085427860968144 12:1 109:1 53:1 124:1 81:1 152:1 170:1 15027:1 40133:1 
0.03891411593781962 25:1 96:1 53:1 138:1 56:1 165:1 172:1 8713:1 41754:1 
0.3969578384692409 12:1 108:1 40:1 124:1 80:1 152:1 170:1 10926:1 29459:1 
1 24:1 96:1 40:1 124:1 80:1 166:1 169:1 4730:1 26710:1 
1 24:1 96:1 53:1 124:1 81:1 166:1 179:1 12012:1 26710:1 
0.3755738677931457 10:1 85:1 40:1 138:1 57:1 166:1 171:1 12950:1 47921:1 
1 14:1 98:1 51:1 113:1 56:1 161:1 175:1 23865:1 31447:1 
0.02444175443190451 12:1 109:1 49:1 137:1 57:1 163:1 169:1 15873:1 42392:1 
0.892362556225496 14:1 109:1 51:1 137:1 56:1 163:1 172:1 6718:1 42392:1 
1 12:1 106:1 53:1 116:1 60:1 165:1 170:1 3040:1 44654:1 
0.5650507344202429 22:1 109:1 53:1 136:1 56:1 152:1 170:1 22296:1 34715:1 
0.05261169474711399 13:1 109:1 49:1 137:1 56:1 166:1 170:1 23605:1 36744:1 
0.1024360426600349 25:1 109:1 53:1 126:1 56:1 166:1 171:1 4624:1 37941:1 
0.632303115608462 14:1 106:1 53:1 138:1 81:1 158:1 173:1 18739:1 42285:1 
1 25:1 96:1 53:1 133:1 56:1 163:1 171:1 3646:1 45074:1 
0.6680205153880817 12:1 96:1 40:1 137:1 81:1 152:1 171:1 5737:1 49306:1 
0.724519290273833 12:1 109:1 40:1 124:1 81:1 152:1 169:1 24577:1 43598:1 
0.04588910684404791 12:1 108:1 53:1 138:1 68:1 152:1 169:1 3754:1 29435:1 
1 24:1 109:1 40:1 124:1 81:1 166:1 173:1 4706:1 27743:1 
0.1198044706647239 22:1 109:1 53:1 136:1 81:1 141:1 170:1 22296:1 31971:1 
1 24:1 96:1 53:1 125:1 77:1 166:1 170:1 12012:1 39238:1 
0.03700529364319166 13:1 109:1 49:1 113:1 56:1 164:1 170:1 21552:1 37591:1 
0.01735751236554784 12:1 108:1 53:1 124:1 81:1 166:1 169:1 1956:1 29435:1 
0.03360302915594585 12:1 109:1 53:1 115:1 81:1 144:1 173:1 15118:1 35733:1 
0.07565447807653032 1:1 109:1 53:1 113:1 59:1 162:1 171:1 21393:1 42820:1 
0.02830788774089033 12:1 109:1 53:1 124:1 81:1 166:1 169:1 9777:1 35564:1 
0.2470264231740952 9:1 96:1 37:1 137:1 56:1 166:1 169:1 3734:1 28930:1 
0.1015928922624835 12:1 109:1 49:1 136:1 56:1 144:1 171:1 14157:1 35564:1 
0.2109873677625901 12:1 92:1 40:1 138:1 60:1 166:1 172:1 7512:1 39087:1 
0.47077854769038 8:1 92:1 40:1 138:1 60:1 144:1 172:1 14358:1 33294:1 
0.4899462206858595 8:1 92:1 40:1 138:1 60:1 165:1 171:1 8565:1 42623:1 
0.1435531422053909 12:1 109:1 53:1 137:1 64:1 166:1 172:1 10352:1 47431:1 
1 1:1 85:1 53:1 124:1 81:1 166:1 170:1 8560:1 33782:1 
0.1424275680690538 18:1 105:1 49:1 130:1 80:1 166:1 169:1 560:1 29353:1 
1 24:1 109:1 53:1 136:1 56:1 152:1 180:1 4706:1 48483:1 
0.4917726082489813 12:1 109:1 53:1 137:1 81:1 151:1 172:1 12728:1 41479:1 
0.1788831878117795 12:1 109:1 53:1 123:1 81:1 152:1 169:1 8329:1 41558:1 
0.1122978405237521 12:1 109:1 53:1 113:1 74:1 152:1 169:1 11233:1 46757:1 
0.1654738557234515 12:1 109:1 53:1 124:1 68:1 153:1 172:1 15404:1 29487:1 
0.2428265228795535 12:1 109:1 53:1 137:1 81:1 164:1 175:1 11267:1 28301:1 
1 24:1 96:1 53:1 123:1 56:1 151:1 183:1 12012:1 33661:1 
0.4826484626250563 22:1 96:1 40:1 123:1 81:1 162:1 170:1 6896:1 34036:1 
0.8736779130180279 23:1 109:1 40:1 138:1 81:1 152:1 169:1 13700:1 30720:1 
0.3505352107704893 12:1 109:1 40:1 128:1 81:1 166:1 175:1 23264:1 30728:1 
0.4443823784634159 25:1 109:1 53:1 137:1 78:1 164:1 170:1 24346:1 33440:1 
0.1434231025526533 25:1 109:1 53:1 137:1 81:1 166:1 172:1 16261:1 30432:1 
0.2405716137849826 25:1 96:1 53:1 138:1 56:1 154:1 171:1 4624:1 30949:1 
0.3615025189631106 12:1 109:1 53:1 124:1 81:1 143:1 174:1 11845:1 46757:1 
0.2433823923414117 12:1 109:1 53:1 124:1 81:1 165:1 170:1 20371:1 46757:1 
1 25:1 96:1 53:1 136:1 81:1 141:1 175:1 12613:1 40120:1 
0.1772467382689198 12:1 108:1 53:1 113:1 81:1 151:1 169:1 15391:1 29435:1 
0.06166245200631627 12:1 109:1 53:1 113:1 81:1 152:1 171:1 9189:1 37467:1 
0.3883661830781247 24:1 96:1 53:1 115:1 68:1 152:1 169:1 12012:1 39544:1 
0.1747485796954074 24:1 96:1 53:1 115:1 68:1 152:1 173:1 12012:1 46156:1 
0.2734233718158984 13:1 109:1 49:1 137:1 81:1 157:1 169:1 15899:1 42467:1 
0.444268897079338 25:1 109:1 53:1 129:1 70:1 152:1 173:1 4624:1 33502:1 
0.08597080410442592 14:1 109:1 53:1 129:1 81:1 152:1 171:1 13569:1 33502:1 
0.06075202270041131 25:1 109:1 49:1 137:1 56:1 151:1 172:1 1957:1 48267:1 
0.1533072187514679 12:1 109:1 53:1 121:1 56:1 144:1 173:1 22806:1 36766:1 
0.2553101933450221 12:1 109:1 53:1 136:1 81:1 165:1 172:1 4841:1 41387:1 
0.6734798268164456 24:1 109:1 53:1 129:1 81:1 164:1 169:1 23357:1 28183:1 
0.4460960626153617 17:1 109:1 53:1 137:1 81:1 151:1 169:1 21461:1 34877:1 
0.4887392210079634 22:1 96:1 53:1 136:1 81:1 166:1 169:1 17985:1 30689:1 
0.3630701571797683 12:1 109:1 53:1 129:1 81:1 164:1 170:1 22340:1 49353:1 
0.508384402456324 12:1 96:1 40:1 124:1 73:1 166:1 170:1 21141:1 33246:1 
0.03203442975539327 12:1 109:1 49:1 124:1 81:1 165:1 172:1 5719:1 46757:1 
0.1765028328379823 12:1 109:1 53:1 137:1 81:1 152:1 169:1 15115:1 32216:1 
0.1491787163500567 25:1 109:1 53:1 138:1 68:1 152:1 170:1 24037:1 45426:1 
0.1064869525408931 12:1 108:1 53:1 127:1 69:1 161:1 169:1 2182:1 29435:1 
1 15:1 99:1 43:1 137:1 77:1 161:1 170:1 17774:1 38003:1 
0.3086699235519918 22:1 102:1 53:1 138:1 77:1 144:1 169:1 6155:1 41277:1 
0.1543266360526597 12:1 108:1 53:1 123:1 77:1 162:1 169:1 4375:1 29435:1 
0.2352295392705947 16:1 109:1 49:1 131:1 68:1 141:1 169:1 21340:1 28183:1 
0.03501657000965183 12:1 109:1 53:1 131:1 56:1 141:1 179:1 14880:1 28183:1 
0.1247737434803474 12:1 109:1 53:1 135:1 81:1 152:1 170:1 4305:1 27592:1 
0.1172942920237994 12:1 109:1 53:1 113:1 81:1 152:1 170:1 21505:1 47506:1 
0.1081549266997921 22:1 108:1 49:1 124:1 77:1 166:1 169:1 13635:1 29435:1 
0.1708013547112552 12:1 109:1 49:1 129:1 81:1 161:1 170:1 13819:1 26569:1 
0.09260235432914148 12:1 109:1 53:1 124:1 81:1 165:1 171:1 11918:1 41353:1 
1 24:1 101:1 53:1 138:1 56:1 165:1 169:1 24242:1 48365:1 
0.216579584797181 11:1 106:1 39:1 125:1 56:1 164:1 169:1 5483:1 38364:1 
0.4718182541570402 8:1 109:1 40:1 137:1 56:1 166:1 175:1 10244:1 28183:1 
0.149109128353161 25:1 108:1 49:1 124:1 81:1 166:1 169:1 9956:1 29435:1 
0.6510964107170199 1:1 96:1 53:1 137:1 68:1 165:1 169:1 7947:1 33701:1 
1 18:1 97:1 49:1 138:1 56:1 152:1 169:1 14830:1 39186:1 
0.1087306457607836 12:1 109:1 53:1 124:1 68:1 152:1 169:1 13819:1 38728:1 
0.5544275641269419 25:1 96:1 53:1 138:1 56:1 144:1 172:1 18631:1 48269:1 
0.2904174887001595 25:1 109:1 53:1 116:1 56:1 165:1 170:1 20361:1 49381:1 
1 12:1 85:1 49:1 136:1 56:1 165:1 175:1 14350:1 30212:1 
1 12:1 108:1 49:1 123:1 79:1 162:1 170:1 20439:1 29435:1 
0.1805707654174266 12:1 108:1 53:1 138:1 81:1 140:1 169:1 23328:1 26284:1 
0.4327445173807494 23:1 92:1 53:1 138:1 68:1 163:1 170:1 17637:1 32214:1 
1 23:1 96:1 51:1 125:1 81:1 166:1 169:1 24335:1 43061:1 
0.2017917015033341 12:1 109:1 53:1 124:1 81:1 165:1 170:1 9026:1 35563:1 
1 25:1 109:1 40:1 113:1 81:1 154:1 169:1 8602:1 31827:1 
0.4978992456333264 14:1 109:1 53:1 137:1 81:1 163:1 169:1 6864:1 40691:1 
0.727779144165618 25:1 109:1 53:1 135:1 81:1 164:1 169:1 15962:1 29353:1 
0.07541445456378325 23:1 108:1 53:1 138:1 81:1 140:1 169:1 8051:1 38281:1 
0.6967318922187544 12:1 109:1 45:1 113:1 77:1 151:1 174:1 20345:1 46757:1 
0.4815809808146214 12:1 106:1 53:1 138:1 73:1 140:1 173:1 24406:1 32713:1 
0.06041889193522974 13:1 108:1 49:1 113:1 73:1 152:1 169:1 15899:1 29435:1 
0.06395716265199491 12:1 109:1 40:1 126:1 56:1 148:1 170:1 7228:1 41479:1 
0.3767336516385527 24:1 109:1 53:1 136:1 64:1 142:1 173:1 12012:1 31771:1 
0.2955641465924251 12:1 109:1 40:1 133:1 56:1 152:1 170:1 8839:1 27435:1 
0.1581992090671868 12:1 109:1 53:1 124:1 81:1 143:1 170:1 14977:1 46914:1 
0.4234756245202093 12:1 109:1 40:1 124:1 56:1 154:1 169:1 7709:1 34172:1 
0.1842592429265469 14:1 98:1 42:1 138:1 68:1 157:1 175:1 2942:1 44022:1 
0.4710722634742954 14:1 98:1 42:1 136:1 68:1 165:1 173:1 19293:1 37301:1 
0.09794098120005834 14:1 108:1 42:1 137:1 68:1 164:1 169:1 12572:1 29459:1 
0.3955145048776381 24:1 109:1 42:1 136:1 68:1 152:1 169:1 4730:1 27592:1 
1 22:1 97:1 40:1 124:1 81:1 149:1 169:1 22296:1 46278:1 
0.1761642516070715 12:1 109:1 36:1 138:1 81:1 143:1 170:1 5891:1 27024:1 
0.6144705932749638 25:1 109:1 53:1 136:1 56:1 157:1 171:1 2295:1 39950:1 
0.3434387117219031 25:1 108:1 53:1 129:1 68:1 152:1 169:1 1924:1 36741:1 
0.09372805688351886 12:1 108:1 49:1 138:1 56:1 165:1 169:1 7685:1 30307:1 
0.2331514310874031 13:1 109:1 49:1 136:1 56:1 152:1 170:1 19603:1 43355:1 
0.01013862909756637 12:1 109:1 53:1 136:1 81:1 141:1 170:1 21184:1 33727:1 
0.04281926554115841 12:1 109:1 53:1 136:1 81:1 141:1 171:1 10313:1 46757:1 
0.02514765442369473 12:1 109:1 53:1 115:1 56:1 165:1 183:1 11408:1 46588:1 
1 25:1 108:1 53:1 124:1 81:1 142:1 169:1 4402:1 48971:1 
1 24:1 96:1 53:1 133:1 81:1 152:1 171:1 24242:1 48105:1 
0.4494974618477363 12:1 109:1 53:1 136:1 81:1 152:1 173:1 23376:1 49395:1 
1 12:1 96:1 53:1 124:1 81:1 164:1 169:1 17868:1 40805:1 
0.3509431622723563 12:1 96:1 53:1 136:1 81:1 141:1 169:1 16076:1 29378:1 
0.1093470532711474 12:1 109:1 53:1 126:1 56:1 152:1 169:1 8955:1 46568:1 
0.9669107062566682 17:1 96:1 45:1 137:1 69:1 164:1 171:1 3425:1 43164:1 
0.01190154112247672 12:1 109:1 53:1 136:1 56:1 152:1 170:1 11465:1 36894:1 
1 12:1 94:1 53:1 116:1 69:1 165:1 169:1 15215:1 47776:1 
0.1146154091872452 16:1 109:1 49:1 125:1 68:1 166:1 170:1 7689:1 43035:1 
0.009970238231577642 12:1 109:1 53:1 135:1 81:1 162:1 170:1 4485:1 45644:1 
0.2482098510549353 12:1 109:1 40:1 136:1 68:1 152:1 171:1 3389:1 26503:1 
0.3882294960870654 24:1 96:1 53:1 115:1 68:1 152:1 169:1 12012:1 34391:1 
0.8111702288305671 9:1 96:1 37:1 124:1 81:1 153:1 170:1 1641:1 46095:1 
0.4542094063952793 12:1 109:1 40:1 137:1 60:1 164:1 172:1 16720:1 46757:1 
0.4159575597924632 12:1 109:1 53:1 116:1 77:1 141:1 170:1 12170:1 49301:1 
0.176121873373244 12:1 108:1 29:1 124:1 81:1 165:1 169:1 22079:1 29435:1 
0.003036888510997606 12:1 109:1 49:1 138:1 81:1 141:1 169:1 13643:1 35527:1 
0.03249410067354307 25:1 109:1 53:1 113:1 56:1 166:1 170:1 9501:1 44706:1 
0.1859439481216522 1:1 109:1 53:1 138:1 81:1 161:1 172:1 18808:1 47421:1 
0.5088123300288516 13:1 109:1 49:1 137:1 81:1 152:1 170:1 13553:1 35567:1 
0.09489366093326877 13:1 109:1 49:1 137:1 68:1 166:1 171:1 19603:1 35280:1 
0.2345518614600899 12:1 109:1 53:1 136:1 81:1 152:1 170:1 22365:1 46303:1 
0.07695395710699424 12:1 108:1 53:1 123:1 56:1 162:1 169:1 8839:1 29435:1 
1 12:1 109:1 37:1 137:1 81:1 164:1 169:1 22076:1 36556:1 
0.3858957248902537 24:1 96:1 45:1 116:1 74:1 144:1 172:1 4730:1 30158:1 
1 8:1 85:1 53:1 133:1 56:1 155:1 173:1 20243:1 39422:1 
0.3001182974518192 17:1 96:1 45:1 136:1 71:1 148:1 169:1 7998:1 38559:1 
0.7368040604204942 24:1 92:1 40:1 136:1 71:1 152:1 169:1 4730:1 33026:1 
0.0932845314254583 8:1 108:1 40:1 124:1 71:1 144:1 169:1 8297:1 29435:1 
1 24:1 96:1 53:1 135:1 78:1 152:1 171:1 12012:1 34844:1 
