svm_type c_svc
kernel_type rbf
gamma 0.18
nr_class 2
total_sv 42962
rho 0.511486
label 1 -1
nr_sv 17158 25804
SV
0.7950477306265431 25:1 96:1 53:1 136:1 56:1 141:1 169:1 3572:1 44249:1 
0.3664844965215222 8:1 109:1 36:1 124:1 56:1 166:1 170:1 16618:1 48799:1 
0.03908201331777043 25:1 92:1 36:1 138:1 64:1 165:1 171:1 24070:1 35533:1 
0.6945436084316924 25:1 96:1 53:1 124:1 64:1 164:1 170:1 22028:1 42597:1 
0.2338450523276228 25:1 96:1 36:1 136:1 81:1 152:1 172:1 9582:1 40805:1 
0.2317191298109333 21:1 106:1 40:1 138:1 56:1 144:1 172:1 22563:1 38364:1 
0.2598648444472761 25:1 109:1 53:1 124:1 56:1 164:1 171:1 3572:1 28301:1 
1 21:1 97:1 53:1 129:1 56:1 152:1 172:1 22563:1 44332:1 
0.2466594867540134 25:1 96:1 53:1 137:1 81:1 152:1 169:1 11285:1 47469:1 
0.1893762764203447 25:1 109:1 53:1 124:1 81:1 164:1 170:1 11285:1 44540:1 
0.08445965037673757 25:1 96:1 53:1 136:1 81:1 152:1 169:1 19811:1 29697:1 
1 9:1 109:1 49:1 124:1 60:1 166:1 170:1 24136:1 29810:1 
0.002313655227057976 25:1 96:1 37:1 138:1 77:1 165:1 169:1 5081:1 34680:1 
0.5384458316259405 25:1 96:1 53:1 137:1 81:1 166:1 169:1 17916:1 44851:1 
0.7161317577318209 13:1 101:1 46:1 138:1 77:1 157:1 170:1 13457:1 34362:1 
1 13:1 97:1 46:1 115:1 77:1 153:1 173:1 13457:1 44171:1 
1 13:1 97:1 46:1 116:1 77:1 165:1 175:1 13457:1 26747:1 
1 12:1 96:1 30:1 124:1 81:1 166:1 169:1 2468:1 48678:1 
0.700361443104724 25:1 96:1 53:1 133:1 56:1 163:1 170:1 15256:1 40056:1 
1 25:1 96:1 28:1 136:1 56:1 152:1 170:1 17912:1 47069:1 
0.16129757704927 21:1 96:1 53:1 133:1 56:1 152:1 173:1 1618:1 44263:1 
0.9676232937381096 21:1 107:1 46:1 133:1 70:1 152:1 169:1 22563:1 28682:1 
0.9805749821771059 12:1 96:1 49:1 124:1 74:1 144:1 172:1 10285:1 43293:1 
0.3525050877503237 25:1 109:1 53:1 136:1 56:1 152:1 179:1 3385:1 39818:1 
0.5442052799746804 17:1 101:1 53:1 116:1 56:1 165:1 170:1 23636:1 38193:1 
1 25:1 96:1 53:1 116:1 81:1 141:1 171:1 6941:1 40056:1 
0.1850680243469066 25:1 97:1 28:1 138:1 56:1 165:1 170:1 9910:1 29530:1 
0.4399613017425451 25:1 96:1 51:1 136:1 56:1 152:1 170:1 12746:1 49135:1 
0.1093637786834857 11:1 95:1 40:1 134:1 56:1 153:1 169:1 12332:1 30212:1 
0.09036406743805094 21:1 96:1 51:1 138:1 69:1 165:1 171:1 3996:1 34879:1 
0.2423753281087404 25:1 102:1 53:1 138:1 56:1 163:1 169:1 4624:1 44509:1 
0.4820180680073464 1:1 109:1 53:1 123:1 74:1 162:1 173:1 20207:1 41479:1 
0.01478663207615745 25:1 109:1 28:1 113:1 56:1 164:1 169:1 20562:1 28375:1 
0.2418465463947907 12:1 96:1 53:1 138:1 81:1 141:1 171:1 16465:1 48776:1 
0.6832620956338107 1:1 85:1 40:1 136:1 68:1 152:1 172:1 19557:1 44925:1 
0.4961223762376975 1:1 85:1 36:1 136:1 68:1 152:1 170:1 19029:1 42794:1 
1 8:1 85:1 40:1 138:1 68:1 141:1 176:1 22007:1 42072:1 
0.8607739396945199 1:1 85:1 36:1 113:1 68:1 166:1 170:1 17343:1 44316:1 
0.45497879301259 21:1 96:1 52:1 138:1 67:1 152:1 169:1 21527:1 41807:1 
0.08180693397048855 12:1 96:1 49:1 115:1 80:1 152:1 170:1 17078:1 27553:1 
0.3217978389647579 12:1 96:1 49:1 137:1 80:1 152:1 172:1 17078:1 44604:1 
0.5362525563286099 25:1 96:1 40:1 136:1 68:1 152:1 169:1 18895:1 27512:1 
0.1319220968836974 25:1 109:1 28:1 124:1 56:1 166:1 171:1 22028:1 48821:1 
0.5706028981290796 25:1 105:1 28:1 124:1 56:1 164:1 169:1 17806:1 47292:1 
0.9746376565019655 25:1 85:1 40:1 115:1 77:1 152:1 170:1 6662:1 43758:1 
1 1:1 96:1 53:1 138:1 68:1 140:1 171:1 19029:1 36229:1 
0.5662600222705188 25:1 109:1 28:1 116:1 56:1 165:1 170:1 24062:1 48791:1 
1 25:1 88:1 53:1 137:1 56:1 140:1 169:1 24062:1 27290:1 
0.036346792653337 25:1 96:1 28:1 115:1 56:1 152:1 169:1 7275:1 39864:1 
1 12:1 96:1 53:1 116:1 56:1 141:1 172:1 15135:1 40056:1 
0.1335828847087235 21:1 109:1 53:1 113:1 81:1 141:1 171:1 18895:1 34298:1 
1 1:1 85:1 53:1 113:1 77:1 164:1 169:1 6506:1 37864:1 
0.1807040396434722 1:1 85:1 53:1 136:1 77:1 152:1 170:1 6506:1 43784:1 
0.1195077648621669 25:1 96:1 49:1 138:1 81:1 165:1 175:1 9569:1 32398:1 
0.3914467821871945 25:1 109:1 49:1 124:1 81:1 152:1 177:1 9569:1 43355:1 
0.02017782865335781 25:1 96:1 53:1 115:1 77:1 165:1 171:1 18626:1 29078:1 
1 9:1 109:1 49:1 136:1 56:1 152:1 176:1 21286:1 49125:1 
1 25:1 96:1 28:1 124:1 56:1 166:1 171:1 1877:1 30505:1 
0.4802304444131226 14:1 98:1 28:1 136:1 56:1 141:1 170:1 12696:1 43414:1 
0.4047393203683329 14:1 108:1 28:1 113:1 56:1 152:1 171:1 12696:1 29459:1 
1 25:1 96:1 53:1 124:1 56:1 166:1 169:1 16320:1 32421:1 
0.05063747793160259 25:1 101:1 45:1 124:1 77:1 165:1 169:1 24054:1 38193:1 
1 17:1 101:1 50:1 124:1 67:1 144:1 170:1 2031:1 40650:1 
1 17:1 96:1 50:1 116:1 67:1 165:1 171:1 2031:1 36688:1 
0.8856862100982881 25:1 101:1 53:1 115:1 56:1 151:1 170:1 4719:1 27853:1 
0.21068142500953 25:1 109:1 53:1 128:1 56:1 152:1 174:1 4719:1 29448:1 
0.04367585128465423 25:1 96:1 53:1 138:1 81:1 158:1 171:1 4719:1 42376:1 
0.6710788257353608 21:1 93:1 40:1 137:1 56:1 154:1 169:1 22563:1 33127:1 
1 14:1 96:1 53:1 137:1 56:1 152:1 174:1 12571:1 46742:1 
0.05022226200551087 12:1 96:1 53:1 138:1 56:1 165:1 170:1 16080:1 38994:1 
1 21:1 96:1 32:1 124:1 79:1 166:1 171:1 5436:1 30505:1 
0.4652704651852478 12:1 96:1 49:1 138:1 60:1 161:1 169:1 5776:1 47868:1 
1 9:1 96:1 49:1 124:1 68:1 166:1 170:1 20846:1 41430:1 
1 25:1 96:1 49:1 124:1 68:1 152:1 169:1 11183:1 41429:1 
0.306553955042691 12:1 96:1 49:1 138:1 68:1 165:1 175:1 5703:1 43183:1 
0.2139196773415014 1:1 85:1 53:1 136:1 68:1 152:1 170:1 8995:1 40883:1 
0.06659797269980011 25:1 96:1 46:1 137:1 56:1 166:1 171:1 16951:1 36269:1 
1 9:1 101:1 40:1 115:1 81:1 157:1 170:1 9631:1 34362:1 
1 9:1 97:1 40:1 137:1 81:1 151:1 173:1 9631:1 26747:1 
1 13:1 97:1 40:1 124:1 68:1 165:1 170:1 5155:1 38186:1 
0.002008451782445801 25:1 109:1 53:1 124:1 68:1 166:1 171:1 21839:1 49395:1 
1 22:1 95:1 51:1 113:1 56:1 166:1 169:1 12990:1 30212:1 
0.3874072263810476 1:1 92:1 28:1 138:1 56:1 151:1 170:1 6705:1 38476:1 
0.3857800441347481 8:1 85:1 29:1 138:1 56:1 152:1 172:1 13747:1 39682:1 
0.7253174988232202 1:1 109:1 36:1 123:1 57:1 162:1 171:1 14953:1 28508:1 
0.1965978092009952 25:1 109:1 28:1 129:1 56:1 152:1 173:1 16750:1 41049:1 
1 21:1 97:1 28:1 136:1 56:1 158:1 173:1 22563:1 39380:1 
0.8201586267955066 12:1 96:1 46:1 116:1 56:1 165:1 171:1 5002:1 33185:1 
0.8126206541037745 21:1 97:1 40:1 133:1 81:1 158:1 171:1 10283:1 33004:1 
0.2194188500322427 21:1 102:1 41:1 137:1 77:1 164:1 169:1 22131:1 40169:1 
1 25:1 107:1 28:1 137:1 56:1 164:1 169:1 1840:1 42366:1 
0.08702157807976228 25:1 109:1 28:1 136:1 56:1 161:1 170:1 1840:1 39951:1 
1 21:1 109:1 52:1 124:1 81:1 166:1 169:1 1618:1 33203:1 
0.1872166421231293 25:1 96:1 49:1 138:1 80:1 152:1 169:1 8474:1 45243:1 
0.3068967888945179 12:1 96:1 53:1 138:1 77:1 152:1 170:1 20514:1 49649:1 
0.4285565765349704 12:1 96:1 53:1 138:1 77:1 152:1 172:1 20514:1 26483:1 
0.3180117883950058 12:1 96:1 53:1 138:1 77:1 152:1 174:1 20514:1 42153:1 
0.09805358676399595 12:1 96:1 53:1 115:1 77:1 152:1 176:1 20514:1 37364:1 
0.2778755449529424 12:1 96:1 53:1 138:1 77:1 152:1 178:1 20514:1 48662:1 
0.1407295277225228 12:1 96:1 40:1 138:1 81:1 152:1 170:1 23933:1 37564:1 
0.2884034118898438 12:1 96:1 40:1 138:1 81:1 152:1 172:1 23933:1 42144:1 
1 12:1 96:1 40:1 137:1 81:1 152:1 174:1 23933:1 26421:1 
0.1661924875067964 25:1 105:1 28:1 126:1 56:1 152:1 169:1 4702:1 46860:1 
0.1000297063407065 25:1 108:1 28:1 123:1 56:1 141:1 171:1 9580:1 36741:1 
1 25:1 105:1 28:1 137:1 56:1 143:1 178:1 9580:1 46256:1 
0.1413975156691771 25:1 109:1 49:1 124:1 81:1 166:1 172:1 24577:1 34877:1 
0.0820207289547729 25:1 96:1 53:1 138:1 77:1 140:1 169:1 10148:1 40990:1 
0.06814036249272321 25:1 105:1 28:1 125:1 56:1 144:1 169:1 24686:1 47292:1 
0.228551490150472 25:1 96:1 28:1 138:1 56:1 152:1 171:1 18365:1 34734:1 
0.1347701283067372 12:1 96:1 53:1 138:1 56:1 161:1 171:1 10005:1 34734:1 
0.2723499124723877 25:1 109:1 53:1 113:1 68:1 152:1 169:1 3721:1 31670:1 
0.05833524960580035 25:1 109:1 28:1 136:1 56:1 151:1 172:1 2821:1 39819:1 
1 12:1 92:1 53:1 138:1 81:1 140:1 170:1 19559:1 45260:1 
0.02497468477500741 25:1 92:1 28:1 138:1 56:1 148:1 172:1 2048:1 30497:1 
0.3832114583804601 8:1 109:1 53:1 124:1 56:1 165:1 172:1 5768:1 26777:1 
0.2406704313900766 25:1 96:1 36:1 137:1 81:1 166:1 169:1 2048:1 43122:1 
0.06769075268762009 21:1 96:1 40:1 115:1 77:1 152:1 179:1 1618:1 32714:1 
0.2259755815549533 12:1 96:1 49:1 138:1 68:1 152:1 171:1 7985:1 41289:1 
0.5651458964689848 12:1 96:1 40:1 138:1 77:1 152:1 170:1 16560:1 29549:1 
1 12:1 96:1 40:1 137:1 77:1 152:1 172:1 16560:1 39703:1 
1 25:1 97:1 28:1 138:1 56:1 144:1 171:1 3438:1 36044:1 
0.1810840550808199 12:1 96:1 53:1 115:1 81:1 152:1 170:1 17463:1 47938:1 
1 12:1 96:1 53:1 124:1 81:1 166:1 172:1 17463:1 26614:1 
0.4147351140357309 21:1 106:1 32:1 116:1 68:1 165:1 173:1 21966:1 47025:1 
1 25:1 106:1 28:1 137:1 56:1 141:1 170:1 9418:1 38364:1 
1 12:1 96:1 53:1 137:1 81:1 161:1 170:1 19890:1 47993:1 
1 25:1 85:1 53:1 124:1 56:1 166:1 169:1 20529:1 42895:1 
1 12:1 96:1 53:1 124:1 81:1 152:1 169:1 15297:1 45365:1 
0.1153897628558223 25:1 96:1 53:1 137:1 81:1 152:1 169:1 21728:1 39968:1 
0.004094484842620943 21:1 96:1 28:1 133:1 56:1 165:1 172:1 1618:1 31308:1 
0.7545273047057416 21:1 109:1 40:1 124:1 77:1 166:1 169:1 18208:1 34715:1 
0.4576386638330405 12:1 96:1 53:1 115:1 77:1 152:1 170:1 2916:1 27913:1 
0.3764330467884796 12:1 96:1 53:1 136:1 77:1 142:1 172:1 2916:1 37857:1 
0.1547324168364898 25:1 96:1 49:1 116:1 68:1 165:1 177:1 9986:1 41889:1 
0.8333595717884131 12:1 109:1 40:1 124:1 56:1 154:1 169:1 24463:1 34172:1 
0.641012208663066 25:1 96:1 40:1 126:1 68:1 144:1 169:1 9443:1 43295:1 
0.3567399962881393 21:1 101:1 53:1 138:1 68:1 157:1 169:1 5436:1 36282:1 
0.1400036379754283 17:1 101:1 49:1 138:1 81:1 157:1 174:1 11553:1 26322:1 
0.05921273777692832 17:1 101:1 49:1 115:1 81:1 157:1 176:1 11553:1 26111:1 
0.3484195005138697 21:1 102:1 40:1 133:1 73:1 157:1 169:1 22131:1 34820:1 
0.444342735913858 21:1 101:1 46:1 137:1 77:1 157:1 169:1 10276:1 44596:1 
0.4769071005862483 25:1 96:1 46:1 136:1 56:1 151:1 170:1 23430:1 32659:1 
0.4689036546630381 25:1 105:1 28:1 124:1 56:1 153:1 169:1 9688:1 47292:1 
1 21:1 97:1 53:1 124:1 56:1 166:1 170:1 22563:1 40628:1 
0.208805292729455 25:1 109:1 53:1 137:1 69:1 166:1 169:1 15899:1 39345:1 
0.3656561615877529 25:1 109:1 53:1 130:1 81:1 153:1 174:1 19145:1 48779:1 
0.0466680096361764 25:1 109:1 53:1 138:1 81:1 140:1 174:1 24050:1 30563:1 
1 25:1 96:1 28:1 116:1 56:1 151:1 174:1 13215:1 27175:1 
0.06563325429515797 12:1 106:1 53:1 138:1 56:1 152:1 171:1 2446:1 34275:1 
0.00591649512671997 25:1 101:1 53:1 138:1 78:1 140:1 169:1 4773:1 37629:1 
0.8568670411181681 12:1 96:1 28:1 137:1 56:1 165:1 171:1 8800:1 34103:1 
0.7118669013591444 25:1 96:1 40:1 116:1 68:1 165:1 171:1 21988:1 32939:1 
0.8449124158987897 25:1 96:1 28:1 137:1 56:1 148:1 170:1 23525:1 35014:1 
1 21:1 96:1 45:1 136:1 56:1 152:1 170:1 5436:1 32398:1 
0.338587827371488 12:1 96:1 45:1 136:1 56:1 152:1 170:1 3055:1 38484:1 
0.3931586841751624 12:1 108:1 45:1 124:1 56:1 165:1 171:1 3055:1 29459:1 
1 25:1 97:1 28:1 138:1 56:1 143:1 172:1 23532:1 48095:1 
1 25:1 106:1 40:1 137:1 59:1 164:1 171:1 17925:1 38364:1 
0.2670652201535462 25:1 96:1 28:1 135:1 56:1 166:1 177:1 16750:1 34652:1 
0.4588153153081611 12:1 106:1 28:1 138:1 56:1 165:1 170:1 7788:1 37719:1 
1 12:1 109:1 28:1 129:1 56:1 151:1 172:1 7788:1 41479:1 
0.9608550522277231 25:1 106:1 40:1 116:1 77:1 165:1 170:1 7731:1 30884:1 
0.008632005745862497 25:1 96:1 50:1 133:1 81:1 152:1 170:1 22028:1 40026:1 
0.3178469201088999 21:1 96:1 28:1 137:1 56:1 165:1 169:1 2086:1 33028:1 
0.1805041678185405 25:1 96:1 53:1 138:1 56:1 164:1 170:1 18895:1 27124:1 
0.5766131162267891 12:1 96:1 40:1 138:1 81:1 141:1 171:1 2391:1 38040:1 
0.3891458026340432 25:1 96:1 28:1 137:1 56:1 152:1 169:1 8170:1 29520:1 
0.04169220505825306 25:1 109:1 28:1 124:1 56:1 166:1 170:1 8170:1 41816:1 
0.5955558241303015 25:1 96:1 40:1 137:1 81:1 165:1 170:1 21145:1 39609:1 
0.259277049350764 25:1 109:1 40:1 120:1 81:1 164:1 172:1 21145:1 47190:1 
1 12:1 107:1 53:1 136:1 81:1 152:1 170:1 8765:1 48090:1 
0.4591084728464224 25:1 105:1 53:1 135:1 56:1 152:1 169:1 16376:1 46860:1 
0.638979043860185 21:1 96:1 53:1 136:1 81:1 152:1 172:1 22131:1 41376:1 
1 12:1 96:1 52:1 124:1 77:1 164:1 170:1 6141:1 34629:1 
0.1820446388063532 21:1 97:1 51:1 133:1 74:1 163:1 178:1 3996:1 44332:1 
0.5371843603268994 21:1 107:1 41:1 137:1 77:1 164:1 169:1 1618:1 49064:1 
0.2756493589521702 12:1 96:1 53:1 138:1 81:1 140:1 172:1 11787:1 28288:1 
1 25:1 109:1 28:1 124:1 56:1 152:1 169:1 22028:1 42242:1 
0.03243210054419662 25:1 96:1 53:1 138:1 56:1 149:1 171:1 5334:1 45454:1 
0.04865883588357091 12:1 96:1 53:1 138:1 81:1 140:1 172:1 20725:1 43762:1 
0.0239930161522953 25:1 109:1 49:1 123:1 56:1 162:1 169:1 24026:1 34853:1 
1 25:1 96:1 53:1 124:1 77:1 166:1 172:1 10124:1 44969:1 
0.08926268842281025 25:1 108:1 50:1 113:1 68:1 152:1 169:1 3864:1 36741:1 
0.76310370454983 25:1 96:1 50:1 136:1 68:1 152:1 171:1 3864:1 45913:1 
0.4420444744152911 25:1 105:1 40:1 123:1 81:1 151:1 169:1 24026:1 47292:1 
1 25:1 107:1 41:1 116:1 77:1 141:1 169:1 6941:1 43862:1 
0.3271715845531107 25:1 95:1 28:1 138:1 56:1 141:1 171:1 10856:1 45992:1 
0.5310556321903706 25:1 109:1 53:1 114:1 81:1 152:1 169:1 24125:1 40990:1 
1 25:1 96:1 53:1 124:1 81:1 166:1 171:1 16261:1 31098:1 
0.2654233455940949 12:1 96:1 53:1 138:1 81:1 165:1 169:1 6369:1 44300:1 
0.7085762389856171 25:1 96:1 40:1 136:1 68:1 152:1 170:1 10136:1 41502:1 
0.4496116661970124 25:1 109:1 28:1 123:1 56:1 152:1 170:1 17260:1 39985:1 
0.4603364713084852 25:1 108:1 51:1 124:1 79:1 164:1 169:1 10902:1 48971:1 
1 23:1 96:1 53:1 116:1 81:1 161:1 179:1 22580:1 40026:1 
0.4338493148278222 21:1 96:1 51:1 137:1 81:1 166:1 169:1 18895:1 32398:1 
0.3701309833608367 25:1 109:1 53:1 124:1 56:1 161:1 169:1 5440:1 45142:1 
0.5736665393115034 25:1 96:1 53:1 133:1 81:1 165:1 169:1 20413:1 41912:1 
0.5465026611711626 21:1 109:1 40:1 124:1 81:1 152:1 169:1 18208:1 30169:1 
0.0138028143470007 4:1 109:1 28:1 138:1 56:1 152:1 169:1 17846:1 41479:1 
0.1562274590437151 1:1 109:1 29:1 138:1 56:1 152:1 171:1 16176:1 41479:1 
0.4320355408169732 12:1 96:1 53:1 138:1 57:1 163:1 172:1 20025:1 36158:1 
1 12:1 107:1 40:1 137:1 81:1 165:1 170:1 11429:1 48090:1 
0.8494291996388557 21:1 96:1 28:1 137:1 56:1 152:1 170:1 22563:1 41283:1 
0.3610982159802981 12:1 96:1 53:1 136:1 56:1 152:1 173:1 7114:1 37621:1 
0.1123543171816363 25:1 109:1 53:1 113:1 56:1 166:1 169:1 17910:1 34311:1 
0.2226803054370552 25:1 109:1 40:1 124:1 81:1 152:1 169:1 22055:1 28770:1 
0.1464739375796525 12:1 96:1 53:1 138:1 81:1 165:1 172:1 1454:1 34854:1 
0.2279315099980932 25:1 109:1 32:1 113:1 68:1 152:1 169:1 19603:1 29353:1 
0.7561396127614831 25:1 96:1 53:1 137:1 60:1 152:1 170:1 4624:1 39213:1 
0.1456876376621233 25:1 109:1 28:1 138:1 56:1 151:1 169:1 17260:1 43352:1 
0.1413050124738374 25:1 109:1 28:1 130:1 56:1 158:1 174:1 20648:1 48187:1 
1 25:1 102:1 53:1 137:1 56:1 151:1 171:1 23458:1 25436:1 
1 21:1 96:1 40:1 124:1 81:1 165:1 169:1 5436:1 37656:1 
0.1581782015159765 1:1 109:1 28:1 114:1 56:1 152:1 173:1 19020:1 41479:1 
0.4576420629295809 25:1 109:1 53:1 116:1 57:1 141:1 170:1 5782:1 41004:1 
0.886804419140747 25:1 96:1 28:1 137:1 56:1 152:1 170:1 6610:1 41175:1 
0.03010389624859571 25:1 109:1 28:1 124:1 56:1 143:1 171:1 6610:1 36783:1 
1 13:1 106:1 53:1 124:1 68:1 144:1 169:1 15899:1 31625:1 
1 25:1 96:1 40:1 116:1 56:1 165:1 171:1 23393:1 41429:1 
0.4621674124311059 25:1 101:1 53:1 137:1 56:1 164:1 169:1 14649:1 37448:1 
0.5407951404383592 25:1 109:1 53:1 136:1 56:1 152:1 170:1 14649:1 27964:1 
0.3376712499759076 21:1 96:1 32:1 138:1 56:1 144:1 172:1 22563:1 32368:1 
0.2086131002520902 25:1 85:1 40:1 136:1 77:1 166:1 170:1 17970:1 31240:1 
1 16:1 100:1 51:1 138:1 81:1 152:1 169:1 5913:1 43911:1 
1 16:1 97:1 51:1 136:1 81:1 152:1 172:1 5913:1 36695:1 
0.01204469156729863 21:1 96:1 40:1 138:1 56:1 152:1 172:1 5436:1 35485:1 
0.5120674173588943 25:1 85:1 41:1 115:1 56:1 142:1 170:1 10756:1 39995:1 
0.5393344089529315 25:1 96:1 53:1 137:1 81:1 166:1 169:1 24521:1 30645:1 
0.344512855201927 21:1 96:1 53:1 115:1 81:1 152:1 169:1 6941:1 31771:1 
0.3869345781238607 12:1 96:1 49:1 137:1 81:1 164:1 170:1 7042:1 41012:1 
0.4546192911765276 22:1 85:1 28:1 138:1 56:1 140:1 171:1 17556:1 27297:1 
1 25:1 96:1 53:1 133:1 56:1 152:1 169:1 3646:1 37662:1 
0.1653307574474498 25:1 109:1 40:1 135:1 81:1 152:1 173:1 17260:1 31392:1 
0.7888961464272425 21:1 107:1 40:1 136:1 81:1 152:1 169:1 5436:1 43855:1 
0.6857109253406064 1:1 109:1 28:1 133:1 56:1 158:1 173:1 17605:1 45874:1 
1 21:1 102:1 53:1 120:1 57:1 164:1 169:1 22563:1 43375:1 
0.106033877309571 1:1 85:1 40:1 138:1 81:1 166:1 173:1 11519:1 42390:1 
0.4824288420605303 25:1 96:1 28:1 123:1 56:1 162:1 170:1 16624:1 41581:1 
1 12:1 96:1 50:1 124:1 81:1 164:1 171:1 7713:1 35836:1 
1 22:1 96:1 53:1 136:1 78:1 151:1 173:1 8400:1 39213:1 
0.1267742722226863 25:1 85:1 53:1 136:1 56:1 166:1 170:1 16750:1 41982:1 
1 1:1 108:1 53:1 138:1 81:1 143:1 169:1 17253:1 29435:1 
1 25:1 106:1 32:1 137:1 68:1 165:1 170:1 2703:1 28707:1 
1 25:1 96:1 53:1 136:1 56:1 152:1 175:1 16624:1 30616:1 
0.07496111089521935 25:1 96:1 28:1 138:1 56:1 165:1 178:1 3714:1 35621:1 
0.1601817420324941 25:1 96:1 53:1 138:1 56:1 141:1 170:1 24572:1 39213:1 
0.01048955897605755 12:1 96:1 53:1 138:1 81:1 143:1 171:1 14484:1 33811:1 
0.2378753320638966 1:1 109:1 28:1 137:1 56:1 152:1 171:1 23770:1 41387:1 
0.7075770810529787 25:1 96:1 53:1 115:1 57:1 152:1 170:1 8884:1 35014:1 
0.3852692876506088 25:1 109:1 31:1 125:1 81:1 165:1 169:1 9444:1 41567:1 
1 25:1 88:1 53:1 113:1 56:1 163:1 169:1 10463:1 27290:1 
0.346438978487788 25:1 85:1 53:1 135:1 56:1 166:1 170:1 10463:1 33566:1 
0.3259111393198462 25:1 107:1 53:1 138:1 56:1 143:1 171:1 10463:1 27103:1 
0.4072658807630992 21:1 107:1 31:1 137:1 79:1 141:1 169:1 1618:1 49064:1 
1 25:1 85:1 53:1 136:1 81:1 152:1 169:1 18493:1 35911:1 
1 12:1 96:1 28:1 137:1 56:1 152:1 171:1 14484:1 33693:1 
0.2055210043955155 25:1 85:1 28:1 138:1 56:1 141:1 172:1 15407:1 32485:1 
0.335714492727301 25:1 96:1 29:1 138:1 81:1 143:1 170:1 16750:1 33568:1 
1 25:1 87:1 29:1 124:1 81:1 166:1 172:1 16750:1 30306:1 
1 3:1 96:1 53:1 138:1 57:1 152:1 169:1 5577:1 40206:1 
0.1484547372316334 12:1 108:1 31:1 138:1 81:1 140:1 172:1 15477:1 29459:1 
1 1:1 97:1 28:1 138:1 56:1 157:1 171:1 10167:1 36044:1 
1 21:1 93:1 53:1 120:1 56:1 164:1 169:1 22563:1 33171:1 
0.9666165214917535 25:1 96:1 28:1 137:1 56:1 164:1 177:1 21091:1 26282:1 
1 12:1 98:1 53:1 136:1 56:1 152:1 169:1 21191:1 36966:1 
1 21:1 96:1 49:1 136:1 56:1 165:1 169:1 22563:1 38507:1 
0.6726196324486232 21:1 109:1 28:1 137:1 56:1 152:1 172:1 5436:1 43607:1 
0.3807296772680723 25:1 109:1 49:1 124:1 56:1 166:1 169:1 18878:1 47513:1 
0.3157836721229579 25:1 96:1 53:1 138:1 77:1 144:1 169:1 22784:1 29369:1 
1 3:1 109:1 53:1 116:1 68:1 165:1 171:1 8022:1 27763:1 
0.4993187829156577 25:1 109:1 40:1 137:1 81:1 152:1 170:1 9954:1 39932:1 
0.07203212411475717 25:1 109:1 53:1 124:1 68:1 141:1 169:1 15203:1 33442:1 
1 25:1 96:1 53:1 113:1 81:1 165:1 169:1 8713:1 41502:1 
1 25:1 85:1 28:1 124:1 56:1 152:1 169:1 4518:1 32676:1 
0.6111799166785477 25:1 109:1 28:1 137:1 56:1 166:1 170:1 15407:1 41479:1 
0.0377705526616224 25:1 109:1 53:1 124:1 81:1 166:1 170:1 3663:1 49378:1 
0.03841898715715826 12:1 96:1 49:1 137:1 79:1 165:1 171:1 15239:1 46742:1 
0.1294531244404671 25:1 109:1 28:1 124:1 56:1 164:1 171:1 17917:1 47425:1 
0.03934086908346403 21:1 109:1 40:1 137:1 74:1 149:1 171:1 21663:1 42445:1 
0.03799240827075216 25:1 109:1 28:1 124:1 56:1 164:1 176:1 17260:1 30169:1 
1 12:1 96:1 52:1 124:1 81:1 152:1 169:1 10145:1 36919:1 
0.9289773773781483 12:1 96:1 52:1 124:1 81:1 166:1 170:1 10145:1 48851:1 
0.2040712547633061 14:1 98:1 28:1 136:1 56:1 165:1 170:1 11683:1 38678:1 
0.3742074530291091 14:1 108:1 28:1 137:1 56:1 164:1 171:1 11683:1 29459:1 
0.3133331032148874 21:1 96:1 45:1 137:1 74:1 151:1 172:1 22563:1 48421:1 
0.09215825951003145 25:1 96:1 28:1 138:1 56:1 152:1 172:1 4624:1 38372:1 
1 25:1 95:1 28:1 123:1 56:1 166:1 172:1 18473:1 25713:1 
1 11:1 109:1 53:1 123:1 56:1 162:1 176:1 984:1 46757:1 
0.8233845028052215 25:1 106:1 39:1 123:1 81:1 166:1 170:1 22028:1 35730:1 
0.2717718498030809 22:1 95:1 53:1 138:1 67:1 152:1 169:1 11001:1 49374:1 
0.2825756764023003 25:1 106:1 28:1 138:1 56:1 154:1 170:1 10823:1 38840:1 
1 22:1 109:1 53:1 137:1 56:1 152:1 173:1 14111:1 33534:1 
0.2076028066216411 25:1 109:1 50:1 124:1 81:1 152:1 169:1 8805:1 35222:1 
0.1787847304116174 9:1 93:1 49:1 123:1 68:1 152:1 170:1 12890:1 46497:1 
0.3736938063461504 21:1 96:1 40:1 136:1 81:1 165:1 175:1 21966:1 35683:1 
0.1466878986648825 25:1 101:1 53:1 138:1 81:1 151:1 169:1 11343:1 37629:1 
0.001199624289702053 25:1 109:1 53:1 129:1 81:1 166:1 173:1 11343:1 36072:1 
1 23:1 96:1 53:1 138:1 56:1 143:1 172:1 17645:1 34775:1 
0.2722424379525963 12:1 96:1 51:1 138:1 81:1 166:1 173:1 10046:1 27247:1 
1 17:1 101:1 31:1 124:1 68:1 164:1 170:1 6384:1 31121:1 
0.8162253072438014 25:1 96:1 50:1 137:1 68:1 164:1 170:1 2822:1 33886:1 
0.1156477355501099 25:1 96:1 28:1 138:1 56:1 149:1 171:1 16624:1 38106:1 
0.1643437438744663 25:1 109:1 53:1 123:1 56:1 162:1 169:1 13312:1 34053:1 
0.3262964555120945 9:1 93:1 53:1 123:1 81:1 152:1 169:1 5536:1 30448:1 
0.3582367083197386 8:1 109:1 28:1 136:1 56:1 151:1 174:1 20814:1 38422:1 
0.3955475517954154 25:1 109:1 53:1 137:1 64:1 152:1 170:1 23393:1 49227:1 
0.06242096112681669 25:1 109:1 53:1 123:1 68:1 162:1 169:1 24517:1 39186:1 
0.02020496766056056 25:1 109:1 53:1 113:1 81:1 164:1 169:1 1997:1 28375:1 
0.09801608354758679 25:1 96:1 53:1 138:1 81:1 140:1 171:1 3646:1 47659:1 
0.2498265342780027 25:1 109:1 53:1 124:1 56:1 164:1 169:1 23495:1 47425:1 
0.1576910626351446 25:1 96:1 28:1 138:1 56:1 165:1 173:1 23430:1 30605:1 
0.1562765641213712 21:1 96:1 40:1 137:1 81:1 151:1 171:1 9615:1 47010:1 
0.0299108266717196 21:1 96:1 32:1 137:1 68:1 152:1 174:1 22563:1 32398:1 
0.07714760273279468 25:1 96:1 28:1 138:1 56:1 152:1 169:1 16094:1 33693:1 
0.2228645852083735 12:1 96:1 53:1 138:1 81:1 152:1 171:1 21710:1 46439:1 
0.0428332658480419 12:1 96:1 53:1 136:1 81:1 151:1 174:1 21710:1 32198:1 
1 25:1 106:1 45:1 137:1 56:1 164:1 170:1 8407:1 37397:1 
0.09267209724323169 25:1 106:1 28:1 138:1 56:1 163:1 170:1 10842:1 48483:1 
0.6109156336724887 21:1 101:1 50:1 115:1 78:1 157:1 169:1 22563:1 32850:1 
0.5693295566384331 17:1 101:1 49:1 137:1 78:1 144:1 170:1 8121:1 43101:1 
0.2141802118556458 21:1 109:1 28:1 138:1 56:1 157:1 170:1 10283:1 40951:1 
1 17:1 96:1 49:1 124:1 77:1 152:1 171:1 12394:1 39959:1 
0.233296096608491 21:1 109:1 29:1 138:1 81:1 151:1 176:1 10276:1 34583:1 
0.09972328159032906 21:1 96:1 53:1 137:1 81:1 152:1 170:1 5436:1 45916:1 
0.2924746247080348 25:1 109:1 53:1 135:1 81:1 152:1 171:1 10148:1 47311:1 
1 21:1 96:1 49:1 124:1 68:1 152:1 170:1 5436:1 46439:1 
1 25:1 96:1 53:1 113:1 56:1 152:1 169:1 16658:1 43848:1 
0.118693772862251 25:1 98:1 32:1 137:1 56:1 165:1 169:1 14984:1 29477:1 
0.07010913638819986 25:1 109:1 53:1 124:1 60:1 153:1 169:1 14592:1 43352:1 
1 25:1 96:1 53:1 125:1 81:1 166:1 169:1 18623:1 37927:1 
1 12:1 95:1 41:1 116:1 68:1 141:1 169:1 9998:1 36544:1 
0.2540830133268209 21:1 97:1 32:1 120:1 81:1 140:1 174:1 22563:1 34165:1 
1 3:1 96:1 28:1 115:1 56:1 142:1 172:1 19223:1 27491:1 
1 3:1 87:1 28:1 114:1 56:1 152:1 173:1 19223:1 33312:1 
1 3:1 96:1 31:1 138:1 56:1 163:1 170:1 8583:1 44711:1 
0.3456278919619621 21:1 96:1 49:1 138:1 81:1 152:1 171:1 3996:1 40816:1 
0.6686065020526283 12:1 96:1 49:1 138:1 77:1 161:1 174:1 16087:1 40816:1 
0.1486504738906633 12:1 96:1 49:1 136:1 68:1 151:1 171:1 9875:1 42755:1 
0.05353819555383663 12:1 108:1 49:1 123:1 68:1 142:1 172:1 9875:1 29459:1 
0.9529749354627545 21:1 96:1 40:1 136:1 68:1 141:1 177:1 4624:1 40816:1 
0.08783942251689712 25:1 96:1 28:1 138:1 56:1 152:1 172:1 3598:1 27784:1 
1 22:1 109:1 53:1 123:1 56:1 166:1 171:1 23754:1 43624:1 
0.2685797982090046 25:1 96:1 53:1 123:1 56:1 162:1 170:1 3009:1 39266:1 
0.2669569656321493 12:1 106:1 53:1 138:1 81:1 163:1 170:1 14537:1 36709:1 
1 25:1 95:1 50:1 137:1 68:1 165:1 169:1 22028:1 25713:1 
0.3434529312648139 25:1 109:1 50:1 114:1 68:1 152:1 171:1 22028:1 41791:1 
0.7622420379524214 25:1 108:1 40:1 138:1 81:1 140:1 173:1 14159:1 29435:1 
1 12:1 96:1 40:1 124:1 59:1 164:1 169:1 6583:1 31308:1 
0.08450346452436601 21:1 96:1 50:1 138:1 56:1 151:1 178:1 17552:1 34041:1 
0.776104397438411 4:1 109:1 40:1 114:1 68:1 152:1 169:1 21963:1 41479:1 
1 12:1 96:1 40:1 116:1 77:1 165:1 173:1 14484:1 33811:1 
1 12:1 109:1 49:1 124:1 81:1 165:1 170:1 5081:1 40881:1 
0.4819199316094742 25:1 96:1 40:1 137:1 77:1 141:1 169:1 16152:1 31296:1 
0.4312622313558749 25:1 96:1 49:1 136:1 68:1 152:1 170:1 16152:1 31296:1 
0.2700710482060799 9:1 93:1 49:1 123:1 81:1 162:1 174:1 6986:1 34293:1 
0.06992238792821257 25:1 108:1 53:1 116:1 56:1 152:1 170:1 7564:1 36741:1 
0.2656585463897603 25:1 106:1 52:1 136:1 81:1 152:1 170:1 10511:1 42714:1 
0.4904166030280499 21:1 100:1 40:1 137:1 56:1 165:1 169:1 22563:1 37667:1 
0.1455100614510819 25:1 109:1 28:1 136:1 56:1 141:1 169:1 14731:1 35469:1 
0.1008248023262659 12:1 96:1 53:1 138:1 80:1 165:1 170:1 13651:1 30183:1 
0.1494166762775093 12:1 96:1 53:1 138:1 56:1 152:1 171:1 20425:1 45154:1 
0.364016757951513 12:1 96:1 53:1 136:1 56:1 152:1 173:1 20425:1 29819:1 
0.1800883585800242 25:1 96:1 53:1 116:1 56:1 165:1 170:1 16658:1 48757:1 
0.2580845196606055 21:1 109:1 31:1 124:1 56:1 165:1 169:1 18901:1 28845:1 
0.1907191168425322 25:1 96:1 49:1 138:1 59:1 152:1 172:1 4116:1 47412:1 
0.9521204460572608 8:1 109:1 40:1 134:1 81:1 166:1 171:1 12742:1 36044:1 
0.2043619963931475 25:1 106:1 36:1 138:1 68:1 159:1 169:1 11315:1 31625:1 
0.2347809496539703 25:1 103:1 36:1 138:1 68:1 163:1 171:1 11315:1 29088:1 
1 19:1 108:1 53:1 138:1 64:1 140:1 171:1 4359:1 29435:1 
1 23:1 107:1 53:1 136:1 81:1 152:1 169:1 13624:1 49064:1 
0.09367400788681561 25:1 96:1 32:1 116:1 68:1 165:1 169:1 21445:1 31876:1 
0.05590543238880627 1:1 109:1 28:1 138:1 56:1 165:1 179:1 3121:1 27032:1 
0.4611034394346649 25:1 109:1 29:1 137:1 56:1 152:1 170:1 2303:1 41387:1 
0.3401551481546948 25:1 109:1 53:1 137:1 81:1 165:1 172:1 19197:1 43926:1 
0.5482291644640942 25:1 109:1 53:1 137:1 81:1 166:1 169:1 19197:1 31692:1 
0.4242897499520038 25:1 96:1 28:1 137:1 56:1 152:1 169:1 14596:1 37974:1 
0.1792829929930247 25:1 109:1 28:1 124:1 56:1 153:1 170:1 14596:1 26503:1 
1 21:1 101:1 53:1 136:1 56:1 152:1 169:1 5436:1 46190:1 
0.0557982484480947 25:1 109:1 28:1 137:1 56:1 166:1 176:1 15407:1 34877:1 
0.01898336804000545 12:1 96:1 53:1 136:1 56:1 152:1 170:1 5734:1 30455:1 
1 25:1 96:1 28:1 120:1 56:1 166:1 173:1 18869:1 32291:1 
0.9865462657681962 12:1 96:1 50:1 137:1 56:1 153:1 171:1 23455:1 29852:1 
0.4547518212349861 25:1 96:1 49:1 136:1 69:1 152:1 169:1 23538:1 34103:1 
0.6680245811623441 21:1 96:1 40:1 138:1 77:1 152:1 169:1 19937:1 44711:1 
0.2133540587769346 12:1 96:1 49:1 137:1 68:1 166:1 170:1 19982:1 35047:1 
0.9174989194433674 21:1 96:1 53:1 136:1 56:1 152:1 171:1 5436:1 45180:1 
0.9358578231725258 21:1 99:1 40:1 116:1 56:1 165:1 169:1 21966:1 32439:1 
0.1889947904933204 1:1 109:1 28:1 124:1 56:1 166:1 172:1 14239:1 43355:1 
0.3481033691096556 25:1 109:1 28:1 131:1 56:1 152:1 174:1 16750:1 31971:1 
0.05059742806652019 25:1 109:1 28:1 116:1 56:1 141:1 176:1 21595:1 33494:1 
0.5083669830906971 25:1 85:1 53:1 138:1 56:1 165:1 170:1 8765:1 48533:1 
0.3291125786337091 25:1 109:1 53:1 136:1 81:1 149:1 172:1 24379:1 35623:1 
1 25:1 96:1 28:1 113:1 56:1 152:1 171:1 10592:1 30950:1 
0.7631067426764076 12:1 96:1 53:1 136:1 56:1 152:1 171:1 6221:1 29538:1 
0.4155504884614794 25:1 108:1 40:1 124:1 68:1 165:1 169:1 22028:1 32460:1 
0.01500585446308709 25:1 109:1 52:1 137:1 81:1 164:1 175:1 15844:1 45436:1 
0.1196536756120432 25:1 96:1 28:1 123:1 56:1 162:1 173:1 5692:1 46710:1 
1 25:1 96:1 53:1 135:1 56:1 144:1 170:1 21732:1 33886:1 
1 25:1 107:1 53:1 116:1 56:1 165:1 171:1 21732:1 26865:1 
0.7221406514025863 25:1 96:1 53:1 138:1 56:1 152:1 169:1 16750:1 38107:1 
0.7500304494140871 25:1 109:1 53:1 125:1 81:1 165:1 170:1 19493:1 44713:1 
0.1924510286781125 25:1 109:1 53:1 137:1 81:1 163:1 173:1 16750:1 48852:1 
0.0990422904421001 25:1 109:1 53:1 135:1 81:1 163:1 169:1 24123:1 43624:1 
1 23:1 107:1 53:1 136:1 81:1 152:1 169:1 19133:1 49064:1 
1 23:1 107:1 53:1 114:1 81:1 164:1 169:1 19133:1 49064:1 
1 25:1 96:1 32:1 124:1 68:1 144:1 169:1 5703:1 34545:1 
1 4:1 96:1 40:1 116:1 81:1 165:1 171:1 22563:1 30616:1 
0.3489542199111297 21:1 92:1 39:1 137:1 81:1 164:1 169:1 18895:1 31452:1 
0.4793412938647849 25:1 109:1 28:1 137:1 56:1 157:1 170:1 19944:1 42388:1 
0.8300270522126144 21:1 85:1 32:1 133:1 79:1 163:1 170:1 21671:1 34842:1 
0.3984542450280831 21:1 107:1 29:1 137:1 77:1 164:1 169:1 18208:1 43855:1 
1 21:1 105:1 40:1 127:1 81:1 152:1 172:1 22131:1 47292:1 
0.001454656170998025 21:1 97:1 40:1 137:1 56:1 165:1 171:1 24311:1 28358:1 
1 25:1 107:1 29:1 133:1 81:1 152:1 169:1 16658:1 39130:1 
1 12:1 96:1 49:1 124:1 79:1 144:1 169:1 14458:1 30432:1 
0.0242329903249105 21:1 96:1 51:1 116:1 81:1 165:1 171:1 22563:1 34626:1 
0.6015448393501806 25:1 109:1 31:1 136:1 56:1 152:1 170:1 12791:1 26619:1 
1 21:1 109:1 28:1 136:1 56:1 152:1 169:1 7430:1 41152:1 
0.1169010925689729 25:1 109:1 28:1 125:1 56:1 166:1 174:1 18626:1 36048:1 
0.2324083664851639 25:1 97:1 53:1 138:1 56:1 148:1 169:1 11319:1 37804:1 
0.2495997709304375 25:1 109:1 28:1 129:1 56:1 144:1 170:1 10575:1 41387:1 
0.1356349318722643 25:1 96:1 53:1 137:1 56:1 143:1 173:1 16658:1 35014:1 
1 12:1 99:1 40:1 130:1 56:1 165:1 169:1 18198:1 36499:1 
1 12:1 109:1 28:1 124:1 56:1 166:1 175:1 19994:1 30382:1 
0.01172099815032794 25:1 109:1 40:1 129:1 56:1 161:1 172:1 5653:1 47324:1 
0.2976465506327694 21:1 101:1 42:1 137:1 59:1 166:1 170:1 19937:1 38298:1 
0.09981869891981851 25:1 109:1 28:1 137:1 56:1 152:1 170:1 17719:1 34147:1 
0.05131230424841611 25:1 109:1 53:1 124:1 56:1 166:1 169:1 9418:1 34841:1 
0.1751264381321068 25:1 109:1 40:1 124:1 81:1 166:1 169:1 5801:1 34412:1 
1 21:1 109:1 40:1 124:1 81:1 164:1 170:1 21527:1 34241:1 
0.476707393538914 25:1 109:1 40:1 126:1 81:1 164:1 171:1 16249:1 39802:1 
0.4177163232522287 25:1 96:1 28:1 115:1 56:1 152:1 170:1 18895:1 40472:1 
0.05172164116523481 12:1 96:1 53:1 138:1 56:1 165:1 170:1 15743:1 47710:1 
0.1711543555291684 25:1 95:1 40:1 138:1 68:1 162:1 172:1 22784:1 25022:1 
1 25:1 106:1 53:1 125:1 68:1 166:1 170:1 22563:1 32672:1 
1 22:1 97:1 53:1 138:1 81:1 165:1 169:1 7943:1 46278:1 
1 25:1 109:1 53:1 124:1 81:1 166:1 171:1 3454:1 35912:1 
0.3139579250860128 25:1 105:1 53:1 113:1 81:1 164:1 169:1 9580:1 47292:1 
0.3332168001022889 21:1 100:1 40:1 137:1 69:1 152:1 170:1 3996:1 41625:1 
0.03258001631960266 25:1 96:1 28:1 123:1 56:1 166:1 173:1 18895:1 38070:1 
0.4433566691056622 12:1 95:1 53:1 138:1 56:1 152:1 169:1 13341:1 36544:1 
1 12:1 98:1 39:1 138:1 68:1 153:1 169:1 13342:1 36453:1 
1 12:1 97:1 39:1 138:1 68:1 144:1 171:1 13342:1 46833:1 
0.0375820860412313 17:1 101:1 28:1 138:1 56:1 157:1 170:1 4669:1 46502:1 
1 21:1 107:1 28:1 129:1 56:1 152:1 169:1 10572:1 28682:1 
1 21:1 96:1 28:1 137:1 56:1 166:1 171:1 10572:1 26710:1 
0.3424147086316525 25:1 109:1 28:1 138:1 56:1 159:1 173:1 1957:1 41479:1 
0.1580902109908826 25:1 108:1 53:1 138:1 81:1 140:1 169:1 5688:1 29435:1 
0.0742927396104547 25:1 109:1 49:1 136:1 68:1 163:1 169:1 17755:1 29353:1 
0.8357717978995467 25:1 96:1 40:1 125:1 68:1 166:1 170:1 16990:1 33931:1 
1 12:1 97:1 53:1 138:1 68:1 152:1 169:1 9202:1 48334:1 
0.2186914956067254 21:1 96:1 40:1 133:1 69:1 152:1 170:1 9615:1 41823:1 
0.07624458903814929 12:1 96:1 49:1 137:1 68:1 152:1 174:1 17094:1 41823:1 
1 12:1 109:1 40:1 137:1 68:1 152:1 172:1 2174:1 38692:1 
1 12:1 96:1 53:1 137:1 81:1 144:1 170:1 16981:1 41904:1 
0.1925820303663231 25:1 109:1 40:1 116:1 68:1 165:1 173:1 13963:1 41482:1 
1 18:1 109:1 53:1 130:1 56:1 166:1 171:1 9916:1 41479:1 
0.9558232703144982 25:1 102:1 46:1 138:1 81:1 152:1 169:1 16750:1 28618:1 
0.3263409236661034 25:1 109:1 53:1 124:1 74:1 164:1 172:1 20786:1 48292:1 
0.1802631902117098 25:1 109:1 53:1 135:1 81:1 163:1 171:1 8494:1 32291:1 
0.7619681362392367 25:1 109:1 53:1 125:1 81:1 152:1 171:1 7562:1 43624:1 
0.1192873779868534 25:1 109:1 53:1 138:1 81:1 144:1 173:1 8584:1 26550:1 
0.7362360558461737 25:1 102:1 53:1 136:1 81:1 166:1 169:1 7731:1 45934:1 
1 25:1 107:1 32:1 116:1 56:1 165:1 169:1 17629:1 47791:1 
0.05097956668227097 25:1 105:1 28:1 113:1 56:1 164:1 169:1 9580:1 47292:1 
0.6190852412583808 12:1 96:1 40:1 136:1 77:1 152:1 171:1 21437:1 43740:1 
0.2834485462544609 21:1 96:1 53:1 120:1 81:1 164:1 170:1 18895:1 43738:1 
0.08236592921677231 25:1 109:1 28:1 135:1 56:1 164:1 169:1 12380:1 48755:1 
0.9190186094080666 25:1 96:1 28:1 137:1 56:1 165:1 172:1 12380:1 46834:1 
1 25:1 107:1 41:1 135:1 81:1 165:1 169:1 19108:1 42374:1 
0.3257338678090919 25:1 109:1 41:1 124:1 81:1 152:1 171:1 19108:1 36755:1 
1 25:1 96:1 53:1 124:1 69:1 143:1 169:1 12026:1 41012:1 
0.4089413526502904 12:1 96:1 53:1 115:1 81:1 158:1 169:1 16283:1 39195:1 
1 25:1 87:1 28:1 113:1 56:1 166:1 175:1 16750:1 30306:1 
0.02981982271253661 1:1 85:1 31:1 136:1 81:1 152:1 170:1 8995:1 49069:1 
1 3:1 96:1 53:1 115:1 56:1 152:1 173:1 5577:1 42039:1 
0.2952224928870941 12:1 96:1 40:1 115:1 81:1 152:1 170:1 16064:1 43767:1 
0.3325763338041777 12:1 96:1 40:1 138:1 68:1 152:1 170:1 19038:1 44137:1 
0.1254218428282229 12:1 96:1 40:1 138:1 68:1 152:1 170:1 19408:1 34992:1 
0.7855011296506982 12:1 96:1 40:1 136:1 68:1 141:1 171:1 10263:1 43784:1 
1 12:1 109:1 40:1 124:1 68:1 164:1 172:1 5703:1 41353:1 
1 9:1 93:1 53:1 121:1 56:1 156:1 169:1 9163:1 37129:1 
0.7020841497930923 9:1 93:1 37:1 128:1 81:1 166:1 169:1 12400:1 47019:1 
1 14:1 96:1 41:1 137:1 77:1 166:1 169:1 4746:1 42981:1 
1 12:1 96:1 53:1 124:1 56:1 165:1 169:1 6567:1 35493:1 
0.3478949076924325 25:1 109:1 28:1 113:1 56:1 151:1 173:1 23453:1 45874:1 
1 25:1 85:1 53:1 123:1 56:1 166:1 169:1 21145:1 28904:1 
0.2000801768370877 1:1 95:1 53:1 138:1 81:1 165:1 169:1 4175:1 46116:1 
0.6763751825847572 12:1 96:1 40:1 137:1 77:1 164:1 171:1 17980:1 33715:1 
0.1117186319261956 25:1 96:1 28:1 138:1 56:1 144:1 173:1 23430:1 47988:1 
0.1491750195026232 25:1 109:1 53:1 136:1 81:1 152:1 169:1 10310:1 48755:1 
1 14:1 96:1 46:1 125:1 56:1 152:1 169:1 4746:1 42981:1 
0.8614684638479666 12:1 106:1 28:1 138:1 56:1 165:1 176:1 17740:1 38364:1 
1 12:1 96:1 53:1 116:1 56:1 144:1 170:1 6567:1 30432:1 
1 25:1 96:1 49:1 124:1 56:1 166:1 170:1 4041:1 31771:1 
0.6003849344169208 21:1 109:1 53:1 137:1 56:1 152:1 169:1 19937:1 31296:1 
0.4693908223493957 25:1 96:1 53:1 138:1 56:1 164:1 169:1 21145:1 35066:1 
0.0267527022969619 21:1 96:1 28:1 138:1 56:1 152:1 170:1 22563:1 38487:1 
0.861691375060102 4:1 85:1 28:1 138:1 56:1 140:1 169:1 22429:1 39422:1 
0.07512352228082306 25:1 109:1 28:1 135:1 56:1 164:1 171:1 17272:1 43660:1 
0.4460907149468976 25:1 96:1 28:1 137:1 56:1 148:1 170:1 12278:1 40006:1 
0.05620492315020052 25:1 96:1 53:1 138:1 56:1 144:1 171:1 6663:1 48151:1 
1 18:1 102:1 28:1 138:1 56:1 151:1 172:1 595:1 27344:1 
0.8759028011166316 25:1 107:1 40:1 137:1 81:1 152:1 169:1 22977:1 42366:1 
0.3972255315109114 14:1 98:1 28:1 126:1 56:1 154:1 172:1 17576:1 46830:1 
0.06952515767040927 14:1 98:1 42:1 112:1 56:1 140:1 170:1 22101:1 35548:1 
0.4882474577634557 25:1 85:1 28:1 116:1 56:1 141:1 186:1 14927:1 34966:1 
1 1:1 88:1 53:1 137:1 56:1 141:1 176:1 10237:1 35222:1 
1 4:1 85:1 29:1 138:1 81:1 140:1 170:1 10493:1 28904:1 
0.04491723790871745 21:1 107:1 40:1 137:1 56:1 164:1 169:1 2086:1 42366:1 
0.4502628760580374 25:1 108:1 53:1 138:1 81:1 163:1 170:1 11843:1 29435:1 
0.7040702532295219 12:1 85:1 28:1 112:1 56:1 140:1 172:1 8800:1 29964:1 
1 25:1 96:1 28:1 137:1 56:1 152:1 171:1 8850:1 41012:1 
0.7945890479869253 25:1 96:1 53:1 123:1 56:1 165:1 171:1 12764:1 45295:1 
1 12:1 109:1 28:1 129:1 56:1 166:1 171:1 8523:1 35324:1 
1 12:1 96:1 53:1 125:1 73:1 165:1 171:1 9730:1 35334:1 
0.2442493314313362 25:1 96:1 28:1 123:1 56:1 162:1 169:1 24128:1 48105:1 
0.03362174073291987 25:1 109:1 28:1 136:1 56:1 144:1 179:1 10842:1 28239:1 
1 21:1 109:1 40:1 137:1 56:1 153:1 169:1 21663:1 35980:1 
1 25:1 96:1 53:1 124:1 81:1 166:1 169:1 21071:1 45778:1 
0.07370920988561751 25:1 109:1 28:1 138:1 56:1 165:1 178:1 2821:1 34683:1 
0.1448887591358339 25:1 96:1 28:1 115:1 56:1 152:1 173:1 18448:1 34459:1 
0.2383191382545235 12:1 96:1 53:1 136:1 81:1 152:1 170:1 13009:1 45381:1 
0.1508439882271436 12:1 108:1 53:1 124:1 81:1 166:1 171:1 13009:1 29459:1 
0.6807278083627969 14:1 98:1 49:1 136:1 68:1 152:1 170:1 12270:1 44915:1 
0.1423173546982505 14:1 108:1 49:1 124:1 68:1 156:1 171:1 12270:1 29459:1 
1 21:1 96:1 40:1 128:1 81:1 165:1 173:1 18208:1 42981:1 
0.05645863618047578 25:1 96:1 53:1 138:1 81:1 140:1 171:1 10814:1 30014:1 
0.1713489626914564 12:1 96:1 53:1 138:1 56:1 156:1 173:1 17026:1 48004:1 
0.8697063333757829 12:1 96:1 40:1 138:1 81:1 140:1 174:1 23275:1 48708:1 
0.2331787267611001 21:1 102:1 42:1 137:1 68:1 165:1 170:1 22131:1 25758:1 
1 25:1 87:1 28:1 137:1 56:1 152:1 169:1 6579:1 32751:1 
0.2486454447182249 25:1 109:1 28:1 124:1 56:1 152:1 170:1 6579:1 42645:1 
0.880516159178523 25:1 96:1 28:1 137:1 56:1 152:1 172:1 6579:1 27794:1 
0.004907028794474975 25:1 109:1 28:1 124:1 56:1 143:1 171:1 16152:1 28770:1 
0.1890594338687199 12:1 96:1 53:1 136:1 81:1 152:1 170:1 10925:1 35014:1 
1 12:1 108:1 28:1 137:1 56:1 152:1 172:1 12931:1 29540:1 
0.0846857358123273 11:1 95:1 40:1 134:1 77:1 152:1 169:1 259:1 30212:1 
0.7793472013369855 12:1 96:1 49:1 125:1 81:1 148:1 172:1 23891:1 44768:1 
0.6712540852124652 8:1 109:1 28:1 123:1 56:1 162:1 169:1 20695:1 28375:1 
0.1189843112280389 8:1 96:1 28:1 138:1 56:1 140:1 178:1 20695:1 38915:1 
0.1317350447267874 25:1 96:1 53:1 138:1 56:1 152:1 174:1 24676:1 31418:1 
0.05268959020476511 25:1 109:1 28:1 138:1 56:1 152:1 182:1 17260:1 40646:1 
0.2219237923547794 25:1 96:1 53:1 136:1 81:1 152:1 170:1 5703:1 27794:1 
0.07809282523042729 12:1 96:1 49:1 136:1 68:1 152:1 171:1 3065:1 31316:1 
0.3991906778393559 1:1 85:1 53:1 136:1 68:1 152:1 170:1 18277:1 37907:1 
0.05829075573887539 25:1 109:1 28:1 123:1 56:1 164:1 169:1 22784:1 29353:1 
0.2299271643491372 25:1 96:1 28:1 138:1 56:1 143:1 173:1 22784:1 30907:1 
0.4697785913212773 25:1 107:1 28:1 138:1 56:1 152:1 169:1 16939:1 42366:1 
0.0903503836725652 25:1 109:1 49:1 129:1 56:1 164:1 169:1 17738:1 29353:1 
0.1804129218301349 21:1 84:1 28:1 138:1 56:1 154:1 175:1 22563:1 41277:1 
0.256783231259634 25:1 109:1 53:1 114:1 56:1 152:1 169:1 19520:1 28183:1 
0.9818822288545342 12:1 96:1 40:1 116:1 81:1 165:1 170:1 4554:1 32398:1 
1 25:1 96:1 53:1 136:1 68:1 152:1 170:1 11273:1 32153:1 
0.2285997966805395 21:1 109:1 53:1 138:1 56:1 155:1 170:1 21966:1 48694:1 
0.2384827474890136 25:1 109:1 49:1 136:1 81:1 151:1 172:1 23965:1 48675:1 
1 21:1 109:1 50:1 136:1 81:1 152:1 172:1 21527:1 43647:1 
0.4034296356825798 21:1 96:1 28:1 129:1 56:1 166:1 173:1 10572:1 29697:1 
0.5133147974369048 25:1 109:1 53:1 121:1 56:1 149:1 169:1 19520:1 31304:1 
0.1359366254173006 9:1 93:1 53:1 124:1 81:1 166:1 169:1 3234:1 37619:1 
0.1384109225701307 25:1 96:1 53:1 138:1 81:1 144:1 171:1 6575:1 32153:1 
1 25:1 96:1 53:1 136:1 56:1 152:1 170:1 17063:1 41476:1 
0.212827900240267 25:1 96:1 53:1 136:1 81:1 152:1 170:1 17063:1 41476:1 
0.396955622720633 25:1 96:1 53:1 115:1 81:1 152:1 175:1 1857:1 29283:1 
1 19:1 96:1 53:1 115:1 56:1 153:1 176:1 7688:1 42439:1 
0.7848351802760827 21:1 95:1 52:1 137:1 59:1 166:1 169:1 3996:1 44058:1 
1 12:1 109:1 47:1 138:1 81:1 144:1 178:1 17710:1 35527:1 
0.665066692111466 25:1 109:1 53:1 137:1 68:1 141:1 169:1 18250:1 36545:1 
0.1818982756389214 25:1 109:1 53:1 113:1 81:1 152:1 169:1 11816:1 43624:1 
0.2414151455159336 25:1 96:1 53:1 138:1 81:1 140:1 171:1 11816:1 29283:1 
0.5438686064551631 21:1 101:1 37:1 133:1 56:1 158:1 169:1 18208:1 35748:1 
0.3976393834187847 21:1 102:1 45:1 137:1 77:1 161:1 170:1 22131:1 25978:1 
1 21:1 96:1 53:1 136:1 56:1 144:1 170:1 7430:1 26530:1 
0.1796285862019487 25:1 96:1 28:1 138:1 56:1 149:1 175:1 4115:1 44868:1 
0.05500170624955838 25:1 109:1 53:1 130:1 56:1 158:1 169:1 5083:1 48236:1 
1 25:1 108:1 53:1 123:1 81:1 162:1 169:1 3859:1 29435:1 
1 22:1 106:1 52:1 124:1 81:1 153:1 170:1 13635:1 31625:1 
1 12:1 97:1 52:1 136:1 81:1 152:1 169:1 22449:1 36044:1 
0.2041484405044809 21:1 96:1 53:1 136:1 56:1 152:1 169:1 5436:1 43332:1 
0.1506797488501406 25:1 96:1 28:1 135:1 56:1 166:1 177:1 16750:1 31797:1 
0.2465424002405931 25:1 109:1 53:1 124:1 56:1 164:1 171:1 21859:1 32710:1 
0.728941517041848 25:1 109:1 53:1 124:1 81:1 152:1 170:1 16750:1 47363:1 
1 25:1 107:1 28:1 136:1 56:1 152:1 169:1 10855:1 42374:1 
0.5052748280562048 1:1 109:1 28:1 116:1 56:1 165:1 171:1 8159:1 39835:1 
1 25:1 88:1 29:1 137:1 56:1 166:1 169:1 15106:1 27290:1 
0.06983231517172429 21:1 96:1 32:1 137:1 79:1 166:1 169:1 22563:1 33996:1 
1 22:1 106:1 28:1 123:1 56:1 166:1 170:1 22296:1 34505:1 
1 1:1 96:1 40:1 124:1 81:1 165:1 170:1 6705:1 29500:1 
0.1980947988956757 12:1 96:1 28:1 115:1 56:1 152:1 170:1 10253:1 27528:1 
0.8136536713001555 12:1 96:1 28:1 116:1 56:1 165:1 172:1 10253:1 38323:1 
0.154954354290241 25:1 85:1 28:1 136:1 56:1 166:1 169:1 16750:1 46804:1 
0.1623987222506977 21:1 96:1 51:1 138:1 80:1 163:1 169:1 18895:1 40793:1 
1 12:1 107:1 49:1 137:1 79:1 164:1 170:1 16064:1 42371:1 
0.2236173866046038 25:1 107:1 53:1 138:1 79:1 161:1 169:1 4442:1 48086:1 
0.3690722167939292 25:1 109:1 53:1 115:1 81:1 165:1 170:1 5483:1 36306:1 
1 3:1 109:1 53:1 115:1 81:1 165:1 170:1 15998:1 39435:1 
0.5322470081490139 21:1 92:1 53:1 137:1 81:1 163:1 170:1 18895:1 35203:1 
0.1096133572392481 21:1 109:1 46:1 137:1 56:1 166:1 170:1 3996:1 31144:1 
0.1644637995853957 21:1 109:1 53:1 138:1 81:1 152:1 171:1 4624:1 30852:1 
0.2187818043584849 25:1 109:1 53:1 133:1 56:1 165:1 174:1 16750:1 30558:1 
1 25:1 105:1 53:1 137:1 81:1 153:1 169:1 5829:1 47292:1 
1 21:1 109:1 53:1 115:1 81:1 165:1 173:1 22563:1 48057:1 
0.6199175392531934 8:1 92:1 53:1 138:1 81:1 165:1 169:1 21903:1 36024:1 
0.6941948762176025 8:1 109:1 53:1 120:1 81:1 164:1 171:1 21903:1 31531:1 
0.6217893864077304 25:1 102:1 28:1 138:1 56:1 157:1 174:1 15509:1 44377:1 
1 12:1 96:1 45:1 124:1 74:1 152:1 169:1 16789:1 43738:1 
0.5423647445880165 25:1 96:1 28:1 137:1 56:1 165:1 170:1 9389:1 39266:1 
0.05997496971421527 25:1 109:1 53:1 129:1 56:1 152:1 169:1 20435:1 48236:1 
0.04135440195967907 25:1 96:1 39:1 136:1 77:1 142:1 169:1 14454:1 49105:1 
0.2398770875308003 25:1 109:1 40:1 133:1 81:1 152:1 169:1 24184:1 29330:1 
1 25:1 105:1 40:1 124:1 81:1 166:1 170:1 24184:1 47292:1 
0.3299627051988546 21:1 96:1 53:1 138:1 68:1 140:1 169:1 22563:1 29540:1 
0.2447381444868531 25:1 105:1 28:1 129:1 56:1 159:1 169:1 2211:1 46860:1 
1 25:1 108:1 28:1 116:1 56:1 141:1 169:1 3527:1 29435:1 
1 24:1 85:1 53:1 138:1 56:1 165:1 170:1 4706:1 27752:1 
0.4945943528149767 25:1 96:1 28:1 137:1 56:1 165:1 170:1 16829:1 42871:1 
1 25:1 96:1 53:1 124:1 56:1 140:1 169:1 5142:1 27990:1 
0.34445049816414 25:1 96:1 41:1 133:1 77:1 165:1 172:1 21445:1 47830:1 
0.2641518341637905 25:1 96:1 49:1 137:1 68:1 164:1 169:1 22634:1 33634:1 
0.4161122141361381 25:1 109:1 49:1 136:1 68:1 141:1 170:1 22634:1 29876:1 
0.830479151944487 25:1 109:1 28:1 137:1 56:1 164:1 169:1 23997:1 48928:1 
0.3399589992387856 25:1 109:1 53:1 136:1 56:1 152:1 169:1 24199:1 27906:1 
1 25:1 96:1 49:1 124:1 74:1 166:1 176:1 12159:1 48044:1 
0.4845425535010854 21:1 96:1 46:1 138:1 56:1 152:1 179:1 4518:1 41277:1 
0.4936872727376351 25:1 108:1 28:1 124:1 56:1 166:1 170:1 15253:1 36741:1 
0.2041474935603623 25:1 96:1 28:1 138:1 56:1 152:1 172:1 3647:1 40443:1 
1 12:1 96:1 53:1 124:1 56:1 166:1 170:1 15714:1 40020:1 
0.6688980495955692 12:1 96:1 40:1 138:1 81:1 166:1 169:1 15291:1 30603:1 
0.004456289633689513 21:1 96:1 40:1 116:1 57:1 165:1 170:1 18208:1 40163:1 
0.4853948559581053 1:1 109:1 28:1 137:1 56:1 165:1 178:1 20508:1 29865:1 
0.1573331988901114 25:1 96:1 28:1 115:1 56:1 152:1 172:1 24666:1 31914:1 
0.2428367233458546 25:1 96:1 40:1 137:1 56:1 165:1 172:1 24676:1 29036:1 
0.4638523834946371 25:1 109:1 28:1 124:1 56:1 164:1 171:1 14695:1 34052:1 
0.1970093787356906 25:1 96:1 53:1 138:1 56:1 165:1 171:1 9323:1 36883:1 
0.1375182402092725 25:1 109:1 53:1 113:1 81:1 152:1 173:1 5671:1 28876:1 
0.07187765869011875 25:1 96:1 53:1 115:1 81:1 152:1 172:1 4147:1 40975:1 
0.1533691795941516 12:1 96:1 53:1 138:1 81:1 140:1 170:1 16246:1 34861:1 
0.7082899887010702 25:1 96:1 53:1 137:1 81:1 165:1 171:1 12505:1 40102:1 
0.1294055786125073 25:1 109:1 53:1 137:1 81:1 166:1 172:1 12505:1 35500:1 
1 25:1 96:1 53:1 136:1 56:1 152:1 170:1 4009:1 31771:1 
0.2176614901266109 25:1 96:1 28:1 135:1 56:1 166:1 178:1 16750:1 34551:1 
0.04303231550984753 12:1 107:1 53:1 138:1 56:1 144:1 169:1 9822:1 48097:1 
0.2213713312477642 21:1 96:1 32:1 137:1 79:1 164:1 170:1 22563:1 41294:1 
0.5749521134418816 25:1 108:1 51:1 124:1 68:1 152:1 169:1 3841:1 32460:1 
0.08756571442259599 25:1 109:1 51:1 124:1 68:1 152:1 175:1 3841:1 36883:1 
0.3605463622692894 25:1 92:1 36:1 138:1 81:1 148:1 170:1 7042:1 46266:1 
0.9510027672314682 25:1 109:1 28:1 136:1 56:1 165:1 171:1 22563:1 41371:1 
0.2078022304984309 25:1 96:1 28:1 138:1 56:1 144:1 174:1 16624:1 45883:1 
0.386076685397841 25:1 109:1 53:1 120:1 56:1 164:1 172:1 18356:1 32237:1 
1 21:1 102:1 28:1 115:1 56:1 158:1 169:1 22563:1 34708:1 
1 18:1 102:1 49:1 138:1 56:1 161:1 170:1 9979:1 34705:1 
0.4678095279076802 25:1 109:1 46:1 124:1 77:1 164:1 171:1 5528:1 31908:1 
0.3299669083263881 25:1 96:1 53:1 136:1 74:1 152:1 169:1 7179:1 48003:1 
1 25:1 85:1 53:1 123:1 68:1 152:1 169:1 6802:1 39648:1 
1 25:1 109:1 40:1 113:1 81:1 164:1 169:1 16750:1 46757:1 
1 25:1 85:1 53:1 136:1 68:1 166:1 169:1 22028:1 26961:1 
1 25:1 96:1 28:1 116:1 56:1 165:1 171:1 15726:1 44505:1 
0.09792169443748412 25:1 96:1 28:1 138:1 56:1 152:1 169:1 9304:1 36535:1 
1 21:1 109:1 40:1 113:1 56:1 161:1 169:1 21966:1 49227:1 
1 25:1 85:1 49:1 133:1 68:1 165:1 169:1 24498:1 31434:1 
1 21:1 109:1 29:1 113:1 81:1 164:1 169:1 4624:1 39774:1 
0.825642977779305 25:1 85:1 49:1 136:1 57:1 165:1 169:1 15045:1 29483:1 
0.02941509638014565 25:1 85:1 28:1 136:1 56:1 166:1 169:1 16750:1 47955:1 
0.4166797858942066 25:1 108:1 28:1 138:1 56:1 141:1 170:1 16750:1 29435:1 
0.05671324147657599 25:1 85:1 28:1 136:1 56:1 166:1 172:1 16750:1 34278:1 
0.01970515116190368 25:1 108:1 28:1 138:1 56:1 143:1 173:1 16750:1 29435:1 
0.8232857709406041 25:1 109:1 52:1 116:1 81:1 165:1 169:1 16750:1 41989:1 
0.2738784246906914 25:1 109:1 53:1 136:1 81:1 152:1 169:1 23443:1 48773:1 
0.3348731632344332 21:1 96:1 50:1 138:1 60:1 152:1 174:1 22563:1 42964:1 
0.4813395873690144 12:1 96:1 49:1 116:1 68:1 165:1 171:1 20912:1 28378:1 
0.317982797819495 25:1 92:1 50:1 138:1 56:1 164:1 170:1 18895:1 32537:1 
0.09463393405879272 11:1 95:1 28:1 134:1 56:1 165:1 169:1 295:1 30212:1 
0.09995554916629178 25:1 92:1 28:1 138:1 56:1 157:1 173:1 7751:1 42288:1 
0.443120925146598 8:1 109:1 53:1 138:1 56:1 149:1 177:1 17559:1 38668:1 
0.1150778643670267 24:1 85:1 53:1 138:1 81:1 165:1 170:1 4684:1 32891:1 
0.625764678262046 25:1 109:1 29:1 134:1 80:1 152:1 169:1 12603:1 44332:1 
1 25:1 109:1 28:1 124:1 56:1 152:1 169:1 16750:1 31296:1 
0.3780540157682092 25:1 96:1 28:1 123:1 56:1 151:1 169:1 22491:1 37208:1 
0.4218315784215707 12:1 106:1 53:1 138:1 56:1 144:1 172:1 12479:1 40030:1 
0.3990083273134791 21:1 109:1 32:1 137:1 78:1 151:1 170:1 1618:1 30781:1 
0.3405037052699642 25:1 109:1 50:1 136:1 68:1 152:1 173:1 5999:1 28593:1 
0.345394253784989 25:1 96:1 28:1 123:1 56:1 162:1 172:1 2277:1 43764:1 
0.05242636476112651 21:1 96:1 40:1 136:1 56:1 165:1 171:1 5436:1 34311:1 
0.3430580606440745 21:1 96:1 28:1 138:1 56:1 163:1 171:1 22563:1 41294:1 
0.2832136927479724 25:1 96:1 53:1 137:1 56:1 152:1 169:1 19529:1 29517:1 
0.1283881109084054 25:1 109:1 28:1 124:1 56:1 164:1 171:1 15407:1 41479:1 
1 12:1 96:1 39:1 124:1 81:1 165:1 171:1 10676:1 44488:1 
0.00674479701739036 25:1 109:1 28:1 113:1 56:1 152:1 179:1 17912:1 41355:1 
0.0567668280683426 25:1 96:1 28:1 115:1 56:1 148:1 173:1 20570:1 36140:1 
0.1539287400916912 12:1 96:1 53:1 138:1 56:1 161:1 173:1 11411:1 40027:1 
1 12:1 96:1 49:1 124:1 68:1 164:1 170:1 17310:1 48834:1 
0.1570586296416217 25:1 109:1 40:1 135:1 68:1 165:1 169:1 21798:1 41387:1 
1 12:1 93:1 28:1 124:1 56:1 161:1 170:1 3647:1 32269:1 
0.08504000610995664 25:1 96:1 28:1 115:1 56:1 152:1 173:1 23430:1 32293:1 
0.07596736685299023 25:1 96:1 40:1 138:1 68:1 140:1 172:1 3454:1 26573:1 
0.1364070224306694 21:1 107:1 28:1 138:1 56:1 163:1 169:1 22563:1 47786:1 
0.142462424134703 25:1 109:1 28:1 124:1 56:1 166:1 170:1 23793:1 38161:1 
0.0120572179161658 25:1 109:1 53:1 124:1 81:1 152:1 171:1 24577:1 34033:1 
0.2385459593237281 25:1 109:1 53:1 137:1 81:1 152:1 174:1 9304:1 48773:1 
0.2257582408562159 25:1 109:1 53:1 124:1 81:1 152:1 169:1 24044:1 31300:1 
0.2290492729808264 25:1 109:1 53:1 114:1 81:1 152:1 172:1 9670:1 36002:1 
0.05290016021013246 25:1 96:1 53:1 138:1 81:1 165:1 170:1 11273:1 44852:1 
0.3386734985644542 25:1 109:1 53:1 114:1 81:1 152:1 172:1 11273:1 34241:1 
0.1219264172932539 21:1 96:1 50:1 137:1 70:1 151:1 172:1 19937:1 41463:1 
0.1975602530374933 25:1 109:1 28:1 123:1 56:1 152:1 181:1 1957:1 47452:1 
0.1886434546489926 25:1 109:1 41:1 137:1 56:1 164:1 169:1 14628:1 46743:1 
0.5614614424013279 25:1 109:1 53:1 136:1 69:1 152:1 169:1 22014:1 31973:1 
0.005005971662529491 25:1 109:1 53:1 124:1 81:1 141:1 172:1 3220:1 36249:1 
1 25:1 96:1 53:1 113:1 81:1 151:1 169:1 11520:1 34477:1 
1 4:1 96:1 28:1 138:1 56:1 165:1 171:1 13524:1 27256:1 
1 4:1 109:1 28:1 113:1 56:1 166:1 177:1 13524:1 35120:1 
1 12:1 96:1 40:1 124:1 68:1 158:1 171:1 9077:1 31629:1 
0.1581761812763845 21:1 93:1 46:1 137:1 56:1 166:1 169:1 21966:1 39663:1 
1 21:1 96:1 49:1 124:1 65:1 152:1 170:1 22200:1 32398:1 
0.003344373493575746 25:1 93:1 53:1 138:1 81:1 140:1 169:1 23139:1 30051:1 
0.4286589431773655 25:1 96:1 53:1 115:1 56:1 157:1 172:1 18206:1 48714:1 
0.07649621508016204 12:1 96:1 53:1 138:1 81:1 140:1 171:1 23985:1 47993:1 
0.8099383221827279 25:1 96:1 28:1 137:1 56:1 141:1 169:1 23201:1 34787:1 
0.08107503159571705 4:1 109:1 40:1 114:1 77:1 152:1 169:1 17846:1 41479:1 
0.7056455108543572 12:1 96:1 31:1 116:1 56:1 165:1 170:1 15878:1 46439:1 
0.1941567334231646 21:1 101:1 39:1 116:1 81:1 165:1 169:1 22563:1 26760:1 
1 25:1 107:1 53:1 130:1 56:1 165:1 169:1 17933:1 43855:1 
0.1645091801190734 25:1 102:1 53:1 138:1 81:1 140:1 169:1 16750:1 44975:1 
0.7883245243053878 25:1 108:1 28:1 124:1 56:1 165:1 169:1 17260:1 32460:1 
0.4126232298063916 25:1 109:1 28:1 138:1 56:1 165:1 172:1 17260:1 40626:1 
0.1030692555718794 25:1 96:1 39:1 138:1 59:1 164:1 170:1 9501:1 45146:1 
0.05038619880245841 25:1 109:1 28:1 137:1 56:1 163:1 177:1 16750:1 42467:1 
0.3189363202563476 14:1 96:1 28:1 138:1 56:1 166:1 172:1 11653:1 49162:1 
0.9667435735274153 12:1 96:1 53:1 133:1 81:1 141:1 172:1 13799:1 40990:1 
0.3271579194083987 25:1 96:1 49:1 136:1 69:1 152:1 170:1 22606:1 32622:1 
0.1977753298231133 25:1 109:1 53:1 116:1 56:1 141:1 191:1 16750:1 33613:1 
1 12:1 109:1 49:1 124:1 68:1 152:1 170:1 5703:1 31304:1 
0.567957126835995 21:1 96:1 40:1 115:1 81:1 152:1 178:1 22563:1 36899:1 
1 12:1 96:1 53:1 116:1 56:1 144:1 170:1 9305:1 48861:1 
0.2284241615636341 25:1 96:1 28:1 138:1 56:1 144:1 171:1 18454:1 35043:1 
0.1064977895172509 25:1 109:1 28:1 124:1 56:1 152:1 171:1 16658:1 33613:1 
0.8608835086342805 21:1 96:1 53:1 136:1 56:1 152:1 169:1 5436:1 38487:1 
0.2714574834825598 21:1 109:1 40:1 138:1 56:1 165:1 171:1 1499:1 27494:1 
0.3552096631492175 25:1 96:1 28:1 115:1 56:1 152:1 171:1 22497:1 45158:1 
0.08030649268869838 25:1 109:1 53:1 124:1 68:1 152:1 172:1 5671:1 45155:1 
0.03905648289937483 25:1 96:1 53:1 138:1 81:1 140:1 170:1 20426:1 32808:1 
1 25:1 96:1 31:1 124:1 56:1 165:1 169:1 24062:1 29693:1 
1 25:1 96:1 28:1 124:1 56:1 166:1 169:1 24045:1 30620:1 
1 4:1 109:1 28:1 124:1 56:1 166:1 169:1 10498:1 47225:1 
0.071602444020788 25:1 109:1 32:1 135:1 56:1 165:1 171:1 22496:1 41387:1 
0.02457363569961186 25:1 109:1 28:1 136:1 56:1 151:1 169:1 16119:1 39451:1 
0.006442496106277187 25:1 108:1 53:1 123:1 56:1 162:1 169:1 14722:1 32460:1 
0.1486160627983336 25:1 109:1 53:1 128:1 81:1 165:1 169:1 15608:1 34853:1 
0.9517564512129055 25:1 100:1 53:1 137:1 81:1 164:1 169:1 10124:1 49324:1 
0.356441798167663 25:1 109:1 28:1 124:1 56:1 164:1 172:1 4416:1 43624:1 
1 1:1 96:1 52:1 136:1 78:1 152:1 169:1 6507:1 39707:1 
0.05554395464758377 25:1 96:1 28:1 138:1 56:1 165:1 173:1 20570:1 48581:1 
0.2354077567406673 21:1 96:1 42:1 138:1 69:1 152:1 171:1 21527:1 40442:1 
0.2906424387148778 1:1 108:1 49:1 137:1 68:1 165:1 169:1 14342:1 29413:1 
1 24:1 109:1 29:1 137:1 77:1 164:1 169:1 4684:1 34901:1 
0.9067732665117908 25:1 85:1 40:1 113:1 56:1 166:1 172:1 2276:1 48804:1 
0.02773554511001242 25:1 109:1 29:1 113:1 57:1 166:1 169:1 7246:1 27739:1 
1 18:1 96:1 28:1 138:1 56:1 140:1 170:1 22617:1 46729:1 
1 21:1 109:1 28:1 125:1 56:1 152:1 169:1 18901:1 26654:1 
0.1769646418146382 25:1 109:1 49:1 138:1 56:1 157:1 173:1 1925:1 48159:1 
0.418692076910033 25:1 109:1 53:1 137:1 56:1 151:1 169:1 13044:1 29521:1 
0.1898987257525916 25:1 109:1 53:1 123:1 81:1 162:1 169:1 4792:1 43197:1 
0.01522257082039561 21:1 96:1 50:1 137:1 81:1 166:1 170:1 1491:1 35851:1 
0.248176435995745 25:1 109:1 53:1 123:1 81:1 162:1 171:1 22681:1 47428:1 
0.8889642124736742 21:1 109:1 37:1 124:1 81:1 152:1 169:1 7430:1 34057:1 
1 25:1 96:1 49:1 124:1 65:1 152:1 170:1 9328:1 34854:1 
0.6247778301983219 21:1 101:1 40:1 136:1 80:1 148:1 169:1 5436:1 40149:1 
0.2731643552862141 25:1 96:1 40:1 137:1 81:1 165:1 172:1 2822:1 40291:1 
0.6018100318364865 25:1 96:1 28:1 123:1 56:1 162:1 170:1 13953:1 43124:1 
0.6929494439999451 8:1 109:1 28:1 136:1 56:1 152:1 170:1 5469:1 29789:1 
0.5017864445178668 25:1 109:1 36:1 136:1 56:1 152:1 172:1 5060:1 34980:1 
0.06576880219588205 25:1 109:1 53:1 124:1 64:1 166:1 172:1 10251:1 45538:1 
0.02517302618432959 25:1 109:1 53:1 113:1 81:1 164:1 169:1 23538:1 28375:1 
0.6609439605593998 25:1 100:1 28:1 137:1 56:1 151:1 169:1 4624:1 38192:1 
1 17:1 109:1 53:1 136:1 56:1 152:1 169:1 2031:1 36044:1 
0.3309275896811503 25:1 96:1 28:1 138:1 56:1 165:1 172:1 16750:1 33948:1 
1 25:1 107:1 53:1 137:1 56:1 151:1 169:1 1834:1 26217:1 
0.07136118247629944 25:1 109:1 53:1 123:1 56:1 152:1 170:1 1834:1 48053:1 
0.01755560778978768 1:1 85:1 50:1 138:1 80:1 144:1 169:1 19055:1 43559:1 
0.3124084643326854 1:1 92:1 50:1 138:1 80:1 148:1 172:1 19055:1 28897:1 
0.05813264767099673 1:1 92:1 50:1 138:1 80:1 165:1 174:1 19055:1 36613:1 
0.239637337537613 1:1 109:1 50:1 136:1 80:1 152:1 177:1 19055:1 31025:1 
0.4137415963779445 21:1 97:1 51:1 120:1 56:1 166:1 170:1 22563:1 48334:1 
0.4425687043105685 8:1 109:1 28:1 124:1 56:1 165:1 170:1 12507:1 45883:1 
0.4917360762212635 25:1 96:1 36:1 137:1 56:1 164:1 169:1 21154:1 31335:1 
1 25:1 108:1 36:1 138:1 56:1 152:1 171:1 21154:1 29435:1 
0.6791602892779367 21:1 96:1 31:1 138:1 56:1 152:1 170:1 22563:1 29551:1 
1 12:1 98:1 28:1 123:1 56:1 162:1 169:1 23977:1 36954:1 
0.1067248898413653 25:1 109:1 28:1 124:1 56:1 166:1 172:1 18918:1 46757:1 
1 12:1 96:1 46:1 122:1 81:1 161:1 171:1 18252:1 33948:1 
0.1802053275735188 12:1 94:1 40:1 133:1 74:1 151:1 169:1 9219:1 37679:1 
0.1426548516973687 25:1 109:1 38:1 137:1 68:1 166:1 172:1 17265:1 27375:1 
1 25:1 96:1 49:1 124:1 56:1 166:1 172:1 17738:1 32153:1 
0.8533264489465365 25:1 96:1 53:1 115:1 56:1 165:1 170:1 5703:1 32153:1 
1 12:1 96:1 53:1 125:1 81:1 164:1 170:1 4554:1 29283:1 
0.01533170657847671 25:1 96:1 40:1 115:1 81:1 152:1 171:1 22055:1 32756:1 
1 8:1 96:1 28:1 138:1 56:1 151:1 171:1 13194:1 31500:1 
0.685406250346979 25:1 96:1 28:1 137:1 56:1 157:1 170:1 24686:1 33363:1 
0.3966125145141743 25:1 109:1 51:1 124:1 67:1 164:1 170:1 24712:1 27928:1 
0.175212769967921 25:1 96:1 53:1 136:1 79:1 141:1 169:1 3199:1 28939:1 
0.3163465844257471 21:1 101:1 32:1 137:1 59:1 164:1 169:1 22200:1 32343:1 
0.1030539706061176 12:1 96:1 52:1 138:1 81:1 151:1 172:1 9582:1 35485:1 
0.1202361711386592 25:1 109:1 28:1 138:1 56:1 152:1 177:1 1957:1 41989:1 
1 12:1 96:1 53:1 113:1 81:1 164:1 170:1 24277:1 33304:1 
0.1912223486620047 25:1 109:1 53:1 120:1 81:1 166:1 179:1 3769:1 27350:1 
0.2206447560677688 25:1 92:1 53:1 138:1 81:1 148:1 169:1 2621:1 33830:1 
1 25:1 96:1 46:1 124:1 56:1 151:1 171:1 21919:1 29810:1 
0.2847344259547787 25:1 109:1 46:1 137:1 78:1 151:1 170:1 2477:1 29167:1 
1 22:1 109:1 28:1 123:1 56:1 162:1 177:1 22296:1 28841:1 
1 25:1 96:1 28:1 136:1 56:1 165:1 172:1 15509:1 31535:1 
0.3217965502142464 25:1 96:1 49:1 136:1 59:1 152:1 170:1 13061:1 43560:1 
0.4931986634156821 25:1 96:1 49:1 125:1 81:1 165:1 172:1 10148:1 43867:1 
0.1192882425950075 25:1 109:1 28:1 114:1 56:1 152:1 186:1 16750:1 49395:1 
1 12:1 108:1 53:1 138:1 81:1 140:1 169:1 2357:1 29435:1 
0.4119047575449717 25:1 109:1 28:1 126:1 56:1 165:1 173:1 17260:1 39713:1 
0.4421817122050172 25:1 98:1 53:1 137:1 56:1 165:1 169:1 14984:1 42337:1 
0.3884528385360139 25:1 109:1 53:1 124:1 81:1 166:1 169:1 3692:1 36883:1 
0.6702235148371744 25:1 109:1 40:1 136:1 81:1 152:1 173:1 15407:1 32004:1 
0.2800359950783389 11:1 95:1 50:1 134:1 81:1 164:1 169:1 1167:1 30212:1 
0.4061207957625275 12:1 103:1 53:1 138:1 56:1 166:1 170:1 5028:1 42377:1 
0.06449681244295852 25:1 96:1 28:1 138:1 56:1 143:1 175:1 23792:1 48534:1 
0.3753501850715953 21:1 97:1 40:1 137:1 81:1 152:1 171:1 22200:1 48089:1 
0.4430390385612354 25:1 109:1 28:1 124:1 56:1 144:1 171:1 16750:1 44222:1 
0.8782281051666468 25:1 96:1 53:1 116:1 56:1 141:1 169:1 19493:1 43332:1 
0.09326127297861878 25:1 96:1 40:1 123:1 81:1 151:1 169:1 8883:1 43332:1 
0.8718923225796619 25:1 96:1 53:1 123:1 81:1 152:1 170:1 10144:1 29570:1 
0.1550782439749861 25:1 95:1 53:1 138:1 68:1 163:1 175:1 22784:1 25523:1 
0.4555348504221449 25:1 109:1 53:1 123:1 68:1 151:1 181:1 22784:1 28841:1 
0.08302733238567236 25:1 92:1 53:1 138:1 56:1 164:1 171:1 22028:1 38837:1 
1 12:1 96:1 28:1 116:1 56:1 144:1 171:1 21187:1 45916:1 
1 25:1 96:1 53:1 116:1 81:1 165:1 171:1 14036:1 33609:1 
0.9954079681379067 21:1 96:1 28:1 113:1 56:1 151:1 173:1 10572:1 29697:1 
1 12:1 97:1 40:1 138:1 77:1 152:1 169:1 16565:1 36044:1 
0.3034057354095225 25:1 96:1 49:1 125:1 68:1 165:1 170:1 2334:1 35606:1 
1 25:1 106:1 28:1 113:1 56:1 152:1 170:1 10740:1 31625:1 
0.1026068308285062 25:1 109:1 53:1 136:1 81:1 152:1 169:1 13929:1 28414:1 
0.06887637069197486 17:1 101:1 52:1 136:1 81:1 152:1 170:1 9320:1 32727:1 
1 12:1 96:1 53:1 137:1 81:1 166:1 170:1 24086:1 45469:1 
0.4827266273063732 25:1 96:1 53:1 137:1 68:1 156:1 169:1 13931:1 30162:1 
0.6252518895322909 25:1 109:1 53:1 128:1 68:1 165:1 170:1 13931:1 31154:1 
0.5678896794218946 25:1 100:1 53:1 137:1 81:1 143:1 169:1 6425:1 32434:1 
0.4260364458459691 25:1 109:1 53:1 137:1 81:1 151:1 170:1 20792:1 26911:1 
0.7591913350039825 21:1 101:1 42:1 137:1 56:1 163:1 169:1 22563:1 48365:1 
1 25:1 107:1 42:1 136:1 56:1 152:1 169:1 23346:1 42374:1 
0.6613388295469227 21:1 107:1 51:1 133:1 77:1 154:1 169:1 18895:1 28675:1 
0.2473443956692415 21:1 96:1 51:1 137:1 77:1 143:1 170:1 19937:1 49192:1 
1 21:1 109:1 28:1 115:1 56:1 165:1 175:1 4518:1 29380:1 
0.8665159285250753 25:1 109:1 49:1 137:1 56:1 164:1 170:1 4651:1 42641:1 
1 25:1 96:1 53:1 124:1 77:1 166:1 171:1 17912:1 47126:1 
0.2929906583834832 25:1 109:1 53:1 136:1 68:1 165:1 186:1 10570:1 49415:1 
1 25:1 97:1 40:1 116:1 81:1 165:1 169:1 8732:1 33004:1 
1 25:1 96:1 53:1 116:1 81:1 141:1 171:1 4402:1 34315:1 
0.1163777687938182 25:1 109:1 53:1 129:1 81:1 163:1 175:1 4402:1 40203:1 
0.191825238089732 25:1 97:1 53:1 138:1 81:1 140:1 177:1 15474:1 48334:1 
1 21:1 96:1 40:1 136:1 81:1 152:1 170:1 18895:1 49402:1 
1 25:1 96:1 28:1 133:1 56:1 149:1 169:1 12504:1 48555:1 
0.5402168884696388 21:1 93:1 40:1 116:1 81:1 165:1 169:1 22563:1 33127:1 
0.8275152389689975 25:1 107:1 40:1 120:1 81:1 166:1 169:1 24007:1 42374:1 
0.1394997782433964 25:1 92:1 40:1 138:1 81:1 165:1 170:1 24007:1 45968:1 
1 21:1 96:1 53:1 136:1 81:1 154:1 170:1 22563:1 46292:1 
0.1458560604017515 25:1 96:1 28:1 138:1 56:1 144:1 173:1 20902:1 47074:1 
0.2139755096604285 21:1 96:1 32:1 115:1 68:1 152:1 175:1 2086:1 30937:1 
0.0618882282950905 25:1 97:1 28:1 138:1 56:1 154:1 169:1 3868:1 40628:1 
1 25:1 84:1 28:1 133:1 56:1 152:1 175:1 21154:1 36104:1 
1 0:1 105:1 53:1 124:1 56:1 166:1 169:1 11375:1 46860:1 
1 0:1 96:1 53:1 138:1 56:1 144:1 170:1 11375:1 45226:1 
1 0:1 109:1 53:1 124:1 56:1 165:1 174:1 11375:1 33950:1 
1 24:1 96:1 51:1 116:1 81:1 144:1 169:1 11854:1 42397:1 
0.1428026943013823 25:1 109:1 51:1 113:1 81:1 152:1 174:1 9221:1 45699:1 
0.2803391165200792 21:1 96:1 40:1 138:1 81:1 158:1 172:1 10283:1 48946:1 
0.9158605959780956 25:1 105:1 28:1 133:1 56:1 163:1 169:1 17970:1 47292:1 
0.5323055144702557 25:1 97:1 28:1 138:1 56:1 140:1 177:1 17970:1 48334:1 
0.1327951430749079 12:1 96:1 53:1 138:1 68:1 140:1 170:1 16155:1 35696:1 
1 25:1 107:1 28:1 133:1 56:1 152:1 170:1 23326:1 42366:1 
0.3566327309196251 12:1 96:1 52:1 133:1 81:1 142:1 171:1 5430:1 41755:1 
1 21:1 96:1 40:1 136:1 68:1 152:1 170:1 5436:1 48079:1 
0.4645401818390711 25:1 96:1 28:1 138:1 56:1 152:1 179:1 5688:1 39529:1 
0.2288689854254285 12:1 96:1 53:1 138:1 81:1 140:1 176:1 2009:1 49411:1 
0.3516726223471778 21:1 96:1 40:1 115:1 56:1 161:1 170:1 10493:1 46588:1 
1 21:1 96:1 31:1 136:1 68:1 152:1 169:1 22563:1 43808:1 
0.7543760085149277 12:1 108:1 49:1 138:1 68:1 163:1 174:1 21859:1 30307:1 
0.3697826246417472 1:1 106:1 52:1 138:1 68:1 152:1 169:1 15591:1 44853:1 
0.5150869351362629 21:1 96:1 40:1 136:1 78:1 152:1 170:1 5436:1 44790:1 
0.3065548410575681 1:1 107:1 52:1 138:1 68:1 140:1 177:1 15591:1 40245:1 
0.2030702416302548 25:1 96:1 53:1 138:1 56:1 165:1 172:1 16750:1 35100:1 
0.6312355116381289 25:1 109:1 53:1 136:1 81:1 152:1 170:1 15705:1 42467:1 
0.1569387902702789 25:1 96:1 53:1 138:1 81:1 165:1 175:1 16750:1 39704:1 
1 25:1 100:1 53:1 124:1 81:1 166:1 169:1 16750:1 42742:1 
1 16:1 96:1 53:1 138:1 81:1 140:1 169:1 18013:1 40044:1 
1 4:1 106:1 32:1 133:1 59:1 166:1 169:1 11194:1 29677:1 
1 12:1 109:1 28:1 138:1 56:1 140:1 171:1 3892:1 33203:1 
0.09444762610960586 25:1 96:1 49:1 136:1 68:1 156:1 170:1 18468:1 27974:1 
0.07193137820900836 25:1 108:1 53:1 124:1 81:1 166:1 169:1 16546:1 48971:1 
0.9359830538789756 21:1 107:1 28:1 136:1 56:1 167:1 170:1 19935:1 47792:1 
0.259614079357756 25:1 109:1 28:1 137:1 56:1 151:1 170:1 1608:1 46965:1 
1 25:1 107:1 40:1 120:1 81:1 166:1 169:1 6962:1 42366:1 
0.4162214125056915 25:1 109:1 28:1 136:1 56:1 152:1 172:1 20627:1 34451:1 
0.1688094684034329 25:1 96:1 53:1 115:1 56:1 152:1 170:1 9722:1 42926:1 
0.01131149850301718 12:1 96:1 53:1 138:1 81:1 140:1 170:1 18197:1 29710:1 
0.9169018909912656 12:1 96:1 40:1 138:1 77:1 151:1 171:1 13604:1 32624:1 
0.1922185504547056 12:1 96:1 40:1 136:1 77:1 165:1 175:1 13604:1 45472:1 
1 25:1 96:1 49:1 124:1 56:1 166:1 169:1 6638:1 34533:1 
0.01944704015997559 21:1 96:1 28:1 138:1 56:1 165:1 184:1 4518:1 41277:1 
0.4293588589540884 25:1 96:1 28:1 137:1 56:1 152:1 169:1 14732:1 32002:1 
0.4208588587329393 25:1 109:1 28:1 124:1 56:1 164:1 170:1 14732:1 39461:1 
0.3550898168521833 25:1 109:1 28:1 116:1 56:1 141:1 173:1 16750:1 44692:1 
0.3142538092933975 25:1 85:1 53:1 138:1 56:1 152:1 170:1 19963:1 27922:1 
0.01363418220143757 25:1 109:1 53:1 138:1 81:1 140:1 173:1 19616:1 34234:1 
1 25:1 95:1 53:1 125:1 56:1 166:1 169:1 9512:1 25033:1 
0.1551432926496926 11:1 97:1 53:1 138:1 81:1 140:1 169:1 304:1 46278:1 
0.3712228993150688 25:1 85:1 28:1 138:1 56:1 163:1 173:1 23453:1 48533:1 
1 21:1 109:1 51:1 130:1 57:1 152:1 169:1 5436:1 36744:1 
1 12:1 109:1 53:1 124:1 77:1 143:1 170:1 14977:1 48267:1 
1 12:1 96:1 53:1 124:1 68:1 164:1 170:1 10285:1 40793:1 
0.5502529059498424 25:1 96:1 40:1 116:1 81:1 165:1 174:1 23538:1 47988:1 
0.07758789792300881 25:1 96:1 53:1 123:1 56:1 151:1 170:1 1486:1 29710:1 
0.8687602942048364 25:1 109:1 53:1 136:1 56:1 142:1 176:1 22028:1 37800:1 
0.5022888082690457 25:1 108:1 31:1 124:1 56:1 152:1 169:1 14457:1 48971:1 
0.9687359864217737 25:1 96:1 31:1 136:1 56:1 152:1 171:1 14457:1 49411:1 
0.2210387458629491 21:1 96:1 49:1 115:1 70:1 152:1 171:1 18208:1 36885:1 
1 12:1 98:1 49:1 137:1 77:1 152:1 175:1 12156:1 37311:1 
1 25:1 96:1 42:1 125:1 68:1 165:1 169:1 10148:1 28826:1 
0.1443794368630845 25:1 108:1 42:1 114:1 68:1 152:1 169:1 20648:1 36741:1 
0.02222845190032607 12:1 96:1 28:1 138:1 56:1 144:1 173:1 18007:1 27139:1 
0.5638452780975787 25:1 105:1 28:1 124:1 56:1 153:1 169:1 13703:1 47292:1 
0.2993581157513803 25:1 96:1 41:1 127:1 77:1 165:1 169:1 9531:1 43100:1 
1 12:1 109:1 53:1 127:1 69:1 152:1 170:1 18371:1 30381:1 
1 21:1 96:1 28:1 137:1 56:1 166:1 171:1 10572:1 40774:1 
1 25:1 109:1 28:1 136:1 56:1 152:1 171:1 17260:1 37682:1 
0.01365757617775155 25:1 96:1 53:1 138:1 81:1 140:1 170:1 16750:1 32513:1 
0.03596259113856463 12:1 106:1 53:1 138:1 77:1 140:1 170:1 18377:1 47567:1 
0.007710169957056105 12:1 96:1 49:1 138:1 56:1 144:1 171:1 24671:1 48734:1 
0.2889020225929599 25:1 96:1 40:1 138:1 68:1 152:1 170:1 16806:1 40093:1 
0.2696122907077306 12:1 96:1 53:1 138:1 68:1 165:1 171:1 15364:1 43798:1 
0.2907477259880151 25:1 109:1 40:1 114:1 68:1 164:1 174:1 4549:1 30701:1 
0.7675381466476209 25:1 97:1 53:1 138:1 68:1 165:1 173:1 5972:1 48096:1 
0.5684763447097136 21:1 96:1 28:1 115:1 56:1 152:1 175:1 3996:1 45214:1 
1 12:1 96:1 49:1 137:1 56:1 166:1 170:1 20485:1 42580:1 
1 12:1 96:1 53:1 135:1 68:1 141:1 173:1 5235:1 41849:1 
0.1820250920956 25:1 96:1 28:1 138:1 56:1 163:1 173:1 16624:1 47410:1 
0.01932871962771112 25:1 109:1 28:1 116:1 56:1 141:1 179:1 16624:1 49243:1 
0.2781856768895697 25:1 85:1 28:1 138:1 56:1 152:1 175:1 23453:1 26601:1 
1 25:1 105:1 28:1 136:1 56:1 142:1 169:1 16750:1 46392:1 
0.7158494962968097 21:1 108:1 53:1 114:1 56:1 152:1 169:1 21663:1 36741:1 
1 21:1 109:1 53:1 136:1 56:1 152:1 173:1 21663:1 41492:1 
0.2268266965331494 25:1 108:1 49:1 124:1 81:1 164:1 169:1 16763:1 36741:1 
0.1142025439818392 25:1 109:1 49:1 136:1 81:1 152:1 174:1 16763:1 39221:1 
0.1560300038253004 25:1 96:1 53:1 138:1 77:1 143:1 175:1 14492:1 37745:1 
0.1461741901751398 25:1 109:1 53:1 129:1 77:1 153:1 189:1 14492:1 41387:1 
0.4009498537800428 25:1 96:1 53:1 135:1 81:1 148:1 172:1 16658:1 41938:1 
0.5128150914860131 25:1 105:1 28:1 129:1 56:1 152:1 169:1 9687:1 47292:1 
0.6565856240030957 25:1 96:1 28:1 137:1 56:1 165:1 170:1 1736:1 41614:1 
0.1814773290989387 25:1 109:1 28:1 126:1 56:1 164:1 172:1 17260:1 40136:1 
0.6775517637396835 25:1 92:1 53:1 138:1 56:1 165:1 173:1 15407:1 46782:1 
0.5024102571221474 25:1 109:1 53:1 138:1 56:1 165:1 176:1 15407:1 44633:1 
0.2683108634356151 25:1 109:1 53:1 124:1 81:1 166:1 170:1 19904:1 45531:1 
0.1103256497482745 25:1 108:1 53:1 135:1 56:1 164:1 169:1 9531:1 32460:1 
0.9877220785810995 25:1 107:1 53:1 136:1 56:1 166:1 170:1 9531:1 38353:1 
0.307010397605637 21:1 96:1 40:1 116:1 56:1 165:1 169:1 22563:1 27997:1 
0.3185532243473316 25:1 105:1 53:1 124:1 56:1 153:1 169:1 19865:1 47292:1 
0.4969395722413441 21:1 97:1 53:1 124:1 81:1 164:1 170:1 22563:1 48334:1 
0.6099920614062139 25:1 96:1 28:1 137:1 56:1 156:1 172:1 18493:1 38337:1 
0.8369985567451774 25:1 105:1 40:1 124:1 81:1 153:1 169:1 4601:1 47292:1 
0.1891731986581357 21:1 97:1 53:1 132:1 68:1 165:1 170:1 22563:1 40628:1 
0.2958987225748372 4:1 109:1 40:1 121:1 56:1 152:1 169:1 17846:1 41479:1 
1 12:1 96:1 53:1 124:1 56:1 166:1 170:1 13445:1 36219:1 
0.08673130408476683 25:1 96:1 28:1 138:1 56:1 144:1 172:1 5999:1 33996:1 
0.2650418656208493 21:1 96:1 53:1 137:1 81:1 152:1 170:1 10902:1 29710:1 
0.07529614275488029 25:1 109:1 53:1 124:1 81:1 165:1 174:1 7586:1 42859:1 
1 25:1 96:1 53:1 124:1 81:1 164:1 169:1 9835:1 26369:1 
0.48238987292186 12:1 96:1 53:1 136:1 81:1 152:1 169:1 1640:1 37357:1 
0.736772679398254 25:1 96:1 28:1 137:1 56:1 165:1 170:1 3841:1 44785:1 
0.302463847966946 25:1 109:1 53:1 136:1 56:1 144:1 170:1 18511:1 28588:1 
0.6769290041024801 12:1 106:1 52:1 136:1 81:1 152:1 170:1 16852:1 47025:1 
0.05122951942300263 22:1 95:1 53:1 136:1 56:1 152:1 169:1 13635:1 30212:1 
0.1304472669914913 25:1 96:1 28:1 138:1 56:1 144:1 173:1 1508:1 41289:1 
0.147993094998393 1:1 109:1 28:1 123:1 56:1 162:1 174:1 2598:1 34581:1 
0.559070198223986 8:1 109:1 53:1 124:1 57:1 148:1 171:1 16297:1 39985:1 
0.5762952597540145 25:1 109:1 28:1 136:1 56:1 152:1 171:1 8729:1 28142:1 
1 25:1 85:1 42:1 124:1 56:1 165:1 169:1 23164:1 28904:1 
0.6249833849568185 25:1 96:1 42:1 137:1 56:1 164:1 170:1 23164:1 41869:1 
1 21:1 98:1 28:1 136:1 56:1 152:1 169:1 18208:1 33404:1 
0.2620390308286079 25:1 96:1 28:1 115:1 56:1 152:1 173:1 21736:1 32162:1 
0.008262030604470649 12:1 96:1 53:1 138:1 56:1 143:1 170:1 7433:1 45136:1 
0.7197887899117914 1:1 109:1 40:1 138:1 68:1 165:1 170:1 14813:1 44147:1 
1 1:1 109:1 40:1 124:1 68:1 166:1 172:1 14813:1 46757:1 
1 25:1 96:1 28:1 136:1 56:1 163:1 169:1 11562:1 27724:1 
1 25:1 88:1 51:1 137:1 80:1 164:1 169:1 5991:1 28925:1 
0.4380035510113821 25:1 96:1 53:1 115:1 81:1 152:1 171:1 11879:1 32398:1 
1 25:1 105:1 28:1 135:1 56:1 151:1 169:1 16750:1 33680:1 
0.3409078366874778 21:1 85:1 32:1 138:1 68:1 163:1 170:1 1618:1 40654:1 
1 1:1 96:1 49:1 137:1 60:1 165:1 171:1 15925:1 45157:1 
0.2939356370757228 21:1 96:1 29:1 137:1 59:1 164:1 169:1 21527:1 37572:1 
0.0092718034426414 21:1 109:1 45:1 115:1 59:1 165:1 171:1 21663:1 35866:1 
1 25:1 85:1 31:1 136:1 56:1 152:1 169:1 2295:1 39731:1 
0.5515982197185457 25:1 96:1 28:1 137:1 56:1 151:1 169:1 21730:1 47399:1 
0.1033406071254773 25:1 109:1 28:1 123:1 56:1 152:1 170:1 21730:1 42027:1 
1 25:1 96:1 28:1 124:1 56:1 165:1 169:1 23538:1 47988:1 
1 12:1 96:1 53:1 137:1 56:1 165:1 169:1 23259:1 28828:1 
0.829950691770001 25:1 96:1 53:1 137:1 68:1 164:1 170:1 9580:1 48269:1 
0.7619734578812327 12:1 96:1 41:1 125:1 81:1 144:1 169:1 19791:1 41501:1 
1 25:1 106:1 28:1 133:1 56:1 165:1 170:1 22028:1 31625:1 
0.00318529430509832 25:1 109:1 53:1 124:1 56:1 143:1 169:1 13247:1 43624:1 
1 12:1 86:1 53:1 138:1 81:1 149:1 170:1 15140:1 41071:1 
0.1199249345227838 25:1 96:1 53:1 138:1 81:1 152:1 175:1 18895:1 28127:1 
0.2120158156517635 17:1 101:1 28:1 138:1 56:1 157:1 170:1 8098:1 40554:1 
1 17:1 101:1 28:1 124:1 56:1 144:1 172:1 8098:1 38294:1 
0.3913114573299524 21:1 100:1 40:1 137:1 81:1 156:1 169:1 22563:1 44484:1 
0.08149464710363866 25:1 96:1 40:1 137:1 81:1 148:1 170:1 20141:1 47993:1 
0.1329702725229887 25:1 109:1 40:1 120:1 81:1 143:1 171:1 20141:1 48188:1 
0.8625731349829807 25:1 92:1 53:1 115:1 68:1 165:1 169:1 23459:1 35612:1 
1 21:1 96:1 28:1 126:1 56:1 152:1 169:1 18895:1 33967:1 
0.802686573447459 12:1 96:1 49:1 123:1 56:1 162:1 171:1 9238:1 29238:1 
0.8757598302432554 12:1 106:1 40:1 138:1 77:1 154:1 170:1 4509:1 48580:1 
0.3133922573729427 25:1 106:1 53:1 136:1 78:1 154:1 171:1 22785:1 38943:1 
1 25:1 96:1 53:1 124:1 78:1 166:1 174:1 16848:1 41745:1 
0.1703868829124557 12:1 96:1 53:1 138:1 81:1 140:1 169:1 17016:1 42667:1 
1 12:1 96:1 53:1 137:1 81:1 157:1 170:1 18378:1 26699:1 
0.356900943064041 21:1 96:1 50:1 116:1 73:1 165:1 169:1 22563:1 39901:1 
0.006409620622854961 25:1 96:1 53:1 137:1 73:1 165:1 169:1 21728:1 38508:1 
0.1504776079764449 25:1 109:1 53:1 137:1 73:1 152:1 170:1 21728:1 30067:1 
0.1588162151231631 25:1 109:1 53:1 124:1 81:1 166:1 169:1 5338:1 46631:1 
0.4291968865763214 25:1 109:1 28:1 137:1 56:1 166:1 169:1 6803:1 29807:1 
0.004893614299554119 25:1 109:1 53:1 124:1 81:1 166:1 170:1 2244:1 34241:1 
0.345161900337322 25:1 109:1 28:1 136:1 56:1 152:1 175:1 17260:1 44633:1 
0.9776075928101835 12:1 96:1 49:1 113:1 68:1 164:1 172:1 7336:1 41502:1 
1 17:1 101:1 28:1 121:1 56:1 165:1 170:1 7544:1 32287:1 
0.1447637546823607 25:1 109:1 28:1 126:1 56:1 166:1 169:1 20648:1 41668:1 
0.1755105769068055 25:1 98:1 53:1 138:1 56:1 158:1 169:1 16939:1 39747:1 
0.1814538677415367 9:1 93:1 36:1 123:1 81:1 152:1 169:1 23605:1 42376:1 
0.1430249483366707 12:1 96:1 36:1 136:1 81:1 141:1 171:1 7639:1 35399:1 
0.5659927156033648 25:1 107:1 32:1 137:1 68:1 157:1 169:1 10008:1 28675:1 
1 25:1 96:1 53:1 137:1 56:1 157:1 170:1 9019:1 40056:1 
0.08212611371191006 25:1 109:1 53:1 129:1 56:1 164:1 171:1 9019:1 45460:1 
0.5704251547760003 12:1 96:1 53:1 138:1 81:1 161:1 173:1 10313:1 42039:1 
0.6267296445479612 8:1 109:1 40:1 137:1 68:1 166:1 170:1 7277:1 49386:1 
1 22:1 96:1 28:1 138:1 56:1 166:1 172:1 2753:1 45683:1 
1 25:1 95:1 53:1 124:1 56:1 166:1 169:1 6562:1 46111:1 
1 25:1 96:1 28:1 136:1 56:1 152:1 169:1 4730:1 32949:1 
0.008444548878252018 25:1 109:1 28:1 135:1 56:1 152:1 169:1 6201:1 48755:1 
1 12:1 96:1 53:1 124:1 81:1 166:1 170:1 12423:1 42888:1 
0.103002787366525 25:1 96:1 28:1 138:1 56:1 144:1 174:1 6201:1 28399:1 
0.9969247210282481 25:1 96:1 53:1 137:1 56:1 153:1 170:1 12190:1 35819:1 
0.5278250673281691 25:1 109:1 53:1 125:1 56:1 152:1 171:1 12190:1 31811:1 
0.1984890931114133 25:1 109:1 53:1 137:1 81:1 166:1 172:1 24140:1 28418:1 
0.1201064612074839 25:1 96:1 53:1 138:1 56:1 151:1 171:1 16750:1 31561:1 
1 25:1 107:1 53:1 124:1 81:1 166:1 169:1 9786:1 42374:1 
1 25:1 107:1 53:1 131:1 81:1 152:1 169:1 9786:1 42374:1 
1 17:1 101:1 53:1 123:1 56:1 162:1 170:1 10784:1 33779:1 
0.1103002446352345 25:1 109:1 50:1 136:1 81:1 156:1 170:1 14142:1 29844:1 
0.1521390851981753 25:1 96:1 28:1 138:1 56:1 152:1 172:1 4624:1 40182:1 
1 25:1 96:1 28:1 116:1 56:1 165:1 171:1 22028:1 41451:1 
1 21:1 97:1 46:1 136:1 56:1 152:1 171:1 22563:1 40628:1 
0.05087360625965274 25:1 105:1 28:1 135:1 56:1 164:1 169:1 2358:1 47292:1 
1 21:1 107:1 53:1 136:1 56:1 166:1 169:1 22563:1 38136:1 
1 25:1 85:1 40:1 116:1 56:1 141:1 169:1 17260:1 28904:1 
1 25:1 85:1 29:1 116:1 56:1 141:1 169:1 17260:1 44725:1 
0.1550118134210111 25:1 109:1 28:1 124:1 56:1 165:1 171:1 9950:1 29136:1 
0.4270969460553564 25:1 96:1 53:1 137:1 56:1 152:1 169:1 4407:1 38508:1 
1 25:1 96:1 53:1 124:1 81:1 151:1 169:1 10756:1 39743:1 
1 12:1 96:1 53:1 123:1 81:1 151:1 169:1 15014:1 40527:1 
0.2360809389078019 11:1 95:1 40:1 134:1 68:1 166:1 169:1 1097:1 46877:1 
0.7982403645569156 12:1 106:1 53:1 138:1 81:1 165:1 172:1 15014:1 38063:1 
0.3848934136257803 25:1 96:1 50:1 123:1 68:1 151:1 170:1 20539:1 40824:1 
0.3475909878195295 25:1 96:1 28:1 123:1 56:1 162:1 171:1 3760:1 31326:1 
1 12:1 106:1 53:1 114:1 56:1 152:1 170:1 6597:1 37927:1 
0.01441512544377347 21:1 96:1 51:1 116:1 68:1 165:1 169:1 22563:1 39869:1 
0.3130469699252997 25:1 109:1 53:1 113:1 56:1 152:1 169:1 11595:1 41683:1 
0.09177045751044438 25:1 96:1 53:1 138:1 81:1 140:1 170:1 16954:1 28876:1 
0.3189665828026003 12:1 96:1 28:1 123:1 56:1 162:1 173:1 7423:1 33303:1 
0.1910710516774804 21:1 97:1 32:1 137:1 78:1 151:1 170:1 2167:1 42961:1 
0.2624194760158289 25:1 95:1 50:1 115:1 68:1 151:1 169:1 22681:1 25609:1 
0.3174671481401472 11:1 95:1 53:1 138:1 78:1 165:1 170:1 880:1 25142:1 
0.3185432853575526 25:1 96:1 28:1 123:1 56:1 162:1 169:1 3840:1 36498:1 
0.5837846193478944 12:1 96:1 53:1 123:1 56:1 162:1 173:1 11769:1 36138:1 
1 25:1 96:1 28:1 136:1 56:1 167:1 173:1 10592:1 41927:1 
1 12:1 96:1 28:1 124:1 56:1 166:1 170:1 20915:1 44692:1 
1 25:1 96:1 53:1 136:1 56:1 152:1 170:1 14729:1 48272:1 
0.9749847019148655 25:1 107:1 28:1 137:1 56:1 151:1 169:1 15256:1 28968:1 
1 3:1 109:1 39:1 137:1 81:1 163:1 170:1 21970:1 32134:1 
0.7400321258495091 12:1 107:1 53:1 138:1 67:1 140:1 169:1 9378:1 30237:1 
0.1146037779695132 25:1 109:1 28:1 138:1 56:1 152:1 170:1 18131:1 30558:1 
0.2414132509991308 25:1 96:1 28:1 123:1 56:1 162:1 169:1 16261:1 47067:1 
0.215136023976972 25:1 96:1 53:1 138:1 81:1 152:1 171:1 5061:1 44139:1 
0.8527620948123156 9:1 93:1 28:1 124:1 56:1 164:1 169:1 16517:1 27850:1 
1 21:1 96:1 32:1 123:1 68:1 152:1 172:1 18895:1 41501:1 
0.2180725381698681 12:1 96:1 40:1 138:1 77:1 165:1 170:1 19791:1 39779:1 
0.7508841860574117 25:1 109:1 28:1 136:1 56:1 152:1 170:1 8327:1 30717:1 
0.4961630978107785 25:1 108:1 52:1 124:1 81:1 166:1 169:1 3646:1 36741:1 
0.4172640201123297 25:1 109:1 52:1 116:1 81:1 165:1 178:1 3646:1 33316:1 
0.2872003813087917 25:1 109:1 53:1 124:1 80:1 165:1 170:1 8587:1 32460:1 
0.1165244929046596 25:1 96:1 53:1 137:1 81:1 166:1 169:1 7731:1 34931:1 
0.05556443564691326 25:1 109:1 28:1 133:1 56:1 151:1 171:1 24240:1 32677:1 
0.2689881707201857 25:1 109:1 53:1 124:1 81:1 166:1 169:1 19904:1 45699:1 
0.02395572576603651 25:1 109:1 40:1 120:1 81:1 164:1 171:1 12862:1 37591:1 
0.8514150232783088 25:1 92:1 53:1 136:1 68:1 166:1 169:1 12862:1 38718:1 
0.6939417651320859 25:1 108:1 53:1 138:1 68:1 163:1 170:1 12862:1 29435:1 
0.2214240536813604 21:1 109:1 50:1 137:1 81:1 165:1 169:1 18177:1 41717:1 
0.09176924046498436 25:1 109:1 49:1 137:1 78:1 152:1 169:1 16988:1 32198:1 
0.203372244629031 25:1 109:1 51:1 124:1 56:1 152:1 171:1 3527:1 30140:1 
1 25:1 96:1 53:1 124:1 79:1 164:1 169:1 5411:1 40026:1 
0.720185969949713 8:1 109:1 40:1 124:1 81:1 152:1 170:1 9101:1 31216:1 
1 25:1 96:1 36:1 124:1 68:1 165:1 169:1 6487:1 47379:1 
0.5416758735841253 25:1 96:1 28:1 123:1 56:1 162:1 169:1 6323:1 38902:1 
0.3423711252078618 11:1 95:1 50:1 123:1 68:1 152:1 169:1 645:1 30212:1 
0.2217583097606053 12:1 94:1 29:1 133:1 81:1 163:1 169:1 20737:1 37679:1 
1 21:1 105:1 38:1 135:1 68:1 164:1 175:1 21902:1 46631:1 
0.1568907466887145 25:1 96:1 40:1 137:1 77:1 164:1 169:1 12710:1 36853:1 
0.207581682316058 12:1 96:1 53:1 138:1 81:1 140:1 173:1 5000:1 41590:1 
1 25:1 96:1 53:1 137:1 56:1 163:1 172:1 3646:1 29792:1 
0.4406992640414476 25:1 109:1 53:1 135:1 56:1 152:1 173:1 3646:1 44346:1 
1 25:1 96:1 53:1 124:1 81:1 166:1 170:1 19617:1 48605:1 
0.4327205631407024 25:1 109:1 40:1 124:1 81:1 164:1 169:1 2863:1 43001:1 
0.01081358037681299 25:1 109:1 40:1 124:1 68:1 166:1 178:1 15221:1 36888:1 
0.2535922421059601 25:1 96:1 40:1 137:1 77:1 165:1 171:1 10187:1 38548:1 
0.2002239234323097 21:1 96:1 28:1 137:1 56:1 152:1 169:1 18895:1 42079:1 
0.07970267624528288 25:1 109:1 28:1 116:1 56:1 165:1 169:1 9877:1 31065:1 
0.1283674434926607 12:1 96:1 53:1 138:1 81:1 152:1 173:1 7050:1 35683:1 
0.1600407237972099 21:1 96:1 28:1 138:1 56:1 152:1 176:1 17552:1 47761:1 
0.8678488638209149 9:1 92:1 40:1 138:1 77:1 148:1 170:1 3112:1 40065:1 
0.566677359526319 9:1 92:1 40:1 138:1 77:1 152:1 172:1 3112:1 40060:1 
0.8412886145336155 9:1 96:1 40:1 136:1 77:1 152:1 175:1 3112:1 34199:1 
0.3420826874212471 21:1 109:1 40:1 124:1 64:1 165:1 169:1 21527:1 39985:1 
0.325262275402175 25:1 96:1 53:1 137:1 81:1 152:1 170:1 4624:1 26858:1 
1 25:1 85:1 53:1 113:1 68:1 166:1 170:1 3658:1 36872:1 
0.03429444417647582 25:1 109:1 28:1 124:1 56:1 164:1 176:1 19935:1 41680:1 
0.03949050214406014 25:1 96:1 53:1 138:1 56:1 152:1 170:1 13995:1 29303:1 
0.7874935736521497 12:1 96:1 53:1 123:1 81:1 162:1 177:1 4574:1 43209:1 
0.4573766160414241 12:1 106:1 53:1 138:1 81:1 165:1 179:1 4574:1 40030:1 
0.09182861335871731 21:1 97:1 28:1 138:1 56:1 163:1 171:1 3731:1 43272:1 
1 12:1 96:1 53:1 113:1 78:1 152:1 172:1 19175:1 30801:1 
0.621726805974422 12:1 96:1 40:1 138:1 68:1 152:1 171:1 9157:1 40816:1 
0.2993010951288901 25:1 96:1 49:1 136:1 60:1 152:1 169:1 6645:1 45136:1 
0.3202492639269355 14:1 98:1 46:1 115:1 77:1 154:1 170:1 11017:1 38298:1 
0.3149754016799135 14:1 98:1 46:1 136:1 77:1 165:1 172:1 11017:1 26081:1 
0.1613497006923268 9:1 93:1 49:1 123:1 60:1 162:1 172:1 12890:1 26308:1 
0.3680215042815352 21:1 109:1 32:1 137:1 68:1 141:1 176:1 5436:1 33509:1 
0.6023764535518853 12:1 96:1 53:1 133:1 56:1 158:1 170:1 23264:1 40056:1 
1 25:1 105:1 49:1 129:1 68:1 152:1 169:1 5685:1 47292:1 
0.800204833147985 21:1 96:1 53:1 136:1 77:1 152:1 170:1 22563:1 29570:1 
1 12:1 96:1 53:1 124:1 77:1 164:1 170:1 2793:1 40102:1 
0.09726842412003556 25:1 109:1 40:1 137:1 77:1 143:1 179:1 7433:1 40871:1 
0.0107215923391023 25:1 109:1 53:1 115:1 68:1 165:1 169:1 16142:1 42962:1 
1 25:1 96:1 28:1 136:1 56:1 152:1 169:1 9852:1 29710:1 
1 25:1 97:1 40:1 137:1 56:1 152:1 169:1 18130:1 33004:1 
0.4018400012688493 25:1 109:1 53:1 135:1 81:1 164:1 169:1 22746:1 42073:1 
0.857306464955291 25:1 107:1 53:1 136:1 81:1 166:1 169:1 17344:1 43862:1 
1 25:1 105:1 28:1 123:1 56:1 144:1 169:1 16750:1 47292:1 
0.09580386013729081 25:1 96:1 51:1 137:1 56:1 166:1 173:1 22346:1 33248:1 
0.01603955166143297 9:1 93:1 53:1 124:1 56:1 161:1 169:1 12890:1 46497:1 
0.3172592228472387 21:1 96:1 40:1 137:1 81:1 164:1 170:1 22563:1 41943:1 
1 25:1 96:1 31:1 124:1 68:1 165:1 169:1 18938:1 35411:1 
0.7927748231343195 25:1 105:1 31:1 124:1 68:1 164:1 169:1 20166:1 47292:1 
1 21:1 96:1 53:1 136:1 59:1 152:1 169:1 22563:1 32544:1 
1 12:1 96:1 53:1 137:1 81:1 165:1 170:1 22168:1 32548:1 
0.2754311529742154 25:1 109:1 53:1 136:1 68:1 142:1 175:1 22634:1 42082:1 
0.07638456700641201 25:1 96:1 40:1 138:1 77:1 140:1 179:1 16750:1 47066:1 
1 12:1 101:1 52:1 128:1 81:1 166:1 169:1 16901:1 45559:1 
0.06790606024920562 25:1 100:1 28:1 138:1 56:1 156:1 175:1 18895:1 34621:1 
0.08518574451308678 25:1 109:1 40:1 113:1 72:1 152:1 169:1 13898:1 39186:1 
0.6380343328237055 25:1 96:1 40:1 137:1 72:1 152:1 171:1 13898:1 30158:1 
0.5113875749912287 25:1 109:1 53:1 124:1 56:1 166:1 170:1 15407:1 28436:1 
0.413359772127294 12:1 96:1 40:1 116:1 81:1 144:1 170:1 21710:1 47993:1 
0.8281923534812015 21:1 109:1 40:1 135:1 74:1 151:1 170:1 21527:1 48192:1 
0.03251027040553232 25:1 109:1 49:1 121:1 68:1 153:1 173:1 23463:1 41479:1 
0.2238666657689054 21:1 100:1 41:1 137:1 81:1 164:1 170:1 3996:1 34027:1 
0.5636985867115448 25:1 109:1 53:1 136:1 77:1 165:1 174:1 16750:1 29393:1 
1 25:1 108:1 53:1 137:1 81:1 166:1 169:1 4664:1 29435:1 
0.2689389904969935 25:1 109:1 28:1 138:1 56:1 144:1 177:1 15407:1 27083:1 
0.4934097003702201 25:1 109:1 32:1 124:1 81:1 152:1 169:1 10166:1 35747:1 
1 25:1 96:1 53:1 124:1 60:1 165:1 169:1 11018:1 40026:1 
0.588829268094428 25:1 85:1 40:1 136:1 81:1 166:1 170:1 16750:1 26961:1 
0.5201289037920959 21:1 95:1 43:1 137:1 56:1 157:1 169:1 21527:1 25898:1 
0.1531074890733704 25:1 99:1 28:1 138:1 56:1 158:1 170:1 22813:1 38195:1 
0.8638591310409042 25:1 99:1 43:1 137:1 81:1 161:1 169:1 10120:1 26305:1 
1 25:1 101:1 49:1 124:1 60:1 164:1 169:1 24054:1 37658:1 
0.3880415959389847 21:1 96:1 32:1 115:1 79:1 152:1 174:1 19937:1 49189:1 
0.6438566247306446 12:1 96:1 49:1 122:1 60:1 165:1 170:1 24460:1 28201:1 
0.07069940845538086 12:1 94:1 40:1 137:1 77:1 163:1 169:1 3472:1 37679:1 
0.1213322976297174 25:1 109:1 38:1 137:1 68:1 149:1 183:1 17912:1 29448:1 
0.5618606718418032 25:1 93:1 53:1 138:1 81:1 148:1 169:1 15899:1 32388:1 
1 25:1 105:1 28:1 135:1 56:1 165:1 169:1 18139:1 47292:1 
0.5170224967291266 21:1 107:1 53:1 137:1 56:1 166:1 169:1 22563:1 47780:1 
0.4065074998164566 25:1 109:1 51:1 124:1 77:1 165:1 169:1 4025:1 31976:1 
1 25:1 96:1 49:1 124:1 56:1 166:1 169:1 9719:1 42061:1 
0.3999209142372797 21:1 96:1 28:1 138:1 56:1 152:1 175:1 4518:1 41277:1 
0.006300648936472299 25:1 92:1 28:1 136:1 56:1 166:1 176:1 12017:1 35843:1 
0.3319059408996184 8:1 108:1 53:1 138:1 56:1 165:1 169:1 11114:1 29435:1 
0.1693798847987632 8:1 109:1 53:1 124:1 56:1 166:1 175:1 11114:1 49415:1 
0.2804045025079717 25:1 109:1 41:1 136:1 81:1 144:1 173:1 22028:1 26687:1 
0.8553955466554153 25:1 96:1 28:1 137:1 56:1 164:1 173:1 11776:1 31851:1 
0.3354731989565632 25:1 109:1 28:1 136:1 56:1 152:1 174:1 11776:1 34309:1 
0.3907549918406446 25:1 109:1 28:1 124:1 56:1 163:1 169:1 16750:1 33827:1 
0.06686520093796843 25:1 109:1 53:1 124:1 56:1 163:1 174:1 9098:1 26563:1 
1 12:1 96:1 53:1 137:1 56:1 141:1 170:1 10414:1 30591:1 
0.1672127857210055 25:1 85:1 53:1 138:1 81:1 152:1 170:1 15949:1 35923:1 
0.7363471282336779 25:1 96:1 53:1 135:1 81:1 166:1 173:1 16750:1 43848:1 
0.260907001437395 25:1 96:1 31:1 136:1 65:1 141:1 169:1 22237:1 35996:1 
1 9:1 96:1 31:1 116:1 81:1 144:1 175:1 23686:1 39213:1 
0.2815081436092722 25:1 109:1 53:1 136:1 56:1 152:1 169:1 10120:1 30583:1 
1 25:1 96:1 52:1 124:1 68:1 144:1 169:1 23544:1 41674:1 
0.09679614540174647 25:1 109:1 28:1 124:1 56:1 152:1 169:1 24702:1 38161:1 
0.05260756199774054 21:1 109:1 28:1 138:1 56:1 152:1 171:1 10572:1 34748:1 
1 1:1 106:1 40:1 113:1 56:1 140:1 169:1 11534:1 29677:1 
0.6670250355718176 25:1 96:1 28:1 138:1 56:1 152:1 169:1 16750:1 46199:1 
0.7188918290696872 25:1 96:1 53:1 138:1 56:1 152:1 169:1 16750:1 37552:1 
0.03845285798797527 12:1 96:1 53:1 138:1 81:1 152:1 170:1 12542:1 36830:1 
1 25:1 96:1 40:1 115:1 68:1 152:1 169:1 16750:1 31530:1 
0.07939289481976153 12:1 96:1 53:1 138:1 68:1 166:1 170:1 6801:1 33890:1 
0.05660302041660075 25:1 109:1 40:1 137:1 81:1 166:1 169:1 6088:1 27644:1 
0.4129256904971617 25:1 109:1 28:1 124:1 56:1 152:1 169:1 16750:1 43360:1 
0.1674748470089274 25:1 96:1 53:1 136:1 81:1 152:1 169:1 24062:1 29286:1 
0.1160279350684604 25:1 96:1 53:1 138:1 56:1 142:1 175:1 18631:1 42697:1 
0.06688688941594258 25:1 96:1 28:1 137:1 56:1 152:1 169:1 12729:1 35213:1 
0.151798439956966 25:1 109:1 28:1 124:1 56:1 157:1 170:1 12729:1 37439:1 
0.2796939438941217 25:1 96:1 53:1 129:1 56:1 144:1 169:1 12710:1 44951:1 
0.2481127742511744 25:1 96:1 32:1 137:1 59:1 164:1 172:1 23113:1 43848:1 
0.2104483701239691 21:1 109:1 40:1 137:1 81:1 152:1 170:1 18895:1 31965:1 
0.381907896027444 25:1 96:1 53:1 115:1 56:1 152:1 171:1 17917:1 29180:1 
0.515546705920335 12:1 96:1 53:1 138:1 81:1 140:1 172:1 4451:1 31082:1 
0.09105416264407457 25:1 96:1 49:1 115:1 81:1 152:1 170:1 11584:1 31770:1 
0.1173746378965372 12:1 96:1 53:1 136:1 77:1 152:1 171:1 7041:1 31851:1 
0.09263087411804234 12:1 96:1 53:1 136:1 68:1 152:1 172:1 24027:1 29214:1 
0.0911889780285897 25:1 96:1 53:1 136:1 56:1 166:1 174:1 16750:1 30621:1 
0.231031122570396 25:1 109:1 28:1 133:1 56:1 165:1 169:1 10892:1 29353:1 
0.50925401586838 25:1 109:1 53:1 136:1 81:1 152:1 170:1 6567:1 41701:1 
1 25:1 85:1 28:1 123:1 56:1 162:1 169:1 12151:1 49254:1 
0.5165045725164191 25:1 106:1 53:1 137:1 56:1 166:1 170:1 23507:1 38364:1 
0.05268981194087576 12:1 96:1 53:1 138:1 56:1 152:1 172:1 14977:1 45160:1 
0.10521607775714 12:1 96:1 53:1 115:1 56:1 152:1 174:1 14977:1 40120:1 
0.9841886894229454 25:1 96:1 53:1 137:1 59:1 142:1 172:1 16624:1 47868:1 
0.06368883022941374 25:1 96:1 28:1 135:1 56:1 166:1 173:1 16750:1 41069:1 
0.0421544522620633 12:1 107:1 53:1 138:1 56:1 143:1 169:1 16340:1 48097:1 
0.3200763825114495 12:1 108:1 31:1 124:1 59:1 166:1 171:1 11740:1 29459:1 
1 3:1 96:1 31:1 138:1 79:1 148:1 173:1 21970:1 47066:1 
1 12:1 101:1 36:1 115:1 68:1 161:1 170:1 4841:1 42209:1 
1 21:1 96:1 31:1 124:1 73:1 152:1 169:1 20944:1 34353:1 
1 12:1 96:1 36:1 124:1 68:1 152:1 174:1 4841:1 29570:1 
0.5993106340812451 15:1 99:1 53:1 133:1 56:1 152:1 170:1 4581:1 32439:1 
0.7504868222508668 21:1 96:1 43:1 123:1 71:1 165:1 170:1 5436:1 40056:1 
0.04384185001108972 25:1 109:1 28:1 138:1 56:1 154:1 177:1 17260:1 32156:1 
1 12:1 96:1 53:1 137:1 81:1 144:1 171:1 24473:1 49192:1 
0.2746987487634662 25:1 109:1 53:1 116:1 56:1 165:1 175:1 7427:1 28866:1 
0.2280726417872472 25:1 109:1 53:1 124:1 81:1 152:1 170:1 4137:1 43731:1 
0.2802418282729628 25:1 96:1 53:1 138:1 81:1 140:1 170:1 19002:1 39968:1 
0.3259092908249845 25:1 109:1 28:1 137:1 56:1 149:1 172:1 23453:1 32237:1 
0.2024055865951843 25:1 109:1 53:1 121:1 56:1 165:1 169:1 7508:1 37342:1 
0.4485146201913592 21:1 109:1 52:1 121:1 81:1 165:1 171:1 7430:1 43183:1 
0.4990119348362287 25:1 109:1 49:1 124:1 80:1 152:1 170:1 18454:1 41344:1 
1 25:1 101:1 53:1 125:1 77:1 151:1 169:1 8724:1 48365:1 
0.10844915379291 25:1 96:1 49:1 115:1 70:1 157:1 177:1 24676:1 32172:1 
1 12:1 96:1 53:1 137:1 77:1 165:1 179:1 7443:1 28189:1 
0.05897215556927606 25:1 109:1 28:1 137:1 56:1 166:1 169:1 12873:1 47337:1 
0.3095324460155183 25:1 85:1 28:1 124:1 56:1 152:1 169:1 4132:1 32676:1 
1 25:1 109:1 28:1 137:1 56:1 164:1 170:1 21145:1 40133:1 
0.8933498405216099 25:1 109:1 40:1 113:1 81:1 152:1 169:1 21145:1 35731:1 
0.08091415013224251 25:1 109:1 53:1 124:1 68:1 166:1 172:1 11002:1 41801:1 
1 9:1 97:1 53:1 124:1 56:1 165:1 172:1 5148:1 44171:1 
1 25:1 96:1 28:1 137:1 56:1 165:1 174:1 6088:1 29570:1 
1 21:1 97:1 29:1 114:1 81:1 152:1 170:1 22563:1 46281:1 
1 13:1 97:1 49:1 124:1 68:1 141:1 170:1 5148:1 48342:1 
1 21:1 96:1 40:1 113:1 57:1 166:1 172:1 2167:1 29570:1 
0.8079918702979062 1:1 109:1 29:1 123:1 57:1 162:1 173:1 4754:1 46606:1 
0.5044942842047256 25:1 96:1 29:1 123:1 57:1 162:1 174:1 21877:1 49193:1 
0.6743324703012867 12:1 106:1 53:1 138:1 57:1 162:1 170:1 24464:1 42394:1 
0.5420928267485651 22:1 106:1 40:1 138:1 81:1 166:1 170:1 17665:1 36709:1 
0.7996558334572562 12:1 95:1 53:1 138:1 78:1 166:1 169:1 2347:1 25498:1 
0.2084994244685709 14:1 98:1 40:1 137:1 56:1 166:1 172:1 20585:1 36946:1 
0.2045442547919465 12:1 96:1 53:1 138:1 81:1 152:1 170:1 15063:1 45185:1 
1 12:1 96:1 53:1 124:1 81:1 166:1 172:1 15063:1 42361:1 
0.115377471775965 25:1 96:1 53:1 138:1 81:1 144:1 174:1 4155:1 34734:1 
0.3387289685223502 25:1 96:1 53:1 136:1 81:1 152:1 169:1 22028:1 41021:1 
0.1193275013356319 12:1 96:1 53:1 138:1 81:1 140:1 171:1 3065:1 35771:1 
0.3269517017105714 11:1 95:1 40:1 134:1 81:1 142:1 169:1 14567:1 46877:1 
1 12:1 96:1 40:1 137:1 81:1 165:1 170:1 18494:1 27998:1 
0.07798730125376154 25:1 109:1 40:1 136:1 77:1 151:1 169:1 11854:1 28142:1 
0.04418767589894844 25:1 96:1 28:1 138:1 56:1 152:1 178:1 11343:1 26941:1 
0.678257430997758 25:1 109:1 53:1 113:1 56:1 152:1 173:1 22563:1 41479:1 
0.3904446776764198 25:1 96:1 53:1 138:1 81:1 151:1 171:1 16750:1 31326:1 
0.2600230431465703 25:1 109:1 53:1 121:1 81:1 152:1 174:1 16750:1 43624:1 
1 25:1 109:1 28:1 124:1 56:1 165:1 170:1 16750:1 46757:1 
0.05608671179493587 25:1 96:1 40:1 137:1 81:1 166:1 169:1 4391:1 45232:1 
0.465077401647912 12:1 96:1 49:1 137:1 81:1 165:1 173:1 4849:1 40120:1 
0.134672560091481 25:1 109:1 40:1 124:1 68:1 149:1 170:1 10892:1 26199:1 
1 21:1 101:1 28:1 123:1 56:1 152:1 169:1 22563:1 40503:1 
1 17:1 96:1 49:1 138:1 56:1 154:1 170:1 15774:1 28787:1 
0.0596785205532316 25:1 96:1 53:1 138:1 56:1 161:1 173:1 4624:1 27997:1 
0.2471717547913689 25:1 109:1 40:1 124:1 81:1 152:1 171:1 9737:1 48245:1 
0.7590659807376102 14:1 98:1 28:1 116:1 56:1 165:1 175:1 19288:1 37368:1 
0.3563442251311915 11:1 95:1 28:1 138:1 56:1 163:1 170:1 21406:1 46135:1 
0.8154884803412124 25:1 105:1 51:1 124:1 67:1 151:1 169:1 24686:1 47292:1 
1 21:1 96:1 53:1 123:1 79:1 152:1 169:1 22563:1 39419:1 
1 12:1 97:1 49:1 136:1 81:1 154:1 171:1 14690:1 40628:1 
0.2182689935739551 25:1 96:1 53:1 123:1 81:1 162:1 169:1 24022:1 34274:1 
0.9112211563014966 25:1 106:1 53:1 136:1 81:1 162:1 171:1 24022:1 38364:1 
0.29338822113599 25:1 96:1 28:1 123:1 56:1 162:1 169:1 14799:1 31863:1 
0.1492896396715547 25:1 109:1 50:1 137:1 68:1 151:1 169:1 16829:1 41680:1 
1 12:1 96:1 53:1 137:1 78:1 151:1 170:1 11221:1 44122:1 
0.01418856938553374 11:1 95:1 53:1 134:1 68:1 166:1 169:1 988:1 46877:1 
0.2863590246903923 21:1 109:1 28:1 114:1 56:1 152:1 169:1 18901:1 32001:1 
1 25:1 96:1 49:1 124:1 56:1 165:1 170:1 7272:1 31326:1 
0.685203622743912 12:1 96:1 53:1 137:1 77:1 165:1 169:1 6597:1 39968:1 
0.147994695648849 25:1 109:1 40:1 133:1 68:1 163:1 169:1 20439:1 39196:1 
0.4702574620110066 21:1 98:1 42:1 137:1 56:1 164:1 169:1 19937:1 39340:1 
0.08148497062194886 21:1 109:1 28:1 135:1 56:1 152:1 169:1 18901:1 27089:1 
0.2148451540037063 25:1 109:1 40:1 130:1 81:1 164:1 172:1 4624:1 27747:1 
0.2879915848237969 25:1 96:1 53:1 137:1 56:1 152:1 169:1 5692:1 31896:1 
0.08227906680498062 25:1 109:1 53:1 124:1 56:1 152:1 170:1 5692:1 33322:1 
1 25:1 96:1 53:1 124:1 81:1 152:1 169:1 8593:1 33379:1 
0.0439558137767943 25:1 96:1 53:1 138:1 81:1 163:1 169:1 23139:1 35014:1 
0.6109005053428945 25:1 93:1 53:1 138:1 68:1 152:1 169:1 24007:1 42414:1 
0.6711232209226723 21:1 101:1 37:1 136:1 77:1 152:1 169:1 22563:1 46190:1 
0.05598326276247655 21:1 96:1 32:1 137:1 65:1 165:1 174:1 6952:1 34682:1 
0.2647035478558915 25:1 109:1 28:1 133:1 56:1 157:1 170:1 10892:1 39830:1 
0.873388980844793 21:1 109:1 40:1 137:1 80:1 157:1 170:1 5436:1 29274:1 
0.2839015136030557 25:1 109:1 49:1 129:1 68:1 152:1 169:1 4545:1 43624:1 
0.298778095507036 25:1 96:1 53:1 136:1 77:1 141:1 170:1 18895:1 49208:1 
0.2327713883342006 25:1 98:1 40:1 137:1 81:1 163:1 169:1 14984:1 45768:1 
0.114493342709188 21:1 96:1 51:1 136:1 81:1 152:1 170:1 5436:1 48714:1 
0.00554259115645909 12:1 96:1 53:1 138:1 81:1 140:1 170:1 19113:1 48782:1 
0.4447832646619207 21:1 96:1 53:1 137:1 81:1 143:1 171:1 2086:1 40102:1 
0.4208998985035832 25:1 109:1 53:1 129:1 81:1 152:1 170:1 6813:1 46465:1 
1 25:1 96:1 53:1 125:1 81:1 166:1 174:1 21736:1 48522:1 
0.1679226824862592 25:1 109:1 53:1 123:1 56:1 152:1 169:1 9205:1 40264:1 
0.1813466342497846 25:1 96:1 40:1 137:1 81:1 165:1 170:1 9210:1 46590:1 
0.2049336180693381 25:1 96:1 53:1 136:1 81:1 152:1 170:1 4112:1 44787:1 
0.1440677134279853 12:1 96:1 53:1 138:1 81:1 140:1 170:1 20058:1 30212:1 
0.3133925761186332 21:1 97:1 42:1 133:1 56:1 151:1 175:1 22563:1 48334:1 
1 21:1 106:1 41:1 123:1 77:1 165:1 172:1 21527:1 37820:1 
1 22:1 95:1 49:1 137:1 69:1 152:1 169:1 13091:1 25810:1 
0.4074969780201184 21:1 96:1 32:1 113:1 68:1 164:1 178:1 2167:1 33963:1 
0.554321825005196 25:1 85:1 39:1 136:1 78:1 151:1 186:1 5527:1 37501:1 
0.07053621829444412 1:1 108:1 53:1 123:1 67:1 162:1 169:1 12772:1 36741:1 
1 1:1 106:1 53:1 123:1 67:1 166:1 171:1 12772:1 37820:1 
0.1550828779309012 25:1 106:1 28:1 138:1 56:1 152:1 170:1 4112:1 31625:1 
1 25:1 85:1 28:1 136:1 56:1 151:1 169:1 24217:1 32676:1 
0.1373193040989844 25:1 108:1 28:1 123:1 56:1 162:1 170:1 24217:1 36741:1 
0.3946659899818845 1:1 109:1 28:1 136:1 56:1 152:1 169:1 20411:1 39196:1 
0.2438336548232058 21:1 96:1 32:1 137:1 66:1 144:1 169:1 20949:1 42841:1 
0.4454377604988939 25:1 101:1 50:1 137:1 81:1 165:1 171:1 15256:1 27870:1 
0.4444710646102373 25:1 96:1 28:1 138:1 56:1 152:1 171:1 16750:1 26734:1 
1 25:1 108:1 53:1 138:1 81:1 140:1 173:1 12015:1 29435:1 
0.1909089835576933 21:1 96:1 40:1 137:1 56:1 166:1 169:1 22563:1 41967:1 
0.4588042606330322 12:1 96:1 49:1 116:1 68:1 165:1 170:1 4841:1 29214:1 
1 25:1 97:1 53:1 137:1 81:1 165:1 170:1 4624:1 48334:1 
0.2089763930929917 25:1 109:1 53:1 137:1 81:1 166:1 169:1 15106:1 42863:1 
0.4656227292980664 25:1 109:1 41:1 124:1 77:1 164:1 169:1 1977:1 27648:1 
0.4371420590253889 25:1 96:1 53:1 136:1 69:1 152:1 169:1 2919:1 46681:1 
1 21:1 96:1 40:1 115:1 68:1 152:1 170:1 22563:1 29551:1 
0.5926110962883936 12:1 96:1 49:1 120:1 68:1 166:1 170:1 4822:1 27491:1 
0.6260332516173472 25:1 96:1 28:1 137:1 56:1 157:1 169:1 19970:1 38907:1 
0.02830891160631877 21:1 96:1 45:1 136:1 81:1 141:1 170:1 5436:1 40049:1 
0.006851519720320865 25:1 96:1 28:1 112:1 56:1 140:1 175:1 16750:1 31914:1 
0.3369216861757932 12:1 96:1 53:1 138:1 81:1 165:1 171:1 7461:1 42030:1 
0.07302387500168436 21:1 107:1 40:1 120:1 56:1 166:1 169:1 5436:1 28675:1 
0.5073227253268934 8:1 109:1 28:1 135:1 56:1 165:1 170:1 16147:1 41989:1 
0.3358433487548353 25:1 92:1 53:1 138:1 64:1 152:1 171:1 16750:1 36126:1 
0.1165799228747492 8:1 109:1 53:1 138:1 81:1 166:1 171:1 11397:1 28262:1 
1 1:1 106:1 39:1 124:1 68:1 164:1 170:1 2708:1 37927:1 
1 25:1 96:1 53:1 124:1 78:1 165:1 171:1 17439:1 35546:1 
0.0008561182498867797 25:1 96:1 51:1 137:1 81:1 165:1 170:1 1815:1 48166:1 
0.7739917200580165 25:1 96:1 28:1 137:1 56:1 163:1 171:1 8407:1 41289:1 
1 25:1 96:1 53:1 116:1 56:1 165:1 171:1 13988:1 27491:1 
1 12:1 96:1 46:1 137:1 56:1 151:1 170:1 12154:1 42981:1 
0.1864701323631777 25:1 96:1 53:1 116:1 81:1 165:1 169:1 23516:1 43842:1 
0.2869812269337415 25:1 109:1 53:1 137:1 56:1 165:1 169:1 21952:1 36127:1 
0.3493959093181071 25:1 109:1 28:1 138:1 56:1 165:1 174:1 17260:1 45132:1 
0.2997996159288584 1:1 109:1 28:1 124:1 56:1 152:1 170:1 2665:1 29141:1 
0.05443141379442732 25:1 108:1 28:1 124:1 56:1 166:1 170:1 17434:1 36741:1 
0.05028535943265056 12:1 96:1 53:1 138:1 56:1 165:1 170:1 1664:1 46201:1 
0.0375479669399986 25:1 96:1 40:1 137:1 68:1 163:1 169:1 3646:1 39338:1 
0.6945105846427706 25:1 109:1 40:1 135:1 68:1 164:1 170:1 3646:1 39985:1 
0.739902072687018 25:1 96:1 53:1 116:1 68:1 165:1 172:1 15256:1 38552:1 
0.08314986363421484 25:1 109:1 53:1 136:1 81:1 152:1 169:1 24498:1 34853:1 
1 21:1 107:1 40:1 116:1 77:1 165:1 169:1 4518:1 38353:1 
0.476452561260145 25:1 109:1 53:1 136:1 81:1 152:1 170:1 10377:1 26159:1 
0.7510183295038539 8:1 92:1 28:1 136:1 56:1 166:1 169:1 8223:1 40860:1 
1 25:1 96:1 28:1 133:1 56:1 152:1 171:1 17434:1 32973:1 
1 21:1 96:1 40:1 125:1 81:1 165:1 170:1 6941:1 38788:1 
0.08461006914930433 25:1 85:1 53:1 136:1 56:1 166:1 173:1 19108:1 32680:1 
0.1039635950246331 8:1 92:1 28:1 138:1 56:1 161:1 170:1 21551:1 39577:1 
0.5645440096426206 21:1 96:1 36:1 116:1 64:1 148:1 170:1 18208:1 39968:1 
0.4238137830144513 8:1 109:1 28:1 137:1 56:1 148:1 180:1 21551:1 29128:1 
0.2980001804136211 12:1 96:1 53:1 138:1 64:1 148:1 173:1 12155:1 30162:1 
0.2102539375403298 12:1 96:1 53:1 138:1 64:1 140:1 178:1 12155:1 30971:1 
0.3199906988211683 25:1 109:1 28:1 133:1 56:1 144:1 173:1 17260:1 47127:1 
0.4125542474505832 21:1 109:1 53:1 138:1 81:1 144:1 170:1 2157:1 49353:1 
0.2078863862759105 25:1 109:1 49:1 136:1 81:1 152:1 171:1 24624:1 30174:1 
0.05658154717361087 21:1 96:1 53:1 136:1 81:1 152:1 171:1 18208:1 40796:1 
0.6962849481521217 12:1 96:1 49:1 137:1 81:1 144:1 171:1 2806:1 34311:1 
0.3028174278901815 21:1 96:1 28:1 116:1 56:1 165:1 180:1 5436:1 43584:1 
0.8167572879876264 25:1 96:1 28:1 137:1 56:1 152:1 172:1 17536:1 35401:1 
0.6053384668174582 25:1 96:1 53:1 129:1 56:1 166:1 169:1 2104:1 48540:1 
1 12:1 101:1 53:1 138:1 81:1 140:1 169:1 23811:1 29207:1 
1 25:1 93:1 28:1 115:1 56:1 152:1 171:1 2739:1 36825:1 
1 21:1 96:1 53:1 125:1 68:1 165:1 169:1 22563:1 32608:1 
1 25:1 97:1 40:1 137:1 65:1 148:1 171:1 14722:1 48092:1 
0.1010996299837616 25:1 96:1 53:1 112:1 68:1 165:1 171:1 15256:1 47262:1 
0.002535730722770896 14:1 108:1 28:1 123:1 56:1 162:1 169:1 22846:1 29459:1 
0.7216121628818843 21:1 96:1 40:1 133:1 78:1 152:1 171:1 18177:1 43683:1 
0.3265258728486012 25:1 96:1 28:1 123:1 56:1 162:1 173:1 10619:1 34107:1 
0.1695873256469384 21:1 97:1 40:1 137:1 80:1 164:1 169:1 19937:1 43277:1 
0.01367620483966916 25:1 109:1 39:1 136:1 56:1 151:1 170:1 20925:1 45155:1 
0.2886609155869008 21:1 96:1 40:1 137:1 81:1 143:1 170:1 19937:1 41927:1 
0.2156400672900598 25:1 109:1 53:1 133:1 68:1 152:1 170:1 20925:1 28604:1 
0.1259490948432814 25:1 96:1 53:1 136:1 81:1 165:1 170:1 3875:1 29564:1 
0.580419698922276 8:1 109:1 28:1 130:1 56:1 152:1 171:1 24877:1 37277:1 
0.5017861201548861 12:1 96:1 53:1 115:1 68:1 152:1 171:1 16095:1 40824:1 
0.3479618393020462 12:1 96:1 53:1 138:1 68:1 165:1 179:1 16095:1 40824:1 
1 21:1 96:1 31:1 125:1 68:1 165:1 169:1 22563:1 31359:1 
0.0499547640960754 12:1 96:1 53:1 138:1 81:1 152:1 170:1 4989:1 42921:1 
0.4239747224934158 12:1 96:1 40:1 138:1 81:1 165:1 170:1 18192:1 32266:1 
1 25:1 96:1 40:1 124:1 68:1 166:1 169:1 1486:1 32264:1 
0.1124268240557312 12:1 96:1 53:1 138:1 68:1 140:1 169:1 7535:1 36035:1 
0.8702682022211495 12:1 96:1 53:1 137:1 78:1 165:1 170:1 4485:1 31629:1 
0.1931744226404716 25:1 109:1 28:1 133:1 56:1 166:1 172:1 17912:1 45874:1 
0.7573280445755738 21:1 109:1 53:1 124:1 81:1 152:1 170:1 2157:1 41492:1 
0.07152591335916095 25:1 96:1 49:1 138:1 81:1 144:1 170:1 16763:1 45299:1 
0.3651471936330837 25:1 109:1 49:1 124:1 81:1 166:1 173:1 16763:1 34241:1 
0.05500574511247632 25:1 96:1 53:1 138:1 77:1 164:1 169:1 9512:1 41827:1 
0.2699032138426679 25:1 109:1 40:1 124:1 81:1 152:1 171:1 7469:1 35837:1 
0.3265233941415461 25:1 96:1 28:1 138:1 56:1 144:1 172:1 10835:1 48712:1 
0.1551910284523009 25:1 96:1 49:1 136:1 64:1 152:1 169:1 9300:1 27474:1 
0.127370842631614 21:1 96:1 36:1 138:1 56:1 154:1 173:1 22563:1 41283:1 
0.4703499586803467 25:1 108:1 53:1 113:1 56:1 164:1 169:1 24666:1 32460:1 
1 8:1 96:1 53:1 136:1 56:1 152:1 172:1 20005:1 29084:1 
0.6670080220182181 25:1 96:1 28:1 138:1 56:1 152:1 169:1 16750:1 45184:1 
1 25:1 101:1 53:1 116:1 56:1 165:1 169:1 5688:1 43443:1 
0.404863192177452 25:1 109:1 53:1 129:1 56:1 165:1 171:1 5688:1 35631:1 
0.769638425047778 25:1 101:1 53:1 137:1 81:1 165:1 169:1 10902:1 33271:1 
0.1396805103693914 21:1 96:1 40:1 116:1 81:1 165:1 169:1 21663:1 28799:1 
0.2176716797911752 11:1 95:1 52:1 123:1 81:1 162:1 169:1 302:1 30212:1 
1 25:1 96:1 53:1 113:1 56:1 151:1 170:1 16261:1 33681:1 
