svm_type c_svc
kernel_type rbf
gamma 0.18
nr_class 2
total_sv 35042
rho -0.0772327
label 1 -1
nr_sv 19675 15367
SV
0.04589482436853443 18:1 102:1 40:1 124:1 81:1 166:1 169:1 21300:1 44975:1 
0.4823124757978178 25:1 96:1 53:1 136:1 64:1 152:1 171:1 22028:1 40805:1 
0.1298984221745837 25:1 108:1 36:1 124:1 81:1 143:1 173:1 9582:1 29435:1 
0.4823124757978178 25:1 109:1 31:1 116:1 68:1 141:1 170:1 8765:1 49227:1 
0.1993167738787095 12:1 109:1 36:1 116:1 81:1 141:1 172:1 4649:1 49227:1 
0.01094241988523981 1:1 96:1 51:1 133:1 56:1 141:1 169:1 18956:1 49276:1 
0.08040322837617853 23:1 96:1 28:1 133:1 56:1 141:1 170:1 19133:1 49276:1 
0.4823124757978178 12:1 96:1 49:1 137:1 68:1 164:1 170:1 19759:1 47895:1 
0.120452432694828 21:1 109:1 53:1 136:1 56:1 152:1 179:1 22563:1 37466:1 
0.1804433089905193 4:1 88:1 40:1 137:1 68:1 166:1 169:1 21894:1 27423:1 
0.4823124757978178 25:1 109:1 28:1 124:1 56:1 164:1 169:1 21145:1 30427:1 
0.3728423430254465 12:1 93:1 49:1 138:1 60:1 165:1 169:1 14484:1 48865:1 
0.01085258140422412 18:1 102:1 40:1 133:1 81:1 158:1 169:1 10091:1 43375:1 
0.0004887232544792992 21:1 109:1 40:1 120:1 81:1 166:1 181:1 4624:1 46757:1 
0.4823124757978178 25:1 109:1 28:1 120:1 56:1 166:1 187:1 16951:1 46757:1 
0.4823124757978178 12:1 96:1 30:1 138:1 81:1 165:1 170:1 2468:1 40102:1 
0.04256677977449821 21:1 109:1 40:1 129:1 81:1 152:1 173:1 3996:1 35571:1 
0.3938169130171929 12:1 96:1 53:1 112:1 56:1 140:1 170:1 2757:1 34311:1 
0.4823124757978178 21:1 109:1 28:1 138:1 56:1 156:1 171:1 22200:1 44556:1 
0.4823124757978178 25:1 109:1 28:1 136:1 56:1 151:1 175:1 19827:1 47421:1 
0.001875640412633145 9:1 96:1 49:1 136:1 81:1 152:1 170:1 1465:1 36316:1 
0.2050039690137237 21:1 109:1 53:1 137:1 56:1 152:1 176:1 1618:1 32115:1 
0.05852243709937667 13:1 109:1 28:1 113:1 56:1 166:1 173:1 11698:1 30432:1 
0.1256438704417432 12:1 109:1 29:1 123:1 81:1 162:1 171:1 12828:1 46757:1 
0.4823124757978178 25:1 109:1 32:1 123:1 68:1 162:1 169:1 10987:1 28845:1 
0.4823124757978178 25:1 109:1 53:1 136:1 56:1 166:1 169:1 10997:1 28845:1 
0.01231807360057096 14:1 109:1 42:1 124:1 68:1 166:1 174:1 10047:1 30382:1 
0.4823124757978178 12:1 96:1 49:1 116:1 74:1 165:1 173:1 10285:1 30616:1 
0.4823124757978178 25:1 109:1 53:1 137:1 56:1 151:1 169:1 9577:1 41479:1 
0.4823124757978178 17:1 101:1 28:1 136:1 56:1 157:1 169:1 12900:1 37408:1 
0.006755061904816702 17:1 109:1 28:1 130:1 56:1 152:1 170:1 6591:1 35263:1 
0.1465422525734681 18:1 97:1 53:1 138:1 56:1 165:1 169:1 599:1 29530:1 
0.03813306778938393 25:1 108:1 53:1 124:1 69:1 143:1 169:1 17917:1 29435:1 
0.4823124757978178 25:1 109:1 41:1 136:1 81:1 151:1 178:1 11776:1 34298:1 
0.08825095318279337 12:1 109:1 41:1 137:1 81:1 152:1 172:1 19928:1 46227:1 
0.4823124757978178 25:1 109:1 28:1 137:1 56:1 152:1 191:1 9910:1 46227:1 
0.08851495799244599 23:1 96:1 28:1 138:1 56:1 151:1 174:1 23048:1 31562:1 
0.1243376397844745 12:1 96:1 49:1 138:1 79:1 165:1 169:1 21622:1 34879:1 
0.1161133796329779 21:1 109:1 51:1 137:1 69:1 158:1 173:1 3996:1 27928:1 
0.1286537916345317 12:1 109:1 28:1 137:1 56:1 158:1 181:1 6833:1 27928:1 
0.4823124757978178 25:1 109:1 46:1 124:1 81:1 166:1 170:1 3199:1 46757:1 
0.09946645919160033 12:1 85:1 31:1 138:1 68:1 165:1 170:1 21593:1 44936:1 
0.4823124757978178 25:1 109:1 29:1 123:1 81:1 162:1 171:1 10532:1 41479:1 
0.4823124757978178 25:1 85:1 51:1 138:1 81:1 148:1 169:1 21764:1 34985:1 
0.0001153423157816886 23:1 96:1 53:1 138:1 56:1 165:1 174:1 23062:1 32857:1 
0.4823124757978178 1:1 108:1 40:1 124:1 68:1 148:1 173:1 19557:1 48086:1 
0.2229561193968225 1:1 108:1 36:1 124:1 68:1 144:1 171:1 19029:1 29435:1 
0.4823124757978178 12:1 85:1 36:1 138:1 68:1 141:1 170:1 6652:1 42072:1 
0.1821359058312108 1:1 106:1 39:1 124:1 80:1 153:1 169:1 4175:1 49476:1 
0.002993599756112431 11:1 106:1 52:1 124:1 77:1 153:1 170:1 21220:1 49476:1 
0.4823124757978178 25:1 85:1 40:1 138:1 68:1 163:1 170:1 24655:1 34213:1 
0.06732307678302013 12:1 85:1 29:1 138:1 68:1 140:1 170:1 14966:1 38473:1 
0.4580105875839479 25:1 109:1 32:1 133:1 56:1 152:1 169:1 7974:1 42535:1 
0.2955611250019961 12:1 96:1 31:1 116:1 68:1 141:1 170:1 15140:1 40056:1 
0.4823124757978178 21:1 109:1 49:1 113:1 81:1 141:1 170:1 1618:1 34298:1 
0.2581352565617567 12:1 96:1 53:1 124:1 81:1 143:1 169:1 24547:1 43006:1 
0.4823124757978178 25:1 109:1 41:1 129:1 77:1 164:1 169:1 9232:1 26606:1 
0.4823124757978178 14:1 96:1 28:1 116:1 56:1 165:1 173:1 12696:1 42981:1 
0.06435180131151173 18:1 102:1 28:1 138:1 56:1 161:1 169:1 10090:1 39654:1 
0.4823124757978178 25:1 96:1 53:1 138:1 56:1 140:1 170:1 16320:1 46234:1 
0.4823124757978178 25:1 96:1 45:1 137:1 77:1 152:1 170:1 24054:1 29035:1 
0.05677973131878596 21:1 109:1 42:1 124:1 56:1 166:1 173:1 18895:1 34574:1 
0.4779441047678366 18:1 106:1 39:1 138:1 56:1 157:1 170:1 20246:1 42714:1 
0.255059820289436 22:1 109:1 39:1 123:1 56:1 152:1 175:1 17985:1 35279:1 
0.4823124757978178 17:1 101:1 53:1 115:1 81:1 151:1 169:1 1559:1 27853:1 
0.02253748332719529 22:1 85:1 46:1 138:1 68:1 152:1 169:1 2742:1 31434:1 
0.1748909206425712 18:1 85:1 40:1 138:1 81:1 152:1 170:1 20214:1 31434:1 
0.208039917083326 1:1 96:1 40:1 138:1 81:1 140:1 170:1 6705:1 33568:1 
0.154015682083243 12:1 96:1 28:1 124:1 56:1 161:1 169:1 8463:1 28140:1 
0.04318245662458707 12:1 96:1 28:1 133:1 56:1 149:1 169:1 3411:1 41647:1 
0.4050623699583796 1:1 95:1 31:1 134:1 70:1 156:1 169:1 10167:1 39296:1 
0.2160860611285552 3:1 96:1 42:1 137:1 81:1 152:1 173:1 9094:1 46742:1 
0.05452251446316506 14:1 109:1 53:1 124:1 56:1 152:1 175:1 12571:1 28435:1 
0.03434514358881876 18:1 102:1 45:1 124:1 79:1 158:1 169:1 21401:1 46079:1 
0.006026148114872495 1:1 109:1 40:1 124:1 64:1 166:1 169:1 6160:1 30382:1 
0.3830387239699712 12:1 109:1 36:1 124:1 68:1 166:1 170:1 1981:1 30382:1 
0.4823124757978178 8:1 109:1 40:1 124:1 56:1 166:1 174:1 20247:1 30382:1 
0.3417945841103387 12:1 109:1 28:1 124:1 56:1 166:1 176:1 4968:1 30382:1 
0.08480305067016972 12:1 96:1 40:1 120:1 81:1 166:1 169:1 4349:1 28166:1 
0.4823124757978178 12:1 96:1 53:1 138:1 56:1 155:1 171:1 8786:1 35184:1 
0.4823124757978178 12:1 96:1 40:1 126:1 81:1 165:1 170:1 6135:1 40792:1 
0.1612647961302988 12:1 98:1 40:1 137:1 81:1 164:1 169:1 16063:1 39564:1 
0.4823124757978178 9:1 96:1 49:1 138:1 68:1 161:1 171:1 20846:1 32756:1 
0.4823124757978178 25:1 96:1 49:1 136:1 68:1 152:1 171:1 11183:1 32153:1 
0.1651979851790225 1:1 96:1 40:1 124:1 59:1 164:1 169:1 8027:1 43006:1 
0.4823124757978178 12:1 96:1 31:1 124:1 68:1 164:1 170:1 24547:1 43006:1 
0.4823124757978178 18:1 102:1 28:1 138:1 56:1 165:1 170:1 762:1 25758:1 
0.121523497470465 4:1 85:1 53:1 124:1 74:1 165:1 169:1 9830:1 39422:1 
0.4823124757978178 25:1 109:1 46:1 138:1 56:1 152:1 172:1 16951:1 46588:1 
0.4823124757978178 25:1 109:1 46:1 123:1 56:1 162:1 174:1 21859:1 46757:1 
0.4823124757978178 22:1 106:1 53:1 113:1 56:1 152:1 171:1 9122:1 33851:1 
0.3087168652559955 3:1 97:1 45:1 137:1 65:1 151:1 170:1 9094:1 26747:1 
0.04724796518870572 9:1 109:1 40:1 123:1 81:1 162:1 174:1 9631:1 46757:1 
0.4823124757978178 22:1 106:1 53:1 113:1 81:1 152:1 171:1 9122:1 33851:1 
0.4630673332831866 13:1 96:1 40:1 137:1 68:1 151:1 171:1 5155:1 32569:1 
0.4823124757978178 12:1 96:1 40:1 137:1 81:1 151:1 172:1 19130:1 32569:1 
0.4823124757978178 22:1 106:1 53:1 124:1 81:1 166:1 171:1 9122:1 33851:1 
0.4823124757978178 25:1 109:1 51:1 115:1 81:1 165:1 169:1 2644:1 39803:1 
0.4823124757978178 25:1 109:1 40:1 115:1 68:1 165:1 173:1 3658:1 39803:1 
0.4823124757978178 25:1 109:1 32:1 124:1 81:1 143:1 169:1 6173:1 46568:1 
0.384396363362154 22:1 85:1 51:1 138:1 56:1 148:1 170:1 12990:1 31434:1 
0.1127873365286777 23:1 85:1 28:1 138:1 56:1 148:1 172:1 17637:1 31434:1 
0.4509927973999994 22:1 85:1 36:1 138:1 57:1 152:1 169:1 11890:1 39682:1 
0.05963454880595322 12:1 97:1 40:1 137:1 81:1 151:1 169:1 14655:1 36427:1 
0.06910995822916798 21:1 109:1 53:1 129:1 56:1 152:1 172:1 22563:1 41049:1 
0.4601297848104572 12:1 109:1 49:1 125:1 56:1 164:1 170:1 7639:1 34306:1 
0.4823124757978178 25:1 97:1 49:1 136:1 56:1 158:1 169:1 9577:1 39380:1 
0.01264928551526862 21:1 108:1 28:1 130:1 56:1 158:1 174:1 22563:1 29435:1 
0.163548398848102 24:1 102:1 28:1 138:1 56:1 157:1 172:1 4706:1 43375:1 
0.03193761634576754 18:1 109:1 28:1 136:1 56:1 151:1 176:1 18646:1 48675:1 
0.06209892836231869 12:1 96:1 53:1 138:1 78:1 164:1 169:1 21062:1 27558:1 
0.03881486688399914 11:1 109:1 49:1 125:1 68:1 161:1 169:1 5488:1 44866:1 
0.02143271828194589 12:1 109:1 53:1 136:1 56:1 166:1 175:1 13800:1 49395:1 
0.1266583954107821 12:1 109:1 28:1 135:1 56:1 165:1 171:1 19695:1 26569:1 
0.1625588053308996 1:1 108:1 51:1 124:1 56:1 166:1 170:1 16279:1 48086:1 
0.1556749528059236 23:1 96:1 28:1 138:1 56:1 144:1 172:1 14401:1 26916:1 
0.06502945728907707 12:1 109:1 28:1 133:1 56:1 154:1 171:1 2187:1 29431:1 
0.4823124757978178 21:1 109:1 28:1 115:1 56:1 165:1 173:1 6952:1 34309:1 
0.2241187736807526 12:1 96:1 49:1 137:1 68:1 161:1 169:1 18395:1 48997:1 
0.3404462381041266 21:1 109:1 53:1 138:1 68:1 165:1 170:1 6941:1 32198:1 
0.4823124757978178 25:1 109:1 53:1 137:1 81:1 141:1 170:1 10391:1 28450:1 
0.1478336103681726 22:1 96:1 52:1 115:1 81:1 148:1 173:1 14066:1 44288:1 
0.4823124757978178 25:1 109:1 29:1 138:1 57:1 163:1 169:1 2644:1 45166:1 
0.4823124757978178 1:1 109:1 28:1 138:1 56:1 163:1 173:1 6705:1 45166:1 
0.4823124757978178 25:1 109:1 28:1 137:1 56:1 152:1 172:1 20437:1 26777:1 
0.04343594612038972 8:1 108:1 36:1 137:1 81:1 152:1 169:1 21216:1 29540:1 
0.002990571945683875 24:1 109:1 36:1 124:1 81:1 165:1 169:1 4811:1 26777:1 
0.4823124757978178 12:1 96:1 50:1 138:1 56:1 144:1 170:1 4519:1 40102:1 
0.02838881502857461 1:1 108:1 32:1 133:1 68:1 151:1 169:1 10113:1 29540:1 
0.4823124757978178 12:1 96:1 50:1 138:1 77:1 161:1 170:1 2216:1 44303:1 
0.4823124757978178 12:1 96:1 49:1 138:1 68:1 165:1 170:1 5022:1 35058:1 
0.1488621279002768 12:1 109:1 49:1 136:1 68:1 152:1 170:1 10329:1 40767:1 
0.4823124757978178 12:1 96:1 53:1 138:1 81:1 140:1 173:1 17463:1 31771:1 
0.3441208875414414 23:1 106:1 41:1 116:1 77:1 165:1 170:1 12877:1 47025:1 
0.4823124757978178 13:1 106:1 49:1 116:1 60:1 165:1 171:1 14616:1 47025:1 
0.1819978324778714 17:1 101:1 28:1 115:1 56:1 165:1 169:1 20412:1 41909:1 
0.4823124757978178 25:1 109:1 50:1 138:1 81:1 152:1 171:1 19186:1 41044:1 
0.2244624388609211 21:1 109:1 53:1 113:1 68:1 152:1 171:1 6941:1 45258:1 
0.4823124757978178 25:1 109:1 40:1 113:1 68:1 152:1 172:1 21939:1 45258:1 
0.2580484947895044 12:1 109:1 53:1 113:1 81:1 152:1 175:1 19890:1 45258:1 
0.4823124757978178 12:1 96:1 53:1 124:1 81:1 166:1 170:1 15297:1 46448:1 
0.01906322963472444 1:1 96:1 49:1 136:1 56:1 152:1 169:1 3626:1 41954:1 
0.1422785569387702 12:1 108:1 53:1 114:1 77:1 165:1 173:1 2916:1 29435:1 
0.4823124757978178 25:1 96:1 52:1 116:1 81:1 165:1 169:1 21902:1 41889:1 
0.2550864244429852 21:1 109:1 46:1 129:1 77:1 166:1 170:1 10276:1 33448:1 
0.01397460461266445 21:1 109:1 40:1 129:1 73:1 166:1 172:1 22131:1 33448:1 
0.02762012732021987 18:1 102:1 28:1 138:1 56:1 165:1 169:1 695:1 25062:1 
0.0239546830518582 25:1 108:1 46:1 123:1 56:1 162:1 171:1 23430:1 29435:1 
0.06635752936487716 12:1 109:1 41:1 137:1 77:1 165:1 171:1 16548:1 46564:1 
0.4212488107672028 13:1 95:1 46:1 124:1 81:1 144:1 169:1 24605:1 46005:1 
0.3405728590552493 18:1 96:1 53:1 116:1 81:1 165:1 171:1 599:1 32644:1 
0.2185830311575079 17:1 109:1 28:1 123:1 56:1 166:1 170:1 21773:1 37944:1 
0.4823124757978178 12:1 96:1 31:1 116:1 67:1 151:1 170:1 15161:1 27175:1 
0.04997500857060475 3:1 96:1 39:1 116:1 81:1 151:1 171:1 4501:1 27175:1 
0.001809447163525958 11:1 106:1 53:1 138:1 78:1 144:1 169:1 358:1 37656:1 
0.4823124757978178 25:1 109:1 40:1 115:1 68:1 165:1 173:1 21988:1 44898:1 
0.1661464465131744 12:1 109:1 28:1 115:1 56:1 165:1 177:1 8800:1 44898:1 
0.4823124757978178 25:1 109:1 28:1 114:1 56:1 152:1 172:1 20169:1 48254:1 
0.4589176815991452 8:1 96:1 53:1 138:1 81:1 140:1 169:1 5555:1 48925:1 
0.4823124757978178 12:1 96:1 45:1 137:1 56:1 165:1 172:1 3055:1 28399:1 
0.1452848045321769 17:1 96:1 28:1 137:1 56:1 165:1 178:1 12900:1 28399:1 
0.4823124757978178 25:1 109:1 40:1 138:1 56:1 140:1 169:1 10798:1 34241:1 
0.1202315152939834 11:1 96:1 40:1 133:1 77:1 165:1 171:1 2758:1 29854:1 
0.2715931201747519 21:1 109:1 40:1 129:1 68:1 164:1 169:1 2086:1 48261:1 
0.1229240592722157 12:1 97:1 53:1 138:1 56:1 143:1 169:1 11108:1 48095:1 
0.1537470275175165 12:1 96:1 49:1 124:1 59:1 165:1 169:1 24396:1 39848:1 
0.0977236970440751 12:1 96:1 49:1 137:1 59:1 163:1 169:1 15119:1 33693:1 
0.1974757197069412 1:1 95:1 53:1 134:1 68:1 165:1 169:1 10167:1 26526:1 
0.4823124757978178 25:1 109:1 40:1 136:1 59:1 166:1 172:1 17925:1 30381:1 
0.1914400549547468 1:1 96:1 40:1 137:1 64:1 166:1 170:1 20207:1 26942:1 
0.2273931650088695 18:1 102:1 53:1 125:1 81:1 152:1 169:1 651:1 47026:1 
0.2381629254063135 25:1 109:1 40:1 124:1 69:1 166:1 170:1 10960:1 30155:1 
0.05997035290288774 18:1 109:1 28:1 129:1 56:1 152:1 169:1 22297:1 41479:1 
0.07979757168772515 12:1 96:1 28:1 123:1 56:1 162:1 169:1 8872:1 32517:1 
0.04245196381129271 17:1 96:1 53:1 138:1 68:1 140:1 170:1 13299:1 31461:1 
0.4823124757978178 25:1 109:1 53:1 123:1 77:1 152:1 170:1 14225:1 46757:1 
0.07646369757963555 12:1 109:1 40:1 136:1 81:1 151:1 175:1 2391:1 33800:1 
0.1398293393123706 12:1 108:1 52:1 124:1 81:1 166:1 174:1 10696:1 48086:1 
0.4063021667664074 21:1 109:1 40:1 124:1 81:1 166:1 170:1 21527:1 46980:1 
0.4823124757978178 25:1 109:1 40:1 123:1 81:1 152:1 171:1 22251:1 45874:1 
0.4823124757978178 25:1 109:1 40:1 120:1 81:1 164:1 169:1 15106:1 47190:1 
0.4823124757978178 25:1 109:1 40:1 124:1 81:1 166:1 173:1 15509:1 28142:1 
0.4823124757978178 12:1 96:1 46:1 138:1 81:1 163:1 170:1 2786:1 33494:1 
0.3028935595501072 18:1 96:1 53:1 138:1 81:1 163:1 173:1 13162:1 33494:1 
0.01296043439413991 12:1 109:1 53:1 133:1 56:1 163:1 170:1 2521:1 41105:1 
0.4823124757978178 12:1 96:1 52:1 136:1 77:1 152:1 171:1 6141:1 35961:1 
0.08752092902733959 24:1 96:1 49:1 136:1 79:1 152:1 173:1 4706:1 35961:1 
0.3446862374093545 21:1 109:1 41:1 136:1 77:1 165:1 170:1 1618:1 34722:1 
0.4823124757978178 12:1 96:1 53:1 138:1 81:1 165:1 172:1 12203:1 45161:1 
0.4823124757978178 25:1 96:1 53:1 124:1 68:1 164:1 169:1 19186:1 33783:1 
0.1554322986089661 9:1 96:1 40:1 124:1 81:1 166:1 169:1 3778:1 45469:1 
0.06698323140083581 12:1 96:1 40:1 138:1 81:1 140:1 169:1 20740:1 43762:1 
0.1410612402517876 12:1 109:1 49:1 137:1 56:1 151:1 170:1 23376:1 48755:1 
0.0988628682359578 1:1 96:1 52:1 136:1 81:1 152:1 169:1 8708:1 45913:1 
0.3274650958574145 22:1 96:1 40:1 136:1 68:1 151:1 174:1 18992:1 43209:1 
0.4823124757978178 11:1 106:1 49:1 136:1 81:1 152:1 170:1 793:1 38943:1 
0.3246675047631936 23:1 95:1 52:1 138:1 81:1 141:1 169:1 23048:1 45992:1 
0.1268176424832509 12:1 96:1 30:1 124:1 81:1 166:1 169:1 23100:1 31098:1 
0.4823124757978178 2:1 96:1 53:1 124:1 81:1 166:1 170:1 6717:1 31098:1 
0.4823124757978178 25:1 109:1 51:1 137:1 79:1 164:1 174:1 10902:1 31228:1 
0.4078559679043393 23:1 96:1 51:1 116:1 81:1 161:1 178:1 23062:1 40026:1 
0.4823124757978178 25:1 96:1 53:1 113:1 56:1 166:1 175:1 13988:1 44505:1 
0.4823124757978178 4:1 96:1 28:1 138:1 56:1 164:1 171:1 17846:1 42981:1 
0.1618588647852248 12:1 85:1 28:1 138:1 56:1 152:1 171:1 3385:1 30915:1 
0.4290546684411103 4:1 109:1 29:1 138:1 57:1 152:1 169:1 14474:1 41479:1 
0.003744380274237278 1:1 108:1 53:1 124:1 81:1 166:1 173:1 14207:1 29435:1 
0.4823124757978178 12:1 96:1 36:1 116:1 56:1 165:1 170:1 16351:1 36883:1 
0.03998169981761167 12:1 109:1 53:1 133:1 81:1 156:1 170:1 16863:1 43869:1 
0.1961437771913233 12:1 96:1 28:1 130:1 56:1 165:1 169:1 17866:1 47993:1 
0.1887861152881007 14:1 109:1 53:1 130:1 56:1 158:1 170:1 5221:1 48187:1 
0.01454666436287894 18:1 102:1 53:1 137:1 81:1 151:1 169:1 1033:1 25436:1 
0.05611249142105716 12:1 96:1 53:1 138:1 81:1 143:1 169:1 20682:1 40168:1 
0.02247504540457193 18:1 102:1 49:1 138:1 60:1 165:1 169:1 968:1 25436:1 
0.4823124757978178 25:1 109:1 46:1 137:1 77:1 166:1 173:1 6088:1 45411:1 
0.4823124757978178 25:1 109:1 46:1 138:1 77:1 140:1 169:1 20682:1 27789:1 
0.332079712588425 12:1 96:1 45:1 126:1 74:1 161:1 170:1 10552:1 45420:1 
0.1819897802348224 21:1 109:1 42:1 136:1 74:1 142:1 174:1 21527:1 28884:1 
0.4823124757978178 25:1 109:1 53:1 124:1 56:1 161:1 169:1 10609:1 41479:1 
0.4823124757978178 21:1 96:1 40:1 137:1 81:1 164:1 170:1 5436:1 26902:1 
0.4823124757978178 12:1 96:1 53:1 137:1 81:1 164:1 171:1 21763:1 26902:1 
0.01543848972039996 12:1 109:1 53:1 136:1 56:1 152:1 171:1 4629:1 31339:1 
0.4823124757978178 25:1 109:1 28:1 136:1 56:1 152:1 177:1 2180:1 31339:1 
0.4823124757978178 25:1 109:1 28:1 113:1 56:1 164:1 169:1 20426:1 46824:1 
0.4823124757978178 25:1 109:1 42:1 135:1 81:1 151:1 169:1 10798:1 28884:1 
0.4823124757978178 25:1 109:1 28:1 135:1 56:1 151:1 173:1 23393:1 28884:1 
0.07045757505078105 23:1 95:1 53:1 124:1 56:1 152:1 169:1 23048:1 45949:1 
0.4823124757978178 25:1 109:1 40:1 137:1 56:1 157:1 173:1 23393:1 41479:1 
0.03388650223260398 12:1 109:1 28:1 137:1 56:1 157:1 174:1 14959:1 41479:1 
0.003924670986768315 23:1 85:1 53:1 136:1 68:1 166:1 169:1 14401:1 31240:1 
0.4823124757978178 25:1 108:1 40:1 138:1 77:1 144:1 171:1 17970:1 29435:1 
0.1435954584113718 4:1 109:1 28:1 135:1 56:1 156:1 183:1 4501:1 41479:1 
0.0233311724920259 23:1 96:1 53:1 138:1 56:1 144:1 175:1 13411:1 37244:1 
0.1118592458902087 4:1 85:1 53:1 115:1 69:1 142:1 169:1 7731:1 39995:1 
0.4823124757978178 25:1 109:1 41:1 123:1 56:1 152:1 177:1 10756:1 47363:1 
0.2874397701376547 24:1 109:1 53:1 138:1 68:1 144:1 169:1 4811:1 26213:1 
0.4823124757978178 25:1 109:1 40:1 138:1 81:1 144:1 172:1 12862:1 26213:1 
0.2833242870437442 12:1 109:1 53:1 138:1 56:1 144:1 173:1 3038:1 26213:1 
0.4823124757978178 21:1 97:1 32:1 137:1 81:1 152:1 169:1 22563:1 43272:1 
0.4823124757978178 12:1 96:1 28:1 112:1 56:1 140:1 171:1 4485:1 39258:1 
0.1050304547891315 18:1 106:1 42:1 138:1 56:1 152:1 170:1 10087:1 42285:1 
0.4823124757978178 14:1 106:1 28:1 138:1 56:1 152:1 171:1 15016:1 42285:1 
0.109252498353164 8:1 108:1 46:1 137:1 77:1 165:1 169:1 1393:1 29540:1 
0.4823124757978178 25:1 109:1 52:1 124:1 74:1 166:1 169:1 15106:1 49378:1 
0.2037560304511561 16:1 85:1 31:1 138:1 57:1 166:1 170:1 20316:1 42390:1 
0.4823124757978178 12:1 96:1 50:1 136:1 81:1 151:1 172:1 7713:1 39213:1 
0.005261008054851107 24:1 95:1 53:1 138:1 78:1 140:1 169:1 4706:1 25778:1 
0.1301151557685791 12:1 96:1 40:1 136:1 74:1 152:1 169:1 14484:1 33811:1 
0.4823124757978178 12:1 96:1 46:1 136:1 81:1 152:1 170:1 19130:1 33811:1 
0.4823124757978178 25:1 109:1 39:1 136:1 81:1 152:1 169:1 23443:1 48773:1 
0.4823124757978178 25:1 109:1 32:1 137:1 68:1 152:1 171:1 2703:1 28443:1 
0.4823124757978178 12:1 96:1 53:1 136:1 81:1 152:1 173:1 10285:1 30616:1 
0.1418862076463814 12:1 96:1 28:1 136:1 56:1 163:1 169:1 7150:1 49164:1 
0.4823124757978178 25:1 96:1 53:1 124:1 57:1 152:1 169:1 19186:1 32146:1 
0.4823124757978178 12:1 96:1 53:1 133:1 57:1 165:1 170:1 7417:1 39213:1 
0.05365697785688942 25:1 97:1 49:1 137:1 68:1 165:1 169:1 9444:1 48087:1 
0.4823124757978178 25:1 109:1 41:1 124:1 77:1 152:1 169:1 19197:1 33613:1 
0.05600684056429679 12:1 109:1 53:1 124:1 57:1 152:1 173:1 14484:1 33613:1 
0.1661406658315855 12:1 96:1 53:1 115:1 81:1 152:1 169:1 7574:1 35014:1 
0.3656572918077761 25:1 97:1 31:1 137:1 81:1 144:1 170:1 9444:1 33004:1 
0.1372383716907333 3:1 109:1 53:1 116:1 56:1 141:1 172:1 21663:1 35192:1 
0.1974815624178158 21:1 109:1 40:1 123:1 81:1 162:1 169:1 2086:1 36766:1 
0.4823124757978178 12:1 96:1 50:1 124:1 81:1 166:1 170:1 16810:1 33811:1 
0.1273875808455111 22:1 96:1 53:1 124:1 81:1 166:1 171:1 14066:1 33811:1 
0.3583105112228167 12:1 85:1 53:1 138:1 56:1 141:1 170:1 10314:1 32485:1 
0.4823124757978178 1:1 109:1 28:1 124:1 56:1 152:1 176:1 10167:1 36761:1 
0.4823124757978178 12:1 96:1 53:1 136:1 56:1 152:1 170:1 8928:1 34311:1 
0.005807877056518606 12:1 96:1 53:1 138:1 56:1 148:1 169:1 13377:1 40120:1 
0.4823124757978178 21:1 92:1 53:1 136:1 56:1 157:1 170:1 22563:1 45510:1 
0.01580569282637991 17:1 96:1 52:1 124:1 81:1 165:1 171:1 5542:1 35337:1 
0.4823124757978178 1:1 108:1 52:1 138:1 81:1 157:1 169:1 24003:1 29435:1 
0.4823124757978178 24:1 109:1 53:1 136:1 81:1 152:1 169:1 17619:1 46631:1 
0.1518803934286255 12:1 109:1 53:1 138:1 81:1 152:1 170:1 1846:1 43600:1 
0.1579700429974404 21:1 109:1 32:1 137:1 68:1 166:1 169:1 2086:1 37994:1 
0.02974937686787054 12:1 109:1 53:1 137:1 81:1 166:1 171:1 14565:1 37994:1 
0.2046611122601914 12:1 96:1 45:1 124:1 73:1 152:1 169:1 8980:1 48288:1 
0.006516281662316881 17:1 96:1 28:1 124:1 56:1 164:1 172:1 23067:1 46805:1 
0.09179110092988065 12:1 98:1 40:1 138:1 56:1 144:1 169:1 7049:1 33381:1 
0.4823124757978178 12:1 98:1 28:1 138:1 56:1 144:1 172:1 22076:1 33381:1 
0.03704537942246932 14:1 109:1 28:1 129:1 56:1 166:1 171:1 8652:1 41479:1 
0.4823124757978178 21:1 108:1 49:1 137:1 56:1 165:1 170:1 22563:1 29435:1 
0.4823124757978178 25:1 109:1 40:1 138:1 81:1 165:1 174:1 15204:1 34683:1 
0.4823124757978178 1:1 109:1 40:1 138:1 81:1 140:1 169:1 8066:1 35043:1 
0.4823124757978178 12:1 109:1 49:1 137:1 79:1 152:1 172:1 15239:1 26697:1 
0.4823124757978178 25:1 106:1 46:1 136:1 56:1 157:1 170:1 6705:1 27711:1 
0.129328195536606 12:1 96:1 49:1 137:1 68:1 165:1 169:1 4827:1 43142:1 
0.3675886107287645 21:1 109:1 40:1 121:1 74:1 152:1 172:1 21663:1 43586:1 
0.324189527201808 12:1 96:1 53:1 138:1 56:1 140:1 169:1 19055:1 49237:1 
0.1869553645796812 25:1 108:1 28:1 137:1 56:1 166:1 169:1 24432:1 29435:1 
0.4823124757978178 25:1 109:1 40:1 124:1 81:1 164:1 170:1 13592:1 30169:1 
0.2354986701901101 12:1 109:1 53:1 124:1 56:1 164:1 171:1 6597:1 30169:1 
0.3705022827331576 12:1 96:1 52:1 138:1 81:1 140:1 171:1 10145:1 43848:1 
0.4823124757978178 15:1 98:1 28:1 138:1 56:1 154:1 171:1 19039:1 36412:1 
0.04484149782826823 18:1 102:1 45:1 124:1 79:1 158:1 169:1 610:1 25693:1 
0.1017571605865701 17:1 101:1 46:1 133:1 68:1 154:1 169:1 7544:1 40588:1 
0.3273614886811839 14:1 96:1 49:1 137:1 73:1 151:1 171:1 12060:1 48421:1 
0.4823124757978178 12:1 96:1 50:1 124:1 81:1 152:1 170:1 10285:1 44657:1 
0.4823124757978178 12:1 96:1 40:1 138:1 81:1 140:1 170:1 9498:1 46234:1 
0.4823124757978178 12:1 96:1 53:1 138:1 56:1 140:1 171:1 19928:1 46234:1 
0.1748771544304467 12:1 96:1 40:1 116:1 81:1 165:1 169:1 1660:1 38919:1 
0.4823124757978178 25:1 109:1 28:1 138:1 56:1 152:1 177:1 4624:1 43202:1 
0.2102262308538141 4:1 95:1 40:1 123:1 81:1 166:1 169:1 10119:1 25713:1 
0.4823124757978178 12:1 95:1 53:1 123:1 56:1 166:1 170:1 9962:1 25713:1 
0.4823124757978178 12:1 96:1 39:1 116:1 67:1 165:1 171:1 11853:1 48499:1 
0.4823124757978178 12:1 103:1 28:1 124:1 56:1 166:1 170:1 19637:1 48371:1 
0.01669706752887711 14:1 109:1 50:1 137:1 81:1 152:1 171:1 21014:1 33534:1 
0.02013911225430324 8:1 108:1 28:1 137:1 56:1 166:1 169:1 23444:1 29435:1 
0.04581930741622614 23:1 96:1 53:1 116:1 56:1 161:1 172:1 23048:1 34881:1 
0.4823124757978178 9:1 96:1 49:1 136:1 68:1 152:1 172:1 12890:1 32368:1 
0.1455153732968696 21:1 109:1 40:1 138:1 81:1 163:1 177:1 21966:1 26587:1 
0.05105752029476292 12:1 109:1 53:1 138:1 56:1 163:1 179:1 10152:1 26587:1 
0.01252035708758194 23:1 106:1 53:1 137:1 81:1 157:1 170:1 14418:1 44654:1 
0.003181483752739595 22:1 109:1 53:1 129:1 81:1 166:1 169:1 19925:1 36072:1 
0.115351011286646 14:1 96:1 45:1 124:1 73:1 154:1 170:1 8762:1 46166:1 
0.02597858591748324 21:1 109:1 42:1 123:1 74:1 162:1 169:1 2086:1 38998:1 
0.4823124757978178 12:1 96:1 40:1 138:1 78:1 140:1 170:1 17143:1 27060:1 
0.4823124757978178 12:1 96:1 50:1 138:1 81:1 140:1 172:1 23384:1 27060:1 
0.02085631286691993 12:1 96:1 40:1 138:1 79:1 143:1 169:1 13236:1 34775:1 
0.383822057572846 12:1 96:1 51:1 138:1 81:1 143:1 170:1 7664:1 34775:1 
0.4823124757978178 12:1 96:1 52:1 138:1 81:1 152:1 170:1 23703:1 27491:1 
0.02989997066572262 17:1 96:1 31:1 136:1 68:1 144:1 171:1 6384:1 36883:1 
0.1197777947561405 12:1 108:1 52:1 116:1 81:1 165:1 177:1 2762:1 29435:1 
0.4823124757978178 12:1 106:1 40:1 137:1 56:1 152:1 170:1 19130:1 47567:1 
0.113868533038353 12:1 96:1 53:1 137:1 78:1 164:1 169:1 5504:1 33886:1 
0.4823124757978178 25:1 109:1 50:1 136:1 68:1 166:1 171:1 2822:1 48294:1 
0.4823124757978178 25:1 108:1 40:1 138:1 56:1 157:1 169:1 23565:1 29435:1 
0.4823124757978178 12:1 96:1 45:1 138:1 80:1 152:1 170:1 21435:1 37935:1 
0.4823124757978178 12:1 96:1 52:1 138:1 68:1 158:1 170:1 13206:1 32252:1 
0.4823124757978178 12:1 96:1 53:1 138:1 81:1 140:1 170:1 7664:1 31497:1 
0.4823124757978178 21:1 109:1 28:1 135:1 56:1 151:1 169:1 18901:1 41353:1 
0.1033932986640533 21:1 109:1 49:1 121:1 65:1 152:1 173:1 22563:1 48774:1 
0.3343959493847113 25:1 97:1 49:1 138:1 65:1 144:1 171:1 24045:1 43272:1 
0.2603384644548153 21:1 109:1 37:1 133:1 68:1 152:1 181:1 3728:1 38041:1 
0.4823124757978178 25:1 109:1 28:1 133:1 56:1 152:1 187:1 16624:1 38041:1 
0.1155344120663463 21:1 109:1 53:1 138:1 56:1 165:1 171:1 22200:1 34594:1 
0.4823124757978178 12:1 96:1 53:1 136:1 56:1 152:1 171:1 23107:1 36537:1 
0.3313227261136868 9:1 96:1 53:1 116:1 81:1 161:1 171:1 5536:1 32368:1 
0.4823124757978178 12:1 92:1 28:1 138:1 56:1 152:1 170:1 15129:1 45543:1 
0.1305653117174648 12:1 109:1 36:1 136:1 56:1 151:1 172:1 7465:1 38422:1 
0.2204129604181295 19:1 109:1 28:1 123:1 56:1 162:1 170:1 20218:1 31940:1 
0.2282432478976455 25:1 97:1 49:1 137:1 70:1 166:1 169:1 6583:1 39345:1 
0.4823124757978178 25:1 109:1 51:1 137:1 81:1 164:1 169:1 13592:1 46529:1 
0.4823124757978178 25:1 109:1 45:1 123:1 69:1 162:1 169:1 10798:1 48159:1 
0.4823124757978178 12:1 96:1 50:1 138:1 81:1 165:1 170:1 2806:1 30605:1 
0.1935434735339777 12:1 109:1 53:1 123:1 81:1 166:1 173:1 23265:1 44685:1 
0.01516086938930545 23:1 96:1 28:1 116:1 56:1 161:1 173:1 23062:1 46439:1 
0.26757002935985 4:1 95:1 50:1 134:1 77:1 152:1 169:1 16243:1 40629:1 
0.1406062814587177 22:1 96:1 49:1 137:1 60:1 152:1 172:1 6896:1 32398:1 
0.03729033666505317 12:1 96:1 40:1 138:1 81:1 152:1 169:1 18326:1 46439:1 
0.4823124757978178 12:1 96:1 53:1 138:1 81:1 140:1 177:1 21710:1 36899:1 
0.4823124757978178 25:1 109:1 45:1 136:1 56:1 152:1 171:1 8407:1 31971:1 
0.05980388048276061 11:1 106:1 30:1 120:1 68:1 153:1 169:1 1071:1 48483:1 
0.1012950906466337 22:1 92:1 30:1 125:1 68:1 166:1 169:1 23754:1 27275:1 
0.1466765098000872 2:1 92:1 40:1 125:1 77:1 166:1 171:1 17629:1 27275:1 
0.4823124757978178 12:1 92:1 49:1 125:1 81:1 166:1 172:1 14383:1 27275:1 
0.1829990678447429 25:1 109:1 41:1 123:1 69:1 162:1 169:1 10997:1 35571:1 
0.1226965446035013 23:1 106:1 50:1 133:1 81:1 157:1 170:1 14418:1 48483:1 
0.4823124757978178 25:1 109:1 45:1 138:1 73:1 140:1 170:1 10997:1 34261:1 
0.4361772212483424 21:1 109:1 28:1 124:1 56:1 141:1 174:1 10283:1 30417:1 
0.2213997796976971 17:1 96:1 49:1 137:1 77:1 166:1 173:1 12394:1 29263:1 
0.2684563370607326 21:1 109:1 49:1 138:1 57:1 151:1 175:1 22200:1 34583:1 
0.3698489491967596 22:1 109:1 53:1 133:1 77:1 163:1 170:1 5875:1 42979:1 
0.4823124757978178 21:1 109:1 29:1 133:1 81:1 163:1 181:1 10276:1 42979:1 
0.4823124757978178 12:1 96:1 51:1 133:1 67:1 161:1 170:1 10058:1 29263:1 
0.4823124757978178 21:1 96:1 49:1 124:1 68:1 165:1 171:1 5436:1 34139:1 
0.1148842463484821 11:1 109:1 28:1 113:1 56:1 166:1 179:1 770:1 32822:1 
0.0755470025451935 23:1 88:1 28:1 138:1 56:1 163:1 169:1 23048:1 27290:1 
0.0994534912317836 14:1 109:1 28:1 116:1 56:1 161:1 170:1 1328:1 44514:1 
0.4823124757978178 12:1 96:1 49:1 125:1 60:1 148:1 170:1 12365:1 42387:1 
0.4823124757978178 21:1 92:1 32:1 112:1 81:1 140:1 175:1 22563:1 49231:1 
0.420201259573113 4:1 92:1 53:1 112:1 56:1 140:1 176:1 9615:1 49231:1 
0.4823124757978178 12:1 96:1 40:1 115:1 59:1 142:1 170:1 17973:1 27491:1 
0.4823124757978178 12:1 96:1 31:1 115:1 56:1 142:1 171:1 7669:1 27491:1 
0.03927980957439926 21:1 109:1 51:1 113:1 68:1 164:1 173:1 21527:1 27077:1 
0.0125721181845751 24:1 85:1 53:1 124:1 68:1 166:1 169:1 4706:1 37632:1 
0.3905366181534086 12:1 93:1 49:1 124:1 77:1 166:1 169:1 4998:1 40767:1 
0.2054872973736574 12:1 96:1 40:1 138:1 77:1 152:1 169:1 20972:1 40816:1 
0.3105341768681307 12:1 96:1 49:1 138:1 68:1 152:1 169:1 4998:1 34604:1 
0.1277373638492518 12:1 96:1 40:1 136:1 77:1 151:1 169:1 19014:1 42755:1 
0.4823124757978178 12:1 95:1 49:1 114:1 68:1 152:1 173:1 9875:1 46138:1 
0.4823124757978178 12:1 106:1 40:1 138:1 81:1 152:1 170:1 8070:1 48483:1 
0.4823124757978178 8:1 109:1 40:1 136:1 81:1 151:1 170:1 6078:1 47707:1 
0.007290864349852318 12:1 98:1 40:1 124:1 56:1 165:1 169:1 5052:1 40236:1 
0.4823124757978178 12:1 98:1 28:1 124:1 56:1 165:1 170:1 7802:1 40236:1 
0.4823124757978178 25:1 109:1 39:1 114:1 81:1 152:1 169:1 16750:1 41791:1 
0.1149291043872534 12:1 96:1 49:1 115:1 78:1 152:1 169:1 9951:1 29810:1 
0.4823124757978178 12:1 96:1 40:1 136:1 59:1 152:1 170:1 6583:1 27472:1 
0.4823124757978178 12:1 96:1 31:1 136:1 68:1 152:1 171:1 14484:1 27472:1 
0.05684145419113335 2:1 96:1 53:1 116:1 60:1 165:1 170:1 4336:1 33811:1 
0.2623335380952789 4:1 96:1 40:1 116:1 68:1 165:1 172:1 21963:1 33811:1 
0.4823124757978178 21:1 109:1 50:1 137:1 56:1 152:1 188:1 17552:1 33345:1 
0.4823124757978178 21:1 109:1 28:1 133:1 56:1 149:1 175:1 3996:1 35471:1 
0.3157255825945795 2:1 96:1 40:1 136:1 78:1 144:1 170:1 5332:1 46439:1 
0.4823124757978178 12:1 96:1 50:1 136:1 65:1 144:1 171:1 7713:1 46439:1 
0.00546423253915074 22:1 96:1 37:1 136:1 65:1 144:1 172:1 9267:1 46439:1 
0.4823124757978178 9:1 96:1 49:1 136:1 81:1 144:1 180:1 6986:1 46439:1 
0.3191566676114447 24:1 100:1 53:1 138:1 56:1 165:1 171:1 4706:1 28564:1 
0.4823124757978178 12:1 96:1 49:1 124:1 60:1 144:1 170:1 10515:1 44706:1 
0.1366047224979758 12:1 96:1 49:1 116:1 60:1 165:1 169:1 19977:1 38323:1 
0.0009930880875023962 22:1 96:1 28:1 115:1 56:1 165:1 170:1 13198:1 37208:1 
0.2109946972367417 17:1 96:1 28:1 138:1 56:1 161:1 170:1 2031:1 40606:1 
0.1479415600352698 14:1 109:1 53:1 138:1 68:1 166:1 169:1 12212:1 40766:1 
0.09506139819939688 12:1 96:1 28:1 120:1 56:1 164:1 169:1 5895:1 42382:1 
0.4823124757978178 12:1 96:1 53:1 116:1 56:1 165:1 176:1 20425:1 30605:1 
0.4823124757978178 21:1 96:1 53:1 136:1 81:1 152:1 169:1 3234:1 45789:1 
0.4823124757978178 25:1 92:1 32:1 138:1 68:1 144:1 169:1 21145:1 37471:1 
0.4823124757978178 12:1 92:1 40:1 138:1 81:1 144:1 171:1 19625:1 37471:1 
0.4823124757978178 23:1 108:1 47:1 138:1 81:1 140:1 169:1 16579:1 29435:1 
0.09669587986943848 12:1 96:1 53:1 124:1 81:1 166:1 169:1 21980:1 29592:1 
0.01233533470563479 12:1 96:1 53:1 138:1 81:1 140:1 169:1 4863:1 33939:1 
0.4823124757978178 25:1 109:1 32:1 138:1 68:1 165:1 171:1 21445:1 27032:1 
0.4823124757978178 25:1 96:1 53:1 115:1 81:1 165:1 169:1 18821:1 29389:1 
0.3255701863599235 21:1 109:1 42:1 137:1 56:1 152:1 170:1 19937:1 30381:1 
0.4823124757978178 25:1 109:1 40:1 137:1 81:1 166:1 170:1 2644:1 34877:1 
0.3457254377868517 15:1 96:1 50:1 116:1 56:1 165:1 171:1 7710:1 27491:1 
0.1703089904057006 22:1 109:1 28:1 124:1 56:1 164:1 174:1 18076:1 31224:1 
0.1530575410352437 11:1 109:1 28:1 124:1 56:1 166:1 170:1 14386:1 43598:1 
0.00565658278633349 12:1 96:1 40:1 137:1 78:1 153:1 169:1 23264:1 29852:1 
0.03400439968678953 12:1 109:1 50:1 125:1 56:1 166:1 172:1 23455:1 48267:1 
0.01748038278944362 25:1 97:1 50:1 138:1 56:1 161:1 169:1 23538:1 33004:1 
0.2378463751744089 12:1 96:1 50:1 124:1 56:1 152:1 169:1 23264:1 34103:1 
0.4823124757978178 12:1 96:1 50:1 137:1 56:1 165:1 170:1 9374:1 27491:1 
0.4823124757978178 25:1 109:1 40:1 133:1 78:1 152:1 169:1 21798:1 34309:1 
0.008974602082899236 22:1 109:1 28:1 133:1 56:1 152:1 174:1 18076:1 34309:1 
0.06364429347016143 1:1 96:1 52:1 133:1 56:1 155:1 170:1 10590:1 26549:1 
0.2032484052151248 12:1 85:1 28:1 113:1 56:1 166:1 170:1 12991:1 38968:1 
0.4823124757978178 12:1 109:1 53:1 116:1 81:1 141:1 171:1 5703:1 33494:1 
0.1930483908804909 25:1 108:1 29:1 124:1 81:1 166:1 169:1 7042:1 48086:1 
0.4823124757978178 25:1 109:1 42:1 124:1 68:1 166:1 169:1 10798:1 49108:1 
0.1656238852828207 12:1 109:1 29:1 124:1 81:1 166:1 172:1 22148:1 49108:1 
0.284622019523449 9:1 96:1 52:1 124:1 81:1 166:1 169:1 4972:1 30463:1 
0.1871378180722853 12:1 96:1 29:1 113:1 81:1 152:1 169:1 16231:1 30950:1 
0.4823124757978178 1:1 96:1 53:1 113:1 56:1 152:1 170:1 5330:1 30950:1 
0.4823124757978178 1:1 96:1 40:1 136:1 81:1 152:1 170:1 16151:1 29538:1 
0.1212590766168921 12:1 109:1 40:1 136:1 68:1 152:1 177:1 21563:1 46757:1 
0.3926867821710013 18:1 96:1 53:1 123:1 56:1 162:1 171:1 19390:1 46710:1 
0.4823124757978178 22:1 106:1 40:1 138:1 81:1 140:1 170:1 17841:1 37563:1 
0.4823124757978178 25:1 109:1 53:1 124:1 56:1 166:1 173:1 21732:1 41479:1 
0.4823124757978178 25:1 97:1 53:1 137:1 81:1 165:1 171:1 19493:1 33004:1 
0.4823124757978178 25:1 96:1 32:1 116:1 68:1 165:1 170:1 5703:1 30616:1 
0.4823124757978178 25:1 109:1 28:1 135:1 56:1 141:1 176:1 24676:1 46757:1 
0.4136310326247784 1:1 108:1 53:1 124:1 56:1 166:1 169:1 17846:1 48086:1 
0.4823124757978178 12:1 96:1 46:1 124:1 56:1 152:1 171:1 15174:1 26940:1 
0.2707267365217713 21:1 109:1 39:1 136:1 81:1 152:1 170:1 18895:1 41720:1 
0.4823124757978178 25:1 107:1 49:1 138:1 56:1 163:1 171:1 11183:1 38151:1 
0.05246239821325035 4:1 88:1 51:1 133:1 59:1 152:1 169:1 3996:1 37591:1 
0.4823124757978178 21:1 109:1 29:1 136:1 77:1 151:1 170:1 18208:1 27984:1 
0.4067597124750698 4:1 105:1 40:1 130:1 81:1 158:1 169:1 9615:1 46860:1 
0.07493186086882224 12:1 96:1 50:1 124:1 68:1 152:1 169:1 9828:1 48756:1 
0.4823124757978178 12:1 96:1 53:1 125:1 77:1 165:1 176:1 15140:1 34460:1 
0.4823124757978178 25:1 96:1 49:1 125:1 77:1 165:1 177:1 23032:1 34460:1 
0.4823124757978178 12:1 96:1 49:1 137:1 81:1 166:1 170:1 3065:1 39355:1 
0.4823124757978178 21:1 109:1 53:1 138:1 81:1 152:1 172:1 21663:1 35573:1 
0.4823124757978178 12:1 96:1 49:1 116:1 79:1 165:1 170:1 14458:1 34626:1 
0.1920075777383433 4:1 109:1 53:1 137:1 68:1 163:1 169:1 8579:1 29413:1 
0.4823124757978178 25:1 109:1 40:1 137:1 59:1 163:1 170:1 10848:1 29413:1 
0.0201837458220205 3:1 109:1 28:1 137:1 56:1 163:1 180:1 3730:1 29413:1 
0.2557184447573388 21:1 108:1 28:1 124:1 56:1 144:1 170:1 7430:1 29435:1 
0.05755239031604868 12:1 109:1 28:1 138:1 56:1 141:1 170:1 24459:1 43355:1 
0.2986801263135123 12:1 96:1 41:1 137:1 56:1 165:1 169:1 10058:1 43585:1 
0.4823124757978178 25:1 109:1 53:1 129:1 56:1 144:1 169:1 8765:1 41387:1 
0.4823124757978178 14:1 96:1 40:1 138:1 56:1 157:1 171:1 12239:1 44723:1 
0.4823124757978178 12:1 96:1 28:1 138:1 56:1 157:1 174:1 4968:1 44723:1 
0.2843332082547659 21:1 109:1 45:1 124:1 81:1 152:1 170:1 22200:1 34309:1 
0.1484008499731045 17:1 109:1 53:1 124:1 81:1 152:1 171:1 13464:1 34309:1 
0.106541375985216 25:1 108:1 53:1 123:1 81:1 164:1 169:1 22272:1 29435:1 
0.4823124757978178 12:1 101:1 49:1 137:1 70:1 166:1 169:1 24463:1 38298:1 
0.4823124757978178 13:1 101:1 28:1 124:1 56:1 164:1 169:1 5155:1 29057:1 
0.2985398045744448 1:1 109:1 40:1 124:1 56:1 152:1 169:1 5483:1 43624:1 
0.1588269690664887 12:1 109:1 28:1 124:1 56:1 152:1 170:1 4841:1 43624:1 
0.06030205908947842 12:1 96:1 53:1 115:1 56:1 152:1 169:1 15270:1 40472:1 
0.1157361836071184 24:1 95:1 53:1 138:1 68:1 162:1 169:1 4706:1 25022:1 
0.1473774447926938 22:1 109:1 53:1 124:1 81:1 166:1 169:1 23754:1 35912:1 
0.4029192932507456 8:1 97:1 49:1 136:1 81:1 166:1 169:1 10287:1 48093:1 
0.1733957759379882 21:1 109:1 53:1 124:1 56:1 166:1 180:1 3728:1 31968:1 
0.07696328888936735 11:1 109:1 28:1 116:1 56:1 165:1 171:1 255:1 43624:1 
0.4480312275840516 12:1 109:1 39:1 123:1 68:1 162:1 174:1 13342:1 41479:1 
0.4823124757978178 21:1 109:1 28:1 138:1 56:1 163:1 172:1 10572:1 26686:1 
0.4823124757978178 21:1 97:1 47:1 137:1 81:1 164:1 174:1 22563:1 48586:1 
0.247590317242802 19:1 109:1 53:1 136:1 81:1 166:1 177:1 7770:1 30417:1 
0.4823124757978178 21:1 96:1 40:1 137:1 77:1 152:1 173:1 22200:1 41823:1 
0.4823124757978178 25:1 96:1 40:1 138:1 68:1 144:1 169:1 10148:1 26903:1 
0.3617524085534199 25:1 109:1 40:1 137:1 68:1 152:1 169:1 10960:1 38692:1 
0.4802886919143213 12:1 109:1 53:1 116:1 81:1 165:1 171:1 16981:1 41482:1 
0.4823124757978178 4:1 109:1 46:1 130:1 81:1 166:1 169:1 21963:1 41479:1 
0.4823124757978178 25:1 109:1 40:1 124:1 81:1 166:1 169:1 14718:1 33223:1 
0.4823124757978178 23:1 107:1 53:1 137:1 81:1 153:1 169:1 13323:1 38058:1 
0.01829415463026327 12:1 96:1 53:1 124:1 81:1 152:1 169:1 14484:1 32061:1 
0.4823124757978178 12:1 96:1 53:1 116:1 81:1 165:1 170:1 7332:1 26689:1 
0.1106948804876426 25:1 109:1 51:1 133:1 81:1 141:1 169:1 21794:1 34309:1 
0.4823124757978178 25:1 109:1 32:1 133:1 56:1 141:1 172:1 17629:1 34309:1 
0.09105364066699813 12:1 109:1 28:1 137:1 56:1 164:1 171:1 16556:1 29128:1 
0.0263695054399713 12:1 96:1 49:1 138:1 56:1 157:1 169:1 3503:1 32810:1 
0.4823124757978178 21:1 96:1 40:1 136:1 68:1 152:1 170:1 22200:1 43740:1 
0.3058154304581198 12:1 96:1 52:1 124:1 68:1 144:1 169:1 20460:1 36532:1 
0.1324825539685561 21:1 109:1 28:1 138:1 56:1 163:1 182:1 1499:1 27024:1 
0.1018982289940075 4:1 88:1 40:1 137:1 81:1 166:1 169:1 5294:1 27290:1 
0.2029029527759029 12:1 96:1 49:1 120:1 81:1 164:1 169:1 16082:1 43738:1 
0.4823124757978178 21:1 92:1 53:1 136:1 81:1 152:1 171:1 18895:1 46347:1 
0.4823124757978178 25:1 109:1 40:1 138:1 81:1 166:1 169:1 8765:1 27024:1 
0.3063038992574628 12:1 109:1 53:1 138:1 81:1 166:1 172:1 20485:1 27024:1 
0.1025344872423065 1:1 108:1 31:1 124:1 81:1 143:1 171:1 8995:1 29435:1 
0.1261986939677854 12:1 96:1 40:1 136:1 68:1 141:1 169:1 16304:1 43784:1 
0.4823124757978178 25:1 109:1 40:1 124:1 68:1 164:1 169:1 13588:1 41353:1 
0.4823124757978178 12:1 96:1 49:1 136:1 56:1 152:1 170:1 13143:1 47551:1 
0.01386784291188187 12:1 96:1 40:1 116:1 77:1 165:1 169:1 8731:1 48063:1 
0.04450149976255855 12:1 109:1 40:1 121:1 77:1 149:1 170:1 23334:1 48879:1 
0.1715439821107302 21:1 109:1 28:1 121:1 56:1 149:1 178:1 6952:1 48879:1 
0.4823124757978178 12:1 96:1 53:1 137:1 56:1 141:1 170:1 6567:1 29225:1 
0.4823124757978178 25:1 109:1 39:1 138:1 57:1 140:1 169:1 6667:1 41550:1 
0.04752042694530385 21:1 109:1 28:1 136:1 56:1 141:1 180:1 18177:1 30414:1 
0.4823124757978178 25:1 109:1 52:1 120:1 68:1 164:1 169:1 7508:1 48159:1 
0.03644369040884291 12:1 109:1 50:1 120:1 56:1 164:1 172:1 23264:1 48159:1 
0.04533535623936821 22:1 109:1 28:1 120:1 56:1 164:1 175:1 13635:1 48159:1 
0.4823124757978178 12:1 96:1 52:1 124:1 81:1 166:1 169:1 8027:1 43293:1 
0.4823124757978178 14:1 96:1 46:1 115:1 56:1 152:1 171:1 4746:1 42469:1 
0.3537743058808938 18:1 96:1 28:1 115:1 56:1 152:1 172:1 591:1 42469:1 
0.02972511298182886 12:1 109:1 28:1 124:1 56:1 143:1 178:1 17740:1 41479:1 
0.3225275625826655 12:1 85:1 53:1 136:1 56:1 152:1 173:1 6567:1 32676:1 
0.4823124757978178 25:1 96:1 49:1 138:1 56:1 152:1 171:1 4041:1 30616:1 
0.3158727978515633 18:1 105:1 28:1 124:1 56:1 152:1 169:1 4536:1 47292:1 
0.1705925050679047 12:1 88:1 40:1 113:1 77:1 166:1 169:1 21595:1 47158:1 
0.4823124757978178 21:1 88:1 28:1 113:1 56:1 166:1 177:1 22563:1 47158:1 
0.4823124757978178 25:1 109:1 28:1 138:1 56:1 144:1 175:1 24498:1 42001:1 
0.3703493567230711 1:1 109:1 40:1 112:1 81:1 152:1 169:1 16597:1 43624:1 
0.1096597078511745 1:1 96:1 36:1 138:1 81:1 144:1 169:1 7169:1 48151:1 
0.4823124757978178 8:1 96:1 53:1 138:1 81:1 144:1 170:1 15331:1 48151:1 
0.4823124757978178 8:1 106:1 28:1 124:1 56:1 153:1 169:1 3414:1 37927:1 
0.03412244276406526 25:1 109:1 51:1 124:1 69:1 152:1 170:1 13588:1 30417:1 
0.09391494759715677 12:1 96:1 53:1 138:1 56:1 140:1 169:1 18296:1 44466:1 
0.4671682155473875 25:1 97:1 46:1 130:1 56:1 166:1 169:1 15945:1 33004:1 
0.4823124757978178 25:1 109:1 51:1 124:1 81:1 166:1 169:1 8073:1 49378:1 
0.4823124757978178 25:1 109:1 51:1 135:1 68:1 165:1 169:1 19904:1 47706:1 
0.341748756551591 14:1 98:1 40:1 126:1 70:1 154:1 169:1 14609:1 46830:1 
0.4823124757978178 12:1 98:1 42:1 126:1 56:1 154:1 170:1 18200:1 46830:1 
0.2725310975929836 14:1 98:1 42:1 112:1 70:1 140:1 169:1 7623:1 35548:1 
0.2753200719279377 4:1 96:1 28:1 116:1 56:1 165:1 173:1 14410:1 30783:1 
0.4823124757978178 12:1 109:1 49:1 124:1 81:1 166:1 174:1 2360:1 36572:1 
0.4823124757978178 25:1 96:1 49:1 138:1 81:1 165:1 169:1 11843:1 41277:1 
0.4823124757978178 25:1 85:1 40:1 116:1 77:1 141:1 171:1 6037:1 34966:1 
0.4823124757978178 21:1 85:1 53:1 116:1 56:1 141:1 184:1 4518:1 34966:1 
0.4823124757978178 12:1 88:1 29:1 137:1 57:1 141:1 170:1 9378:1 35222:1 
0.4823124757978178 25:1 85:1 32:1 138:1 57:1 140:1 169:1 22422:1 28904:1 
0.4823124757978178 25:1 109:1 28:1 124:1 56:1 166:1 171:1 5461:1 29145:1 
0.02923104707020496 1:1 109:1 51:1 135:1 68:1 166:1 169:1 21110:1 48775:1 
0.4823124757978178 25:1 109:1 28:1 135:1 56:1 166:1 173:1 12873:1 48775:1 
0.4823124757978178 12:1 95:1 49:1 134:1 59:1 152:1 169:1 2041:1 41223:1 
0.1661282920854096 12:1 108:1 28:1 123:1 56:1 162:1 173:1 15189:1 29435:1 
0.2211020556190648 22:1 109:1 28:1 136:1 56:1 141:1 170:1 9267:1 43235:1 
0.06958894848221239 3:1 109:1 29:1 135:1 81:1 161:1 174:1 5573:1 41479:1 
0.4823124757978178 21:1 109:1 51:1 137:1 81:1 164:1 171:1 18895:1 36572:1 
0.08298467108189589 12:1 96:1 28:1 115:1 56:1 157:1 169:1 15328:1 33529:1 
0.2342518604976329 12:1 96:1 40:1 137:1 81:1 152:1 169:1 19038:1 41012:1 
0.4823124757978178 12:1 96:1 53:1 137:1 56:1 152:1 170:1 13758:1 41012:1 
0.4823124757978178 12:1 96:1 53:1 123:1 81:1 165:1 170:1 13779:1 45295:1 
0.4823124757978178 25:1 96:1 40:1 137:1 81:1 165:1 169:1 19650:1 44414:1 
0.4823124757978178 25:1 109:1 40:1 112:1 68:1 140:1 169:1 16951:1 27092:1 
0.4823124757978178 14:1 96:1 28:1 137:1 56:1 154:1 170:1 23840:1 40775:1 
0.00283990870173846 21:1 109:1 42:1 112:1 81:1 140:1 170:1 18895:1 42667:1 
0.1239480371745439 14:1 109:1 53:1 112:1 56:1 140:1 171:1 11646:1 42667:1 
0.08152002186460573 23:1 96:1 53:1 123:1 73:1 162:1 170:1 23050:1 34459:1 
0.4823124757978178 12:1 97:1 53:1 137:1 73:1 152:1 172:1 9730:1 48334:1 
0.1182122599917593 13:1 96:1 53:1 138:1 73:1 140:1 174:1 23605:1 35334:1 
0.4823124757978178 19:1 93:1 28:1 124:1 56:1 144:1 169:1 15125:1 37764:1 
0.4823124757978178 12:1 96:1 49:1 137:1 60:1 152:1 170:1 21822:1 27491:1 
0.2476301951754041 12:1 109:1 28:1 124:1 56:1 151:1 174:1 9082:1 48857:1 
0.4823124757978178 25:1 109:1 28:1 138:1 56:1 141:1 169:1 21798:1 35571:1 
0.07232278947850937 12:1 109:1 53:1 136:1 56:1 144:1 176:1 14484:1 28239:1 
0.4823124757978178 25:1 96:1 28:1 137:1 56:1 152:1 170:1 22028:1 26549:1 
0.4823124757978178 25:1 109:1 40:1 137:1 81:1 166:1 170:1 13592:1 45530:1 
0.4823124757978178 12:1 96:1 53:1 124:1 56:1 164:1 170:1 21435:1 36899:1 
0.07619782707082351 12:1 96:1 53:1 136:1 56:1 151:1 169:1 12170:1 31892:1 
0.4823124757978178 21:1 109:1 40:1 125:1 56:1 166:1 170:1 21663:1 29331:1 
0.4823124757978178 25:1 96:1 53:1 138:1 81:1 140:1 170:1 21071:1 33886:1 
0.03697147343361679 17:1 101:1 40:1 137:1 56:1 152:1 169:1 8357:1 30646:1 
0.4823124757978178 12:1 109:1 49:1 116:1 81:1 165:1 170:1 13779:1 28469:1 
0.4823124757978178 25:1 109:1 53:1 138:1 56:1 165:1 174:1 3740:1 34683:1 
0.4823124757978178 12:1 96:1 53:1 138:1 81:1 140:1 170:1 9289:1 36639:1 
0.2304004293807934 12:1 96:1 53:1 136:1 56:1 152:1 169:1 5734:1 34545:1 
0.1480903746456101 17:1 93:1 53:1 124:1 81:1 166:1 169:1 15846:1 42603:1 
0.4823124757978178 12:1 96:1 53:1 138:1 81:1 161:1 172:1 13009:1 48102:1 
0.4823124757978178 14:1 96:1 49:1 128:1 68:1 165:1 172:1 12270:1 42981:1 
0.4823124757978178 21:1 109:1 40:1 129:1 81:1 152:1 175:1 18208:1 35543:1 
0.2307974587481128 21:1 109:1 40:1 137:1 74:1 155:1 169:1 2086:1 40117:1 
0.4823124757978178 12:1 96:1 53:1 138:1 81:1 157:1 170:1 19440:1 41755:1 
0.4823124757978178 12:1 96:1 40:1 138:1 81:1 156:1 170:1 10687:1 48004:1 
0.4823124757978178 16:1 93:1 40:1 124:1 68:1 152:1 169:1 19438:1 40420:1 
0.4823124757978178 9:1 96:1 40:1 138:1 68:1 140:1 171:1 15691:1 48708:1 
0.03819497084278264 9:1 96:1 43:1 124:1 81:1 164:1 169:1 6691:1 41458:1 
0.480788632182314 15:1 96:1 53:1 124:1 56:1 164:1 170:1 7710:1 41458:1 
0.3185292621813863 12:1 96:1 40:1 126:1 81:1 161:1 170:1 17866:1 42055:1 
0.03145548718003562 21:1 109:1 42:1 137:1 68:1 166:1 171:1 22131:1 29524:1 
0.4823124757978178 25:1 109:1 28:1 137:1 56:1 166:1 184:1 21794:1 29524:1 
0.4823124757978178 25:1 109:1 28:1 124:1 56:1 152:1 173:1 6579:1 41479:1 
0.3044290110906902 11:1 109:1 28:1 124:1 56:1 166:1 170:1 4895:1 40881:1 
0.1444202011916594 12:1 108:1 53:1 124:1 81:1 140:1 171:1 10925:1 29435:1 
0.4823124757978178 0:1 85:1 53:1 138:1 81:1 141:1 169:1 19187:1 45201:1 
0.4823124757978178 25:1 108:1 40:1 137:1 56:1 152:1 170:1 7861:1 29540:1 
0.1003299790387094 12:1 109:1 28:1 124:1 56:1 166:1 173:1 12931:1 45734:1 
0.3053597625421577 11:1 106:1 49:1 124:1 81:1 151:1 170:1 1167:1 31625:1 
0.08334049966123081 11:1 106:1 40:1 124:1 77:1 153:1 170:1 259:1 48619:1 
0.3243481107929082 12:1 97:1 49:1 120:1 81:1 165:1 173:1 23891:1 48334:1 
0.4823124757978178 21:1 92:1 53:1 137:1 77:1 151:1 178:1 22563:1 45424:1 
0.4823124757978178 21:1 92:1 28:1 137:1 56:1 151:1 185:1 10283:1 45424:1 
0.4823124757978178 12:1 96:1 30:1 138:1 57:1 140:1 170:1 20039:1 38915:1 
0.110400131665321 2:1 96:1 29:1 138:1 78:1 140:1 171:1 3212:1 38915:1 
0.4823124757978178 1:1 96:1 50:1 138:1 81:1 140:1 173:1 19101:1 38915:1 
0.4823124757978178 12:1 96:1 28:1 137:1 56:1 166:1 170:1 4340:1 31225:1 
0.2908271315273034 9:1 109:1 53:1 124:1 56:1 164:1 170:1 2508:1 49405:1 
0.2523644751917068 1:1 96:1 39:1 138:1 80:1 152:1 170:1 23804:1 31418:1 
0.4823124757978178 25:1 109:1 53:1 138:1 56:1 152:1 177:1 24676:1 40646:1 
0.1132542807196999 12:1 109:1 53:1 138:1 81:1 140:1 171:1 2585:1 44349:1 
0.4823124757978178 25:1 109:1 40:1 124:1 60:1 152:1 171:1 10997:1 34392:1 
0.06663196306548466 12:1 96:1 31:1 116:1 56:1 165:1 169:1 4998:1 48853:1 
0.4823124757978178 12:1 96:1 51:1 138:1 81:1 140:1 170:1 16786:1 28118:1 
0.4823124757978178 25:1 84:1 49:1 138:1 56:1 154:1 174:1 17738:1 41277:1 
0.04530459279010239 24:1 106:1 53:1 133:1 81:1 152:1 170:1 4706:1 47567:1 
0.4823124757978178 25:1 109:1 49:1 136:1 78:1 152:1 169:1 1957:1 43647:1 
0.4823124757978178 15:1 101:1 49:1 130:1 56:1 158:1 169:1 20229:1 38959:1 
0.1046093234275435 18:1 102:1 45:1 124:1 77:1 157:1 169:1 610:1 25824:1 
0.22875856123662 17:1 96:1 40:1 138:1 77:1 158:1 171:1 3237:1 45000:1 
0.09561879385441952 12:1 109:1 40:1 124:1 77:1 165:1 171:1 20271:1 30382:1 
0.4823124757978178 25:1 109:1 40:1 138:1 77:1 143:1 170:1 5653:1 48182:1 
0.4823124757978178 21:1 109:1 28:1 138:1 56:1 143:1 182:1 10572:1 48182:1 
0.2398383558335065 4:1 88:1 40:1 137:1 81:1 161:1 169:1 10493:1 26960:1 
0.4823124757978178 21:1 108:1 53:1 138:1 68:1 144:1 170:1 5436:1 29435:1 
0.4823124757978178 25:1 96:1 31:1 138:1 81:1 166:1 169:1 4789:1 47988:1 
0.2706574657526471 23:1 109:1 28:1 137:1 56:1 141:1 170:1 17643:1 26586:1 
0.01340574160978592 25:1 108:1 53:1 129:1 81:1 141:1 171:1 17063:1 29435:1 
0.4823124757978178 21:1 109:1 28:1 138:1 56:1 166:1 170:1 4624:1 43646:1 
0.09076215881068553 12:1 98:1 47:1 137:1 81:1 164:1 169:1 16914:1 46953:1 
0.4823124757978178 25:1 108:1 31:1 138:1 68:1 161:1 169:1 18910:1 29435:1 
0.2658588196332987 21:1 109:1 45:1 133:1 77:1 163:1 171:1 22131:1 28844:1 
0.1608408146745869 21:1 109:1 37:1 133:1 56:1 163:1 173:1 18208:1 28844:1 
0.01477130221868383 9:1 109:1 28:1 133:1 56:1 163:1 174:1 13481:1 28844:1 
0.3548288933098487 21:1 108:1 53:1 116:1 56:1 152:1 171:1 7430:1 29435:1 
0.4823124757978178 25:1 109:1 41:1 138:1 74:1 149:1 169:1 9232:1 44345:1 
0.1234483974761698 12:1 109:1 28:1 138:1 56:1 149:1 173:1 7336:1 44345:1 
0.2795950972737017 9:1 96:1 53:1 124:1 56:1 144:1 170:1 15432:1 32062:1 
0.02732468953102346 12:1 96:1 53:1 116:1 56:1 165:1 169:1 7333:1 48199:1 
0.4823124757978178 18:1 102:1 53:1 137:1 81:1 164:1 170:1 15110:1 25490:1 
0.1374799660157525 12:1 96:1 28:1 138:1 56:1 165:1 169:1 1671:1 30941:1 
0.4823124757978178 1:1 103:1 53:1 133:1 56:1 158:1 169:1 9549:1 38127:1 
0.2948491475356069 19:1 109:1 53:1 136:1 56:1 152:1 173:1 13398:1 41651:1 
0.4823124757978178 12:1 85:1 53:1 115:1 56:1 144:1 170:1 16087:1 28069:1 
0.4823124757978178 1:1 109:1 53:1 124:1 56:1 166:1 171:1 3340:1 46588:1 
0.4823124757978178 8:1 109:1 28:1 135:1 56:1 164:1 169:1 18006:1 35584:1 
0.1012498947353658 11:1 106:1 28:1 123:1 56:1 162:1 169:1 255:1 47025:1 
0.1964033446596961 11:1 106:1 50:1 123:1 56:1 166:1 169:1 769:1 34505:1 
0.4823124757978178 21:1 109:1 28:1 138:1 56:1 157:1 169:1 10572:1 43004:1 
0.4823124757978178 1:1 96:1 40:1 137:1 81:1 153:1 171:1 6705:1 29735:1 
0.4823124757978178 12:1 96:1 53:1 137:1 56:1 153:1 172:1 13758:1 29735:1 
0.4823124757978178 25:1 97:1 53:1 138:1 56:1 151:1 169:1 23203:1 39345:1 
0.4823124757978178 25:1 96:1 52:1 137:1 69:1 166:1 169:1 14017:1 27044:1 
0.4823124757978178 25:1 108:1 49:1 124:1 81:1 165:1 169:1 17960:1 48086:1 
0.296747466504583 21:1 109:1 53:1 135:1 68:1 166:1 172:1 21527:1 29171:1 
0.4823124757978178 25:1 109:1 40:1 135:1 80:1 166:1 173:1 21794:1 29171:1 
0.05585238679316974 12:1 109:1 52:1 135:1 81:1 166:1 174:1 23822:1 29171:1 
0.4823124757978178 25:1 109:1 51:1 123:1 77:1 165:1 170:1 21794:1 30212:1 
0.4823124757978178 21:1 109:1 51:1 123:1 81:1 165:1 172:1 5436:1 30212:1 
0.1357280819632722 14:1 109:1 28:1 137:1 56:1 166:1 170:1 22896:1 40672:1 
0.1584550693529079 12:1 92:1 49:1 137:1 81:1 163:1 169:1 15239:1 35203:1 
0.2756710298176441 21:1 109:1 53:1 135:1 81:1 164:1 171:1 18895:1 41479:1 
0.1438651319248534 12:1 96:1 40:1 138:1 77:1 152:1 169:1 11355:1 26199:1 
0.4823124757978178 25:1 97:1 49:1 136:1 81:1 144:1 169:1 7042:1 40628:1 
0.1254026002680101 4:1 92:1 53:1 120:1 81:1 166:1 169:1 18630:1 46632:1 
0.3087168649979779 24:1 106:1 53:1 138:1 64:1 140:1 171:1 4706:1 42570:1 
0.4056668962605521 1:1 108:1 51:1 138:1 56:1 152:1 169:1 23770:1 29435:1 
0.4104270429953007 23:1 96:1 28:1 138:1 56:1 166:1 173:1 23064:1 40068:1 
0.04826885341671218 4:1 109:1 36:1 124:1 81:1 151:1 170:1 9054:1 36508:1 
0.4823124757978178 12:1 96:1 53:1 138:1 81:1 140:1 172:1 13758:1 34311:1 
0.4823124757978178 25:1 109:1 51:1 134:1 74:1 152:1 170:1 4624:1 26544:1 
0.02160093959524751 18:1 102:1 53:1 136:1 56:1 151:1 169:1 15110:1 25697:1 
0.1733897017784399 22:1 102:1 52:1 138:1 81:1 157:1 169:1 17985:1 44377:1 
0.2817190534310843 24:1 102:1 53:1 138:1 56:1 157:1 171:1 4706:1 44377:1 
0.4823124757978178 12:1 96:1 45:1 124:1 74:1 154:1 170:1 16789:1 32200:1 
0.08923602782150401 12:1 98:1 46:1 137:1 81:1 159:1 169:1 17332:1 42177:1 
0.4823124757978178 25:1 109:1 28:1 131:1 56:1 152:1 182:1 15509:1 34118:1 
0.4823124757978178 12:1 96:1 53:1 138:1 81:1 161:1 171:1 5179:1 37148:1 
0.1233941605915577 11:1 96:1 49:1 137:1 68:1 165:1 173:1 21220:1 39601:1 
0.2883939823617449 17:1 96:1 49:1 124:1 81:1 166:1 170:1 2031:1 29069:1 
0.04341632999666827 12:1 96:1 53:1 138:1 68:1 140:1 169:1 17281:1 45458:1 
0.4823124757978178 12:1 96:1 28:1 138:1 56:1 165:1 170:1 8455:1 38563:1 
0.4823124757978178 12:1 96:1 50:1 138:1 80:1 158:1 170:1 6990:1 46406:1 
0.2709011243443559 22:1 109:1 40:1 138:1 81:1 165:1 171:1 23754:1 26135:1 
0.4725261618537971 12:1 109:1 53:1 138:1 68:1 165:1 173:1 15320:1 26135:1 
0.4823124757978178 25:1 109:1 40:1 123:1 56:1 162:1 176:1 24676:1 41479:1 
0.03700305855778843 12:1 109:1 28:1 123:1 56:1 162:1 178:1 13337:1 41479:1 
0.002462913360352877 22:1 96:1 53:1 138:1 56:1 163:1 171:1 10914:1 29039:1 
0.4823124757978178 25:1 109:1 40:1 137:1 81:1 152:1 169:1 4518:1 38733:1 
0.4823124757978178 25:1 109:1 28:1 137:1 56:1 152:1 172:1 16829:1 38733:1 
0.4823124757978178 25:1 96:1 53:1 112:1 56:1 140:1 170:1 5142:1 35950:1 
0.4823124757978178 21:1 109:1 40:1 137:1 81:1 165:1 175:1 19937:1 48726:1 
0.4823124757978178 25:1 109:1 41:1 137:1 77:1 165:1 180:1 21445:1 48726:1 
0.2320754515587926 21:1 109:1 40:1 137:1 56:1 165:1 186:1 22563:1 48726:1 
0.3529968760124563 12:1 109:1 53:1 135:1 81:1 164:1 172:1 15118:1 47292:1 
0.1256850189713892 12:1 97:1 53:1 138:1 81:1 140:1 169:1 5842:1 48091:1 
0.1819153312350151 18:1 102:1 28:1 138:1 56:1 161:1 169:1 585:1 25881:1 
0.00672394398380941 12:1 96:1 52:1 124:1 78:1 152:1 169:1 4340:1 26940:1 
0.1718037895456445 22:1 96:1 53:1 124:1 77:1 166:1 174:1 2109:1 48044:1 
0.4823124757978178 25:1 96:1 49:1 138:1 74:1 152:1 177:1 12159:1 41277:1 
0.1154477660822115 21:1 109:1 46:1 137:1 56:1 164:1 185:1 4518:1 39982:1 
0.01103775938483378 1:1 96:1 31:1 113:1 65:1 164:1 169:1 6205:1 29595:1 
0.1723501973452015 3:1 85:1 37:1 138:1 56:1 154:1 175:1 21970:1 45237:1 
0.4823124757978178 9:1 85:1 28:1 138:1 56:1 154:1 176:1 22443:1 45237:1 
0.4823124757978178 21:1 109:1 40:1 137:1 57:1 165:1 172:1 18208:1 29865:1 
0.4823124757978178 12:1 109:1 29:1 137:1 56:1 165:1 173:1 10670:1 29865:1 
0.4823124757978178 25:1 109:1 53:1 136:1 57:1 152:1 169:1 11827:1 30540:1 
0.4823124757978178 12:1 96:1 31:1 113:1 68:1 166:1 170:1 19128:1 33657:1 
0.4823124757978178 25:1 109:1 29:1 116:1 81:1 141:1 169:1 10743:1 31771:1 
0.4823124757978178 25:1 85:1 29:1 138:1 81:1 140:1 170:1 7042:1 34190:1 
0.4823124757978178 25:1 109:1 40:1 138:1 56:1 140:1 174:1 24676:1 48791:1 
0.4823124757978178 25:1 109:1 53:1 124:1 56:1 164:1 170:1 21145:1 34052:1 
0.1168052366252868 12:1 96:1 53:1 138:1 81:1 144:1 169:1 23274:1 43554:1 
0.4823124757978178 12:1 96:1 53:1 137:1 81:1 165:1 170:1 8965:1 40102:1 
0.08525905102175314 12:1 96:1 53:1 125:1 56:1 144:1 169:1 19128:1 36469:1 
0.4823124757978178 1:1 109:1 41:1 124:1 81:1 152:1 169:1 22613:1 28738:1 
0.02904578770272998 12:1 96:1 53:1 124:1 81:1 166:1 169:1 10876:1 35436:1 
0.08119961215836719 12:1 96:1 40:1 137:1 56:1 164:1 169:1 16545:1 35559:1 
0.4823124757978178 12:1 96:1 28:1 137:1 56:1 164:1 170:1 4841:1 35559:1 
0.006009776121533198 12:1 92:1 53:1 138:1 56:1 144:1 169:1 23376:1 34188:1 
0.3832065749415693 24:1 109:1 53:1 138:1 81:1 166:1 169:1 17619:1 32310:1 
0.4823124757978178 25:1 109:1 28:1 124:1 56:1 166:1 177:1 16624:1 26351:1 
0.4823124757978178 25:1 109:1 40:1 120:1 81:1 164:1 169:1 9232:1 32237:1 
0.4823124757978178 25:1 109:1 53:1 137:1 68:1 141:1 175:1 6802:1 41479:1 
0.4823124757978178 25:1 109:1 40:1 137:1 81:1 141:1 177:1 11335:1 41479:1 
0.4823124757978178 12:1 96:1 53:1 116:1 56:1 165:1 170:1 16064:1 44505:1 
0.4823124757978178 25:1 109:1 28:1 124:1 56:1 166:1 173:1 15726:1 34033:1 
0.4823124757978178 12:1 96:1 28:1 133:1 56:1 165:1 170:1 19394:1 41927:1 
0.4823124757978178 25:1 109:1 29:1 124:1 81:1 152:1 170:1 2303:1 47978:1 
0.4823124757978178 12:1 96:1 53:1 116:1 57:1 165:1 170:1 7090:1 32153:1 
0.4823124757978178 21:1 108:1 53:1 116:1 81:1 165:1 171:1 22563:1 29435:1 
0.2626345800488232 25:1 108:1 53:1 116:1 57:1 165:1 172:1 2303:1 29435:1 
0.4823124757978178 12:1 96:1 46:1 124:1 56:1 152:1 170:1 19394:1 41927:1 
0.4823124757978178 12:1 96:1 46:1 133:1 56:1 152:1 170:1 17198:1 48924:1 
0.1542737527038391 21:1 109:1 40:1 137:1 74:1 141:1 171:1 3996:1 34392:1 
0.4823124757978178 25:1 109:1 40:1 113:1 74:1 164:1 169:1 9663:1 41479:1 
0.4823124757978178 25:1 109:1 52:1 137:1 81:1 165:1 171:1 16750:1 28821:1 
0.02945238952768896 1:1 106:1 32:1 133:1 56:1 152:1 170:1 10167:1 38364:1 
0.07711794581742541 12:1 109:1 49:1 136:1 78:1 152:1 170:1 22934:1 33459:1 
0.1002539478336188 12:1 96:1 40:1 116:1 77:1 165:1 169:1 22681:1 42234:1 
0.0005346963019916049 18:1 102:1 45:1 124:1 71:1 161:1 169:1 21401:1 39124:1 
0.09934238308449871 15:1 96:1 49:1 133:1 56:1 155:1 172:1 20229:1 29697:1 
0.4823124757978178 12:1 96:1 43:1 115:1 77:1 159:1 170:1 20908:1 45641:1 
0.4823124757978178 15:1 96:1 49:1 115:1 68:1 159:1 172:1 23634:1 45641:1 
0.4823124757978178 25:1 108:1 40:1 138:1 68:1 154:1 169:1 2273:1 29435:1 
0.03803219961679605 21:1 109:1 46:1 137:1 68:1 166:1 171:1 21966:1 28376:1 
0.1336968516022242 12:1 109:1 40:1 137:1 68:1 166:1 174:1 8476:1 28376:1 
0.3070290633535393 12:1 106:1 28:1 124:1 56:1 165:1 169:1 21220:1 35920:1 
0.4659020588062478 22:1 96:1 28:1 138:1 56:1 165:1 176:1 11191:1 26970:1 
0.02108794316239323 21:1 109:1 40:1 136:1 81:1 141:1 170:1 22200:1 31923:1 
0.09862422870446273 22:1 109:1 28:1 136:1 56:1 166:1 169:1 13635:1 32480:1 
0.1205879116421089 12:1 109:1 36:1 138:1 81:1 149:1 171:1 16852:1 38668:1 
0.3683148824261419 9:1 96:1 53:1 137:1 64:1 164:1 171:1 15316:1 41581:1 
0.4587097725933194 13:1 106:1 42:1 137:1 81:1 164:1 170:1 14616:1 38364:1 
0.04634266810026905 14:1 109:1 53:1 136:1 56:1 144:1 172:1 11475:1 31325:1 
0.01820080394452272 14:1 109:1 49:1 138:1 56:1 165:1 169:1 12219:1 34748:1 
0.3026134832507485 9:1 109:1 28:1 124:1 56:1 151:1 170:1 20226:1 47220:1 
0.02185336146265357 19:1 96:1 53:1 136:1 56:1 152:1 170:1 18396:1 41294:1 
0.2239109094097652 11:1 85:1 53:1 136:1 56:1 166:1 169:1 16487:1 35306:1 
0.4823124757978178 25:1 109:1 53:1 124:1 56:1 164:1 170:1 19529:1 41479:1 
0.4823124757978178 12:1 96:1 39:1 137:1 81:1 165:1 172:1 10676:1 34311:1 
0.04755496710701666 12:1 109:1 39:1 113:1 81:1 152:1 170:1 9582:1 41355:1 
0.07460801479720358 11:1 109:1 53:1 113:1 56:1 152:1 176:1 255:1 41355:1 
0.4823124757978178 12:1 96:1 28:1 137:1 56:1 148:1 170:1 16076:1 34311:1 
0.09023767035547529 1:1 96:1 36:1 136:1 81:1 152:1 169:1 6705:1 42231:1 
0.115912201962782 8:1 108:1 53:1 124:1 56:1 143:1 171:1 17108:1 29435:1 
0.4823124757978178 12:1 96:1 49:1 136:1 68:1 152:1 171:1 17310:1 30616:1 
0.4823124757978178 21:1 109:1 40:1 137:1 68:1 163:1 178:1 3731:1 46527:1 
0.1510480092289412 12:1 96:1 52:1 124:1 81:1 166:1 169:1 22215:1 43819:1 
0.4823124757978178 12:1 96:1 28:1 133:1 56:1 141:1 171:1 3647:1 44303:1 
0.3735243877313834 25:1 109:1 41:1 124:1 77:1 152:1 169:1 9232:1 48159:1 
0.02568995938196575 12:1 109:1 28:1 124:1 56:1 152:1 176:1 19574:1 48159:1 
0.1078982236393023 12:1 96:1 53:1 135:1 56:1 152:1 169:1 22215:1 43819:1 
0.4823124757978178 12:1 96:1 53:1 115:1 56:1 152:1 170:1 19090:1 32293:1 
0.4823124757978178 12:1 96:1 49:1 116:1 68:1 165:1 170:1 21920:1 30616:1 
0.4823124757978178 25:1 109:1 51:1 135:1 79:1 152:1 169:1 19904:1 42474:1 
0.06321550885724794 23:1 96:1 53:1 138:1 56:1 140:1 173:1 13424:1 44789:1 
0.4823124757978178 25:1 109:1 40:1 138:1 56:1 165:1 170:1 21145:1 48522:1 
0.2454944467969541 12:1 96:1 53:1 138:1 81:1 165:1 169:1 20650:1 30611:1 
0.1363803565612899 12:1 98:1 53:1 123:1 56:1 162:1 169:1 1416:1 40751:1 
0.1575734446043879 21:1 109:1 50:1 123:1 70:1 152:1 173:1 19937:1 47452:1 
0.2571652810303073 14:1 109:1 53:1 123:1 56:1 152:1 176:1 16022:1 47452:1 
0.4823124757978178 25:1 109:1 41:1 137:1 56:1 165:1 169:1 13360:1 39357:1 
0.2906178458536956 12:1 88:1 28:1 123:1 56:1 162:1 169:1 15346:1 38253:1 
0.05390842159236154 11:1 106:1 32:1 124:1 56:1 166:1 169:1 9128:1 33442:1 
0.4823124757978178 25:1 109:1 40:1 113:1 60:1 166:1 172:1 21145:1 35120:1 
0.3680170283417376 15:1 96:1 28:1 124:1 56:1 166:1 172:1 20229:1 29697:1 
0.4823124757978178 25:1 96:1 40:1 138:1 68:1 141:1 171:1 19650:1 33806:1 
0.03924710116672443 1:1 96:1 40:1 124:1 68:1 158:1 169:1 19685:1 31629:1 
0.4823124757978178 12:1 96:1 40:1 130:1 68:1 161:1 172:1 9077:1 27093:1 
0.4823124757978178 12:1 96:1 52:1 138:1 81:1 163:1 173:1 15172:1 45704:1 
0.4823124757978178 21:1 109:1 46:1 138:1 56:1 143:1 170:1 21966:1 35836:1 
0.2366488425981022 25:1 108:1 46:1 121:1 56:1 159:1 175:1 11107:1 29435:1 
0.4823124757978178 9:1 103:1 52:1 124:1 74:1 144:1 169:1 14934:1 42946:1 
0.3755286404672572 9:1 96:1 49:1 124:1 77:1 152:1 169:1 5322:1 32398:1 
0.4823124757978178 21:1 96:1 49:1 124:1 65:1 165:1 171:1 22200:1 32153:1 
0.4823124757978178 25:1 109:1 53:1 137:1 81:1 149:1 171:1 18895:1 38041:1 
0.4823124757978178 12:1 96:1 28:1 137:1 56:1 166:1 170:1 13009:1 26553:1 
0.1104740876906375 14:1 109:1 53:1 136:1 56:1 155:1 173:1 1468:1 42935:1 
0.4823124757978178 15:1 93:1 52:1 124:1 81:1 143:1 169:1 11829:1 26194:1 
0.2073872894511457 12:1 85:1 28:1 121:1 56:1 152:1 170:1 8448:1 38575:1 
0.4823124757978178 9:1 85:1 29:1 138:1 56:1 165:1 170:1 21778:1 32603:1 
0.2470244543268284 9:1 109:1 28:1 124:1 56:1 165:1 169:1 17685:1 47930:1 
0.4823124757978178 25:1 109:1 28:1 113:1 56:1 152:1 170:1 23201:1 37464:1 
0.1509681584562621 25:1 109:1 39:1 133:1 56:1 152:1 169:1 21145:1 34052:1 
0.0168432813466468 2:1 96:1 53:1 136:1 60:1 152:1 170:1 11185:1 33693:1 
0.2227284434432333 4:1 96:1 40:1 136:1 77:1 152:1 172:1 17846:1 33693:1 
0.2785991122931757 16:1 109:1 53:1 123:1 56:1 161:1 171:1 9890:1 44644:1 
0.4823124757978178 21:1 109:1 39:1 116:1 81:1 165:1 171:1 22563:1 42859:1 
0.4823124757978178 25:1 109:1 32:1 138:1 70:1 140:1 172:1 8587:1 39826:1 
0.4823124757978178 25:1 109:1 28:1 138:1 56:1 140:1 181:1 23393:1 39826:1 
0.4823124757978178 25:1 109:1 40:1 138:1 80:1 165:1 169:1 21145:1 40626:1 
0.05681137877037198 21:1 109:1 39:1 138:1 59:1 152:1 170:1 18895:1 34230:1 
0.4823124757978178 11:1 96:1 31:1 137:1 56:1 164:1 176:1 21220:1 42635:1 
0.1973717570135941 21:1 109:1 52:1 136:1 81:1 151:1 170:1 21527:1 43639:1 
0.4823124757978178 12:1 96:1 49:1 136:1 81:1 152:1 171:1 15140:1 33513:1 
0.09457824768312 21:1 109:1 53:1 137:1 56:1 163:1 176:1 22563:1 42467:1 
0.4823124757978178 19:1 96:1 42:1 138:1 56:1 166:1 170:1 15333:1 49162:1 
0.4823124757978178 12:1 96:1 40:1 136:1 70:1 152:1 170:1 17973:1 48997:1 
0.1027055757458405 14:1 109:1 28:1 116:1 56:1 165:1 181:1 11653:1 36286:1 
0.144281388063277 12:1 96:1 53:1 133:1 60:1 141:1 169:1 11918:1 40990:1 
0.4823124757978178 4:1 96:1 40:1 133:1 81:1 141:1 171:1 17846:1 40990:1 
0.4823124757978178 1:1 106:1 49:1 113:1 68:1 152:1 170:1 11873:1 38364:1 
0.0985423988004113 22:1 96:1 49:1 125:1 68:1 166:1 170:1 13635:1 30924:1 
0.3971281419362389 12:1 96:1 49:1 137:1 68:1 165:1 169:1 7686:1 30432:1 
0.4823124757978178 25:1 109:1 40:1 124:1 77:1 152:1 169:1 8022:1 31304:1 
0.1989631797056153 4:1 88:1 32:1 137:1 68:1 166:1 169:1 8158:1 27290:1 
0.4823124757978178 25:1 109:1 40:1 137:1 81:1 152:1 169:1 18277:1 41344:1 
0.4823124757978178 25:1 96:1 53:1 138:1 81:1 161:1 170:1 15098:1 48269:1 
0.4823124757978178 25:1 96:1 49:1 115:1 68:1 152:1 177:1 16261:1 36899:1 
0.4823124757978178 12:1 96:1 53:1 124:1 68:1 166:1 170:1 24277:1 41395:1 
0.3648412921115434 12:1 85:1 53:1 138:1 56:1 140:1 173:1 9305:1 27321:1 
0.4823124757978178 25:1 109:1 28:1 138:1 56:1 152:1 170:1 21145:1 30870:1 
0.4823124757978178 12:1 96:1 53:1 138:1 56:1 144:1 170:1 13799:1 35043:1 
0.4823124757978178 25:1 109:1 28:1 124:1 56:1 143:1 174:1 18454:1 41387:1 
0.2582771700403359 25:1 109:1 31:1 124:1 68:1 152:1 169:1 13592:1 30873:1 
0.3783878141787314 1:1 108:1 31:1 113:1 68:1 165:1 169:1 11194:1 29540:1 
0.4823124757978178 1:1 109:1 52:1 138:1 59:1 140:1 169:1 6511:1 39196:1 
0.4823124757978178 25:1 109:1 40:1 133:1 59:1 152:1 170:1 21794:1 34241:1 
0.4823124757978178 12:1 109:1 49:1 138:1 68:1 165:1 170:1 4569:1 27494:1 
0.1884276259414434 12:1 109:1 28:1 123:1 56:1 152:1 174:1 2762:1 47226:1 
0.0312377418151497 11:1 96:1 53:1 115:1 56:1 152:1 170:1 5522:1 45158:1 
0.4823124757978178 25:1 96:1 31:1 137:1 56:1 151:1 170:1 24062:1 31771:1 
0.2192632093474082 25:1 109:1 40:1 124:1 59:1 152:1 170:1 21794:1 48774:1 
0.06212834001799357 12:1 96:1 28:1 124:1 56:1 165:1 169:1 24261:1 36770:1 
0.1605398104510989 12:1 96:1 28:1 137:1 56:1 165:1 169:1 12041:1 44852:1 
0.1627457973541361 12:1 109:1 28:1 124:1 56:1 152:1 170:1 20123:1 43177:1 
0.4823124757978178 12:1 96:1 53:1 136:1 56:1 144:1 170:1 14484:1 34680:1 
0.01080990971593489 12:1 96:1 28:1 116:1 56:1 141:1 169:1 24261:1 35043:1 
0.1947437715584036 12:1 88:1 28:1 137:1 56:1 152:1 169:1 7870:1 35227:1 
0.06474021920744033 12:1 96:1 53:1 136:1 81:1 165:1 169:1 14484:1 35025:1 
0.4823124757978178 18:1 92:1 53:1 136:1 56:1 152:1 170:1 14234:1 32752:1 
0.4823124757978178 25:1 109:1 28:1 137:1 56:1 164:1 176:1 4131:1 40848:1 
0.4823124757978178 25:1 109:1 40:1 123:1 77:1 152:1 173:1 16750:1 29145:1 
0.2629224246041482 21:1 109:1 28:1 123:1 56:1 152:1 181:1 21527:1 29145:1 
0.1064478601454521 12:1 96:1 28:1 120:1 56:1 166:1 169:1 23982:1 36234:1 
0.4823124757978178 25:1 109:1 53:1 124:1 59:1 152:1 169:1 19621:1 45644:1 
0.4823124757978178 25:1 109:1 31:1 116:1 56:1 141:1 174:1 20915:1 45299:1 
0.1639990345419447 12:1 98:1 41:1 133:1 77:1 154:1 169:1 23985:1 31016:1 
0.4823124757978178 14:1 96:1 49:1 138:1 70:1 152:1 170:1 13602:1 40442:1 
0.4823124757978178 25:1 109:1 40:1 135:1 68:1 164:1 171:1 18895:1 41989:1 
0.02535426336106327 0:1 96:1 51:1 133:1 56:1 165:1 169:1 8689:1 35315:1 
0.4823124757978178 25:1 109:1 53:1 138:1 77:1 152:1 169:1 6112:1 27005:1 
0.4823124757978178 25:1 109:1 49:1 138:1 68:1 152:1 170:1 6114:1 27005:1 
0.4823124757978178 21:1 109:1 40:1 138:1 56:1 152:1 171:1 21663:1 27005:1 
0.364044914633125 12:1 85:1 53:1 113:1 68:1 166:1 170:1 13568:1 48804:1 
0.1765264896799857 12:1 85:1 29:1 138:1 57:1 165:1 170:1 2767:1 38697:1 
0.1623632039234139 12:1 109:1 28:1 124:1 56:1 152:1 170:1 9493:1 41987:1 
0.06895238245401079 13:1 96:1 53:1 116:1 77:1 165:1 170:1 13554:1 48269:1 
0.4823124757978178 12:1 96:1 41:1 138:1 80:1 140:1 170:1 16226:1 27491:1 
0.4823124757978178 12:1 96:1 53:1 137:1 56:1 165:1 170:1 24382:1 39213:1 
0.002696804590958897 12:1 96:1 49:1 137:1 78:1 166:1 169:1 10962:1 35851:1 
0.2331621613938283 21:1 109:1 50:1 138:1 81:1 158:1 171:1 1491:1 33930:1 
0.4823124757978178 25:1 109:1 50:1 123:1 81:1 162:1 176:1 9201:1 43355:1 
0.08944528579860089 12:1 93:1 53:1 133:1 81:1 165:1 169:1 7669:1 35677:1 
0.1250927691390917 12:1 96:1 53:1 124:1 77:1 152:1 169:1 10925:1 34854:1 
0.130968125642243 12:1 96:1 40:1 136:1 81:1 140:1 169:1 8793:1 42643:1 
0.4823124757978178 12:1 96:1 40:1 125:1 56:1 164:1 170:1 21187:1 44303:1 
0.4823124757978178 12:1 96:1 28:1 125:1 56:1 164:1 172:1 21710:1 44303:1 
0.1774206622824168 8:1 96:1 52:1 130:1 56:1 144:1 169:1 18172:1 44303:1 
0.03871454807228461 12:1 109:1 28:1 138:1 56:1 158:1 171:1 19574:1 35530:1 
0.05249481223920471 1:1 96:1 40:1 137:1 81:1 165:1 170:1 20207:1 40291:1 
0.4823124757978178 12:1 96:1 53:1 137:1 68:1 165:1 171:1 3741:1 40291:1 
0.4823124757978178 25:1 109:1 40:1 137:1 81:1 166:1 173:1 2822:1 40656:1 
0.1791500051659237 21:1 109:1 45:1 128:1 74:1 152:1 171:1 18177:1 38682:1 
0.1672932227534232 14:1 92:1 28:1 138:1 56:1 165:1 169:1 12247:1 30198:1 
0.4823124757978178 25:1 108:1 28:1 138:1 56:1 163:1 169:1 16374:1 29435:1 
0.4823124757978178 25:1 109:1 40:1 124:1 80:1 166:1 170:1 9098:1 46631:1 
0.4686489143943856 5:1 109:1 28:1 129:1 56:1 165:1 171:1 1394:1 41479:1 
0.4823124757978178 25:1 109:1 40:1 135:1 81:1 165:1 169:1 2644:1 26563:1 
0.3110946861137109 12:1 96:1 52:1 138:1 81:1 165:1 170:1 14484:1 37285:1 
0.4823124757978178 12:1 96:1 52:1 136:1 81:1 144:1 170:1 7669:1 29808:1 
0.1201103904252991 12:1 109:1 28:1 136:1 56:1 151:1 173:1 18997:1 47368:1 
0.4823124757978178 25:1 109:1 36:1 136:1 57:1 152:1 169:1 11504:1 31025:1 
0.05477896438545334 25:1 97:1 49:1 120:1 79:1 166:1 169:1 7042:1 48334:1 
0.4823124757978178 21:1 92:1 51:1 138:1 56:1 165:1 171:1 22563:1 37236:1 
0.1251792257901419 23:1 92:1 28:1 138:1 56:1 165:1 172:1 17641:1 37236:1 
0.05197911269504577 12:1 109:1 52:1 138:1 81:1 140:1 171:1 12154:1 49381:1 
0.2747533237580171 25:1 108:1 31:1 137:1 56:1 144:1 171:1 8883:1 29435:1 
0.4823124757978178 24:1 98:1 53:1 138:1 56:1 140:1 170:1 4706:1 28204:1 
0.4823124757978178 21:1 92:1 40:1 125:1 68:1 165:1 169:1 2086:1 46226:1 
0.4823124757978178 12:1 92:1 40:1 125:1 77:1 165:1 170:1 2339:1 46226:1 
0.2422106030562861 8:1 97:1 40:1 137:1 77:1 152:1 169:1 21497:1 33004:1 
0.4823124757978178 12:1 96:1 49:1 138:1 78:1 161:1 172:1 6525:1 40014:1 
0.02702146162432938 12:1 96:1 49:1 137:1 68:1 164:1 169:1 2757:1 34311:1 
0.1956891272155199 21:1 109:1 40:1 136:1 77:1 141:1 171:1 18895:1 49380:1 
0.3176556994879644 21:1 109:1 50:1 136:1 81:1 141:1 181:1 21527:1 49380:1 
0.4823124757978178 25:1 109:1 42:1 136:1 68:1 141:1 185:1 15509:1 49380:1 
0.4823124757978178 18:1 102:1 28:1 138:1 56:1 153:1 170:1 1246:1 25115:1 
0.2916739061541615 21:1 109:1 40:1 138:1 74:1 157:1 171:1 21527:1 43647:1 
0.008704674872535501 13:1 109:1 53:1 124:1 56:1 166:1 169:1 13457:1 46757:1 
0.01659111352113855 21:1 109:1 38:1 138:1 68:1 166:1 173:1 22563:1 41994:1 
0.4823124757978178 25:1 96:1 49:1 138:1 56:1 154:1 173:1 17738:1 41277:1 
0.4823124757978178 25:1 109:1 53:1 124:1 56:1 143:1 173:1 5703:1 47423:1 
0.4823124757978178 12:1 97:1 53:1 136:1 81:1 142:1 171:1 4554:1 48089:1 
0.4823124757978178 25:1 92:1 28:1 138:1 56:1 165:1 169:1 12862:1 37923:1 
0.4823124757978178 25:1 96:1 36:1 138:1 56:1 151:1 169:1 12862:1 31500:1 
0.1211688035472956 22:1 96:1 40:1 137:1 64:1 164:1 171:1 18992:1 34349:1 
0.4823124757978178 8:1 109:1 28:1 136:1 56:1 152:1 178:1 13194:1 49415:1 
0.4823124757978178 25:1 97:1 40:1 136:1 81:1 142:1 169:1 9575:1 33004:1 
0.07932727032303352 4:1 88:1 31:1 133:1 56:1 157:1 169:1 8579:1 44413:1 
0.1154800066915494 12:1 96:1 50:1 124:1 80:1 152:1 169:1 15498:1 40558:1 
0.07520799666671042 22:1 96:1 52:1 124:1 81:1 152:1 170:1 23481:1 40558:1 
0.4823124757978178 12:1 96:1 52:1 124:1 81:1 166:1 170:1 15829:1 33661:1 
0.4823124757978178 12:1 96:1 40:1 138:1 80:1 151:1 170:1 6631:1 35485:1 
0.4823124757978178 12:1 96:1 50:1 136:1 68:1 151:1 171:1 10901:1 34311:1 
0.4823124757978178 22:1 96:1 40:1 136:1 68:1 151:1 173:1 13334:1 34311:1 
0.4823124757978178 12:1 96:1 40:1 138:1 78:1 140:1 170:1 8093:1 44657:1 
0.3599856875301846 12:1 96:1 50:1 138:1 80:1 140:1 171:1 10925:1 44657:1 
0.01184029935564647 12:1 96:1 52:1 138:1 81:1 140:1 187:1 9582:1 44657:1 
0.4823124757978178 25:1 109:1 28:1 124:1 56:1 140:1 169:1 6602:1 42483:1 
0.4823124757978178 25:1 96:1 39:1 136:1 81:1 152:1 170:1 20902:1 43848:1 
0.07717783675464039 12:1 109:1 53:1 138:1 56:1 152:1 170:1 24086:1 41989:1 
0.4823124757978178 12:1 85:1 53:1 136:1 81:1 152:1 171:1 24277:1 28785:1 
0.3084823352243265 12:1 96:1 53:1 124:1 74:1 151:1 169:1 9951:1 29810:1 
0.4823124757978178 25:1 96:1 46:1 123:1 56:1 162:1 172:1 21919:1 49000:1 
0.4823124757978178 12:1 106:1 46:1 138:1 56:1 158:1 170:1 24271:1 47025:1 
0.4823124757978178 18:1 106:1 28:1 138:1 56:1 158:1 175:1 597:1 47025:1 
0.4823124757978178 21:1 109:1 46:1 138:1 78:1 165:1 170:1 18177:1 27206:1 
0.4823124757978178 25:1 109:1 46:1 123:1 78:1 162:1 171:1 2477:1 28841:1 
0.1154534528780303 22:1 96:1 53:1 136:1 56:1 165:1 170:1 14111:1 31535:1 
0.4823124757978178 25:1 109:1 28:1 138:1 56:1 152:1 174:1 15509:1 41989:1 
0.4823124757978178 25:1 109:1 40:1 124:1 68:1 166:1 169:1 10980:1 46757:1 
0.3145732960574759 12:1 109:1 53:1 124:1 56:1 166:1 175:1 16565:1 46757:1 
0.1196451093651921 12:1 85:1 31:1 136:1 73:1 166:1 170:1 14977:1 46122:1 
0.01437407143669137 3:1 85:1 45:1 136:1 81:1 166:1 172:1 5573:1 46122:1 
0.1696714944554316 17:1 96:1 49:1 113:1 81:1 152:1 170:1 12900:1 32761:1 
0.4823124757978178 12:1 98:1 49:1 133:1 81:1 149:1 171:1 8032:1 37311:1 
0.4823124757978178 9:1 93:1 49:1 125:1 70:1 165:1 169:1 1579:1 46256:1 
0.32499696451038 14:1 109:1 49:1 113:1 81:1 151:1 173:1 12582:1 34877:1 
0.4823124757978178 1:1 106:1 53:1 124:1 77:1 153:1 170:1 20207:1 37264:1 
0.4823124757978178 25:1 97:1 49:1 137:1 81:1 142:1 173:1 10148:1 48088:1 
0.0102906598869832 23:1 109:1 53:1 126:1 56:1 165:1 171:1 17637:1 39713:1 
0.4823124757978178 12:1 96:1 45:1 136:1 77:1 149:1 170:1 3398:1 39779:1 
0.2501169017280079 17:1 96:1 49:1 125:1 56:1 166:1 176:1 10784:1 28974:1 
0.003138610373052567 11:1 106:1 50:1 136:1 81:1 152:1 170:1 1167:1 38364:1 
0.4823124757978178 12:1 96:1 52:1 138:1 78:1 159:1 170:1 21053:1 29757:1 
0.04423530345454457 22:1 96:1 53:1 138:1 56:1 159:1 175:1 9267:1 29757:1 
0.2092836587694779 9:1 96:1 53:1 123:1 81:1 152:1 169:1 11298:1 29570:1 
0.4823124757978178 25:1 96:1 53:1 136:1 81:1 151:1 172:1 10144:1 43332:1 
0.4823124757978178 12:1 96:1 51:1 137:1 67:1 151:1 170:1 18555:1 43055:1 
0.4823124757978178 11:1 106:1 53:1 138:1 81:1 140:1 171:1 458:1 37656:1 
0.07827444267961296 17:1 109:1 28:1 138:1 56:1 152:1 170:1 7853:1 46757:1 
0.1740003953108635 12:1 96:1 28:1 115:1 56:1 152:1 169:1 14644:1 45916:1 
0.4823124757978178 25:1 109:1 40:1 124:1 81:1 165:1 169:1 24007:1 43171:1 
0.4823124757978178 25:1 96:1 40:1 137:1 81:1 166:1 169:1 18442:1 33593:1 
0.001370383823519593 17:1 96:1 43:1 113:1 77:1 151:1 171:1 13743:1 29697:1 
0.2734406675589927 15:1 96:1 49:1 113:1 56:1 151:1 172:1 20229:1 29697:1 
0.394450340550054 12:1 96:1 41:1 124:1 68:1 144:1 169:1 16773:1 47067:1 
0.3554601476156261 21:1 109:1 28:1 138:1 56:1 140:1 184:1 10572:1 44345:1 
0.3019546906154391 12:1 96:1 52:1 138:1 78:1 161:1 170:1 19581:1 47854:1 
0.04877586426680144 12:1 96:1 49:1 137:1 77:1 165:1 169:1 21833:1 44136:1 
0.4823124757978178 21:1 109:1 49:1 137:1 68:1 152:1 171:1 9615:1 27063:1 
0.4823124757978178 25:1 97:1 49:1 137:1 68:1 165:1 171:1 2334:1 40628:1 
0.4823124757978178 25:1 109:1 41:1 137:1 77:1 152:1 169:1 10997:1 34194:1 
0.4497343252928283 21:1 109:1 40:1 137:1 81:1 152:1 177:1 18177:1 34194:1 
0.03895558594014673 13:1 109:1 53:1 124:1 81:1 152:1 170:1 13554:1 28821:1 
0.4823124757978178 12:1 96:1 42:1 137:1 74:1 164:1 170:1 15157:1 43516:1 
0.4823124757978178 14:1 96:1 46:1 137:1 56:1 164:1 171:1 17571:1 43516:1 
0.4344825420282634 16:1 85:1 49:1 136:1 68:1 151:1 170:1 7689:1 49332:1 
0.2935558450603861 12:1 109:1 53:1 124:1 56:1 166:1 170:1 15624:1 32238:1 
0.05494454441455601 15:1 109:1 53:1 138:1 56:1 158:1 169:1 19084:1 48675:1 
0.4823124757978178 14:1 85:1 28:1 138:1 56:1 140:1 178:1 4751:1 40727:1 
0.04172411947810929 21:1 109:1 51:1 115:1 77:1 165:1 171:1 19937:1 29380:1 
0.4823124757978178 21:1 109:1 51:1 115:1 77:1 165:1 173:1 18895:1 29380:1 
0.2461586959035195 23:1 109:1 49:1 115:1 56:1 165:1 174:1 17637:1 29380:1 
0.4823124757978178 25:1 109:1 40:1 135:1 68:1 166:1 170:1 18847:1 33446:1 
0.4823124757978178 25:1 96:1 40:1 125:1 81:1 164:1 169:1 22563:1 27152:1 
0.01712975942348874 12:1 98:1 40:1 133:1 81:1 152:1 169:1 24463:1 48569:1 
0.1750945026136076 21:1 109:1 42:1 136:1 68:1 165:1 172:1 21453:1 49415:1 
0.4823124757978178 21:1 109:1 53:1 138:1 69:1 163:1 169:1 2086:1 45428:1 
0.4823124757978178 25:1 109:1 41:1 138:1 59:1 163:1 170:1 16753:1 45428:1 
0.4823124757978178 25:1 109:1 40:1 136:1 81:1 152:1 171:1 8732:1 28142:1 
0.1060670192312273 12:1 109:1 53:1 136:1 56:1 152:1 172:1 15297:1 28142:1 
0.04259805999422709 23:1 96:1 45:1 136:1 81:1 152:1 171:1 23053:1 44616:1 
0.194618363955174 17:1 96:1 53:1 136:1 81:1 152:1 172:1 20236:1 44616:1 
0.4108727803654153 21:1 108:1 40:1 124:1 81:1 165:1 171:1 18895:1 29435:1 
0.4823124757978178 12:1 96:1 53:1 137:1 59:1 165:1 173:1 11469:1 42669:1 
0.4823124757978178 25:1 109:1 31:1 137:1 56:1 152:1 175:1 11776:1 31308:1 
0.1153109351386477 12:1 109:1 28:1 124:1 56:1 161:1 170:1 6749:1 37233:1 
0.1858961074328237 12:1 105:1 53:1 129:1 81:1 152:1 169:1 7062:1 47292:1 
0.4823124757978178 14:1 96:1 53:1 116:1 81:1 165:1 170:1 23859:1 34545:1 
0.4823124757978178 21:1 109:1 28:1 135:1 56:1 152:1 178:1 18895:1 45631:1 
0.146227714451952 11:1 106:1 50:1 124:1 77:1 164:1 169:1 1695:1 33442:1 
0.3245261493727233 22:1 96:1 49:1 136:1 60:1 152:1 171:1 23754:1 26838:1 
0.4823124757978178 25:1 109:1 28:1 124:1 56:1 161:1 172:1 3868:1 45883:1 
0.4823124757978178 25:1 84:1 40:1 133:1 77:1 152:1 169:1 21145:1 36104:1 
0.4823124757978178 21:1 84:1 40:1 133:1 81:1 152:1 173:1 5436:1 36104:1 
0.4823124757978178 12:1 84:1 53:1 133:1 56:1 152:1 174:1 20987:1 36104:1 
0.2098900443622745 25:1 109:1 40:1 113:1 81:1 152:1 169:1 13588:1 45699:1 
0.09684782983660734 12:1 109:1 53:1 113:1 79:1 152:1 170:1 20987:1 45699:1 
0.2543015020148609 12:1 96:1 49:1 137:1 81:1 164:1 169:1 5015:1 45468:1 
0.2913691703077476 25:1 109:1 32:1 123:1 79:1 162:1 169:1 19904:1 38618:1 
0.2262146582842005 21:1 109:1 53:1 123:1 56:1 162:1 178:1 24676:1 38618:1 
0.196181272122162 22:1 96:1 53:1 138:1 81:1 161:1 171:1 2753:1 29744:1 
0.4470387441964162 21:1 109:1 40:1 120:1 81:1 166:1 176:1 10283:1 29429:1 
0.01784526159857344 12:1 109:1 28:1 133:1 56:1 161:1 171:1 3314:1 42699:1 
0.05989333541048518 21:1 109:1 49:1 136:1 81:1 152:1 170:1 2167:1 38370:1 
0.1483348360198314 12:1 96:1 53:1 125:1 56:1 164:1 169:1 5391:1 43793:1 
0.01351689724492545 12:1 96:1 53:1 125:1 68:1 164:1 169:1 7343:1 38286:1 
0.4823124757978178 25:1 96:1 50:1 124:1 56:1 165:1 169:1 9388:1 41277:1 
0.4823124757978178 25:1 109:1 28:1 136:1 56:1 163:1 179:1 18358:1 48055:1 
0.3385416923600157 21:1 109:1 51:1 137:1 81:1 152:1 170:1 9615:1 35469:1 
0.4823124757978178 25:1 96:1 28:1 126:1 56:1 144:1 169:1 9086:1 41277:1 
0.4823124757978178 12:1 96:1 52:1 138:1 81:1 152:1 176:1 5430:1 39529:1 
0.04575571738310467 25:1 108:1 41:1 124:1 80:1 166:1 169:1 15723:1 48086:1 
0.4823124757978178 25:1 85:1 32:1 134:1 68:1 166:1 169:1 21145:1 40320:1 
0.4521239490774415 12:1 85:1 41:1 134:1 80:1 166:1 172:1 15008:1 40320:1 
0.2507367621591224 13:1 85:1 52:1 134:1 68:1 166:1 177:1 23605:1 40320:1 
0.4823124757978178 12:1 107:1 50:1 138:1 57:1 140:1 169:1 14262:1 40245:1 
0.4823124757978178 8:1 109:1 28:1 135:1 56:1 152:1 170:1 16751:1 37591:1 
0.04169257082969711 23:1 109:1 53:1 116:1 81:1 165:1 170:1 19133:1 40434:1 
0.301115544561928 25:1 108:1 40:1 116:1 81:1 165:1 169:1 17738:1 29435:1 
0.098279019716909 21:1 109:1 50:1 137:1 60:1 164:1 177:1 3996:1 26470:1 
0.4823124757978178 25:1 85:1 51:1 136:1 77:1 152:1 169:1 10852:1 33358:1 
0.4823124757978178 25:1 109:1 40:1 138:1 77:1 140:1 170:1 12862:1 35608:1 
0.008674583209603867 18:1 102:1 28:1 138:1 56:1 163:1 169:1 13419:1 44402:1 
0.2380660612833731 25:1 108:1 49:1 128:1 68:1 165:1 171:1 18468:1 29435:1 
0.376523048404931 14:1 107:1 49:1 136:1 56:1 167:1 169:1 1403:1 47792:1 
0.3157631712671832 21:1 108:1 28:1 139:1 56:1 166:1 171:1 19935:1 29435:1 
0.1869407099434017 27:1 109:1 28:1 136:1 56:1 165:1 171:1 1288:1 26337:1 
0.1483858467445482 12:1 96:1 40:1 138:1 77:1 152:1 169:1 18465:1 38333:1 
0.04973063440359266 12:1 96:1 40:1 138:1 68:1 151:1 169:1 12757:1 32624:1 
0.290826002699155 12:1 108:1 40:1 137:1 77:1 152:1 176:1 13604:1 29540:1 
0.2695468085537376 12:1 109:1 49:1 124:1 56:1 152:1 180:1 11469:1 31367:1 
0.4823124757978178 25:1 96:1 49:1 138:1 56:1 165:1 170:1 6638:1 41277:1 
0.2296012901607949 21:1 109:1 28:1 124:1 56:1 166:1 186:1 4518:1 35576:1 
0.4823124757978178 25:1 109:1 40:1 116:1 81:1 165:1 169:1 11557:1 40662:1 
0.4823124757978178 25:1 109:1 40:1 123:1 81:1 162:1 170:1 15933:1 27752:1 
0.00919655634196026 12:1 96:1 53:1 137:1 81:1 166:1 169:1 16852:1 47410:1 
0.4823124757978178 12:1 96:1 28:1 137:1 56:1 151:1 170:1 13779:1 28638:1 
0.2114237355973476 12:1 96:1 39:1 137:1 81:1 151:1 170:1 13758:1 40047:1 
0.4823124757978178 25:1 96:1 49:1 136:1 81:1 152:1 170:1 5703:1 33803:1 
0.1843681287219889 21:1 109:1 53:1 124:1 56:1 152:1 177:1 22563:1 30432:1 
0.4823124757978178 12:1 96:1 53:1 138:1 81:1 140:1 170:1 13755:1 41502:1 
0.4823124757978178 25:1 109:1 28:1 113:1 56:1 164:1 170:1 6325:1 39818:1 
0.4823124757978178 12:1 96:1 46:1 115:1 81:1 165:1 170:1 10285:1 39706:1 
0.4823124757978178 12:1 96:1 53:1 136:1 68:1 152:1 171:1 10285:1 31771:1 
0.4823124757978178 1:1 108:1 53:1 138:1 68:1 140:1 169:1 23804:1 29435:1 
0.001185645142635647 12:1 96:1 53:1 123:1 81:1 151:1 169:1 24033:1 29710:1 
0.106257546230994 11:1 106:1 40:1 138:1 81:1 144:1 170:1 764:1 27482:1 
0.4045289903214253 11:1 106:1 53:1 138:1 78:1 140:1 170:1 987:1 27482:1 
0.1381433330744226 1:1 109:1 40:1 116:1 59:1 165:1 169:1 15491:1 28844:1 
0.08865769416442268 3:1 109:1 53:1 115:1 81:1 144:1 170:1 2441:1 36306:1 
0.336359984519595 9:1 96:1 49:1 124:1 60:1 153:1 170:1 23605:1 32153:1 
0.05116923241667803 12:1 96:1 52:1 136:1 81:1 152:1 169:1 10646:1 49411:1 
0.4823124757978178 12:1 96:1 40:1 138:1 74:1 152:1 170:1 8902:1 49306:1 
0.4823124757978178 12:1 96:1 46:1 138:1 56:1 152:1 171:1 7664:1 49306:1 
0.4823124757978178 12:1 96:1 46:1 137:1 56:1 161:1 179:1 24577:1 33693:1 
0.4823124757978178 8:1 96:1 49:1 115:1 77:1 152:1 170:1 11832:1 36885:1 
0.4823124757978178 12:1 96:1 31:1 113:1 68:1 152:1 170:1 12900:1 32761:1 
0.4823124757978178 12:1 98:1 31:1 137:1 68:1 152:1 171:1 8032:1 37311:1 
0.4823124757978178 3:1 98:1 40:1 137:1 77:1 152:1 174:1 8022:1 37311:1 
0.4823124757978178 25:1 97:1 42:1 137:1 68:1 164:1 170:1 10148:1 33004:1 
0.4823124757978178 25:1 105:1 32:1 114:1 68:1 152:1 169:1 21145:1 26347:1 
0.1319383200596574 4:1 105:1 40:1 114:1 68:1 152:1 170:1 5951:1 26347:1 
0.4823124757978178 21:1 109:1 28:1 138:1 56:1 152:1 172:1 10572:1 41989:1 
0.4823124757978178 21:1 105:1 28:1 116:1 56:1 165:1 171:1 3996:1 29353:1 
0.4823124757978178 21:1 109:1 28:1 138:1 56:1 165:1 175:1 21527:1 37277:1 
0.4823124757978178 25:1 109:1 53:1 124:1 56:1 164:1 169:1 2684:1 35638:1 
0.4823124757978178 25:1 109:1 28:1 124:1 56:1 164:1 171:1 12548:1 35638:1 
0.2275573535588005 12:1 96:1 40:1 138:1 77:1 144:1 169:1 10280:1 48734:1 
0.1575001056074279 18:1 96:1 40:1 136:1 77:1 152:1 171:1 13384:1 37545:1 
0.4823124757978178 12:1 96:1 49:1 136:1 56:1 152:1 172:1 19130:1 37545:1 
0.4823124757978178 25:1 109:1 53:1 114:1 68:1 164:1 169:1 8765:1 30414:1 
0.4823124757978178 25:1 109:1 40:1 114:1 68:1 164:1 172:1 10835:1 30414:1 
0.4823124757978178 12:1 96:1 31:1 135:1 68:1 141:1 170:1 17198:1 41849:1 
0.4823124757978178 12:1 85:1 53:1 136:1 68:1 152:1 175:1 5235:1 46416:1 
0.1114831313348727 4:1 85:1 53:1 136:1 81:1 152:1 169:1 6972:1 35493:1 
0.3080062803546418 12:1 92:1 53:1 124:1 56:1 144:1 169:1 16072:1 33659:1 
0.1924554497798374 8:1 96:1 53:1 116:1 56:1 141:1 169:1 8930:1 45631:1 
0.02647455602217887 12:1 85:1 53:1 138:1 56:1 152:1 170:1 20902:1 26601:1 
0.03284975918953475 12:1 85:1 29:1 138:1 81:1 143:1 170:1 20902:1 30212:1 
0.4823124757978178 25:1 109:1 28:1 133:1 56:1 164:1 169:1 2701:1 41479:1 
0.421906551571337 25:1 109:1 32:1 135:1 69:1 141:1 169:1 2919:1 46757:1 
0.4823124757978178 25:1 109:1 40:1 129:1 81:1 153:1 173:1 22028:1 41387:1 
0.1313379980623127 4:1 109:1 28:1 123:1 56:1 152:1 169:1 22115:1 41479:1 
0.4823124757978178 11:1 102:1 53:1 138:1 56:1 140:1 173:1 21276:1 39687:1 
0.4823124757978178 25:1 109:1 28:1 136:1 56:1 152:1 175:1 10008:1 26465:1 
0.2892998224889926 12:1 92:1 53:1 138:1 81:1 165:1 169:1 6141:1 46782:1 
0.4823124757978178 25:1 109:1 36:1 138:1 81:1 165:1 169:1 21145:1 44633:1 
0.4823124757978178 14:1 96:1 28:1 116:1 56:1 165:1 171:1 10937:1 45696:1 
0.4823124757978178 25:1 109:1 51:1 136:1 74:1 152:1 169:1 10239:1 46239:1 
0.1432689441215571 25:1 108:1 51:1 124:1 74:1 166:1 169:1 21510:1 48086:1 
0.08965279814901191 23:1 96:1 46:1 138:1 81:1 166:1 172:1 13426:1 32241:1 
0.3657552329242497 18:1 96:1 53:1 138:1 81:1 166:1 173:1 5878:1 32241:1 
0.337360043715227 25:1 108:1 40:1 137:1 77:1 166:1 169:1 18139:1 29540:1 
0.4823124757978178 12:1 108:1 41:1 113:1 77:1 165:1 169:1 1948:1 26501:1 
0.4823124757978178 1:1 109:1 52:1 136:1 69:1 152:1 169:1 24866:1 40573:1 
0.03865773932495884 4:1 109:1 42:1 124:1 68:1 153:1 169:1 19220:1 41479:1 
0.02085845998091348 24:1 106:1 53:1 138:1 69:1 140:1 170:1 4706:1 35644:1 
0.4823124757978178 25:1 109:1 44:1 124:1 81:1 166:1 169:1 11318:1 43235:1 
0.4823124757978178 25:1 108:1 49:1 124:1 79:1 166:1 169:1 20731:1 48086:1 
0.4823124757978178 12:1 92:1 53:1 138:1 81:1 166:1 169:1 5051:1 33725:1 
0.1962926479341872 12:1 98:1 36:1 138:1 81:1 166:1 169:1 21143:1 31007:1 
0.08668916163895685 4:1 96:1 40:1 138:1 56:1 165:1 171:1 17846:1 49306:1 
0.01407810752313136 12:1 96:1 53:1 136:1 56:1 152:1 169:1 6525:1 43240:1 
0.4823124757978178 12:1 96:1 53:1 138:1 56:1 144:1 171:1 13445:1 33996:1 
0.01838242595476179 12:1 96:1 53:1 138:1 81:1 165:1 169:1 5581:1 37788:1 
0.4823124757978178 25:1 109:1 40:1 138:1 81:1 165:1 169:1 22379:1 32315:1 
0.1106111768980698 12:1 96:1 49:1 137:1 81:1 152:1 169:1 3920:1 29710:1 
0.4823124757978178 21:1 109:1 53:1 124:1 81:1 165:1 171:1 10902:1 42859:1 
0.4823124757978178 25:1 109:1 53:1 124:1 81:1 165:1 172:1 23487:1 42859:1 
0.1526371188856407 12:1 93:1 28:1 137:1 56:1 152:1 169:1 4841:1 31253:1 
0.2297285327200551 9:1 109:1 28:1 124:1 56:1 152:1 169:1 6524:1 28570:1 
0.1146291971072704 12:1 96:1 53:1 137:1 56:1 165:1 169:1 16685:1 44785:1 
0.4823124757978178 25:1 109:1 40:1 138:1 81:1 158:1 169:1 3641:1 31545:1 
0.0991420017260906 12:1 85:1 46:1 138:1 56:1 152:1 170:1 14484:1 27327:1 
0.1021614372234594 12:1 109:1 29:1 123:1 56:1 162:1 171:1 23376:1 34581:1 
0.106076605177045 23:1 103:1 50:1 116:1 81:1 148:1 169:1 23048:1 31116:1 
0.4823124757978178 19:1 92:1 50:1 138:1 81:1 144:1 170:1 6387:1 41026:1 
0.3691766735587378 19:1 96:1 46:1 138:1 56:1 161:1 170:1 8250:1 39695:1 
0.4053303776159503 18:1 96:1 28:1 138:1 56:1 161:1 171:1 19427:1 39695:1 
0.1921058245864014 12:1 109:1 28:1 138:1 56:1 144:1 176:1 14966:1 33458:1 
0.4823124757978178 25:1 109:1 42:1 136:1 56:1 166:1 171:1 23164:1 48771:1 
0.1671777130923957 12:1 109:1 28:1 131:1 56:1 152:1 174:1 23022:1 45390:1 
0.2484879018122938 12:1 88:1 52:1 137:1 56:1 153:1 169:1 16548:1 44553:1 
0.4823124757978178 25:1 97:1 28:1 138:1 56:1 165:1 169:1 8564:1 36427:1 
0.185616747917808 17:1 101:1 28:1 124:1 56:1 152:1 169:1 7911:1 44986:1 
0.03513795442277786 12:1 109:1 28:1 124:1 56:1 163:1 172:1 8134:1 46465:1 
0.3433090496603892 25:1 108:1 28:1 135:1 56:1 158:1 170:1 11562:1 29435:1 
0.4823124757978178 25:1 109:1 51:1 136:1 80:1 166:1 170:1 5991:1 31325:1 
0.109129051928069 4:1 109:1 53:1 133:1 56:1 163:1 169:1 10121:1 41479:1 
0.4823124757978178 25:1 109:1 28:1 133:1 56:1 163:1 170:1 10980:1 41479:1 
0.2028131869575822 23:1 106:1 49:1 138:1 81:1 152:1 170:1 23048:1 29677:1 
0.2898016691276127 21:1 109:1 29:1 136:1 59:1 157:1 170:1 21527:1 48247:1 
0.4823124757978178 1:1 109:1 31:1 136:1 56:1 157:1 171:1 22613:1 48247:1 
0.284956030790214 21:1 109:1 45:1 113:1 59:1 164:1 173:1 21663:1 27024:1 
0.4823124757978178 25:1 109:1 40:1 138:1 68:1 165:1 169:1 21728:1 31325:1 
0.05473267238026806 12:1 96:1 53:1 137:1 81:1 164:1 169:1 10893:1 48269:1 
0.4823124757978178 25:1 109:1 53:1 136:1 68:1 165:1 171:1 9580:1 26893:1 
0.4823124757978178 25:1 109:1 53:1 138:1 68:1 152:1 170:1 2164:1 31325:1 
0.2352643472415187 12:1 92:1 53:1 137:1 81:1 164:1 169:1 12154:1 42102:1 
0.4823124757978178 8:1 109:1 53:1 136:1 81:1 165:1 169:1 17373:1 29128:1 
0.4823124757978178 25:1 109:1 53:1 138:1 81:1 140:1 170:1 4399:1 31325:1 
0.3492642487880444 17:1 96:1 41:1 124:1 81:1 153:1 171:1 8115:1 44520:1 
0.4823124757978178 12:1 97:1 41:1 116:1 81:1 165:1 170:1 19791:1 48334:1 
0.4823124757978178 25:1 109:1 28:1 123:1 56:1 162:1 179:1 9910:1 46757:1 
0.4823124757978178 21:1 109:1 50:1 137:1 81:1 152:1 169:1 2086:1 37976:1 
0.4823124757978178 12:1 96:1 53:1 138:1 81:1 152:1 174:1 15140:1 28127:1 
0.0539444640230879 17:1 96:1 28:1 116:1 56:1 165:1 173:1 8098:1 29589:1 
0.02578341848943226 21:1 109:1 40:1 128:1 81:1 152:1 170:1 22563:1 44870:1 
0.04693253682602924 1:1 95:1 53:1 134:1 81:1 164:1 169:1 10167:1 39296:1 
0.02916438427063535 12:1 96:1 40:1 124:1 80:1 166:1 169:1 16565:1 41745:1 
0.4823124757978178 12:1 96:1 52:1 124:1 81:1 166:1 171:1 18252:1 41745:1 
0.02977538949615391 12:1 96:1 28:1 124:1 56:1 165:1 169:1 16334:1 45000:1 
0.4214287332163721 17:1 101:1 53:1 138:1 68:1 151:1 169:1 6505:1 33149:1 
0.08450486577272526 25:1 109:1 31:1 137:1 56:1 165:1 170:1 21145:1 31532:1 
0.4823124757978178 25:1 108:1 42:1 137:1 69:1 166:1 169:1 5246:1 29540:1 
0.4823124757978178 12:1 96:1 53:1 137:1 56:1 144:1 169:1 12154:1 31326:1 
0.4823124757978178 25:1 109:1 40:1 136:1 81:1 152:1 170:1 21145:1 44633:1 
0.01279997415792249 12:1 109:1 53:1 136:1 56:1 152:1 171:1 6597:1 44633:1 
0.4823124757978178 25:1 109:1 40:1 124:1 81:1 166:1 169:1 10639:1 35987:1 
0.004247580718682116 18:1 102:1 45:1 124:1 71:1 161:1 169:1 610:1 25975:1 
0.241656205260414 17:1 101:1 49:1 124:1 68:1 143:1 169:1 13743:1 33176:1 
0.4823124757978178 12:1 85:1 49:1 136:1 68:1 152:1 173:1 7336:1 29964:1 
0.3009731408649447 17:1 96:1 41:1 130:1 77:1 144:1 172:1 13867:1 32065:1 
0.1061356314265879 12:1 109:1 41:1 116:1 77:1 165:1 171:1 7336:1 28436:1 
0.4823124757978178 17:1 93:1 28:1 137:1 56:1 165:1 171:1 7544:1 31253:1 
0.3585929016776676 9:1 96:1 36:1 138:1 81:1 151:1 171:1 23605:1 32368:1 
0.4823124757978178 8:1 109:1 53:1 136:1 56:1 142:1 181:1 10178:1 29417:1 
0.4823124757978178 25:1 109:1 28:1 123:1 56:1 144:1 169:1 24649:1 33314:1 
0.4823124757978178 25:1 109:1 32:1 129:1 68:1 152:1 170:1 10008:1 33748:1 
0.04528934688022381 12:1 97:1 52:1 120:1 77:1 166:1 169:1 6689:1 40628:1 
0.4823124757978178 21:1 92:1 40:1 138:1 68:1 165:1 173:1 22563:1 32006:1 
0.4823124757978178 22:1 109:1 28:1 123:1 56:1 162:1 178:1 2753:1 28841:1 
0.1679689255991879 25:1 108:1 28:1 137:1 56:1 166:1 169:1 7427:1 29435:1 
0.4686829944573575 25:1 109:1 40:1 137:1 56:1 163:1 169:1 8765:1 30930:1 
0.4823124757978178 12:1 96:1 53:1 138:1 81:1 144:1 171:1 12423:1 28399:1 
0.3894726358900517 12:1 109:1 53:1 115:1 81:1 156:1 170:1 3269:1 48869:1 
0.4823124757978178 25:1 109:1 42:1 126:1 56:1 152:1 169:1 22087:1 41132:1 
0.2732184684275253 14:1 96:1 53:1 138:1 56:1 154:1 169:1 21198:1 34534:1 
0.0127093305715899 4:1 109:1 40:1 129:1 68:1 141:1 169:1 22312:1 41479:1 
0.4823124757978178 25:1 109:1 40:1 135:1 81:1 159:1 169:1 8584:1 34515:1 
0.05879782794640765 22:1 96:1 53:1 115:1 56:1 151:1 170:1 24561:1 30631:1 
0.4823124757978178 1:1 101:1 53:1 115:1 56:1 157:1 169:1 4175:1 35513:1 
0.4823124757978178 17:1 106:1 53:1 137:1 56:1 144:1 172:1 10784:1 33129:1 
0.4775695415746323 22:1 96:1 53:1 136:1 56:1 152:1 174:1 8400:1 40043:1 
0.01260178342408162 4:1 109:1 40:1 129:1 81:1 152:1 169:1 21176:1 41479:1 
0.4123440505348237 17:1 96:1 53:1 124:1 81:1 153:1 170:1 1382:1 40793:1 
0.4823124757978178 25:1 109:1 28:1 113:1 56:1 152:1 176:1 4624:1 37440:1 
0.0178011924519358 22:1 96:1 53:1 115:1 81:1 163:1 170:1 18076:1 28547:1 
0.4823124757978178 25:1 109:1 31:1 123:1 68:1 162:1 169:1 5249:1 28899:1 
0.1640890549735525 25:1 109:1 40:1 124:1 81:1 166:1 169:1 13588:1 42001:1 
0.4823124757978178 25:1 109:1 46:1 133:1 56:1 163:1 169:1 9974:1 27087:1 
0.4823124757978178 25:1 85:1 40:1 137:1 56:1 141:1 171:1 17260:1 28904:1 
0.4823124757978178 12:1 85:1 28:1 137:1 56:1 141:1 174:1 4214:1 28904:1 
0.4823124757978178 25:1 85:1 29:1 112:1 56:1 140:1 171:1 17260:1 44725:1 
0.3769680179355016 16:1 96:1 53:1 138:1 56:1 140:1 170:1 7705:1 31879:1 
0.09653783793679188 4:1 85:1 49:1 137:1 56:1 166:1 169:1 2561:1 43359:1 
0.4823124757978178 1:1 109:1 49:1 138:1 56:1 158:1 169:1 18630:1 43004:1 
0.00598144030226498 12:1 96:1 46:1 124:1 81:1 144:1 169:1 15174:1 44626:1 
0.251548378759728 12:1 96:1 46:1 116:1 81:1 161:1 169:1 19897:1 31326:1 
0.4823124757978178 1:1 95:1 49:1 124:1 60:1 165:1 169:1 10167:1 25599:1 
0.110875016246521 11:1 106:1 40:1 138:1 68:1 165:1 170:1 1097:1 38063:1 
0.04704336588175954 12:1 96:1 53:1 123:1 78:1 151:1 169:1 17183:1 40824:1 
0.1100917620306868 11:1 106:1 40:1 138:1 81:1 140:1 170:1 608:1 28480:1 
0.127219461550584 1:1 96:1 53:1 123:1 56:1 162:1 169:1 3395:1 31326:1 
0.303680291877109 21:1 109:1 45:1 137:1 74:1 166:1 169:1 2086:1 37976:1 
0.379855764878092 12:1 96:1 53:1 138:1 81:1 143:1 169:1 24090:1 44616:1 
0.07462004025696287 4:1 109:1 40:1 124:1 77:1 166:1 169:1 8579:1 41479:1 
0.4823124757978178 25:1 109:1 28:1 123:1 56:1 162:1 172:1 5281:1 41479:1 
0.4823124757978178 25:1 96:1 51:1 123:1 56:1 162:1 169:1 23176:1 32152:1 
0.0851574806889719 23:1 96:1 28:1 123:1 56:1 162:1 171:1 14418:1 32152:1 
0.05075515350114618 4:1 109:1 50:1 123:1 68:1 143:1 172:1 6093:1 47410:1 
0.08631263407590975 12:1 96:1 53:1 124:1 67:1 141:1 169:1 7802:1 41965:1 
0.05497219477082974 12:1 96:1 53:1 113:1 67:1 152:1 169:1 17236:1 36469:1 
0.3259854386239229 25:1 108:1 28:1 139:1 56:1 152:1 174:1 10592:1 29435:1 
0.4823124757978178 12:1 96:1 28:1 138:1 56:1 165:1 171:1 20915:1 32462:1 
0.161377131528911 12:1 109:1 53:1 136:1 81:1 151:1 175:1 2784:1 31971:1 
0.4823124757978178 25:1 100:1 53:1 124:1 56:1 166:1 169:1 10476:1 39381:1 
0.2291905603717351 9:1 96:1 28:1 136:1 56:1 152:1 170:1 16517:1 42841:1 
0.3536399611568391 13:1 96:1 49:1 123:1 60:1 152:1 170:1 19438:1 41501:1 
0.1348133043750523 22:1 109:1 53:1 116:1 59:1 165:1 170:1 13635:1 33316:1 
0.4823124757978178 25:1 109:1 31:1 116:1 68:1 165:1 172:1 10980:1 33316:1 
0.4823124757978178 12:1 96:1 52:1 138:1 81:1 140:1 170:1 3544:1 30432:1 
0.4823124757978178 25:1 96:1 50:1 138:1 68:1 140:1 169:1 20970:1 30448:1 
0.4823124757978178 12:1 96:1 52:1 138:1 81:1 140:1 172:1 19576:1 30448:1 
0.4749491494562389 21:1 109:1 28:1 138:1 56:1 151:1 172:1 5436:1 34321:1 
0.05355820062050602 12:1 109:1 53:1 138:1 81:1 152:1 170:1 10045:1 44345:1 
0.2241439669095737 12:1 96:1 52:1 124:1 81:1 144:1 169:1 8650:1 41567:1 
0.02974250229718933 24:1 96:1 53:1 116:1 81:1 144:1 171:1 4706:1 34103:1 
0.02560878747887514 11:1 106:1 32:1 137:1 68:1 166:1 169:1 11955:1 28707:1 
0.2507957517938618 12:1 109:1 53:1 138:1 81:1 143:1 173:1 9374:1 44344:1 
0.3381559214627728 12:1 96:1 28:1 124:1 56:1 144:1 169:1 16334:1 40793:1 
0.241087069463638 1:1 96:1 50:1 137:1 81:1 163:1 169:1 17846:1 29792:1 
0.1781685103732897 22:1 96:1 53:1 137:1 81:1 163:1 170:1 22296:1 29792:1 
0.4823124757978178 25:1 96:1 40:1 136:1 81:1 152:1 170:1 2863:1 39213:1 
0.4823124757978178 12:1 96:1 53:1 136:1 68:1 152:1 171:1 15172:1 39213:1 
0.4823124757978178 25:1 109:1 40:1 124:1 81:1 166:1 170:1 13588:1 36888:1 
0.2640923459560267 12:1 109:1 53:1 124:1 68:1 166:1 171:1 23376:1 36888:1 
0.4823124757978178 25:1 96:1 39:1 137:1 77:1 144:1 169:1 5056:1 35066:1 
0.3222163975838634 11:1 96:1 49:1 137:1 68:1 144:1 171:1 346:1 35066:1 
0.4823124757978178 25:1 109:1 40:1 137:1 77:1 166:1 172:1 10187:1 39835:1 
0.4207341694895224 21:1 109:1 28:1 137:1 56:1 166:1 184:1 5436:1 39835:1 
0.4823124757978178 21:1 109:1 28:1 124:1 56:1 165:1 170:1 18895:1 49378:1 
0.4823124757978178 25:1 109:1 28:1 120:1 56:1 166:1 170:1 24649:1 28639:1 
0.2116336077274571 12:1 109:1 36:1 138:1 81:1 152:1 172:1 19045:1 30398:1 
0.07276215076140398 22:1 96:1 53:1 115:1 81:1 141:1 170:1 13198:1 31779:1 
0.01629999893637547 11:1 106:1 53:1 124:1 68:1 165:1 170:1 890:1 37927:1 
0.4823124757978178 25:1 109:1 49:1 125:1 56:1 163:1 169:1 20682:1 34693:1 
0.2800370491025947 13:1 96:1 49:1 138:1 56:1 152:1 173:1 8275:1 47761:1 
0.4645976569182252 9:1 93:1 51:1 138:1 68:1 148:1 169:1 15302:1 27841:1 
0.4823124757978178 23:1 93:1 40:1 138:1 68:1 148:1 170:1 6920:1 27841:1 
0.4823124757978178 12:1 93:1 40:1 138:1 77:1 148:1 171:1 19130:1 27841:1 
0.3577760364156975 21:1 109:1 28:1 124:1 56:1 152:1 194:1 17552:1 34877:1 
0.1479841725664242 12:1 96:1 53:1 138:1 56:1 140:1 169:1 8600:1 45411:1 
0.01963073438861665 12:1 96:1 49:1 137:1 79:1 166:1 169:1 20721:1 41334:1 
0.0842752757989738 12:1 96:1 49:1 116:1 56:1 144:1 169:1 14040:1 33147:1 
0.4823124757978178 21:1 96:1 28:1 116:1 56:1 144:1 170:1 23515:1 33147:1 
0.1312871315316685 12:1 96:1 53:1 136:1 56:1 166:1 169:1 4280:1 41710:1 
0.4823124757978178 12:1 108:1 53:1 138:1 56:1 144:1 169:1 16981:1 46122:1 
0.05975477026391417 4:1 88:1 32:1 137:1 80:1 152:1 169:1 8920:1 27423:1 
0.4823124757978178 4:1 88:1 52:1 137:1 81:1 152:1 170:1 21522:1 27423:1 
0.3182378629330504 11:1 106:1 28:1 123:1 56:1 166:1 169:1 12324:1 31625:1 
0.4823124757978178 22:1 95:1 28:1 138:1 56:1 142:1 169:1 6896:1 45952:1 
0.03647000486852221 12:1 96:1 40:1 115:1 68:1 152:1 169:1 8740:1 48079:1 
0.4823124757978178 25:1 109:1 50:1 116:1 68:1 165:1 170:1 18177:1 41387:1 
0.4823124757978178 25:1 96:1 53:1 137:1 78:1 151:1 169:1 16971:1 30194:1 
0.1969753111791289 11:1 106:1 53:1 124:1 81:1 152:1 171:1 255:1 44654:1 
0.4677681174729503 25:1 97:1 49:1 138:1 56:1 163:1 170:1 9383:1 43272:1 
0.3452855376964232 21:1 109:1 28:1 113:1 56:1 162:1 175:1 3731:1 39818:1 
0.2213583811814699 1:1 106:1 53:1 124:1 56:1 152:1 169:1 5483:1 44654:1 
0.03865524695782968 12:1 96:1 53:1 138:1 78:1 152:1 169:1 3408:1 43904:1 
0.4823124757978178 25:1 109:1 40:1 124:1 68:1 166:1 169:1 2325:1 35469:1 
0.04442520571970528 12:1 109:1 40:1 124:1 68:1 166:1 170:1 8407:1 35469:1 
0.01027695877298239 12:1 109:1 28:1 136:1 56:1 152:1 177:1 18549:1 34451:1 
0.4823124757978178 14:1 107:1 28:1 137:1 56:1 161:1 169:1 12582:1 28696:1 
0.01867336994208568 18:1 102:1 49:1 129:1 81:1 152:1 169:1 2150:1 44380:1 
0.4823124757978178 21:1 98:1 42:1 115:1 74:1 154:1 169:1 22200:1 38298:1 
0.1737020156866554 21:1 109:1 53:1 124:1 56:1 166:1 180:1 18895:1 49391:1 
0.4823124757978178 9:1 106:1 49:1 137:1 60:1 165:1 174:1 12890:1 30604:1 
0.4823124757978178 12:1 96:1 53:1 136:1 77:1 152:1 171:1 2793:1 42326:1 
0.4823124757978178 21:1 109:1 53:1 137:1 68:1 143:1 177:1 5436:1 40871:1 
0.4823124757978178 25:1 109:1 40:1 124:1 56:1 166:1 170:1 18130:1 35363:1 
0.4823124757978178 4:1 109:1 28:1 133:1 56:1 151:1 169:1 17846:1 41479:1 
0.1571214453071172 11:1 96:1 49:1 138:1 81:1 166:1 172:1 21387:1 34616:1 
0.1426711962833688 12:1 92:1 40:1 138:1 77:1 140:1 171:1 19243:1 42268:1 
0.2619487086980218 12:1 96:1 53:1 124:1 79:1 164:1 169:1 7829:1 29570:1 
0.4823124757978178 25:1 109:1 51:1 138:1 56:1 149:1 174:1 22346:1 41989:1 
0.1251429967545185 9:1 96:1 53:1 133:1 56:1 152:1 170:1 12890:1 35411:1 
0.0993065215331895 12:1 109:1 53:1 136:1 56:1 151:1 172:1 10682:1 43054:1 
0.2252889032717842 25:1 108:1 53:1 123:1 56:1 165:1 169:1 18325:1 29435:1 
0.0867981107421659 11:1 96:1 52:1 115:1 81:1 165:1 172:1 4260:1 41314:1 
0.4823124757978178 25:1 96:1 31:1 137:1 68:1 161:1 170:1 18938:1 41277:1 
0.4823124757978178 25:1 109:1 40:1 136:1 68:1 142:1 169:1 23623:1 42082:1 
0.07391734734925191 12:1 109:1 53:1 136:1 81:1 142:1 172:1 22168:1 42082:1 
0.2429983495363308 25:1 108:1 53:1 114:1 68:1 152:1 176:1 22634:1 29435:1 
0.05247601553872858 18:1 102:1 53:1 136:1 56:1 157:1 169:1 610:1 25877:1 
0.4823124757978178 12:1 100:1 52:1 138:1 81:1 156:1 170:1 16901:1 34621:1 
0.4823124757978178 24:1 100:1 53:1 138:1 56:1 156:1 172:1 4706:1 34621:1 
0.4823124757978178 25:1 109:1 40:1 124:1 72:1 165:1 172:1 13898:1 31971:1 
0.4235438863695575 12:1 109:1 44:1 124:1 81:1 165:1 173:1 16786:1 31971:1 
0.4823124757978178 25:1 109:1 40:1 125:1 59:1 151:1 169:1 8765:1 44810:1 
0.163338049461898 13:1 106:1 53:1 138:1 56:1 143:1 170:1 14616:1 38364:1 
0.4823124757978178 25:1 109:1 31:1 116:1 78:1 165:1 170:1 12862:1 40136:1 
0.4823124757978178 25:1 109:1 40:1 113:1 56:1 152:1 169:1 10798:1 28436:1 
0.02552946246539662 18:1 102:1 31:1 129:1 56:1 152:1 169:1 610:1 25929:1 
0.4823124757978178 25:1 109:1 53:1 121:1 77:1 153:1 169:1 8474:1 41479:1 
0.3860989785925419 9:1 97:1 53:1 133:1 81:1 152:1 169:1 5648:1 48334:1 
0.1914528801227295 12:1 100:1 49:1 137:1 69:1 164:1 169:1 21991:1 34027:1 
0.3713868141330218 21:1 109:1 41:1 136:1 81:1 165:1 171:1 3996:1 29393:1 
0.4823124757978178 25:1 109:1 52:1 136:1 81:1 163:1 170:1 18913:1 37586:1 
0.4823124757978178 25:1 108:1 53:1 137:1 56:1 166:1 169:1 14927:1 29540:1 
0.4823124757978178 25:1 109:1 40:1 116:1 81:1 141:1 169:1 11788:1 41479:1 
0.07646726329556768 17:1 99:1 28:1 133:1 56:1 151:1 169:1 15801:1 26678:1 
0.2221162417288366 21:1 109:1 43:1 129:1 56:1 155:1 170:1 21527:1 47542:1 
0.2694791443047238 15:1 109:1 28:1 129:1 56:1 155:1 171:1 1949:1 47542:1 
0.09669649152151527 17:1 99:1 53:1 138:1 56:1 158:1 169:1 9637:1 38195:1 
0.01230896657259907 21:1 109:1 46:1 127:1 71:1 165:1 172:1 22563:1 34849:1 
0.4823124757978178 25:1 109:1 43:1 133:1 81:1 151:1 170:1 10120:1 38627:1 
0.4823124757978178 25:1 109:1 40:1 113:1 81:1 166:1 169:1 10787:1 34260:1 
0.1835997291802917 12:1 96:1 28:1 124:1 56:1 144:1 169:1 11838:1 41050:1 
0.02481501816047896 12:1 96:1 28:1 116:1 56:1 165:1 169:1 16321:1 41478:1 
0.4823124757978178 25:1 108:1 32:1 133:1 79:1 149:1 169:1 10807:1 29540:1 
0.2019031740408573 24:1 105:1 32:1 121:1 79:1 165:1 169:1 4811:1 44666:1 
0.3709328692705972 9:1 109:1 49:1 129:1 60:1 152:1 169:1 7659:1 48783:1 
0.4823124757978178 25:1 96:1 49:1 136:1 60:1 152:1 170:1 24054:1 29570:1 
0.4261590043763134 23:1 105:1 53:1 138:1 66:1 154:1 169:1 19126:1 30165:1 
0.4823124757978178 18:1 106:1 53:1 137:1 68:1 165:1 170:1 24608:1 28707:1 
0.4823124757978178 25:1 109:1 40:1 137:1 81:1 149:1 172:1 19906:1 29448:1 
0.4823124757978178 25:1 109:1 51:1 124:1 77:1 152:1 171:1 4025:1 34448:1 
0.4823124757978178 25:1 96:1 49:1 138:1 56:1 152:1 170:1 9719:1 41277:1 
0.1323124027122749 21:1 109:1 28:1 137:1 56:1 151:1 181:1 4518:1 36746:1 
0.03763654592235857 4:1 92:1 40:1 136:1 81:1 166:1 169:1 13527:1 35843:1 
0.4823124757978178 25:1 109:1 52:1 124:1 64:1 166:1 172:1 12862:1 49415:1 
